svm_type c_svc
kernel_type polynomial
degree 3
gamma 0.0277778
coef0 0
nr_class 91
total_sv 1089
rho 0.759946 -1.07385 -1.00159 -0.72038 0.827267 1.02286 0.639047 -1.12612 0.964536 0.921592 0.49444 0.742327 0.362702 0.850424 0.955392 0.443497 0.842491 -0.422438 -0.975565 -0.600073 0.700426 1.07724 -0.992596 0.481012 -1.01155 -0.78924 -0.497206 -0.834009 -0.921734 0.418632 1.00561 0.550804 0.461271 1.14801 0.242517 0.471494 0.0761823 0.771686 0.712035 1.28922 1.13751 0.814973 0.874855 1.00629 1.05943 0.933687 1.01188 0.980056 0.488197 1.08767 0.774652 0.863177 1.17432 1.10328 0.832131 0.820363 0.925213 -0.978883 -0.743992 0.7459 -0.331825 -0.140486 -0.744841 0.974102 1.04488 -1.01701 -0.894248 -0.725975 -0.970224 -0.948767 -0.912247 -0.917064 -0.97591 -0.977394 -1.05173 -0.961427 -1.06661 -1.00769 -1.16053 -0.997905 -0.930378 -0.316967 -1.08766 -1.12287 -0.962759 -1.13127 -0.977582 -0.999733 -1.15618 -1.06553 -1.41852 -1.08376 -1.19783 0.570535 0.126004 -0.397994 -1.17953 0.324127 -0.387867 -0.464255 -0.27414 -0.734905 0.389292 0.75921 -0.548668 0.174742 -0.876759 -1.22783 -1.16012 -0.0948419 0.787254 -1.00148 0.093226 -2.21698 -1.02414 -1.30465 -1.06244 -1.32904 -1.12645 0.793053 -0.605333 -0.598022 1.18394 -1.07659 -0.649173 -0.880406 0.00647014 -0.403241 0.939479 0.608767 0.0624477 0.729906 0.405025 0.504976 0.344069 0.781536 0.751246 -0.583434 0.532543 0.190085 0.610812 0.488239 0.524147 0.516811 0.705146 -0.150836 -1.19957 -1.04815 -0.224777 -0.891698 -0.851554 -0.814095 0.409114 0.267463 -1.88382 -1.00264 -0.937359 -1.08569 -1.15272 -1.11225 -1.04003 -1.14668 -1.08637 -1.1758 -1.07138 -1.29679 -1.9162 -1.99017 -1.65914 -1.19507 -1.01461 -1.53051 -1.31279 -1.20292 -1.18886 -1.20518 -1.06237 -1.27914 -1.21547 -0.775708 0.921678 1.59539 1.14679 0.986373 -0.985118 1.06392 1.0556 1.24141 1.00656 1.1492 1.25811 1.00134 0.995016 1.07184 0.948305 0.104056 0.929525 1.21369 1.13235 0.352549 0.991508 1.17042 0.988364 1.06491 0.994386 0.701841 1.00863 1.21022 0.995706 0.969242 1.29928 1.09607 1.10709 0.977636 1.10319 1.00232 1.17515 1.12318 1.11187 1.14271 1.02298 1.20335 1.01576 1.12505 1.18049 1.10944 1.09434 1.12734 1.0652 1.147 1.03914 1.25272 1.00502 1.09647 0.0998341 0.976835 0.994065 0.979514 0.987576 1.04207 1.16529 1.17996 -0.187258 0.971017 0.939117 0.396431 0.824044 0.750575 0.700354 0.823992 0.647483 0.792206 0.867564 0.822097 -0.0130252 1.32557 -0.441108 0.676308 1.15348 0.215922 -0.290095 1.10273 -1.01186 0.738727 0.0423582 -0.207447 -0.271235 1.00173 1.0728 1.00278 1.05656 0.212085 1.08709 1.00229 1.02631 1.03909 1.07496 1.004 0.999044 1.03428 1.05784 1.03198 0.901655 1.0495 1.024 1.05849 0.856979 1.01218 0.984702 1.01187 0.995174 1.0071 1.00349 1.00191 1.04361 1.00048 0.999735 1.07581 1.06008 1.02857 1.07171 1.07465 1.03222 1.07679 1.09457 1.05409 1.08472 1.06047 1.05471 1.02645 1.05272 1.05728 1.11175 1.03025 1.10683 1.0782 1.06278 1.06538 1.02099 1.12569 1.05237 0.922393 1.04576 1.07575 1.04334 1.07485 1.07704 1.00348 1.05512 0.827745 1.1065 1.06063 0.995648 1.04603 1.03489 1.05419 1.00343 1.01168 0.99562 1.01881 1.04663 0.886538 0.984734 0.708918 1.01174 0.996094 0.960655 0.690165 0.964781 0.125398 0.966997 0.785695 0.732245 0.737538 1.28872 1.06613 0.857081 -1.00387 1.11811 1.04258 1.14809 1.01487 1.07301 0.989515 0.998261 0.928878 0.915845 0.353881 -0.920913 -0.21421 0.921478 1.06096 -0.858859 1.05291 -0.217906 0.22565 0.394854 -0.377881 -1.13547 1.03914 1.25529 1.13355 1.24379 1.26227 0.886596 0.942904 1.00503 1.20507 1.22119 1.0806 1.15644 0.97948 1.09881 0.98875 1.06089 1.07034 1.03646 1.0221 0.895104 1.11521 0.942134 1.00524 1.19595 1.07494 1.03825 1.17113 0.977521 -0.916654 -0.0900051 0.966549 0.85932 0.605866 -0.0406698 1.16072 0.911403 -1.03751 -0.287614 0.165841 -1.01449 -0.754867 -0.932121 -0.727717 -0.922606 -0.817663 -0.910219 -0.64688 -0.817711 -1.07422 -0.646247 -0.99952 -1.13673 0.627095 -0.892056 -1.00105 -0.522517 -1.01786 -0.880365 -0.925622 -0.958467 -0.969149 -0.286999 -0.531592 -1.37204 -0.197087 -0.621604 -0.690298 -0.416297 -0.737418 0.10129 0.347707 -0.758039 -0.212205 -0.932664 -1.02649 -1.10541 -0.368425 0.401101 -0.99778 -0.645271 -2.37287 -1.1074 -1.33486 -1.05397 -1.5682 -0.96961 1.0702 -0.927004 -0.868491 0.96018 -0.915541 -0.721209 -0.958188 -0.796813 -0.65017 1.64194 0.16314 -0.546582 0.289533 0.0388501 0.0873242 -0.202868 0.615606 1.53626 -1.00719 0.223806 -0.0454782 -0.109067 0.444371 0.266124 -0.31813 0.00155427 -0.597828 -1.04041 -1.0986 -0.637154 -1.01543 -1.18022 -1.05969 0.0779047 -0.133279 -1.25555 -1.40659 -1.18501 -1.3405 -1.37255 -1.46156 -1.19649 -1.19029 -1.08183 -1.14366 -1.15157 -2.16007 -1.21593 -0.983395 -1.18092 -1.60264 -1.74188 -1.99303 -1.37484 -0.96924 -1.55031 -1.38004 -1.02956 -1.16843 -1.17049 -0.160269 -1.29865 0.170026 -0.184648 -0.458733 -0.165944 -0.65983 0.0703776 0.500403 -0.540632 -0.0369085 -0.930482 -0.998159 -0.973181 -0.351563 0.953812 -0.99585 -0.543447 -1.7184 -1.14077 -1.0679 -1.01756 -1.03978 -0.974318 0.597727 -0.70034 -0.644001 0.635731 -0.727965 -0.625386 -0.807922 -0.152332 -0.638797 0.725903 0.733359 0.146363 0.211993 0.574196 0.965785 0.672143 1.00114 0.803436 -0.402127 0.895636 -0.0302238 0.355865 0.296223 0.86742 0.0914151 0.213592 -0.116137 -0.998033 -1.06296 -0.589898 -1.05262 -0.974408 -0.943694 0.405832 0.118701 -1.01296 -1.1055 -1.01479 -1.01554 -1.06569 -1.05941 -1.03745 -1.08735 -1.04878 -1.07266 -1.03312 -1.14805 -1.01341 -1.06273 -1.00451 -1.02637 -1.02841 -1.12593 -1.76815 -1.02125 -1.16519 -1.02194 -1.0171 -1.11563 -1.13854 -1.63655 0.170406 -0.0566935 -0.146204 0.226647 -0.30459 0.395932 0.72429 -0.372598 0.147381 -0.858973 -1.03675 -1.13189 0.179247 0.785936 -0.991279 -0.362392 -0.778925 -0.929627 -0.640081 -1.06691 -1.04153 -0.43621 0.61806 -0.430986 -0.16311 0.738976 -0.684581 -0.268132 -0.70239 0.187713 -0.0699948 0.727601 0.515793 0.563261 0.704751 0.683092 0.635636 0.451176 0.783296 0.719167 0.0634715 0.526307 0.480825 0.616969 0.523977 0.613359 0.575639 0.813374 0.0627629 -1.0645 -0.94991 -0.259913 -0.777658 -0.731248 -0.904203 0.519635 0.268433 -1.12213 -0.908192 -0.909603 -1.02319 -0.987604 -0.98325 -1.00945 -0.978301 -1.05407 -1.02738 -1.04904 -0.923985 -1.49544 -0.928082 -1.06281 -1.01017 -0.383166 -1.02381 -1.5931 -0.943035 -1.44433 -1.06428 -0.990597 -0.992557 -0.992001 1.07519 2.23197 1.18534 1.72239 1.3877 1.22664 1.01096 1.17952 1.4842 0.99043 0.731137 0.992969 1.27211 1.31356 0.826272 0.998628 1.17107 1.10631 1.09445 1.07741 0.947323 1.03806 1.31833 1.07175 1.01662 1.30004 2.46622 1.18402 1.07765 1.32743 1.02728 1.29196 1.25176 1.13523 1.26309 1.29319 1.24021 1.83153 1.38248 1.37056 1.34091 1.20459 1.25472 1.22698 1.29227 1.2678 1.12428 1.0999 1.31823 0.731073 1.39552 1.07055 1.11596 1.08759 1.09281 1.09499 1.26646 0.614627 1.09925 1.08064 0.847473 1.07299 0.948485 0.933581 0.993492 0.933542 1.07401 1.04905 1.33039 0.692743 1.28128 0.336788 0.938802 1.10694 1.14444 2.43044 1.07059 -0.859227 1.08345 0.875965 0.983842 1.04231 -0.604368 -0.687811 -0.22484 -0.966211 -0.00281497 0.437155 -0.549207 -0.106228 -0.944808 -0.986339 -1.08672 -0.683887 0.973911 -0.993574 -0.375547 -1.01413 -1.26534 -1.03914 -1.66668 -1.15097 -1.19799 0.276715 -1.05615 -0.81024 0.594284 -0.852039 -0.692384 -0.826069 -0.427134 -1.0497 0.624489 0.597037 0.104267 0.119674 0.397309 0.973432 0.462183 0.852555 0.564829 -0.757251 0.912265 -0.122332 0.113983 0.232806 0.699858 0.340129 0.544148 -0.304069 -1.0696 -1.02888 -0.684104 -1.18999 -1.01803 -0.962632 0.429547 -0.0212893 -1.12302 -1.12031 -0.992938 -1.04407 -1.10309 -1.07319 -1.05231 -1.11605 -1.13004 -1.30498 -1.84492 -1.59971 -1.12074 -1.19255 -1.03752 -1.09195 -0.981469 -1.40475 -1.1576 -1.00943 -1.06181 -1.10947 -1.04276 -1.18767 -1.27443 -0.373257 0.598268 -0.187715 0.440929 0.683669 -0.290498 0.272231 -0.88031 -2.58463 -0.858359 0.075263 0.883251 -1.02354 -0.235488 -1.07317 -1.03753 -0.936934 -0.987802 -1.07765 -0.659099 0.967979 -0.209968 -0.0355921 0.921261 -0.661223 -0.37942 -0.606322 -0.0405271 -0.152163 0.882006 0.606971 0.499046 0.696963 0.870257 0.565373 0.530732 0.786983 0.768743 -0.169893 0.723326 0.356142 0.634759 0.449069 0.725349 0.612393 0.613358 0.0231184 -1.20196 -1.04276 -0.0447855 -0.91961 -0.726973 -1.04364 0.490599 0.432846 -1.0162 -0.997436 -0.91382 -1.01397 -1.05454 -1.02157 -1.00136 -1.05084 -1.07292 -1.08392 -1.01759 -1.12112 -1.00554 -0.945199 -0.997529 -1.06127 -0.784644 -1.04437 -1.30799 -0.868277 -1.91824 -1.15381 -1.00188 -1.1121 -1.04119 0.786848 -0.323173 0.679546 0.896489 0.125036 0.278318 -0.825511 -1.05189 -1.10326 0.368493 0.958483 -0.986945 0.0119193 -0.954067 -1.35368 -1.11448 -1.48812 -1.14385 -0.748763 1.29412 -0.228589 -0.0760528 1.16044 -1.1529 0.0471291 -0.393299 0.264404 -0.04248 0.846984 0.593421 0.530466 0.852335 0.798023 0.847859 0.534105 0.908517 0.856881 0.235264 0.84887 0.372563 0.791398 0.722708 0.81874 0.785261 0.91669 0.276653 -1.07802 -1.05227 0.151017 -1.04044 -0.705704 -0.995904 0.736047 0.575441 -1.13403 -1.03407 -1.02813 -1.11029 -1.13072 -1.12002 -1.0887 -1.14104 -1.15461 -1.18081 -1.63766 -1.30345 -1.09146 -1.1427 -1.03465 -1.11782 -0.541355 -2.27352 -1.51688 -0.927724 -1.16335 -1.19756 -0.992771 -1.1009 -1.2668 -0.617332 0.553638 0.863066 -0.407904 0.0903473 -0.85256 -1.03542 -1.19484 0.0913673 0.848311 -0.98953 -0.384646 -0.872513 -1.08756 -0.862675 -1.03974 -1.10203 -1.01622 1.26681 -0.888629 -0.49547 0.779524 -1.30766 -0.371325 -0.931754 -0.0606776 -0.412349 0.712011 0.625983 0.262335 0.95016 0.479641 0.610136 0.427406 0.850091 0.679782 -0.35864 0.641328 0.300775 1.10099 0.535913 0.63577 0.442286 0.642802 0.144053 -1.04219 -1.08584 -0.176343 -0.947555 -0.810033 -1.03442 0.5539 0.334866 -1.12026 -1.03424 -0.930454 -1.04824 -1.07652 -1.05186 -1.04871 -1.14241 -1.13253 -1.16582 -1.06123 -1.01706 -1.03478 -1.0003 -1.05651 -1.06292 -0.654426 -1.05865 -1.01904 -0.977231 -1.90036 -1.12723 -0.999675 -1.00263 -1.05367 1.06658 1.12692 0.130577 1.10875 -0.738543 -1.41128 -0.751847 0.622371 0.920366 -0.977936 0.513239 -0.981962 -1.16015 -1.13123 -0.824655 -1.14174 -0.675858 1.40756 -0.0893379 0.244811 1.32353 -0.215333 0.153513 0.133269 0.270666 -0.0140752 1.02093 0.964444 0.742942 1.01567 0.808614 0.840264 0.493551 0.907098 0.95564 0.104998 0.96759 0.635682 1.4436 1.28878 0.805031 0.979388 0.961235 0.313929 -1.19008 -0.889711 0.1745 -0.920122 -0.665736 -0.841668 0.838317 0.579912 -1.22389 -1.07692 -0.892442 -1.36017 -1.09888 -1.00987 -0.97335 -1.13535 -1.06302 -1.12777 -4.75816 -1.62273 -1.65763 -1.11826 -1.10177 -1.07926 -0.818789 -1.48434 -2.08626 -0.867421 -1.31103 -1.23213 -1.02208 -1.36785 -1.29831 0.992331 -0.663695 -0.173167 -0.887066 -1.01137 -1.01971 -0.761299 0.54246 -0.99163 -0.475494 -1.14366 -1.07425 -1.38335 -1.0561 -1.00707 -1.21814 0.602679 -0.785783 -0.657612 0.460894 -0.974532 -0.792303 -0.950175 -0.451546 -0.985138 0.507275 0.563344 -0.465001 0.54322 0.318496 0.286741 0.0845267 0.764443 0.556329 -1.02917 0.358878 -0.00276962 0.289529 -0.563548 0.153495 -0.559201 -0.033644 -0.202481 -1.02356 -1.12753 -0.334094 -1.00767 -1.1409 -1.05382 0.297639 0.178386 -1.01544 -1.02826 -0.999192 -1.00206 -1.06532 -0.997508 -0.992955 -1.04949 -1.02184 -1.07091 -1.04842 -1.13865 -1.00727 -1.09292 -1.0098 -1.00579 -1.3191 -1.04903 -1.14121 -0.982727 -1.15243 -1.1657 -0.99923 -1.01759 -1.19083 -0.840345 -0.455891 -0.949164 -0.997096 -0.961026 -0.921077 0.117566 -0.997178 -0.676612 -1.05592 -1.02187 -1.11066 -1.02378 -0.997541 -1.12826 -0.410879 -0.986221 -0.843566 -0.196629 -0.897678 -0.786499 -0.922209 -0.508575 -1.02123 -0.00489934 -0.0928846 -0.542546 -0.44684 0.00610157 0.0478761 -0.247651 0.330068 -0.169219 -1.1437 -0.0334374 -0.828887 -0.670551 -0.328666 0.0674023 -0.662465 -0.270215 -0.508584 -0.999276 -1.00481 -0.601464 -0.977561 -0.972115 -1.03258 -0.110648 -0.221927 -1.00322 -1.00329 -0.96517 -0.995586 -1.01533 -0.993112 -0.988822 -1.01332 -1.00083 -1.01528 -1.01293 -1.04843 -0.99869 -1.01701 -0.999534 -0.99705 -1.10842 -1.01674 -1.02554 -0.997218 -1.00961 -1.06811 -1.00015 -1.00439 -1.0052 0.641526 -0.786957 -1.02613 -1.05955 0.249533 0.884387 -0.988258 -0.083931 -0.925684 -1.02318 -0.792571 -1.03096 -1.02242 -0.324916 0.72485 -0.0793914 0.103972 0.795626 -0.507812 0.0757286 -0.911549 0.274459 0.0577921 0.856924 0.709465 0.618479 0.665422 0.847784 0.852374 0.711214 0.937781 0.869172 -0.0653641 0.776948 0.594169 0.65498 0.784524 0.863591 0.673305 0.942365 0.483787 -1.04444 -1.0659 0.128782 -0.856484 -0.873061 -1.03778 0.740193 0.573567 -1.04788 -1.01256 -0.981893 -1.02167 -1.06587 -1.00682 -1.00348 -1.04874 -1.03228 -1.14645 -1.07911 -1.11531 -1.02273 -0.994118 -1.00439 -1.0168 -0.606362 -1.5128 -1.18382 -0.942767 -1.20498 -1.10588 -0.994841 -1.53522 -1.54401 -0.893831 -1.02543 -0.976145 -0.385164 0.650168 -1.00506 0.169554 -0.917965 -1.01885 -0.841327 -1.13338 -1.0469 -0.61201 0.178212 -0.447143 -0.28997 0.799225 -0.735535 -0.542965 -1.08796 -0.327265 -0.522869 0.618729 -0.088897 -0.16771 -0.0453081 0.234242 0.432297 0.0900157 0.552914 0.539418 -1.06899 0.404964 -0.235614 -0.120974 0.253905 0.378935 0.360693 0.301635 -0.425459 -1.11199 -1.18942 -0.533991 -1.01968 -1.45148 -1.41087 0.399435 0.00804282 -1.1806 -1.17894 -1.27316 -1.9177 -1.13376 -0.996671 -1.12953 -1.02059 -1.01674 -1.16975 -1.49323 -1.34448 -1.34178 -1.30746 -1.15066 -1.0635 -0.775112 -2.67379 -1.55969 -1.19313 -1.49021 -1.07833 -1.04542 -1.13731 -1.10333 -0.936526 -0.220734 0.790745 0.995396 -0.915527 0.792279 -0.424836 -0.1963 0.0597283 -0.57874 -0.816828 0.538347 0.966895 0.740742 0.762589 0.98492 0.673789 0.787086 0.585984 0.9063 0.782665 0.968106 0.944173 0.910651 0.93177 0.968785 0.991741 0.976208 1.00546 0.960329 0.767937 1.00296 0.887899 0.894849 0.95074 1.00235 0.941162 0.92079 0.899294 -0.93754 -0.0984025 0.852058 0.236782 0.310271 -0.180452 0.972393 0.942411 -0.979018 -0.533973 -0.17365 -0.934302 -0.721413 -0.86408 -0.799089 -0.760228 -0.826634 -0.8098 -0.756547 -0.78499 -0.971707 -0.741414 -0.991444 -0.862672 0.224533 -0.929919 -0.980303 -0.687038 -0.992883 -0.774913 -0.94607 -0.960922 -0.963207 1.36156 1.02614 1.06044 0.142606 1.03936 0.860691 0.949354 0.954104 0.877033 0.901394 1.00575 1.04704 1.00266 0.973915 1.07608 1.06768 0.993775 1.06642 1.04763 1.05934 1.11502 1.09945 1.05241 1.12456 1.05922 1.00102 1.02438 1.02808 1.01367 0.999259 1.06053 1.04116 1.06039 1.01345 1.08141 1.02338 1.04193 1.07359 -0.046135 1.00551 0.977961 1.15645 1.0059 0.98272 1.01018 1.07905 -0.458714 0.952729 1.0434 0.610995 0.865445 0.828344 0.884919 0.817091 0.833507 0.735328 0.762843 0.725493 -0.25481 0.679053 -0.705202 0.875631 0.964135 0.33253 -0.328128 0.697669 -0.773229 0.726564 -0.0793483 -0.207279 -0.197016 0.911185 1.23151 -0.880663 1.18558 -0.247061 0.145474 0.294006 -0.316116 -1.20724 0.823583 1.00654 0.970178 0.927882 1.19624 1.14963 0.927256 1.15973 1.06276 1.02319 1.27783 1.16619 1.14026 0.967408 1.03063 1.01008 1.01848 0.972373 0.955326 0.800451 1.03503 0.94301 1.03521 1.09247 1.03156 1.12293 1.13904 0.876169 -1.37064 -0.316712 0.729336 0.749239 0.503836 0.0126088 1.04991 0.967326 -1.14309 -0.132923 0.161308 -1.48291 -0.756351 -0.578591 -0.867816 -0.502299 -1.04299 -0.803039 -0.66054 -0.720072 -1.30912 -0.716723 -1.06104 -1.26992 0.429084 -0.906675 -1.01946 -0.574921 -0.99546 -0.739262 -0.926217 -0.947227 -0.947504 1.02626 -0.994635 0.0294378 -1.1869 -1.05195 -1.41604 -1.02417 -0.978553 -1.01551 1.53917 -0.249559 -0.15662 1.01935 -0.870489 -0.296242 -0.328515 0.129364 0.0401291 0.99169 1.10877 0.410746 0.702558 0.824499 0.668834 0.64113 0.971597 1.59145 -0.471323 0.893514 0.072733 0.786584 0.751385 0.754709 0.527837 0.630327 0.172917 -1.09296 -1.17549 0.0374678 -0.692378 -0.911264 -0.927994 0.730533 0.545669 -1.08799 -1.02236 -0.783248 -0.987132 -1.04767 -0.96549 -0.958144 -1.026 -1.00285 -1.05224 -1.08588 -1.31606 -1.14831 -1.78895 -1.07155 -0.971458 -1.49149 -1.38381 -1.5291 -0.967243 -1.1654 -1.19766 -1.1369 -1.26755 -1.34885 -1.0015 -0.842047 -2.61556 -1.08597 -1.0602 -1.08033 -1.06759 -1.21542 0.123551 -1.15762 -1.00445 -0.334883 -1.00993 -0.928348 -0.981539 -0.891848 -1.15807 -0.286108 -0.398461 -0.715207 -0.0831924 -0.458015 -0.438995 -0.864896 0.0766955 0.59246 -1.02344 -0.648314 -0.552454 -0.129645 -0.587699 -0.430453 -0.602026 -0.419375 -0.9868 -1.08017 -1.2145 -1.00899 -1.12667 -1.12141 -1.04901 -0.748462 -1.35152 -1.12251 -1.2569 -1.0554 -1.10738 -1.04883 -1.0259 -1.02009 -1.0451 -1.04523 -1.08578 -1.11275 -1.20347 -1.11614 -1.11519 -1.15986 -1.05186 -1.06494 -1.35818 -1.80262 -1.05317 -1.3927 -1.09445 -1.03821 -1.08579 -1.13793 0.986226 0.893408 0.899896 0.939746 0.816835 0.549005 0.974232 0.994465 0.984852 0.982769 1.00514 0.979348 0.991044 0.972499 0.996291 0.984401 1.01091 1.01075 0.995674 0.993665 1.00273 0.997967 0.995223 0.99964 1.00117 0.984481 1.01941 0.990522 0.991835 1.04477 1.01478 0.996856 0.996748 0.998023 -0.146901 0.914796 0.991471 0.944881 0.950094 0.940517 1.01324 1.00087 -0.413768 0.852927 0.901437 0.16857 0.670508 0.619399 0.551034 0.696491 0.453608 0.595207 0.655313 0.526289 -0.2574 0.577246 -0.618277 0.515108 0.927152 0.0952809 -0.455019 0.678067 -0.845063 0.562964 -0.353961 -0.399236 -0.418054 -0.885257 -1.07069 -0.747884 -0.954089 -1.20622 -0.407658 0.563826 -0.14521 -0.182049 0.791668 -0.447742 -0.159799 -0.715322 0.473289 -0.17086 1.17246 0.640412 0.334901 0.269252 0.587202 0.985238 0.713015 0.772469 0.646692 -0.387296 0.864404 0.298247 0.42192 0.550543 0.673575 0.461661 0.858863 0.321411 -1.03657 -0.968923 0.156193 -1.17323 -0.890319 -0.846142 0.892675 0.470789 -1.03946 -1.18472 -1.26372 -1.14443 -1.20337 -1.22566 -1.23071 -1.13121 -1.13957 -1.11875 -0.998384 -1.00381 -1.06042 -0.990038 -1.02812 -1.18723 -0.620343 -0.993835 -0.997964 -0.942114 -0.999751 -0.997381 -0.993384 -0.997369 -0.995734 0.252862 1.37825 -0.46544 -0.524029 1.14208 1.22019 0.960546 0.797199 1.34 0.600631 1.43201 0.800951 0.948028 1.1567 1.61207 1.67916 1.68019 1.09066 0.995376 1.46236 1.05647 1.07323 2.05002 1.33604 1.15444 1.94265 1.07003 2.00274 1.04948 1.57698 1.27597 1.69289 -0.862308 0.0468898 0.921048 0.612645 0.714061 0.591795 1.68826 1.03228 -0.982885 -0.126314 -0.000262112 -0.765227 -0.489838 -0.413975 -0.47521 -0.40985 -0.642615 -0.761222 -0.637342 -1.26909 -0.93196 -1.05407 -0.95818 -0.549703 1.86639 -1.22548 -1.25484 -0.128408 -1.16696 -0.861055 -1.17709 -1.24674 -1.3003 0.0146392 -0.232268 -0.972547 1.19391 1.30681 1.09699 1.07928 1.32329 0.792146 1.08424 1.18161 1.07584 1.33689 1.16368 1.08868 1.15746 1.135 1.06997 1.14238 1.01275 1.44361 1.13912 1.01544 1.12792 1.10539 1.06967 1.34065 1.12754 1.2394 1.21384 1.04728 -0.962022 -0.0982024 0.959932 0.680605 0.501219 -0.202414 1.09867 0.963854 -1.22227 -1.2837 0.0370384 -1.15662 -1.6385 -1.36828 -0.93708 -1.67588 -1.05001 -1.77179 -0.68911 -1.53643 -1.06252 -0.845458 -1.03636 -0.958613 0.690791 -1.39571 -1.1861 -0.508083 -1.16573 -1.09848 -1.01427 -1.55526 -1.1994 -0.820678 -0.815902 1.14583 1.31644 0.962514 0.941925 1.37462 0.483528 0.782207 0.610604 0.883653 1.30126 1.25579 1.12542 1.18458 1.43416 1.15747 1.14063 0.97039 1.34005 1.39221 1.17853 0.978266 1.23479 1.32655 1.57394 0.99661 1.60796 1.32723 0.859026 -0.959013 -0.478445 0.798884 0.153507 0.246398 -0.502013 0.940114 0.923082 -1.01271 -0.234652 -0.338837 -0.927141 -0.825591 -0.767723 -0.78044 -0.753093 -0.909073 -0.99367 -0.915869 -1.38394 -0.979955 -1.05762 -0.988039 -0.824424 0.834067 -1.10032 -1.15293 -0.821991 -1.1316 -1.27783 -1.00079 -1.17654 -1.08156 -0.344857 1.03669 1.14815 1.03122 0.955927 1.04941 0.83297 0.944642 0.99587 1.00121 1.00654 1.08073 0.985769 1.06374 0.9977 1.03874 1.02265 0.919658 1.02995 0.997973 0.953219 0.992394 1.08161 1.01403 1.21228 0.991353 1.07342 1.0872 0.904418 -0.908981 0.200064 0.940924 0.183147 0.556298 0.646531 0.9833 0.955724 -1.04045 0.60359 0.462018 -0.697311 -0.119628 -0.216536 -0.332475 -0.115571 -0.60878 -0.434138 -1.79533 -1.07826 -0.970413 -0.388206 -0.968182 -0.382225 0.690595 -1.60456 -1.21169 -0.00637801 -1.06139 -0.360454 -0.920636 -1.23504 -1.13197 1.06518 1.15872 1.14233 1.17073 1.22379 1.07425 1.13895 1.15853 1.212 1.12458 1.30601 1.14922 1.20866 1.04581 1.42944 1.03375 1.1103 1.04792 1.30627 1.04445 1.05502 1.04653 1.12533 1.12704 1.02795 1.12638 1.1688 1.10694 -0.842149 0.646442 0.991123 1.26358 0.923801 0.60901 1.12034 1.12201 -1.08952 0.882088 0.929092 -1.54421 0.239051 0.388235 0.00695662 0.490059 -0.374251 -0.155908 0.0480216 0.0340764 -1.55806 -0.00326609 -0.998114 -0.47082 0.889841 -0.465735 -0.843162 0.104522 -0.969901 0.0271956 -0.699532 -0.784155 -0.776922 1.93089 0.778386 0.66168 1.82156 0.0660995 0.422738 0.0411096 0.631193 1.89535 1.97711 1.0885 1.052 1.35076 1.05128 1.00916 0.793895 1.60758 1.66626 0.674392 1.0706 1.12519 1.39827 2.05099 0.965423 1.16326 1.03812 0.567287 -1.00755 -1.01295 0.598865 -0.735283 -0.557425 -0.919897 0.863095 0.682668 -1.04354 -1.08855 -0.739502 -1.01818 -1.16107 -0.999845 -0.961349 -1.14013 -1.04956 -1.15402 -1.0787 -1.26669 -1.03761 -1.13311 -1.00827 -1.05554 -1.09158 -1.08315 -1.08304 -0.970406 -1.04062 -1.2559 -1.0061 -1.0345 -1.02984 -1.75021 -1.06839 -0.171893 -1.48594 -0.824574 -0.908746 -0.485875 -1.97007 -0.351391 -0.590164 -0.913932 -0.0387069 -0.316186 -0.176825 -0.249055 -0.100762 -0.0841569 -1.73377 0.0642027 -0.666056 -0.393285 -0.604817 -0.420389 -1.06365 -0.0620835 -0.559868 -1.09955 -1.39426 -0.706488 -1.2828 -1.1943 -1.02199 -0.0441511 -0.21804 -1.11137 -1.7422 -1.2479 -1.08635 -1.13617 -1.11873 -1.04927 -1.16018 -1.103 -1.13011 -1.19884 -1.41042 -1.09971 -1.35292 -1.19161 -1.13479 -1.40069 -1.71605 -1.32102 -0.97734 -1.37648 -1.24374 -1.02183 -1.09091 -1.20534 0.352965 1.99604 -0.488624 0.00927357 -0.320021 0.508101 0.230186 1.73244 1.05341 0.744093 0.995515 0.898464 1.01286 0.724922 1.00445 0.931463 0.100113 0.954425 0.676145 0.997707 0.948175 0.901876 0.955841 1.04057 0.258091 -1.00642 -0.97482 0.302536 -0.902295 -0.44933 -0.978817 0.856865 0.525888 -1.03692 -1.01739 -0.789439 -1.04826 -1.08362 -1.07545 -1.0322 -1.11791 -1.08845 -1.10448 -1.04627 -1.19172 -1.06659 -1.20092 -1.00221 -1.11657 -0.727298 -1.03879 -1.10729 -0.935679 -1.08599 -1.16425 -1.01368 -1.09028 -1.07813 1.11106 -0.529128 -0.105437 -0.544265 0.409826 0.00471021 1.45706 0.880968 0.445301 0.802376 0.738109 1.00395 0.526559 0.978013 0.876049 -0.160885 0.868379 0.775919 0.934342 0.88167 0.781202 0.950647 1.16029 0.141855 -0.987772 -0.897144 0.130013 -0.826778 -0.654571 -0.859934 0.834893 0.425914 -1.02686 -0.986396 -0.79688 -1.02366 -1.07344 -1.01866 -0.973235 -1.2143 -1.07334 -1.14089 -0.981477 -1.08115 -1.10052 -0.933145 -0.995651 -1.16604 -0.489942 -0.984981 -1.02844 -0.919671 -1.07055 -1.11527 -0.992876 -1.02185 -1.01858 -1.25001 -1.26175 -1.08806 -1.01602 -1.9058 -0.0102246 -0.0983314 -0.977488 -0.396634 -0.26744 -0.0207791 -0.46801 0.0081587 -0.154204 -1.34179 -0.129461 -1.09076 -0.168869 -1.07422 -0.180196 -0.718068 -0.368204 -0.825698 -1.08572 -1.22236 -0.737948 -1.40107 -1.15457 -0.997666 -0.200294 -0.446955 -1.1238 -1.57873 -1.85738 -1.15208 -1.21914 -1.15753 -1.14994 -1.20262 -1.15345 -1.1945 -1.16001 -1.37453 -1.11378 -1.62319 -1.20944 -1.19914 -1.66413 -1.28116 -1.60438 -0.999428 -1.24704 -1.23217 -1.09093 -1.24329 -1.47913 0.373754 -0.239066 0.896163 0.329983 0.963489 0.921172 1.04598 1.03949 0.990051 0.948584 0.778428 0.924256 1.01308 0.61974 0.970834 0.841139 1.07465 1.14679 0.912378 0.963867 1.13968 0.464649 -1.05281 -0.688175 0.260779 -0.472877 -0.380474 -0.85254 0.849552 0.654349 -1.02848 -0.86363 -0.831349 -1.06225 -1.01042 -1.01169 -1.02314 -0.949942 -1.05155 -0.977353 -0.859443 -0.848932 -2.33051 -0.928471 -1.04751 -1.01396 -0.144359 -1.25693 -1.06202 -0.908501 -1.73015 -1.07593 -0.986427 -1.00729 -1.03478 -0.386928 0.560548 -0.465951 0.96271 0.932543 0.58801 0.764318 0.74394 0.870983 0.710101 0.923843 0.982761 -0.0594229 0.967313 0.469036 0.73368 1.00306 0.840849 0.737086 0.821141 0.243187 -1.01188 -1.09758 0.111894 -0.929391 -1.01545 -1.02925 0.787588 0.540577 -1.08362 -1.09103 -0.980785 -1.08843 -1.1258 -1.12654 -1.03918 -1.17884 -1.07652 -1.1312 -1.01142 -1.35303 -1.10857 -1.01418 -1.08949 -1.0962 -0.510463 -1.30431 -1.2246 -0.951799 -1.20071 -1.15689 -1.01353 -1.25484 -1.2297 0.403172 0.112205 0.962939 0.915764 0.767563 0.788189 0.891321 0.989198 0.769155 0.916831 0.896829 -0.0399723 1.13826 0.848078 1.16017 1.01821 0.914856 1.07839 1.26989 0.67544 -1.08399 -0.836174 0.39049 -1.04533 -0.631132 -0.83733 0.956473 0.6938 -1.05639 -1.167 -1.1417 -1.11729 -1.13655 -1.15028 -1.11837 -1.15275 -1.14026 -1.11604 -1.13939 -1.19427 -1.07192 -1.01567 -1.03154 -1.14303 -0.367085 -1.61444 -1.27251 -0.889906 -1.00837 -1.10611 -0.987013 -0.997622 -0.998619 -0.642564 0.678273 0.642863 -0.0240272 0.438705 0.244255 0.652203 0.263577 0.569521 0.608444 -0.713212 0.72903 0.299669 0.0647864 -0.757964 0.371628 0.406335 0.518669 -0.134269 -1.05793 -1.08707 -0.319384 -1.32819 -1.43676 -0.972179 0.457825 -0.0270037 -1.1344 -1.38438 -1.50572 -1.16285 -1.19483 -1.19508 -1.15195 -1.28656 -1.11979 -1.15977 -1.12355 -1.6271 -1.12084 -0.97462 -1.0721 -1.23066 -0.654179 -1.67581 -1.42017 -0.962232 -1.52809 -1.33583 -1.00345 -1.01171 -1.09532 1.76989 1.02636 0.783459 1.30456 0.824029 0.968069 0.51822 1.27937 1.0984 -0.286822 1.02815 1.0369 1.24311 0.992706 0.8058 0.90218 0.982533 0.26903 -1.08218 -1.13799 0.228647 -1.18784 -0.951067 -1.0271 0.717382 0.438454 -1.07841 -1.19371 -1.06453 -1.10127 -1.17464 -1.07952 -1.05376 -1.17974 -1.08256 -1.15231 -1.12812 -1.23614 -1.09045 -1.08276 -1.06451 -1.10204 -1.35824 -1.10676 -1.06412 -0.969459 -1.02991 -1.22975 -1.00308 -1.02325 -1.02096 -0.193914 -0.671813 -0.298944 -0.649766 -0.309607 -0.616532 0.433896 -0.381409 -1.58265 -0.123805 -0.782826 -0.165288 -1.39913 -2.03922 -1.05836 -0.401046 -1.17552 -1.20728 -1.21099 -0.712285 -1.28997 -1.29685 -0.9947 -0.531708 -0.682711 -1.14117 -1.50961 -1.22424 -1.22955 -1.33967 -1.19631 -1.12246 -1.33399 -1.13054 -1.33712 -1.23671 -1.5036 -1.23332 -1.76177 -1.16905 -1.43102 -2.01833 -1.67434 -1.43238 -1.08301 -1.2653 -1.71671 -1.06569 -1.24064 -1.17725 -0.422527 0.128598 -0.0601945 0.05064 -0.3485 0.481867 0.839967 -0.968666 0.0362444 -0.341615 -0.0486849 0.0180171 -0.0675118 -0.478214 -0.3367 -0.87944 -1.17182 -1.13517 -0.913385 -1.07828 -1.55373 -1.09217 -0.264862 -0.457799 -1.34164 -1.43786 -1.38434 -1.13134 -1.17179 -1.18712 -1.16042 -1.20505 -1.11331 -1.18705 -1.03509 -2.39398 -1.11105 -1.46879 -1.34786 -1.18818 -1.39079 -1.89412 -1.46885 -1.04355 -1.18193 -1.1198 -1.07168 -1.26147 -1.20472 1.23278 0.406254 0.361783 -0.0117857 0.673065 0.658719 -0.744622 0.348056 -0.00823476 -0.0814285 0.62801 0.344575 0.048192 0.519637 -0.283244 -1.06067 -1.00428 -0.405688 -0.978673 -1.21885 -1.03865 0.446773 0.171021 -1.11841 -1.40034 -1.06171 -1.188 -1.1726 -1.19501 -1.04191 -1.22039 -1.0678 -1.25987 -1.28914 -1.34188 -1.13332 -1.16876 -1.15884 -1.23223 -0.929145 -1.41498 -1.22271 -0.987411 -1.12459 -1.89368 -1.0559 -1.10934 -1.13626 0.00337923 -0.123372 -0.185381 0.190499 0.195053 -1.25375 0.101877 -0.831979 -0.0959693 -0.66171 0.0870503 -0.437276 -0.0724383 -0.397826 -1.20037 -0.921413 -0.376136 -1.1643 -1.48765 -0.882705 0.193665 -0.0513218 -1.2421 -1.34794 -1.55523 -1.00137 -1.06818 -1.02839 -0.999636 -1.11416 -1.07586 -1.0837 -1.06162 -1.27467 -1.49756 -1.4986 -1.17674 -1.03109 -1.15719 -1.3601 -1.57328 -0.976525 -1.17971 -1.23381 -1.05852 -1.20032 -1.31895 0.19257 -0.303251 0.761576 0.402635 -0.87999 0.0303222 -0.286576 -0.128502 0.115569 0.0822442 -0.313248 -0.0468226 -0.725122 -1.06185 -1.07781 -1.04861 -0.88437 -1.05217 -1.03546 -0.281272 -0.411332 -1.27928 -1.01588 -1.02062 -1.71247 -1.79407 -1.53977 -1.40158 -1.2622 -1.21574 -1.67785 -1.22501 -1.35779 -1.24074 -1.02092 -1.16314 -1.46075 -0.988995 -1.30667 -1.14132 -1.02175 -1.4864 -1.33739 -1.011 -1.25843 -1.22309 -0.781977 0.708593 0.231489 -0.831423 -0.353788 -0.329231 -0.094249 0.0479151 -0.159918 -0.499214 -0.39511 -0.813717 -1.04079 -1.03528 -1.09653 -1.14315 -1.14201 -0.993912 -0.703818 -0.865722 -1.0957 -1.12982 -1.09734 -1.01269 -1.06303 -1.04015 -1.02988 -1.08179 -1.02985 -1.07476 -1.4151 -1.55609 -1.01151 -1.22142 -1.09074 -1.03011 -1.01612 -2.01225 -1.45044 -1.01465 -1.2341 -1.01201 -1.014 -1.0889 -1.24567 0.775492 0.76228 -0.627061 0.450646 -0.0309073 0.0236536 0.309008 0.550507 -0.152557 0.066911 -0.466033 -1.03455 -1.08603 -1.00886 -1.01855 -1.36207 -0.959447 0.0291918 -0.260107 -1.10154 -1.16762 -1.10629 -1.04321 -1.11101 -1.06754 -1.05991 -1.12091 -1.03725 -1.29496 -0.975068 -1.2884 -1.10745 -1.9456 -1.09975 -1.11366 -0.930478 -1.03983 -1.45367 -0.982979 -1.5088 -1.04764 -1.06103 -1.30531 -1.22783 -0.39632 -1.48136 -0.574832 -0.670793 -0.29126 -0.555697 -0.719632 -0.810266 -0.679973 -0.769268 -1.06622 -1.16215 -1.24909 -1.32962 -1.21658 -0.999533 -0.66837 -0.721349 -1.20068 -1.85297 -1.62581 -1.9967 -1.11605 -1.03788 -1.1063 -1.13099 -1.10409 -1.44498 -1.27682 -1.45206 -1.51444 -1.0198 -1.13011 -1.31565 -1.10711 -2.68762 -1.45984 -0.999559 -1.51372 -1.17459 -1.01488 -1.14086 -1.1461 -1.05978 -0.163134 -0.787052 -0.327185 -0.487018 -0.30972 -0.730618 -0.275567 -0.72426 -1.01814 -0.991646 -1.10785 -1.03305 -1.16994 -0.9641 -0.213682 -0.395947 -1.3945 -1.43667 -1.60226 -1.14333 -1.21174 -1.30885 -1.11906 -1.23866 -1.03916 -1.21328 -1.01066 -1.26418 -1.18201 -1.02591 -1.90923 -1.30785 -1.46862 -1.39572 -1.71144 -1.0044 -1.46949 -1.53173 -1.00406 -1.08076 -1.2149 0.929911 0.667236 1.53761 1.12102 0.921359 0.895583 0.994067 0.397616 -1.00013 -1.02471 0.118613 -0.593459 -0.469805 -0.770632 0.68633 0.598054 -1.32814 -1.05062 -0.750917 -1.61817 -1.24718 -1.03005 -0.939275 -1.43953 -1.02997 -1.30575 -1.03569 -1.44826 -1.86782 -0.824361 -1.87162 -1.05516 -0.757158 -2.26434 -1.55009 -0.868404 -1.43328 -1.32134 -0.997264 -1.04737 -1.10361 -0.449708 -0.177035 -0.11446 0.242182 -0.514205 -0.193496 -0.689422 -1.0799 -1.08923 -1.21651 -1.12017 -1.1222 -1.07636 -0.265615 -0.481746 -1.08871 -1.14562 -1.06122 -1.03008 -1.05173 -1.05377 -1.04659 -1.08247 -1.04424 -1.09909 -1.17318 -1.37636 -1.03896 -1.21822 -1.05425 -1.05795 -0.967467 -1.68903 -1.36915 -0.995919 -1.17117 -1.14204 -1.09638 -1.37355 -1.21472 0.293786 0.340655 0.368636 -0.050524 0.171559 -0.151126 -1.02933 -1.01071 -0.234091 -0.816172 -1.05296 -0.860403 0.476558 0.26989 -1.24137 -1.14998 -0.910787 -1.01459 -1.10975 -1.00578 -1.0117 -1.13159 -1.0756 -1.18081 -1.05348 -1.96817 -1.06231 -1.82879 -1.91867 -1.02526 -1.74923 -1.58657 -1.47097 -0.954577 -1.20956 -1.3366 -1.73711 -1.31429 -1.52052 0.252335 -0.149004 -0.751892 0.0211953 -0.441631 -1.0796 -1.07337 -0.467771 -1.249 -1.15474 -0.971267 0.184451 -0.172748 -1.39282 -1.20002 -1.46072 -1.13779 -1.13527 -1.14755 -1.21482 -1.03968 -1.09716 -1.10069 -1.15401 -1.31337 -1.07204 -1.06859 -1.45077 -1.14509 -1.33676 -1.5615 -1.37097 -0.989116 -1.16065 -1.1192 -1.00001 -1.05091 -1.08733 0.141767 -0.255098 0.0529921 -0.742593 -1.06629 -0.986592 -0.52378 -1.21296 -1.14475 -1.12668 0.066279 -0.236086 -1.15193 -1.4098 -1.08733 -1.05543 -1.1867 -1.08709 -1.02891 -1.17554 -1.07679 -1.33804 -2.21167 -1.47579 -1.07263 -1.16627 -1.58908 -1.10995 -1.10956 -1.29218 -1.63317 -1.03817 -1.19841 -1.27694 -1.07093 -1.32487 -1.17805 -0.463614 -0.174346 -1.00648 -1.11488 -1.23056 -1.29736 -1.12206 -1.14944 -0.9972 -0.532269 -0.79067 -1.26168 -1.17075 -1.15015 -1.15758 -1.11455 -1.033 -1.06763 -1.09049 -0.99973 -1.09943 -1.35634 -1.33465 -1.24784 -1.03296 -1.12995 -1.02943 -1.01063 -1.50348 -1.2824 -1.01648 -1.13082 -1.22459 -1.00569 -1.05651 -1.11421 0.344787 -0.296666 -1.02537 -1.12042 -0.389316 -1.17981 -1.09455 -1.05334 0.55887 -0.00942153 -1.21019 -1.30605 -1.08945 -1.52765 -1.13797 -1.03525 -1.11447 -1.19383 -1.09721 -1.22719 -1.04943 -1.27513 -1.25877 -1.2061 -1.05494 -1.12113 -1.82387 -1.22639 -1.11554 -0.952265 -1.1729 -1.2577 -1.05641 -1.52888 -1.34885 -0.503137 -1.04746 -1.11728 -0.592661 -1.23772 -1.02398 -1.08207 0.31975 -0.200174 -1.12537 -2.17462 -1.13544 -1.09821 -1.18324 -1.14752 -1.13264 -1.35146 -1.10915 -1.32075 -1.09134 -1.27106 -1.08227 -1.12688 -1.26012 -1.18848 -1.32233 -1.34468 -1.18601 -0.982317 -1.0798 -1.25079 -1.02819 -1.10237 -1.17871 -1.0692 -1.01602 -0.160257 -0.896436 -0.991439 -1.00472 0.720474 0.449332 -1.35613 -1.05959 -1.01829 -1.17874 -0.993714 -1.00317 -0.991514 -1.05668 -1.0098 -1.25922 -2.06179 -1.64923 -1.18891 -1.20839 -1.13654 -1.42999 -0.704699 -1.67845 -1.15553 -0.98395 -1.21665 -1.29102 -1.10005 -1.29963 -1.35455 1.2972 0.976278 1.14833 1.0396 1.04315 1.00728 1.09741 -0.426593 0.958925 1.07778 0.560999 0.841788 0.823812 0.869169 0.822454 0.831867 0.73586 0.798555 0.752004 -0.216839 0.681323 -0.700417 0.821772 0.965301 0.345905 -0.332126 0.700038 -0.77263 0.740753 -0.0749784 -0.202984 -0.192839 0.763954 0.961012 0.689371 -0.579659 1.07734 1.07182 -1.08492 -0.497964 -0.0432116 -0.872607 -0.735292 -0.725134 -0.724967 -0.823654 -0.834106 -0.920698 -0.390882 -0.381197 -1.4173 -0.87182 -1.08611 -0.713163 0.791346 -0.806393 -1.55653 -0.683462 -1.28031 -0.851086 -0.974385 -1.03824 -1.05959 -0.789122 -0.863758 -0.868594 0.704394 0.456242 -1.00501 -0.990905 -0.884484 -0.987931 -1.00571 -0.986576 -0.981753 -1.00867 -0.984185 -1.01712 -0.978414 -0.995406 -0.999142 -1.54032 -1.01536 -0.994923 -0.732574 -1.0621 -1.07908 -1.00376 -1.08142 -0.975943 -1.01287 -1.19694 -1.09082 -0.391302 -0.578785 1.20065 0.846729 -1.22316 -1.44148 -1.03512 -1.36318 -1.16808 -1.27345 -1.14464 -1.32473 -1.18834 -1.66974 -0.960243 -1.66643 -1.2082 -1.07525 -1.14397 -1.31967 0.137046 -0.914324 -1.64658 -0.813143 -1.03359 -1.06276 -0.985313 -1.01804 -1.04128 -0.635226 0.95441 0.929038 -1.07833 -0.919666 -0.454496 -0.989209 -1.023 -0.894343 -0.966581 -0.827995 -0.909732 -1.0143 -0.591553 -1.64713 -1.03681 -1.48263 -2.62948 -0.950593 0.0446173 -1.21954 -1.15029 -0.931807 -1.09558 -0.897688 -1.01722 -1.13422 -1.08922 1.04364 0.943488 -1.08573 -0.0619705 -0.0114049 -0.87149 -0.524426 -0.587858 -0.680114 -0.482903 -0.776767 -0.556608 -0.953258 -1.15284 -1.00762 -0.787283 -1.04116 -0.639561 0.42783 -1.30021 -1.17448 -0.611521 -1.06295 -0.949907 -0.956928 -0.979318 -1.01954 -0.222848 -1.01789 -1.0895 -1.08335 -1.04681 -1.06745 -1.08549 -1.06528 -1.0803 -1.05 -1.08458 -1.04803 -1.16656 -1.04211 -1.35995 -1.00656 -1.12452 -0.943601 -1.42362 -1.13253 -0.964866 -1.14115 -1.02336 -1.06631 -1.26721 -1.35229 -1.13829 -1.20081 -1.79391 -1.1689 -1.01732 -1.0648 -1.13173 -0.978246 -1.0888 -1.14496 -1.36315 -1.30157 -1.22717 -1.06817 -1.13739 -1.18608 -0.95036 -1.44072 -1.57767 -1.0015 -1.20599 -0.97933 -1.04663 -1.21723 -1.31088 1.16976 1.10892 0.896723 1.1022 1.0539 1.05684 1.12037 1.12056 1.16731 1.0608 1.07426 0.339709 0.877257 -1.00386 1.05872 1.01626 0.743187 -0.0760832 0.83749 -0.688711 0.945812 0.212552 0.0816461 0.0959197 0.772583 -1.1096 -0.738259 -0.97604 -0.845249 -1.3544 -0.939184 -1.34302 -0.689426 -0.848958 -1.11171 -0.617864 -1.22188 -0.958122 0.782624 -0.983409 -1.03725 -0.167994 -1.21396 -0.669919 -1.01685 -2.14221 -1.33434 -1.08984 -0.845252 -0.905047 -1.04221 -0.752536 -0.973064 -0.918394 -0.843057 -0.925382 -1.11593 -0.870079 -1.11893 -0.977548 0.560888 -1.03611 -0.985191 -0.575793 -1.08096 -0.712418 -0.964306 -0.972609 -0.982457 1.47154 1.48243 1.35738 0.975483 0.882728 0.728186 0.516983 0.504198 -1.07501 0.441265 -0.938571 1.4079 0.940888 0.00712027 -0.582461 0.500071 -0.877431 0.542056 -0.375097 -0.489786 -0.480205 0.761596 1.11148 0.144331 -0.465965 -1.39154 -0.184584 -0.278866 -1.08152 -0.240195 -1.02427 -0.361559 0.975067 -0.655775 -0.986387 -0.0837594 -1.12947 -0.27683 -0.810746 -1.13039 -0.924193 -0.394013 0.36317 -0.607964 -0.431362 -0.0797018 -0.0990275 -1.09022 -0.133812 -1.0199 -0.495126 0.828928 -0.548252 -0.857447 -0.00235197 -0.962671 -0.125323 -0.740934 -0.806138 -0.802849 0.371503 -0.573946 -0.131131 0.0412396 0.022387 -1.04488 -0.0260751 -1.04922 -0.111162 0.829839 -0.44723 -0.807877 0.100748 -0.945567 0.0180423 -0.690107 -0.756768 -0.752191 -0.650205 -1.11245 -0.248054 -0.328854 -1.08212 -0.287393 -1.01871 -0.558618 0.89179 -0.744783 -0.971845 -0.114811 -1.01537 -0.367619 -0.823804 -0.941586 -0.930915 0.191525 0.261004 0.224971 -1.0695 0.150104 -0.997911 0.193016 0.91309 -0.374938 -0.805708 0.246728 -0.960361 0.213538 -0.635116 -0.748512 -0.740845 0.093134 0.0543914 -1.14533 0.138741 -0.986085 0.00391895 1.02082 -0.619858 -0.984425 0.175884 -1.17238 0.0327895 -0.817119 -1.22097 -0.999929 -1.70459 -0.950664 -0.166433 -0.969448 -0.103406 0.882699 -1.61855 -1.21488 0.0858361 -1.03275 -0.0251151 -0.846303 -0.92561 -0.978015 -0.914422 -0.102712 -0.99333 -0.0933658 1.39278 -1.23988 -1.65706 0.143702 -1.3436 0.43799 -0.683475 -0.97395 -1.01041 0.799437 -0.600343 1.60125 0.993452 0.488583 -0.231908 0.768436 -0.754083 0.837722 0.039768 -0.101401 -0.0908522 -0.923981 -0.035812 1.28495 -0.895536 -1.10299 0.596698 -1.23458 0.00584895 -0.938217 -1.36088 -1.53111 0.992463 0.992505 0.778718 0.252782 0.896242 -0.417781 0.909395 0.463419 0.360205 0.369808 0.894847 -0.412904 -0.818759 0.150321 -0.962309 0.0906523 -0.673229 -0.757282 -0.752014 -1.50787 -1.16571 -0.901976 -1.09768 -1.34048 -1.01146 -1.13582 -1.27675 -1.69232 0.697676 -1.07523 0.630965 -0.125636 -0.520652 -0.257467 0.944433 -1.74758 1.2089 0.295518 0.18358 0.20183 -1.07196 -0.0869628 -1.10001 -1.24851 -1.18626 1.0952 0.943766 1.22585 1.21941 -0.71115 -0.814717 -0.818126 -0.305896 -0.372593 0.0567323
label -65 -25 -75 70 -70 -5 -45 -40 -100 20 -30 15 10 -20 -60 40 30 -10 50 -50 -35 -15 5 -80 90 35 25 100 45 -55 75 -1 -27 -26 -2 -24 -17 14 -9 13 -6 -7 4 2 -11 7 -14 0 -4 -8 9 3 1 -3 -12 8 6 -13 -32 -18 -21 -19 -22 -23 12 -16 -31 16 22 26 29 17 68 37 51 43 28 23 -43 -33 -28 -34 11 21 -29 -36 -37 19 27 31 32
nr_sv 3 17 1 1 1 45 3 9 2 6 10 10 9 21 3 2 4 42 1 1 3 17 24 1 1 2 7 2 2 1 1 71 4 5 46 12 8 4 17 4 49 44 22 38 37 14 16 64 58 29 12 33 30 55 20 12 22 14 1 9 5 9 8 3 7 10 1 4 4 1 3 1 1 1 1 2 1 4 1 3 1 1 4 3 2 1 1 1 1 1 1
SV
5.322361908404148e-10 0 0 6.095007833220447e-11 6.411125207663347e-10 2.954757234846889e-10 2.576885365300968e-10 2.97709085712419e-12 3.076790689580484e-10 3.498248898552142e-10 2.510698168472744e-10 2.844529112759987e-10 4.195812809940202e-10 3.387520367663772e-10 1.573839696907402e-10 3.199060597668821e-10 4.582077344771183e-10 4.10143072037546e-11 1.982486916279371e-12 3.701898253624849e-11 4.29752636782312e-10 3.165188737591682e-10 0 9.80290953151212e-11 1.330781705694184e-10 2.042080632382342e-10 2.337451363253078e-10 5.90272204611386e-11 1.897608863009747e-11 2.875726197732392e-10 5.63473918419981e-10 3.941950005548638e-10 3.145793618693497e-10 4.105257445536299e-10 1.763777196447754e-10 3.171629323176092e-10 1.236117933631944e-10 4.235250435831951e-10 2.583184928601957e-10 5.917106085309011e-10 6.223751786989131e-10 3.156104343471409e-10 1.105537639246702e-09 6.314176092416579e-10 3.219107475675465e-10 1.186920002756859e-09 4.64097161064742e-10 5.676756677600739e-10 4.6738259109066e-10 4.057472069828856e-10 7.879885346112334e-10 2.773382433974674e-10 6.884637263845412e-10 5.05185502507999e-10 3.485394158391102e-10 3.014747284365982e-10 4.110244137834124e-10 1.801004384546925e-12 1.376120142640218e-10 5.343231049123469e-10 1.621202911342487e-10 7.329668478219076e-10 6.220177131217973e-11 3.249398820725643e-10 3.656849159423462e-10 2.36360903488885e-12 1.081411001495607e-10 4.997255626753164e-11 3.456622227571055e-12 9.385301836765186e-11 1.0552347647615e-11 5.849672405428248e-12 3.437119068077386e-11 9.171925790537187e-12 6.69859048670827e-11 3.033153035796232e-11 6.716134595937275e-11 5.293954305707138e-12 1.75448929995825e-10 6.339119308244914e-13 1.598765134277766e-11 3.015383981842214e-10 1.002176663508562e-11 1.206311192692978e-11 7.437215293968038e-11 2.385153397373515e-12 3.311341344832853e-11 8.611356399934974e-12 1.341711160668738e-11 1.347731549470778e-11 1:76 2:48 3:0 4:0 5:0 6:0 7:0 8:52 9:88 10:92 11:88 12:72 13:0 14:28 15:0 16:0 17:0 18:0 19:0 20:0 21:0 22:0 23:72 24:176 25:0 26:0 27:0 28:0 29:28 30:32 31:32 32:28 33:28 34:32 35:0 36:36 
0 3.27734952907259e-13 9.054075116447969e-15 0 9.960467651475397e-13 0 0 2.345401530552155e-13 0 0 0 0 2.056853683654954e-12 1.914518483246206e-12 0 0 4.953568839427704e-12 0 0 0 2.025429127729013e-12 0 1.793226250848284e-13 0 7.958717687004845e-13 1.248351858822431e-13 0 2.524352825485428e-12 0 0 5.849693676839284e-12 0 0 2.650891318605478e-12 0 0 3.263108194935205e-13 0 0 0 4.988097283985293e-13 0 9.98977445107114e-13 8.346206393163766e-13 1.00307949534724e-12 2.537614965153384e-12 1.394434286525905e-12 0 0 0 2.912840671300153e-13 6.957696313159345e-15 4.210705110360696e-13 0 2.004755987789601e-12 4.179699566331123e-12 2.475364442040149e-12 0 4.601077240792335e-13 0 1.031420760043491e-12 0 7.151700346707051e-13 2.873323890587898e-12 1.010206383921666e-12 3.55099462061607e-14 0 2.789585277918739e-13 0 0 0 0 0 0 1.144977057321554e-13 1.864823307417827e-12 1.300922744955597e-12 0 9.238390026555057e-13 0 0 1.750745264425622e-12 1.846422841343308e-12 4.742314641385581e-13 6.880814880899254e-13 7.840824499365362e-14 0 2.058057406618454e-13 2.253211853563218e-13 3.260731553623302e-13 1:40 2:36 3:0 4:36 5:96 6:232 7:232 8:224 9:228 10:224 11:168 12:180 13:0 14:0 15:0 16:68 17:188 18:196 19:208 20:220 21:244 22:248 23:244 24:240 25:0 26:0 27:76 28:176 29:176 30:176 31:180 32:208 33:244 34:240 35:240 36:240 
1.453496052860703e-09 1.513230972556089e-11 1.597549737048893e-12 2.085939415396667e-10 1.695442594712007e-09 1.290535148663895e-09 9.761129423152121e-10 0 1.249778912906556e-09 1.47714988496822e-09 1.134306939525341e-09 1.217364048150864e-09 1.240785232094298e-09 1.247115568818823e-09 9.456504934713646e-10 9.395176234834782e-10 1.647444730693774e-09 3.096271727177983e-10 1.34206406168705e-11 2.322558690319513e-10 1.374829332615054e-09 1.583343956275164e-09 2.160554925845132e-11 7.228472307535474e-10 1.772482072038374e-10 2.4098217570872e-10 4.456553839761051e-10 1.643405449373931e-10 5.192754838115853e-11 8.241610481465364e-10 1.737709448633636e-09 8.761671973791997e-10 9.120801305027574e-10 1.981378554163993e-09 9.030715361428594e-10 1.092037796816138e-09 7.551517167181552e-10 1.253261031941309e-09 9.575253819950318e-10 1.862248078484788e-09 1.561701795577549e-09 1.292402986143736e-09 1.46534487836248e-09 1.417818256659719e-09 1.457009811480395e-09 1.571692461733913e-09 1.503291168379259e-09 1.508391636408834e-09 1.153628540873783e-09 1.813974355520669e-09 1.403420219943586e-09 1.213689475443925e-09 2.067181611057217e-09 1.371032679162513e-09 1.278169600924064e-09 1.37047833760636e-09 1.842182556902634e-09 1.351828333007044e-11 3.367370194649958e-10 8.859126904528391e-10 5.089034827594613e-10 5.151496330815433e-10 3.264740723077023e-10 1.631915634507763e-09 1.788890904067918e-09 6.755718285483146e-12 1.497802784800835e-10 2.861842524746635e-10 2.558477808980376e-11 4.211930244521853e-11 7.662817072417047e-11 6.42879839724886e-11 8.691042670827226e-11 4.610534471857748e-11 2.806192259591144e-11 9.716100814580991e-11 5.595395938535697e-11 7.35697603899923e-12 0 4.310451483849317e-12 4.858544244565798e-11 6.666698117265644e-10 5.087278510672898e-11 0 4.880184962976408e-11 0 4.795766256887783e-11 5.86470370995567e-12 0 0 1:64 2:40 3:36 4:32 5:0 6:36 7:44 8:96 9:40 10:0 11:0 12:80 13:0 14:0 15:0 16:0 17:0 18:0 19:0 20:0 21:40 22:64 23:36 24:0 25:24 26:0 27:0 28:0 29:0 30:28 31:28 32:28 33:0 34:0 35:56 36:64 
-2.273194843598183e-10 0 0 1.216621016598656e-12 7.864238157381839e-10 8.522703866874643e-11 1.076464411314789e-10 1.614035678015743e-12 0 0 0 1.079139812151144e-10 2.215820003100205e-10 1.87947225605162e-10 0 3.870859451094068e-11 1.976082019154206e-10 0 0 0 0 2.278796165723782e-10 0 0 4.038027373056517e-11 7.603401789492628e-11 1.177617087184097e-10 1.541754331965619e-11 0 2.501704969481671e-10 5.38769753972844e-10 0 1.946083577285603e-10 1.279503347442209e-10 0 9.48598772999777e-11 0 1.519256054577707e-10 1.928231455243258e-10 5.471939666405762e-10 5.520546566918434e-10 0 5.315661814822556e-10 1.256704507573145e-09 1.826367103226408e-10 2.972697294526516e-10 6.237188410434819e-10 8.681103706218854e-10 3.28980401794953e-10 1.090573559996496e-10 6.097954566847187e-10 7.692347624208048e-11 1.501557182258454e-10 1.232539765787316e-09 3.204094756571341e-10 0 0 0 7.520299446315455e-11 1.877088737084796e-10 3.808181517584918e-11 3.570418633271452e-10 0 0 8.9107730258866e-11 0 5.656109509705366e-11 4.024870003143359e-12 0 3.854005096463305e-11 0 0 0 0 2.795443146196113e-11 1.58034996563054e-11 4.530827450583828e-11 0 2.870688134572249e-10 0 0 2.673080015281744e-10 0 0 1.348724065623726e-10 2.046099203034453e-12 0 8.639523499230785e-12 1.33141279942946e-11 8.998691359382705e-12 1:60 2:0 3:32 4:0 5:0 6:0 7:0 8:64 9:108 10:92 11:60 12:64 13:0 14:0 15:0 16:0 17:0 18:0 19:0 20:0 21:0 22:44 23:132 24:188 25:0 26:0 27:0 28:0 29:28 30:28 31:28 32:0 33:0 34:0 35:0 36:48 
-6.39731531533702e-10 0 0 0 8.919757738393818e-09 1.856327200780879e-09 0 0 3.243786861743156e-09 7.415156946117526e-09 2.89926159391115e-09 6.297940031801577e-09 3.097983968456517e-09 9.95180971121422e-10 0 1.546766986301084e-10 0 0 0 0 3.519766470693851e-09 5.981087480975381e-09 0 0 0 1.39401838684918e-10 9.458927495943982e-10 0 0 5.06228925717484e-09 6.232087464120716e-09 4.953056228488878e-09 6.929619899826877e-09 1.383471166356651e-08 2.716562449537379e-09 1.543418860908974e-09 0 7.768660596003863e-10 1.110974603959951e-08 1.411199913204974e-08 6.367530600184037e-09 4.738029425753301e-09 7.611882520490928e-09 5.867321086919601e-09 3.286928022315804e-09 1.13934995276476e-09 7.319247082019479e-09 1.123369252507121e-08 3.293442237723793e-09 2.451288366045494e-09 5.749163856817774e-09 4.662723961382733e-09 1.8842649918461e-08 5.176636920347175e-09 2.147300418884086e-09 2.37933077140182e-09 1.222098143295422e-09 0 1.134547840277849e-10 1.21817762214486e-10 2.48979392278742e-10 1.01375636868818e-10 0 0 0 0 0 0 0 0 0 0 0 0 0 0 0 0 0 0 0 1.396752153433604e-09 0 0 0 0 4.804412559947374e-11 0 0 0 1:44 2:56 3:52 4:36 5:0 6:0 7:0 8:36 9:56 10:60 11:68 12:76 13:36 14:28 15:0 16:0 17:0 18:0 19:0 20:0 21:0 22:0 23:28 24:44 25:0 26:0 27:0 28:0 29:28 30:28 31:0 32:0 33:0 34:0 35:0 36:0 
-2.325444214318691e-10 0 0 0 7.728941605198652e-09 1.909026404208503e-09 5.133804652304577e-09 0 3.135839344607359e-09 2.921549422344e-09 1.26992148224841e-09 9.833676375870735e-09 6.024410159822495e-10 6.058032553052387e-09 6.524092374918333e-09 9.756121721089826e-10 4.941737501948414e-09 1.340595517903644e-10 0 0 4.276712266550641e-09 9.446372848942163e-09 0 6.492759308737156e-10 0 0 0 5.674078679687581e-11 0 0 1.799457456124555e-08 1.399426286364714e-09 5.884005870033623e-09 8.548984927953824e-09 7.67372948754651e-12 0 0 1.193948906430021e-09 0 1.42332027266447e-08 5.506397942189925e-09 8.91969424944313e-09 1.198012465751933e-08 1.854898566792837e-08 4.882575807124249e-09 2.630181574964311e-09 1.083605507421584e-08 2.379254611764495e-08 4.834077116595357e-09 2.971612885113979e-09 1.679029151238451e-08 8.514582964902444e-09 5.977481745725356e-09 3.576443921206367e-09 8.540821399698009e-09 6.541213308738141e-09 1.165977386548519e-09 0 0 1.130482883080989e-09 0 0 0 3.086842621290478e-09 2.621054173520532e-09 0 0 0 0 0 0 0 0 0 0 0 0 0 0 0 0 0 0 0 0 0 0 0 0 0 1:0 2:44 3:48 4:40 5:0 6:0 7:0 8:0 9:44 10:60 11:56 12:76 13:32 14:28 15:0 16:0 17:0 18:0 19:0 20:0 21:0 22:0 23:28 24:44 25:0 26:0 27:0 28:0 29:0 30:28 31:0 32:0 33:24 34:0 35:0 36:24 
-3.474988601687613e-10 0 0 0 8.225773520966134e-09 1.552775925769011e-09 1.862472756838854e-09 0 2.461460807141089e-09 6.06467478591709e-10 1.781662554371501e-09 2.732926476627381e-09 2.575914886931333e-09 8.733395172846699e-09 3.656280911916468e-09 2.95635328435158e-09 1.401130268433191e-08 1.706148111828026e-10 0 0 2.312878649695709e-09 1.204699864100753e-08 0 1.684504419153456e-09 0 0 0 0 0 1.088226280804478e-10 1.146686480864736e-08 6.847009225375733e-10 1.497605908532923e-11 3.903840373870768e-09 1.539420165758554e-09 3.147427717623638e-09 1.911917867320179e-09 8.323511850320713e-09 1.84331997849618e-09 7.526009999027608e-09 7.400730546174882e-09 7.277619268263967e-09 8.398493028337367e-09 1.011731311633454e-08 4.886772942062342e-09 3.988925003468736e-09 6.492788434392335e-09 5.488052601699127e-09 3.229557610994603e-09 6.516486692519208e-09 3.973551603360373e-09 5.975339817373942e-09 8.100916702569346e-09 4.934877447427758e-09 2.797100294207556e-09 3.14289973497556e-09 1.861232999689225e-09 0 0 1.415329917460506e-09 6.519255240399912e-11 8.023853832301746e-10 2.250360179829129e-10 1.881865660852285e-09 2.012553925446513e-09 0 0 1.84149322797559e-10 0 0 0 0 0 0 0 0 0 0 0 0 0 0 0 0 0 0 0 0 0 0 1:0 2:0 3:0 4:52 5:36 6:0 7:0 8:32 9:32 10:48 11:52 12:72 13:0 14:64 15:44 16:0 17:0 18:0 19:0 20:0 21:0 22:0 23:0 24:28 25:68 26:0 27:0 28:0 29:0 30:28 31:0 32:0 33:0 34:0 35:0 36:0 
-0 0 0 0 2.501693288082496e-09 0 5.624573898604711e-10 0 3.86891957439339e-10 3.655678096741714e-10 0 0 1.74971740140321e-09 0 1.539251649756772e-10 0 4.677876298854993e-09 0 6.114132913344624e-12 3.12442620567014e-10 5.451144181070424e-10 6.676218325332126e-10 0 0 0 0 0 0 0 0 1.344233965189067e-09 1.055601724375504e-10 1.151648355419514e-10 2.015555252864611e-10 3.882696906406746e-10 2.711105647279019e-10 3.319287228662555e-10 2.731755407878499e-10 0 6.392082730013098e-10 1.092361396660863e-09 6.47145931821635e-10 9.294899919267274e-10 1.823414394925677e-09 0 0 2.601202594381606e-10 0 3.864606075675339e-10 1.426271448625722e-10 6.548610067298738e-10 1.317397442957185e-10 3.512250291984454e-10 1.986511622465128e-10 4.102697339258771e-11 3.788270666245771e-10 2.671473345435524e-10 4.959923748976183e-12 5.624220111829991e-10 3.914921176923514e-10 6.219128174683606e-11 2.104386211500411e-10 2.359989183036308e-10 0 0 0 0 0 0 0 0 0 0 1.579490197722209e-11 0 0 0 0 0 0 0 0 0 0 0 0 0 0 0 0 1:0 2:48 3:80 4:56 5:36 6:0 7:0 8:0 9:36 10:44 11:48 12:56 13:108 14:80 15:48 16:48 17:36 18:0 19:0 20:0 21:0 22:0 23:0 24:28 25:56 26:52 27:48 28:48 29:44 30:40 31:36 32:28 33:0 34:0 35:28 36:0 
-0 0 0 0 5.622733284821291e-10 0 4.844725298594604e-10 0 9.006686287889201e-11 7.191428884231006e-11 1.191154633877775e-10 1.828151764481206e-10 4.119740009333071e-10 0 0 2.598942020286667e-10 0 2.782499166380141e-12 0 2.911780953000906e-11 1.729537654412062e-11 0 0 0 0 0 0 0 0 1.63721162771926e-11 0 1.677259600888288e-11 0 0 5.923054194686476e-10 0 1.668390985917499e-10 0 0 5.47775799208954e-10 5.980383457333276e-10 0 4.970143327137564e-10 6.869933862636303e-10 1.503738248923344e-10 0 6.115751884029805e-10 0 8.871130371357305e-11 0 0 0 6.17801628390008e-10 0 0 0 0 3.730995083820914e-12 3.865816635134435e-10 1.515998042949091e-09 0 0 4.520411587774271e-10 0 0 0 0 0 0 0 0 1.620271789141849e-12 0 0 0 0 0 0 0 0 0 0 0 0 0 0 0 0 0 0 1:0 2:0 3:64 4:92 5:68 6:64 7:52 8:48 9:40 10:44 11:56 12:64 13:60 14:92 15:68 16:56 17:64 18:56 19:44 20:44 21:36 22:32 23:0 24:0 25:88 26:44 27:52 28:60 29:56 30:60 31:56 32:48 33:36 34:0 35:28 36:28 
-2.848762585217899e-12 0 7.44928711558125e-13 0 4.752874753234302e-10 0 1.214745828041753e-10 0 7.168404039748323e-10 0 9.063460711512049e-11 7.557178099452677e-11 2.735265719316854e-10 8.432264296733776e-11 0 9.709431854338628e-11 1.758504761345643e-09 0 0 1.240311256403843e-10 6.855845399738677e-11 6.69832330332837e-10 3.261548237199198e-13 0 0 3.886750527626365e-11 0 9.38838069655525e-11 0 0 8.085649551236281e-10 5.956261685026549e-12 0 3.174999245489376e-10 2.340576561266634e-11 9.931174177806285e-11 9.217043527437065e-10 4.004039477586346e-10 1.295623168960983e-10 1.908644725881234e-09 5.791138576240372e-10 4.478068243218331e-10 5.713021555752353e-10 2.692063535487953e-09 1.21452916581302e-09 1.110780323221911e-10 9.004489170135113e-10 2.052591744154064e-09 2.195411482085326e-10 1.008232615868407e-10 8.840939041868535e-10 2.171500009019579e-10 1.63123549301908e-09 5.665116662821171e-10 5.714417083365827e-11 3.936596102122626e-11 5.719530999648662e-11 0 5.362764625842308e-10 1.436324497624079e-10 1.209634170048927e-10 1.536774267495346e-10 0 0 2.231457449097711e-10 0 0 2.222268624496712e-11 0 0 0 0 0 0 0 1.0538881261807e-10 8.163529052698023e-11 0 0 0 0 2.510926473553422e-11 2.930539695336338e-11 0 0 0 0 0 0 0 1:0 2:0 3:60 4:88 5:68 6:72 7:64 8:52 9:48 10:52 11:56 12:52 13:56 14:88 15:88 16:56 17:56 18:64 19:56 20:48 21:48 22:40 23:0 24:0 25:96 26:56 27:44 28:52 29:56 30:60 31:64 32:48 33:48 34:40 35:36 36:32 
-2.215231662558098e-10 1.955374665629056e-11 0 0 4.424501437800235e-10 1.613500003722094e-10 2.742603060852632e-11 0 2.930829990542594e-10 4.740202952425433e-10 2.446118198682249e-10 1.886957409403505e-10 3.716819327724366e-10 2.55155294937833e-10 5.900872342312094e-11 5.246673292133083e-11 4.100753543573344e-10 3.426420811755927e-12 0 2.372856572757193e-12 1.852821653811481e-10 2.629755179318696e-10 1.578574937188987e-11 5.697072358910131e-11 0 1.071808113465134e-11 0 5.554059170625697e-11 0 0 5.340013140868418e-10 4.613602903176994e-11 1.45721653365408e-10 3.724653214109098e-10 6.530798679064222e-11 0 1.598449880146134e-12 1.771928221521695e-10 0 2.535583553595082e-10 1.898814084529625e-10 3.251351209551053e-10 3.258946401631542e-11 6.194808536151313e-10 7.633566846526547e-11 1.414653449880097e-10 2.697278660587519e-10 2.134317116534351e-10 1.894820784063343e-10 2.578409075677816e-10 6.032281099926228e-11 1.247239048307615e-10 2.188439934436113e-10 2.415155172180892e-10 1.089482001500536e-10 2.174548423722256e-10 3.719061762252763e-10 0 6.436555277630364e-11 5.870897665323729e-11 5.822873024024975e-11 0 0 3.458098770628113e-10 6.803874389452206e-10 0 8.580010238227824e-12 5.189178418309394e-11 0 0 0 0 0 0 0 4.281002223007584e-11 0 0 3.793754921943241e-11 0 0 0 0 0 8.728368548564284e-11 0 0 5.491232165969246e-12 0 3.15584212839365e-12 1:36 2:0 3:28 4:28 5:0 6:0 7:72 8:100 9:76 10:0 11:0 12:68 13:0 14:0 15:0 16:0 17:0 18:0 19:0 20:0 21:64 22:120 23:116 24:100 25:0 26:0 27:0 28:0 29:0 30:0 31:28 32:0 33:36 34:40 35:44 36:96 
-0 0 0 1.788101909968779e-11 0 0 1.019679996267895e-11 0 0 1.66872337508739e-10 0 0 5.680098018343632e-10 0 0 6.523259031012833e-12 2.841932986362696e-10 0 1.535684494256779e-11 1.927714053869047e-10 0 0 0 4.2484628617545e-11 0 0 0 0 1.520149186779714e-10 0 0 3.146447069847352e-11 6.174792812680794e-10 1.778585834144133e-11 4.452812067922998e-10 0 6.164093558856529e-12 0 0 0 0 0 1.025043833849909e-10 2.49421686877074e-10 0 -0 0 0 1.407707562091519e-10 0 0 0 0 0 0 0 1.454861292024838e-11 9.846619181163012e-12 3.117370876938178e-10 0 1.230214528814587e-11 0 4.298880308394906e-12 0 0 0 0 6.593372905046584e-13 9.625884623851553e-11 4.066095224211654e-11 3.613223429219011e-11 2.707755133012779e-11 8.790122107789877e-12 2.266361172163326e-11 1.601574889106601e-11 0 0 2.944834979702266e-11 0 0 1.772569116948946e-10 0 0 0 0 0 6.634891628115367e-12 0 0 0 1:132 2:172 3:120 4:48 5:0 6:0 7:0 8:0 9:0 10:64 11:68 12:64 13:228 14:88 15:0 16:0 17:0 18:0 19:0 20:0 21:0 22:0 23:0 24:0 25:64 26:0 27:0 28:0 29:0 30:28 31:0 32:0 33:0 34:0 35:0 36:0 
-2.077702205855333e-10 0 0 0 1.055960943969052e-09 5.585025621055337e-10 1.977849510242938e-10 0 4.377158792036558e-11 1.96569051645649e-10 9.019883997878448e-10 0 5.758879875443311e-10 1.878976415996287e-10 1.738551928092404e-10 1.653369973260726e-10 2.01492895015065e-09 1.760200338902331e-11 0 0 1.6192465796857e-10 9.555148247231435e-10 2.850112954831818e-12 0 0 0 0 0 0 0 0 7.490794268548206e-11 0 9.445238413062595e-10 2.460622125137617e-11 1.937961862502775e-10 2.404654363325185e-10 7.868860388816155e-10 5.670552369900668e-11 2.25307956482121e-10 2.4417110841503e-10 0 1.122513280784418e-09 1.895494786152654e-10 1.67023779216101e-10 4.146517475592697e-10 4.079629040065e-10 0 0 1.178206953739202e-09 0 6.801571222082035e-10 2.635059497007908e-10 9.169480925174587e-11 2.349277222937254e-10 6.237168133351332e-10 7.549990678533863e-10 0 0 0 1.281277834852725e-10 1.852262780956017e-14 3.79662379272351e-10 5.057180961039028e-10 2.331122938981631e-10 0 0 7.031136162222642e-12 0 0 0 0 0 0 0 2.615255626412446e-11 0 0 0 0 0 0 0 0 0 0 0 0 0 0 1:48 2:0 3:0 4:0 5:36 6:36 7:48 8:72 9:56 10:64 11:100 12:140 13:0 14:0 15:0 16:28 17:0 18:0 19:0 20:0 21:56 22:64 23:0 24:0 25:0 26:0 27:0 28:0 29:24 30:0 31:28 32:0 33:0 34:32 35:68 36:64 
-9.290626312307093e-11 0 0 3.9537162718556e-11 3.890359629926618e-09 1.303138889170368e-09 1.598498603300672e-10 0 0 8.790443370003721e-10 2.017338305529552e-09 9.094003478444006e-10 8.708357866998288e-10 4.066252882525278e-10 0 0 7.143435197797054e-10 0 0 3.112394218394354e-11 1.916338675774356e-09 1.686983586711163e-09 0 0 5.344247471487702e-10 1.016445579288171e-10 9.09090878227745e-10 2.911327041124855e-11 0 2.819263500090199e-10 1.036623080945247e-09 0 4.544673929249706e-10 2.19181037058722e-09 8.527860294747844e-10 2.045770970353369e-09 0 1.954335645668425e-09 5.401851704563218e-10 1.380513209178943e-09 1.763180131767199e-09 1.12400692737922e-09 1.768607274389139e-09 7.333594591071902e-11 2.53120431470374e-09 1.974290490865493e-10 1.937509002123605e-09 3.809331871137023e-09 3.700247052542332e-09 0 4.771996291212755e-09 8.516459134624787e-10 2.150952989940943e-09 1.465456601613793e-09 1.195521342555022e-09 4.360543851038225e-11 1.136358257392278e-09 0 1.067595276786264e-10 0 0 0 0 2.059566103926228e-10 2.620827860647458e-10 0 3.650042707038993e-11 0 0 0 0 0 2.576747879012278e-12 3.044386819909566e-12 1.662143745714033e-11 0 3.735623993566269e-12 0 0 0 0 1.270781556897454e-09 0 0 0 0 0 0 0 0 1:44 2:52 3:36 4:0 5:32 6:28 7:32 8:48 9:72 10:72 11:92 12:124 13:0 14:0 15:0 16:0 17:0 18:0 19:0 20:0 21:0 22:64 23:60 24:44 25:0 26:0 27:0 28:0 29:0 30:0 31:28 32:0 33:0 34:0 35:44 36:76 
-0 0 0 0 1.507982777637629e-09 2.152601709698499e-10 1.653746628620564e-10 6.667739457447256e-13 0 0 7.490680053810266e-10 0 6.330624052683558e-10 0 0 0 2.731151721456375e-10 0 0 0 7.477389339567876e-10 3.237379991092849e-10 3.767106368417022e-12 0 6.2408457184112e-10 3.530424315861158e-11 2.838703506359532e-10 0 0 0 8.766738056549086e-10 0 0 1.758964614188873e-09 5.723932943717252e-10 4.988474274730283e-10 0 1.092887611956881e-09 0 0 1.269177343752729e-10 1.909103014843141e-10 1.214368234398586e-09 0 4.879769650407527e-10 0 2.203407606566465e-10 5.963280125214872e-10 1.163813538128667e-09 8.346669088408861e-11 1.430430230603983e-09 3.287921409683277e-10 2.488208562830636e-09 3.123967378690426e-10 0 0 8.335372381361215e-11 0 3.831305959196369e-11 0 0 0 2.996705444621371e-10 0 0 0 5.62499158805714e-12 0 0 3.240744264350041e-12 0 0 6.370243170440137e-12 0 0 0 7.511215218199752e-11 0 0 0 0 1.339295632491895e-10 0 0 0 0 2.832336457552994e-11 4.379113786653982e-13 0 0 1:44 2:0 3:0 4:28 5:0 6:0 7:0 8:68 9:48 10:80 11:132 12:152 13:0 14:0 15:0 16:0 17:0 18:0 19:0 20:0 21:44 22:76 23:52 24:52 25:0 26:0 27:0 28:0 29:0 30:24 31:0 32:0 33:0 34:0 35:72 36:60 
-0 0 0 0 5.321396290113452e-10 9.441954016764029e-11 0 0 0 3.103766619415466e-10 8.52339768864322e-11 0 6.866839151208786e-10 0 0 0 2.731516218083222e-10 0 0 0 3.033806160494e-10 4.84320686889708e-10 0 0 2.964589642163179e-10 3.679898446922778e-12 5.519222616439291e-11 2.975230636350102e-11 0 0 8.490898210002721e-10 0 0 1.127964709388726e-09 0 2.459525157258137e-10 0 0 0 7.669249103561051e-11 1.280181103073124e-09 0 1.437314212399381e-09 0 7.325239311060299e-10 3.71833696901964e-11 4.460491396371195e-10 3.961415269608257e-10 1.560990596166707e-09 2.686641983587098e-10 0 7.081688633343265e-10 1.176969836296152e-09 2.958770764762051e-10 0 0 0 0 1.793350242601029e-10 0 0 2.30360169438627e-12 2.310155169431798e-10 0 0 0 0 0 0 0 0 0 6.077200639251777e-13 0 0 9.878429904458217e-12 4.95759425664391e-13 0 0 0 0 2.681721593399827e-10 0 0 0 0 0 0 0 0 1:40 2:0 3:0 4:0 5:0 6:0 7:0 8:72 9:52 10:32 11:108 12:176 13:0 14:28 15:0 16:0 17:0 18:0 19:0 20:0 21:72 22:56 23:44 24:84 25:0 26:0 27:0 28:0 29:28 30:28 31:0 32:0 33:28 34:72 35:68 36:44 
-1.358953365733574e-11 0 3.182021176466459e-13 4.905995605234177e-12 0 0 0 4.268303789976725e-13 0 0 4.319153760053317e-12 0 2.65842697245786e-10 0 0 6.632844047926446e-12 7.365199029916897e-11 0 7.400214607971617e-13 2.107901734994092e-12 0 0 0 0 2.00177339359861e-11 7.956651524678184e-11 1.654135132689087e-11 2.65495871382426e-11 7.567697257567282e-12 2.024892120328784e-11 0 2.359780044582411e-11 0 0 9.548427890675455e-11 8.178873019984783e-11 5.423980284475608e-11 0 0 7.852443862616593e-11 0 0 0 1.615231551771647e-11 0 0 0 0 1.449919404436016e-10 0 0 0 0 0 0 0 1.81669656606715e-11 1.432172782202757e-12 4.717416408208258e-11 0 1.470605887703917e-10 3.047255359368941e-11 0 0 0 4.662355506914144e-12 3.639343833216907e-11 1.608748266544274e-11 2.436454808588915e-12 1.128380230851446e-11 8.14801621656702e-12 1.974776525353981e-12 2.369228228681587e-11 8.09240926741236e-12 2.31886976793992e-11 3.418564597878542e-11 4.837935305607587e-11 4.361812191763031e-12 2.153366263536315e-11 0 1.10142674674116e-11 7.068279038341906e-13 1.348570775322887e-11 3.661272205862312e-12 0 4.570507900651828e-13 1.205748519425486e-11 7.375874601159787e-13 1.184663653402267e-12 1.682726506948952e-12 1:108 2:176 3:144 4:52 5:32 6:36 7:40 8:44 9:52 10:92 11:140 12:176 13:0 14:148 15:52 16:0 17:0 18:36 19:40 20:44 21:52 22:56 23:64 24:64 25:116 26:44 27:0 28:32 29:36 30:40 31:44 32:48 33:52 34:52 35:56 36:56 
-0 0 7.346199964258611e-13 0 5.611191136214991e-11 0 0 0 1.931068687522587e-11 9.515193912678643e-12 1.355376859832676e-11 0 4.855770988107502e-11 0 3.837206552587576e-12 0 1.280711292380493e-10 0 4.957470933017979e-12 2.542935320811127e-11 9.308269923949597e-12 0 0 5.783136136046173e-11 0 2.255991409466599e-11 0 0 4.87839559591244e-12 7.497882916330297e-12 7.496752765626046e-12 1.523153261490412e-11 8.826518935377145e-11 2.639762647621794e-10 0 3.665915140683432e-11 2.391917561991562e-11 8.134855576387275e-11 1.052290884021883e-10 1.785746493663753e-10 2.916627419456519e-11 6.356403937967536e-11 1.084799453856912e-10 6.387692900958825e-11 1.417438247499167e-11 4.462290333589559e-11 1.593216731115928e-10 2.130246212270574e-10 6.10220483069163e-11 1.961466127538047e-11 8.520785005067017e-11 2.958990904607205e-11 7.558114764865672e-11 5.099008709915203e-11 8.645957232447731e-11 4.681830954859683e-11 8.529189108938126e-11 3.442624980733988e-12 4.344811097770223e-11 3.573879429867501e-11 9.33746524887783e-11 4.57900143557404e-11 2.738660211863689e-12 0 2.607116961641877e-11 2.579801351645008e-11 3.700034377366539e-11 4.300633073120752e-11 1.450433435995857e-11 1.700566655646464e-11 6.78770615770623e-12 1.439200472484278e-11 8.691210455275203e-12 8.388061685515835e-12 7.945677749987195e-12 1.266343682434814e-12 2.66506450938639e-12 1.999664971864445e-12 0 1.169690585021755e-11 4.117908913674703e-12 0 0 0 0 0 0 0 0 0 1:128 2:140 3:176 4:100 5:0 6:0 7:0 8:0 9:0 10:44 11:64 12:60 13:220 14:8 15:124 16:36 17:0 18:0 19:0 20:0 21:0 22:0 23:0 24:32 25:48 26:124 27:60 28:0 29:28 30:28 31:28 32:28 33:0 34:0 35:0 36:36 
-0 0 0 3.756228282305483e-10 1.584800533745893e-09 0 1.244371042061784e-09 0 2.133650441562495e-09 0 2.316238105946092e-09 7.723634768641369e-10 4.111177774069631e-09 0 1.550203192957207e-10 6.452016617614568e-10 3.156399992993624e-09 1.23255424085032e-10 0 4.808202450807912e-10 0 0 0 2.534235876176427e-09 0 4.337908873493009e-10 0 0 1.444318690858384e-10 0 1.190261310732397e-09 1.231369128709446e-09 3.518201885778609e-09 2.679455211998623e-09 2.734829735510766e-09 1.652913956982496e-09 1.788427907189255e-09 3.214648534380182e-09 2.514729267537009e-10 4.597606999319719e-09 7.463766694001581e-10 1.261064894908932e-09 8.30924443544639e-10 3.215257439599984e-09 2.156097838061605e-10 1.330082032410357e-09 2.455896787173111e-09 6.023451116917565e-10 1.269311607023048e-09 8.242819400759543e-10 0 0 4.170376206804847e-10 6.422429850733572e-11 1.919251921262593e-09 1.495492235515436e-09 6.953684931196718e-10 0 0 2.120665294443502e-10 1.306955841465782e-09 1.320475255138903e-10 2.034967662220524e-10 9.139652685681818e-10 6.526366473480024e-10 0 2.990551052064945e-10 2.262646532184394e-10 8.517610880468339e-12 9.77347488067817e-11 1.097461454651413e-10 7.711840934758381e-11 1.515265708944509e-10 3.525931937728237e-11 5.537087955860773e-11 0 0 0 0 0 1.297288351966876e-10 0 0 0 0 0 0 0 0 0 1:84 2:80 3:80 4:48 5:32 6:0 7:0 8:0 9:32 10:72 11:80 12:40 13:52 14:32 15:0 16:0 17:0 18:0 19:0 20:0 21:0 22:0 23:0 24:0 25:0 26:0 27:0 28:0 29:0 30:28 31:0 32:0 33:0 34:0 35:0 36:0 
-0 0 0 1.038349230963157e-11 9.065029331707158e-11 0 1.661487313874357e-10 2.509337879054035e-13 0 1.567663973075887e-10 9.505776811396057e-11 3.677850630740675e-10 6.517931952417501e-10 0 0 0 9.109750942379657e-11 0 0 5.25499079373982e-12 2.597934896584418e-10 0 0 0 7.566238698483476e-13 0 0 4.459816009134579e-12 0 7.965384155595447e-11 5.785949171351759e-10 0 0 0 3.658335477174929e-10 0 0 0 1.108127564016811e-11 2.743031508463877e-10 1.834855301594947e-10 6.205855788460946e-10 2.840581900267512e-10 1.993310438203262e-10 0 0 0 1.427518621831519e-11 7.17300965092207e-10 0 0 9.197274353618161e-11 7.640822867197036e-11 0 0 0 0 0 0 0 0 0 5.230905168236548e-10 0 0 0 0 0 0 0 0 0 2.270879635184238e-12 0 0 0 1.834549243864453e-11 0 0 0 0 0 2.821027765470651e-11 8.947175280647633e-12 0 0 3.589636640476703e-11 0 0 0 1:40 2:0 3:36 4:0 5:36 6:40 7:60 8:64 9:60 10:84 11:140 12:200 13:0 14:0 15:0 16:0 17:0 18:0 19:28 20:0 21:72 22:52 23:0 24:0 25:0 26:0 27:0 28:0 29:0 30:24 31:28 32:0 33:0 34:60 35:68 36:56 
-1.546004467846816e-11 -1.955374665629056e-11 1.42045304242392e-12 1.220902910029567e-11 3.409627747655806e-11 1.516935122535606e-11 2.280148619948697e-11 3.010546812783131e-12 2.292709537169199e-11 1.400338754458783e-10 3.96734794551983e-11 3.018417960276948e-11 2.820154988333679e-11 2.328694837314186e-11 1.270017972396197e-11 1.665623253905731e-11 2.664016179705265e-11 1.230838039363765e-11 6.977295072915886e-12 1.236872315982089e-11 1.643806343852584e-11 1.569961622096147e-11 1.139167566023817e-11 1.257690612677211e-11 1.710247955149913e-11 1.547463196587644e-11 1.378107149411305e-11 1.774213241402219e-11 1.078270425717902e-11 1.28514817701356e-11 2.973418982878768e-11 1.27875703612477e-11 2.262685742870582e-11 2.01654465351789e-11 1.533956633437665e-11 1.786625472848895e-11 2.797454878478926e-11 1.9883874415048e-11 1.31672542112392e-11 2.103124338393579e-11 1.561534248170118e-11 1.518752764506051e-11 2.164109300886806e-11 2.985858570631437e-11 1.803433272090689e-11 1.867234232648534e-11 1.843800304190906e-11 1.938655621372559e-11 1.980480887042791e-11 1.486531699531795e-11 2.455188279616438e-11 1.542680168915739e-11 1.588031990438898e-11 2.085771940014138e-11 1.830315446507697e-11 2.366500800070771e-11 3.054392489734013e-11 6.956289796510739e-12 1.844092509525299e-11 1.311796353327598e-11 1.365626018060646e-11 1.334634275898411e-11 1.390886263429501e-11 2.179050026221829e-11 2.648597423892634e-11 5.578475333870996e-12 1.985141129789837e-11 3.089150986999464e-11 8.840501387067248e-12 1.195015333619382e-11 1.107273437183932e-11 1.074661904282788e-11 1.176997238549277e-11 1.069333875045502e-11 1.230543609795474e-11 1.312122548091282e-11 1.647287229141217e-11 6.425955790457693e-12 2.482593942076197e-11 3.569468569951525e-12 1.061373069960752e-11 1.871108631011477e-11 2.607379858263742e-11 6.509570414639269e-12 1.628073784845352e-11 2.486847944129976e-12 1.126077796024385e-11 1.097979648355075e-11 1.124778681773463e-11 1.650059009542522e-11 1:36 2:0 3:0 4:32 5:0 6:0 7:68 8:112 9:116 10:60 11:40 12:112 13:0 14:0 15:0 16:0 17:0 18:0 19:0 20:0 21:60 22:168 23:204 24:68 25:0 26:0 27:0 28:0 29:0 30:28 31:0 32:0 33:0 34:40 35:116 36:224 
-1.606603812165341e-12 -1.797750825630632e-12 -1.42045304242392e-12 1.611559740892116e-12 1.940198910210725e-12 1.604068297327041e-12 1.754466309262083e-12 9.696403496114504e-13 1.805544702922568e-12 1.680324285104849e-12 1.694632786386527e-12 1.773048549944068e-12 1.773628538904508e-12 1.606258003972985e-12 1.656884677684714e-12 1.696530394889408e-12 1.929697328545525e-12 1.656083562660377e-12 1.607190427829344e-12 1.736824187578962e-12 1.814099546592691e-12 1.829917713197155e-12 1.485111086742703e-12 1.61965917697775e-12 1.587635799597206e-12 1.681284098197278e-12 1.598496687912112e-12 1.630615516464618e-12 1.641865695030251e-12 1.60413025024977e-12 2.085353262028041e-12 1.777190692157798e-12 1.71637883735949e-12 1.876458867238996e-12 1.886035532494715e-12 2.0728208601674e-12 1.750003528156619e-12 1.760781769197852e-12 1.7203273369447e-12 1.842103191756732e-12 1.946218596758494e-12 1.92047139882738e-12 1.809645062182281e-12 2.029529704918907e-12 1.730110488715077e-12 1.785596319447193e-12 1.911188617398428e-12 1.925906126876555e-12 2.101772586712148e-12 1.699799199857016e-12 2.026005422158188e-12 1.90686530598005e-12 1.899156770444503e-12 1.736290712423131e-12 1.781107619356088e-12 1.942170823176405e-12 1.783752809583514e-12 1.645805065744616e-12 1.818070306834201e-12 1.824346025368717e-12 1.700364053326685e-12 1.907085014578183e-12 1.751677652414319e-12 1.656016600115766e-12 1.706922458541621e-12 1.615013823599743e-12 1.791639695046836e-12 1.704508258535271e-12 1.684849145356687e-12 1.790128062265965e-12 1.685797038991234e-12 1.724587437846097e-12 1.628663500135215e-12 1.66764653438836e-12 1.636291641135999e-12 1.664124491026962e-12 1.722235903717959e-12 1.629449298507608e-12 1.76044296438736e-12 1.677828594004145e-12 1.659074048698535e-12 1.599869906342342e-12 1.631943265625041e-12 1.387787697791352e-12 1.571735379386824e-12 9.007561336939172e-13 1.580832346809218e-12 1.428648171437498e-12 1.387731879606628e-12 1.392470790499075e-12 1:212 2:188 3:140 4:112 5:152 6:188 7:100 8:44 9:0 10:0 11:0 12:36 13:108 14:120 15:232 16:20 17:212 18:76 19:0 20:0 21:0 22:0 23:0 24:0 25:180 26:72 27:68 28:156 29:68 30:28 31:28 32:0 33:0 34:0 35:0 36:0 
-2.695440198718711e-10 -4.495471189802566e-10 -1.220902910029567e-11 -1.611559740892116e-12 5.735199544507921e-10 3.131238682674483e-10 5.068259213463721e-10 2.492764923298905e-12 3.385721929356806e-10 3.383970059210628e-10 3.576924056912188e-10 3.326706801511276e-10 4.617477897439503e-10 2.849009100167356e-10 2.769124543288412e-10 3.176686698162936e-10 4.612252906569292e-10 2.277321940039204e-10 1.520212024264167e-11 2.759662354527777e-10 6.172482325578252e-10 3.454668368373443e-10 1.928133104541081e-11 3.148568376869428e-10 1.551528798704212e-10 3.267119039921535e-10 2.665506658374202e-10 9.514045154822052e-11 1.091591699697688e-10 3.473249739139758e-10 3.874524261964013e-10 4.13732643203231e-10 7.420721583285155e-10 4.094964024344299e-10 4.466146991606364e-10 4.532471459011624e-10 3.31615732738081e-10 7.10992489016882e-10 3.766796299657873e-10 6.94612379364648e-10 6.484415993091588e-10 4.11110735642485e-10 3.849508622166536e-10 5.814047111296181e-10 3.526977453873241e-10 9.468281018770239e-10 6.308799711521952e-10 7.725341773316693e-10 5.501246117732928e-10 3.362525694580109e-10 3.956944079436309e-10 3.583689592292283e-10 3.770927984238757e-10 3.609073625758962e-10 4.714052781021444e-10 6.693334892026508e-10 4.458187511537948e-10 1.499273910041301e-11 5.324185128361945e-10 2.932239322953686e-10 1.566386950847673e-09 2.653560099418927e-10 2.238393548663814e-10 3.339401064737091e-10 6.155809102725754e-10 9.513255619955842e-12 2.465993077452616e-10 2.133073737617431e-10 3.310047190811063e-11 1.223602262882531e-10 1.209659024784797e-10 7.050263997981439e-11 1.682494208235778e-10 5.47246634221484e-11 8.625195346785243e-11 6.90197424191009e-11 8.312324151113048e-11 1.385758926139039e-11 6.484387657083148e-11 5.020957739486754e-12 9.656722342049639e-11 2.819956641026145e-10 2.956302410299321e-11 8.395875912911791e-12 6.734053310867611e-11 2.110102520468454e-12 8.901848239006119e-11 1.292161114557783e-11 1.020353149266322e-11 1.054231717030669e-11 1:176 2:92 3:52 4:0 5:0 6:0 7:0 8:32 9:64 10:76 11:72 12:88 13:48 14:0 15:0 16:0 17:0 18:0 19:0 20:0 21:0 22:0 23:0 24:0 25:0 26:0 27:0 28:0 29:0 30:32 31:28 32:0 33:0 34:0 35:0 36:0 
-0 -2.038645897341729e-10 -0 -0 -2.734970816379736e-10 0 0 0 2.253523031358511e-10 0 3.560499439172505e-12 0 2.194631642938826e-10 0 0 0 1.70300750611636e-10 0 6.338819511887566e-12 3.967659344412675e-10 0 0 0 3.947684883376089e-10 0 8.200931103720009e-11 0 0 1.409718657200481e-10 2.307675925586326e-10 0 5.036004596218553e-10 6.514678988019252e-10 0 3.923968835019386e-10 4.709240880551064e-10 4.515893969010543e-10 9.666208690224568e-10 2.442354395268516e-10 0 0 0 0 2.949231726760192e-10 0 2.571942758573335e-10 0 0 8.607591260551695e-10 0 0 0 0 0 5.27715913333887e-10 0 0 0 3.771636341012343e-10 0 3.227623673808944e-10 9.403292254008201e-11 3.450973740227853e-12 0 0 0 7.111175296316952e-11 1.124444421654978e-11 3.686656469448626e-11 1.369515731065856e-10 1.407706772793527e-10 9.984945538872771e-11 6.236731326349453e-11 3.757114434020726e-11 4.421264653831899e-11 0 0 4.022288373046495e-12 0 0 1.30579494041143e-10 0 0 0 0 0 0 0 0 0 1:148 2:132 3:68 4:44 5:0 6:0 7:0 8:0 9:36 10:40 11:0 12:64 13:100 14:40 15:0 16:0 17:0 18:0 19:0 20:0 21:0 22:0 23:0 24:0 25:0 26:0 27:0 28:0 29:28 30:28 31:0 32:0 33:24 34:0 35:0 36:0 
-7.498802499697822e-10 -5.778693342547452e-09 -0 -0 -0 4.636300479261093e-09 3.395406269268133e-09 0 8.707735642723304e-09 3.555980448986839e-09 1.550943663479908e-09 3.265522568202619e-09 4.990583842621602e-10 3.79478861109246e-09 5.566345116495843e-09 9.483947216627759e-10 1.08926702120095e-08 3.265291606649644e-10 0 0 3.542487905000359e-09 1.079177603955137e-08 7.46414433045217e-12 3.766618670629666e-09 0 0 0 0 0 1.988610966208891e-10 1.554724440424717e-08 1.761524778780498e-09 2.921388310047005e-09 1.91243238246618e-08 4.081029772594955e-10 1.829258125529761e-09 3.796101330781285e-10 8.390921231954747e-09 3.834378366433173e-09 2.545298217009474e-08 1.140314548981918e-08 1.795467898712493e-09 5.37772663709333e-09 1.048482775129606e-08 7.807856309504884e-09 1.146782664672122e-08 1.3109072753578e-08 2.600833755465057e-08 2.416426717640434e-10 1.059545674486858e-08 4.887672642726025e-09 6.25173264098764e-09 7.159148153913406e-09 1.052837128736019e-08 1.349176728071211e-08 1.085439970134601e-08 4.513732705908902e-09 0 0 3.301068418575849e-09 1.466401548191544e-10 0 0 1.763676571864993e-08 7.478244551826518e-09 0 0 0 0 0 0 0 0 0 0 0 0 0 0 0 0 0 0 0 1.011966879044978e-10 0 0 0 0 0 1:76 2:64 3:64 4:0 5:0 6:0 7:0 8:0 9:44 10:40 11:0 12:0 13:44 14:32 15:0 16:0 17:0 18:0 19:0 20:0 21:0 22:0 23:0 24:0 25:0 26:28 27:0 28:0 29:24 30:0 31:0 32:0 33:0 34:0 35:0 36:0 
-0 -1.779202887798336e-09 -0 -0 -0 6.771661915537271e-10 0 0 2.569334074047014e-09 7.403756075232128e-10 1.142887955657898e-09 7.729592062276514e-09 2.213751490573789e-09 2.402630653183035e-09 6.936343817446186e-10 0 4.691174425372791e-10 0 0 0 1.810802476476337e-09 1.351827348032772e-09 0 0 0 2.612297197628419e-10 1.082657790788816e-09 0 0 4.862334079106443e-09 1.002066100219689e-08 2.201684565653406e-09 1.131794201140406e-09 2.734394419904052e-08 1.10424822322614e-09 0 0 8.571012732230162e-10 2.730802479567914e-09 1.64513794677181e-08 9.957078898216561e-10 2.228555111448482e-09 3.056984552308488e-09 1.312287246023357e-08 3.075165526085171e-10 0 5.126669473539207e-09 6.756909467707997e-08 3.72426337989447e-09 1.785220674186551e-09 8.861815798451395e-10 3.502049851640889e-09 4.252703390239474e-08 3.119900820075215e-09 3.96091296848171e-09 0 0 0 0 0 0 0 0 0 1.291039930000152e-10 0 0 0 0 0 0 0 3.593681468407441e-11 0 0 0 0 0 0 0 0 0 0 0 0 0 0 0 0 0 1:48 2:40 3:48 4:32 5:0 6:0 7:32 8:36 9:52 10:64 11:88 12:104 13:0 14:0 15:0 16:0 17:0 18:0 19:0 20:0 21:0 22:0 23:40 24:64 25:0 26:0 27:0 28:0 29:0 30:28 31:28 32:0 33:0 34:0 35:0 36:0 
-0 -0 -0 -0 -0 0 2.220868279468584e-11 0 0 0 0 0 1.998306091597045e-10 0 0 8.329212582131931e-12 1.13830792646593e-10 0 1.058540755884641e-11 5.329386033306603e-11 3.356467317686928e-11 0 0 0 0 0 0 5.599626503991843e-12 0 0 4.247905995147531e-11 3.960931370514789e-12 2.917284721991376e-11 6.637558173525211e-11 2.78050464291856e-11 0 0 4.870496961177629e-10 0 0 1.399453052766855e-10 0 2.775925121811869e-11 3.246261573508e-11 0 0 1.645772478571485e-10 0 0 0 0 0 3.492010517658814e-11 0 0 3.003693087248142e-11 0 3.867058369582532e-11 6.726890603821071e-11 4.93428165537812e-11 0 0 0 0 0 0 0 8.124126688068242e-12 0 0 0 0 0 1.14250625705079e-12 0 0 0 0 0 0 0 0 0 0 0 0 0 0 0 0 1:0 2:0 3:144 4:160 5:44 6:0 7:0 8:0 9:0 10:36 11:68 12:84 13:180 14:232 15:116 16:0 17:0 18:0 19:0 20:0 21:0 22:0 23:24 24:0 25:192 26:88 27:0 28:0 29:0 30:28 31:0 32:28 33:0 34:0 35:0 36:0 
-0 -0 -0 -0 -0 0 1.815452619756364e-10 0 0 0 0 0 2.793787373227404e-09 0 0 0 6.579015689451947e-09 0 0 1.447593296359802e-11 1.756761426461793e-09 0 0 0 0 0 0 0 0 0 0 0 0 3.582388929411558e-11 0 0 0 2.481212837939074e-10 0 0 3.233047027745604e-09 0 0 1.698054780380213e-10 0 0 0 0 0 0 0 0 4.478530247372393e-10 0 0 0 2.382493908718036e-10 0 0 2.338773593151292e-10 0 0 0 0 0 0 0 0 0 0 0 0 0 0 0 0 0 0 0 0 0 0 0 0 0 0 0 0 0 0 1:0 2:0 3:72 4:48 5:32 6:0 7:0 8:0 9:36 10:40 11:48 12:52 13:84 14:100 15:52 16:40 17:32 18:0 19:0 20:28 21:0 22:0 23:0 24:0 25:100 26:60 27:40 28:40 29:36 30:32 31:32 32:0 33:0 34:0 35:0 36:0 
-0 -1.624629576893092e-09 -0 -0 -0 0 0 0 0 2.101421051449224e-10 0 6.803977760386913e-11 0 0 0 0 3.60261985534755e-09 0 0 2.817530174854853e-10 0 3.492491910649309e-10 0 0 0 0 0 0 0 0 1.980146393126382e-09 0 0 1.22272345294876e-09 1.115020479723532e-10 8.500930600774357e-11 0 2.383635005854611e-11 0 0 0 0 3.768929368620499e-10 6.009652463854531e-10 0 0 0 7.650035259135406e-11 3.936419090804529e-10 0 4.083206105658684e-10 1.229059469498558e-09 0 2.151455493198214e-10 0 7.655276777542242e-10 2.796227425442935e-10 0 1.70157781158757e-10 0 0 4.768144671152269e-11 0 0 1.081853475364363e-10 0 0 0 0 0 0 0 0 0 0 3.040316805664977e-11 0 0 0 0 0 0 0 0 0 0 0 0 0 0 1:0 2:0 3:76 4:56 5:36 6:0 7:0 8:0 9:32 10:40 11:44 12:48 13:92 14:84 15:48 16:40 17:0 18:0 19:0 20:0 21:24 22:0 23:0 24:0 25:72 26:44 27:44 28:44 29:44 30:36 31:0 32:0 33:28 34:0 35:28 36:0 
-0 -0 -0 -0 -0 0 0 0 0 0 0 0 9.813073107982297e-10 0 0 5.399652674050967e-11 0 0 0 0 1.551759994448706e-10 0 0 0 0 0 0 0 0 0 0 0 0 0 0 0 1.455210006610708e-10 0 0 0 0 0 0 0 0 0 0 3.105848934562618e-11 0 0 2.230282146550123e-10 0 0 0 0 0 0 0 3.155750158635408e-10 8.868999057490443e-11 0 2.711490458994742e-10 9.412179903138285e-10 0 0 0 0 0 0 0 0 0 0 0 0 0 0 0 0 0 0 0 0 0 0 0 0 0 0 0 1:0 2:0 3:72 4:88 5:52 6:40 7:36 8:0 9:0 10:40 11:48 12:64 13:76 14:104 15:84 16:60 17:48 18:40 19:36 20:32 21:32 22:0 23:0 24:0 25:112 26:68 27:48 28:52 29:60 30:56 31:40 32:36 33:0 34:0 35:24 36:0 
-0 -3.703486469432734e-10 -0 -0 -0 0 0 0 3.526072533567914e-11 1.94085454318834e-11 0 2.132991468701615e-11 1.680437838256744e-09 0 0 0 1.601324900983821e-09 0 0 0 0 0 0 0 0 0 0 0 0 0 0 0 0 0 2.869402247574279e-10 0 0 0 0 0 1.944873462730542e-09 0 4.82197197999877e-10 0 0 0 3.996672844046361e-10 0 2.048930078726732e-10 0 0 1.606392529345298e-10 0 0 0 0 0 0 4.563196056086792e-10 0 0 0 0 0 0 0 0 0 0 0 0 0 0 0 0 0 0 0 0 0 0 0 0 0 0 0 0 0 0 0 1:0 2:0 3:88 4:84 5:56 6:52 7:40 8:0 9:36 10:44 11:56 12:64 13:88 14:92 15:68 16:64 17:52 18:48 19:40 20:0 21:0 22:0 23:0 24:28 25:84 26:56 27:60 28:56 29:52 30:56 31:40 32:36 33:0 34:0 35:28 36:0 
-0 -6.987360224946667e-10 -0 -0 -0 0 7.777238078562531e-10 0 3.088095188175604e-10 0 1.6255751476132e-10 0 1.640089427032309e-09 0 0 0 7.080785648829766e-10 0 0 1.109438863942991e-10 0 0 0 0 0 0 0 0 0 0 4.03846170737299e-10 0 0 0 2.813588488071632e-10 0 2.812251880945605e-10 3.67243551943862e-10 0 1.00556012527743e-10 6.011546769732729e-09 0 3.170160064672929e-09 1.259594972148429e-09 0 0 7.947994113679321e-10 1.324239179460734e-10 0 0 0 0 2.49635409590279e-09 5.012363326673679e-12 0 0 0 2.274617747640236e-12 3.298913935933888e-10 1.012393372627246e-09 0 0 1.460045289273136e-09 0 1.188975550516818e-10 0 0 0 0 0 0 0 0 0 0 0 0 0 0 0 0 0 0 0 0 0 0 0 0 0 1:0 2:0 3:76 4:92 5:64 6:52 7:44 8:40 9:36 10:44 11:56 12:64 13:96 14:92 15:68 16:64 17:56 18:48 19:40 20:36 21:32 22:0 23:0 24:0 25:76 26:52 27:52 28:60 29:52 30:52 31:48 32:40 33:36 34:0 35:0 36:0 
-1.067524942508839e-10 -1.137369005313783e-10 -1.989848374881183e-11 -0 -0 2.231308767826991e-11 7.09957521874146e-12 0 6.043860593788129e-11 1.596094090339066e-10 1.693822669225341e-10 2.343569777318468e-11 1.773787134946681e-10 2.582283333719644e-10 1.260435565705882e-11 1.295702111485585e-11 4.820463014881872e-10 0 0 0 1.675394775715047e-10 1.317336186209066e-10 7.019039395198208e-12 0 0 0 0 4.052438832661601e-11 0 0 2.586961033572478e-10 0 0 4.561274125892675e-10 0 0 7.953951795568374e-12 0 0 1.367790448633337e-10 3.554348182624943e-11 1.497356264842602e-10 2.695741037669674e-11 2.37144478248635e-10 9.745406679398252e-11 8.712717812108721e-11 8.153337179220135e-12 1.985699332421482e-10 2.768941970803654e-11 2.093797774369587e-11 0 2.008984131359375e-11 1.316219376573466e-10 1.946029973426169e-11 4.289104451577015e-11 1.584118936485043e-10 2.384343148639581e-10 0 0 0 5.762146027937488e-11 1.401310491661958e-12 0 1.523988825959089e-10 1.262161271775438e-10 0 0 1.869856842455657e-11 0 0 0 0 0 0 0 7.804976240396346e-11 0 0 1.399511349678962e-10 0 0 2.496790394077566e-11 0 0 1.088355224420216e-11 0 0 0 0 4.899425632482598e-13 1:0 2:0 3:0 4:0 5:0 6:0 7:68 8:136 9:96 10:36 11:0 12:64 13:0 14:0 15:0 16:0 17:0 18:36 19:48 20:44 21:76 22:120 23:120 24:80 25:0 26:0 27:0 28:0 29:0 30:44 31:48 32:44 33:52 34:60 35:84 36:144 
-0 -0 -1.277121309522454e-12 -0 -0 5.583874425135871e-11 0 0 1.032183270388797e-10 1.282667348121213e-10 7.661842067803854e-12 0 6.286356544212418e-12 0 0 2.970315833151625e-11 0 0 0 0 0 2.116903143902971e-10 1.003437756759902e-12 0 0 0 0 0 0 0 1.749799603747816e-10 1.00584455860627e-11 2.851492469558089e-11 3.321213488600514e-12 0 1.764920274877622e-11 0 2.132678797163268e-10 4.787196947750239e-12 0 1.911068729047699e-10 8.065099849201749e-11 0 5.958779472898544e-10 1.392807466505376e-10 4.171146681857771e-11 1.127057519275588e-10 0 1.294707342520312e-10 6.620606313847764e-11 1.07182287986711e-11 0 0 2.727080468474401e-10 0 0 2.707616507157153e-10 0 0 8.848961097590303e-12 0 0 0 1.426484712721929e-10 4.083686837102131e-10 0 5.486655234593141e-11 6.256581037519855e-12 0 0 0 0 0 0 0 0 0 0 7.351175145147906e-11 0 0 0 0 0 1.416314186181305e-10 0 0 1.153007813064643e-11 4.994700409214952e-12 6.017075027385346e-12 1:48 2:32 3:0 4:0 5:0 6:0 7:40 8:88 9:104 10:64 11:0 12:0 13:0 14:0 15:0 16:0 17:0 18:0 19:0 20:0 21:40 22:120 23:200 24:148 25:0 26:0 27:0 28:28 29:0 30:32 31:32 32:0 33:0 34:0 35:48 36:144 
-0 -9.80255645497291e-11 -0 -1.624742466776379e-13 -0 0 0 0 0 0 0 0 6.493528474016081e-11 0 0 0 1.901333273796811e-10 0 0 0 9.760832368872513e-11 0 0 0 0 0 2.199101571466706e-14 0 0 0 8.709873471570159e-12 0 0 0 7.789102118917175e-12 8.8513825814525e-11 5.647631426696672e-11 8.822448722343019e-11 0 1.135897247078242e-10 2.277373910268638e-11 1.42284224833707e-10 6.859901679871672e-11 1.433039062045656e-11 6.623881110233449e-12 0 0 1.426975963338229e-10 0 0 5.366409079782693e-11 0 0 0 0 0 0 0 0 6.663504252242962e-12 0 7.685714858429486e-11 1.406252285503551e-11 0 0 0 0 1.639326028425414e-12 0 0 0 0 0 0 0 0 2.30403354273823e-12 0 3.392251081416771e-11 0 0 0 0 0 0 0 0 0 0 0 1:104 2:160 3:184 4:84 5:32 6:0 7:0 8:36 9:48 10:68 11:76 12:64 13:12 14:204 15:88 16:32 17:0 18:0 19:0 20:36 21:44 22:48 23:48 24:60 25:164 26:72 27:32 28:32 29:32 30:32 31:36 32:40 33:40 34:44 35:52 36:60 
-0 -2.907569975758141e-10 -0 -0 -0 1.749117986518796e-10 0 0 1.477169796813364e-10 0 0 1.601526747868767e-10 0 1.59272767575263e-10 0 4.410623812253662e-11 0 0 0 0 0 0 0 0 0 5.584254303618618e-11 1.381634422023662e-10 4.920681477873157e-12 0 0 4.182368508188519e-10 0 0 0 0 3.034669769817768e-10 0 0 0 0 0 0 0 3.895804999837828e-10 4.698701701654676e-11 2.804580942159066e-10 8.799760416175786e-10 3.065180392917972e-10 1.996195561607221e-10 2.535103571821042e-11 2.845987448173113e-10 0 0 0 3.403757826847307e-11 0 0 0 0 1.722265360524286e-10 0 0 0 0 0 0 0 0 0 2.104858310852691e-11 0 0 5.0450444982244e-12 3.758135870199512e-12 4.34269235694161e-11 0 0 0 0 0 0 0 0 0 0 0 0 0 0 0 1:52 2:52 3:36 4:32 5:32 6:36 7:0 8:52 9:60 10:40 11:52 12:108 13:0 14:0 15:0 16:0 17:0 18:0 19:28 20:0 21:0 22:60 23:140 24:188 25:0 26:0 27:0 28:0 29:0 30:28 31:24 32:0 33:0 34:0 35:0 36:68 
-0 -1.943662101728426e-09 -0 -0 -2.620703814151662e-11 5.987717425318827e-10 3.658495271284831e-10 0 0 0 1.531824844217478e-09 4.782494136319003e-11 1.740422953028885e-09 0 0 2.999654448722733e-11 1.055613554839857e-09 4.758930236805871e-12 0 9.975977888922816e-12 8.022054995884817e-10 1.743429313596697e-09 0 0 4.684049607505244e-10 0 2.315668512802181e-10 0 0 0 1.850215833578912e-09 0 0 1.157435594310488e-09 5.813916681673533e-10 9.207887714448357e-10 1.463969542833553e-10 1.952904992151617e-09 0 6.113673429021732e-10 2.407904459362049e-09 1.172373514162124e-09 2.143675772669903e-09 0 5.033919413906651e-10 2.32238207496024e-10 8.19081209830726e-10 0 1.965721714776435e-09 0 1.913500093037695e-09 1.079792475919582e-09 6.350636585919186e-10 0 0 0 9.761329566735901e-10 0 0 0 2.499723521955126e-10 0 5.064954831729238e-10 0 0 0 0 0 0 0 0 0 0 0 0 0 0 0 0 0 0 0 0 0 0 0 1.966427093519896e-11 0 0 0 1:52 2:40 3:0 4:0 5:32 6:32 7:36 8:60 9:72 10:76 11:108 12:144 13:0 14:0 15:0 16:0 17:0 18:0 19:0 20:0 21:36 22:72 23:0 24:36 25:0 26:0 27:0 28:0 29:0 30:24 31:28 32:0 33:0 34:24 35:52 36:68 
-0 -1.384515563788571e-10 -0 -0 -0 0 0 0 0 0 0 0 0 3.677225544201629e-11 0 4.978299110198021e-10 2.193569275819922e-09 0 0 0 0 4.543032695170807e-09 0 0 0 0 0 0 0 2.658517207339008e-10 7.398648175140834e-09 0 0 3.294831170152808e-10 0 0 0 6.704942296760661e-10 1.051138819224904e-09 1.889553875761868e-09 1.092713596500035e-09 0 3.223202738881815e-09 1.712726264673418e-09 2.127117980861078e-09 6.771340003608669e-10 7.713736772423574e-09 0 1.842521707859938e-09 3.251307684588679e-09 8.17829715364152e-10 6.245051188706488e-09 3.411656157412544e-09 1.500814349616251e-09 3.463768032810335e-10 0 2.322789719745099e-10 0 0 0 0 2.751684030982237e-10 0 0 0 0 0 0 0 0 0 0 0 0 0 0 0 0 4.447042776731109e-11 0 0 0 0 0 0 0 0 0 0 0 1:76 2:0 3:0 4:64 5:48 6:0 7:32 8:32 9:40 10:48 11:56 12:68 13:0 14:60 15:60 16:32 17:0 18:0 19:0 20:0 21:0 22:0 23:0 24:28 25:88 26:52 27:0 28:0 29:24 30:28 31:28 32:0 33:0 34:0 35:0 36:0 
-5.194282213411749e-11 -0 -0 -0 -0 2.659636957401324e-10 1.040455378116145e-10 0 0 0 0 0 0 1.282304172515674e-09 3.90643884734646e-10 0 0 0 0 0 1.08543063602073e-09 1.062997082171079e-08 0 0 0 0 0 0 0 0 2.072321706327212e-08 0 0 8.119054328502113e-09 0 1.486737534275029e-09 0 4.835029881651358e-09 1.638306634484596e-09 2.243055816833847e-08 7.628726626465351e-09 1.418133316877393e-08 1.859045851015467e-08 3.177571629376576e-09 7.146570868659069e-09 4.871739689595144e-09 2.380054607358903e-08 9.526695831838821e-09 6.126069551134149e-10 4.617461752391422e-09 1.111519504207173e-08 8.771597734061016e-09 2.835064793443042e-08 9.271058351619443e-09 4.155379881220966e-09 6.218282449037202e-09 3.733578496670133e-09 0 2.399769954340642e-11 3.662163447133026e-12 0 2.831454839092209e-10 0 1.457692108504232e-11 9.725687176199956e-10 0 0 0 0 0 0 0 0 0 0 0 0 0 0 0 0 0 0 0 0 0 0 0 0 0 1:84 2:0 3:0 4:52 5:48 6:0 7:0 8:32 9:0 10:44 11:52 12:64 13:0 14:0 15:64 16:36 17:0 18:0 19:0 20:0 21:0 22:0 23:0 24:0 25:56 26:76 27:0 28:0 29:0 30:28 31:24 32:0 33:0 34:0 35:0 36:0 
-1.299138274260252e-10 -4.018284235976881e-09 -0 -0 -0 9.051990085672676e-10 3.645719535974184e-10 0 3.958650836466179e-10 2.889958804348819e-10 0 1.539382103503603e-09 3.162522607386605e-10 9.725153651423331e-09 2.287601026775733e-09 2.223611742954662e-09 1.134971631622113e-08 3.321765562708154e-11 0 0 2.381197914623813e-09 5.40570478700003e-09 2.408998883589591e-13 0 0 0 0 0 0 0 1.482810333639547e-08 0 0 1.122202661736769e-08 0 1.595695392731215e-09 0 3.436016281522072e-08 0 1.584649814976689e-08 2.174427503555747e-08 2.209705899699089e-08 4.030950705078847e-08 6.147857674141377e-09 9.631721060145891e-09 1.011406392491803e-08 1.719572497020673e-08 3.104623068025767e-08 0 6.857303006090803e-09 1.571253747453025e-08 2.192124950946527e-08 4.653645544678321e-08 7.674102386923816e-09 1.928291539657041e-09 1.996220588193803e-09 1.328217157990878e-09 0 2.164159699492746e-10 7.002027228523249e-10 0 8.852507778092212e-10 0 1.484816631021727e-09 9.332482310658903e-10 0 0 0 0 0 0 0 0 0 0 0 0 0 0 0 0 0 0 0 3.337730292073567e-11 0 0 0 0 0 1:0 2:0 3:0 4:60 5:40 6:0 7:0 8:0 9:0 10:44 11:56 12:60 13:0 14:48 15:60 16:0 17:0 18:0 19:0 20:0 21:0 22:0 23:0 24:0 25:80 26:44 27:0 28:0 29:28 30:28 31:0 32:0 33:0 34:0 35:0 36:0 
-0 -0 -0 -7.897048641919891e-14 -0 0 0 0 0 0 0 0 0 0 0 0 0 0 1.025332310259545e-11 2.174629726859264e-12 7.945293459951658e-11 0 0 0 0 0 0 0 0 0 0 0 0 0 0 0 0 0 0 0 0 0 0 0 0 0 1.505364384290943e-11 0 0 0 4.607210133750488e-11 0 0 0 0 0 3.543465534269425e-11 2.692973385938808e-12 4.938080641321137e-11 3.746519155989756e-12 0 1.409744264794373e-11 0 0 0 0 0 0 0 0 0 0 0 0 0 0 0 0 5.576308148003522e-12 2.057021210402058e-13 0 0 0 0 0 0 0 0 0 0 1:0 2:28 3:168 4:116 5:0 6:0 7:0 8:0 9:0 10:44 11:72 12:80 13:184 14:240 15:116 16:0 17:0 18:0 19:0 20:28 21:0 22:0 23:0 24:0 25:248 26:120 27:48 28:32 29:32 30:32 31:0 32:0 33:0 34:0 35:24 36:0 
-0 -0 -0 -0 -0 0 0 0 3.975368909492685e-10 0 0 3.787070942208424e-10 2.884046537536466e-10 1.03526216131638e-11 0 3.211808252566937e-10 9.525175554249476e-10 0 0 0 0 7.367261464495338e-10 0 0 0 0 0 0 0 0 4.732014594479635e-10 0 0 4.216510137713795e-10 3.36412124606243e-10 1.517418446908467e-10 3.972559959216911e-10 7.366570646537218e-10 9.036957296407739e-11 1.013784050646957e-09 6.494363434131773e-10 6.482351723906892e-10 8.975950390150687e-10 5.726046017286929e-10 5.507315706864102e-10 2.881900922754289e-10 9.422716312381189e-10 1.393504148126903e-09 3.814645662784891e-10 0 8.737514882175237e-10 8.082833335029094e-10 2.787129855634419e-09 5.751324036898183e-10 1.697830556001957e-10 6.822106183049263e-11 0 0 3.454403754853945e-10 1.754212581522226e-10 0 3.766593020178177e-10 1.300332757238038e-10 0 0 0 0 0 0 0 0 0 0 0 0 0 0 0 0 0 0 0 0 0 0 0 0 0 0 0 1:0 2:0 3:0 4:92 5:76 6:56 7:48 8:40 9:36 10:40 11:48 12:60 13:36 14:84 15:100 16:80 17:56 18:64 19:44 20:40 21:36 22:0 23:0 24:0 25:88 26:100 27:52 28:60 29:56 30:52 31:60 32:44 33:44 34:32 35:0 36:0 
-0 -0 -0 -6.973701888563733e-13 -0 0 0 0 9.629172271957252e-11 0 0 0 0 0 0 0 1.474456570627576e-09 2.131802764426138e-11 0 0 3.93138948033741e-10 9.651670157975456e-10 0 1.090813547019558e-10 0 0 0 0 0 0 9.170714493167419e-10 0 0 1.567262311287817e-09 0 6.486145169487989e-10 0 0 0 0 3.795503998053589e-09 6.080057950431708e-10 3.426026666962317e-10 0 0 0 1.03214070528008e-09 2.948186172500526e-09 0 0 2.236983380415721e-10 2.217229810508995e-09 1.228360670319353e-09 1.892657545592499e-10 4.819300701837874e-10 1.95787905362291e-09 0 0 0 9.031080566813976e-12 7.70983758504637e-11 1.664637918024825e-10 0 0 7.675191832092081e-11 0 6.528710212723211e-10 2.153030659657501e-11 0 0 0 1.738637804170767e-11 0 0 0 0 0 0 0 0 0 0 0 0 0 0 0 0 0 0 1:124 2:100 3:68 4:76 5:60 6:36 7:0 8:0 9:0 10:0 11:36 12:0 13:64 14:60 15:68 16:64 17:28 18:0 19:0 20:0 21:0 22:0 23:0 24:32 25:56 26:64 27:76 28:0 29:28 30:0 31:32 32:0 33:0 34:0 35:0 36:0 
-4.260380116752485e-11 -3.636698707669158e-10 -0 -0 -0 0 2.038556863219746e-10 0 3.128216742853889e-10 0 6.549313529352832e-10 1.686825662622771e-10 1.63462646212129e-09 0 0 2.227498922414552e-10 1.242848655103089e-09 0 0 0 0 3.139858795288932e-10 1.170270769866465e-12 0 0 2.452654383818322e-10 0 1.656876613961166e-10 0 9.561603960883323e-11 1.001027232928288e-09 0 0 4.687142082208437e-10 1.301089201041393e-10 1.733268248411979e-11 6.581089072943956e-11 0 1.486483750813008e-10 1.435380792210495e-10 1.826695935613382e-09 7.449028075902817e-11 0 1.638575400600491e-09 1.543117664616399e-10 1.670780263163769e-10 1.092409150077008e-09 1.998941750275159e-09 1.258462861710978e-09 1.873104506776341e-09 6.633355836493891e-10 1.997828939025383e-10 2.393422303552536e-09 2.824276830911215e-10 0 6.357896995694536e-12 5.158412248404352e-10 0 1.87088447091569e-10 0 9.947033630154079e-10 7.226526682867307e-10 0 0 4.725648411831215e-10 0 0 4.373207252946698e-11 0 0 0 0 0 0 0 1.326457035234892e-09 9.481154621524984e-10 0 2.184686844803794e-11 0 0 0 0 0 0 0 0 1.79437855929042e-12 0 0 1:80 2:44 3:52 4:64 5:44 6:48 7:52 8:56 9:68 10:80 11:80 12:64 13:52 14:72 15:60 16:36 17:44 18:40 19:44 20:52 21:56 22:56 23:64 24:56 25:76 26:44 27:0 28:36 29:40 30:44 31:52 32:44 33:52 34:52 35:48 36:52 
-0 -0 -0 -0 -0 0 0 0 0 0 0 0 2.673215207428177e-10 0 0 0 0 0 0 0 6.809765789519444e-11 0 2.079502116574599e-14 0 1.653474539412347e-11 6.703308643067531e-11 2.375087799996157e-12 0 0 3.424842030256942e-12 0 3.382739213634806e-12 3.698112107520906e-11 0 0 0 0 0 0 0 0 0 0 1.94895546617986e-10 0 0 0 0 1.508684134502214e-10 0 0 0 0 0 0 0 5.370955501976102e-11 0 1.319403009543801e-11 0 1.403111545616251e-10 0 0 0 0 0 4.477445684510077e-11 3.121335355907738e-11 0 9.770329660789973e-13 1.571725468438728e-12 0 1.189274758271056e-11 0 1.864898149767028e-11 0 3.201369044020992e-11 6.310288593841365e-12 3.043841552013027e-11 0 7.559578271541041e-12 0 0 0 0 0 0 3.894120705974201e-13 1.209660940991454e-12 5.588160850947091e-13 1:124 2:196 3:148 4:48 5:0 6:0 7:0 8:0 9:40 10:76 11:76 12:68 13:32 14:168 15:56 16:0 17:0 18:0 19:0 20:32 21:36 22:48 23:48 24:52 25:132 26:88 27:0 28:0 29:32 30:40 31:36 32:36 33:36 34:40 35:44 36:44 
-0 -9.221403486395458e-12 -0 -5.659292388214973e-13 -0 0 0 0 0 0 0 0 7.479087019773059e-11 0 0 0 8.234163995855172e-11 0 1.272193981262264e-11 1.80192323272856e-11 0 0 0 5.252546241757161e-12 0 0 0 0 1.080626949748687e-11 0 0 1.682381834587083e-12 0 0 5.495776677194889e-12 3.115345058835537e-11 0 0 0 0 0 0 0 3.070672608489835e-12 0 0 0 0 5.395163268517631e-11 0 0 3.570757243037675e-11 0 0 0 0 0 9.061784840463257e-12 3.511196806574555e-11 0 4.59545162863743e-11 0 0 0 0 5.753134364949456e-12 0 0 1.101235084647629e-11 1.135659512559026e-11 2.808830985577033e-12 1.213228210080401e-11 0 8.478798613706383e-12 0 0 0 5.879375259762764e-12 0 3.212600706939431e-12 8.57357724705629e-12 0 0 0 0 0 0 0 0 0 1:116 2:136 3:224 4:88 5:36 6:0 7:0 8:0 9:0 10:44 11:60 12:56 13:216 14:240 15:120 16:40 17:0 18:0 19:0 20:0 21:0 22:0 23:0 24:32 25:36 26:132 27:52 28:32 29:40 30:32 31:32 32:28 33:28 34:0 35:32 36:32 
-0 -0 -0 -0 -1.471825804856165e-11 0 0 0 0 0 2.416181585835201e-10 0 0 0 0 0 3.705979969164994e-11 4.20095524148017e-11 0 4.056998670649291e-11 3.984598974313228e-11 0 0 0 0 1.204562127085838e-10 0 0 8.991892931252985e-12 0 9.98373535764242e-10 0 0 0 1.102036755517582e-10 5.917640260041625e-11 0 0 0 0 1.402657211070679e-09 6.970878957317563e-10 0 0 0 0 1.560500305574388e-10 2.495552243270838e-10 0 0 0 2.812161733723789e-11 1.138579246200182e-10 0 0 1.073641556981632e-10 0 0 0 0 1.612143812042379e-10 0 0 0 0 4.252235598880234e-12 3.085626670528503e-10 0 7.771452467543498e-12 3.473781918079123e-11 4.688129327228914e-11 3.121571453247148e-12 5.230615253120547e-11 3.190887957341539e-12 1.511466833527244e-11 0 1.859749669937997e-11 0 0 3.901317744609748e-12 3.24824344184656e-13 0 0 0 0 0 0 0 0 0 1:148 2:120 3:72 4:60 5:80 6:0 7:32 8:32 9:0 10:32 11:80 12:120 13:64 14:40 15:64 16:76 17:0 18:0 19:0 20:0 21:0 22:0 23:0 24:0 25:40 26:68 27:80 28:0 29:0 30:28 31:28 32:24 33:0 34:0 35:0 36:0 
-0 -0 -0 -0 -5.527175492364629e-11 0 0 0 0 0 0 0 0 0 0 0 8.313452668311989e-10 0 0 0 3.284454633479027e-10 0 0 0 0 0 1.0554150729346e-10 0 0 0 0 0 8.599649468492341e-11 0 0 0 0 7.275920806747711e-10 5.546863968112533e-10 0 2.008946441187615e-09 0 0 2.504083497524854e-10 0 0 0 0 9.439085432556526e-10 0 0 3.57405130147836e-10 1.839453360986571e-09 0 0 0 0 0 1.484365717480703e-11 0 0 0 0 0 0 0 0 0 0 0 0 0 0 0 0 0 8.834225822780158e-12 0 0 0 0 0 0 0 0 0 3.093058323038893e-11 0 0 0 1:128 2:88 3:64 4:64 5:60 6:0 7:0 8:32 9:36 10:48 11:88 12:120 13:48 14:48 15:76 16:48 17:0 18:0 19:0 20:0 21:0 22:0 23:32 24:0 25:52 26:72 27:56 28:0 29:0 30:28 31:0 32:0 33:0 34:0 35:0 36:0 
-0 -0 -0 -0 -0 0 0 0 0 0 0 0 1.658321567832234e-09 0 0 0 2.874102197960305e-09 0 0 0 0 0 0 1.994162282114309e-10 0 0 0 0 0 0 9.59538100214794e-09 0 2.354586488065949e-11 5.704121059254182e-09 0 3.322125472711995e-09 1.186835739937839e-09 3.441201693028794e-09 1.979179535589955e-09 7.358481764240731e-09 4.872034276018215e-09 7.997703193081254e-09 4.187330813720341e-09 7.92721495888912e-09 0 2.002075120251016e-09 7.719540536856377e-09 1.771188275320709e-08 2.089040367970332e-09 0 8.351191224765865e-09 2.980828135958753e-09 0 0 1.483756639511342e-09 3.150425319901696e-09 7.252045433549371e-10 0 0 0 1.325610321811834e-09 2.88783189687053e-10 0 0 4.744259280114599e-10 0 0 8.611231479628115e-12 0 0 0 0 0 0 0 0 0 0 0 0 0 0 0 0 0 0 0 0 0 0 1:100 2:56 3:48 4:72 5:44 6:0 7:0 8:0 9:0 10:44 11:56 12:56 13:32 14:48 15:76 16:32 17:0 18:0 19:0 20:0 21:0 22:0 23:0 24:0 25:68 26:60 27:0 28:0 29:0 30:0 31:28 32:0 33:0 34:0 35:0 36:0 
-0 -0 -0 -0 -0 0 0 0 0 0 0 1.5115660848094e-10 0 0 0 0 3.401081390875775e-11 1.234813347716481e-11 0 0 8.17193784743918e-10 8.283641992054279e-10 0 0 0 0 0 0 0 0 5.592893610789047e-09 0 0 5.689128368899363e-10 0 0 0 2.08818152884895e-10 7.185799531651899e-10 2.738011527424598e-09 1.01819912765583e-09 1.804873475051245e-09 0 2.328924696329022e-09 5.425052233661289e-12 9.944337753073051e-10 4.186036681368011e-09 4.362496557936463e-09 1.92569586048469e-09 0 2.431791416618229e-10 0 3.824645931698407e-09 1.622868717567343e-09 0 1.455381535596964e-09 0 0 0 0 2.049272415717832e-11 4.112447353325184e-11 0 0 5.472830073715071e-12 0 6.849936997528556e-11 2.168541114452398e-10 0 0 0 0 0 0 0 0 0 0 0 0 0 0 0 0 0 0 0 0 0 0 1:112 2:76 3:48 4:60 5:60 6:36 7:0 8:36 9:32 10:36 11:52 12:56 13:0 14:40 15:60 16:52 17:0 18:0 19:24 20:0 21:0 22:0 23:0 24:0 25:52 26:68 27:52 28:0 29:0 30:28 31:28 32:0 33:0 34:0 35:0 36:0 
-0 -1.388280273627292e-09 -0 -0 -0 0 7.520476315919965e-10 0 4.884048127024817e-10 0 1.557452382911948e-10 5.863999388651163e-10 1.254810643794036e-10 1.562640644131107e-09 1.530644234674833e-10 0 8.131383022848154e-09 0 0 0 0 1.818606209510946e-09 0 0 0 0 0 0 0 0 1.161902077611008e-08 0 0 4.539001402289883e-10 0 7.203953366195846e-10 3.543450204388114e-10 4.782567172805369e-09 3.067137125381278e-10 8.610018044864878e-09 1.629882346227483e-08 1.985986791482254e-09 4.101733997915257e-09 7.238082918852239e-09 1.632104088829777e-09 1.179228589016377e-09 6.818056710384969e-09 7.343558492069421e-09 3.052073068185836e-09 1.522413137558926e-09 4.59850529226575e-09 3.565761566020468e-09 5.537238431512324e-09 2.348655113549826e-09 0 0 0 0 0 2.418368546983999e-10 0 0 0 0 0 0 0 0 0 0 0 0 0 0 0 0 0 0 0 0 0 0 0 0 0 0 0 0 0 0 1:0 2:0 3:52 4:64 5:40 6:32 7:0 8:0 9:32 10:48 11:56 12:60 13:36 14:60 15:60 16:0 17:0 18:0 19:28 20:0 21:0 22:0 23:0 24:28 25:76 26:48 27:0 28:0 29:0 30:28 31:28 32:0 33:0 34:0 35:0 36:0 
-0 -5.269606204613756e-10 -0 -0 -0 0 3.882685588437111e-11 0 1.001995155725835e-09 2.968342397060349e-10 1.593513369093136e-09 4.313256458506201e-10 2.254585356693124e-10 0 0 1.875618247128397e-11 7.993066396314203e-09 0 0 6.237443471783001e-12 0 1.010196846253984e-09 0 0 0 0 0 0 0 6.107585796763311e-10 1.5323757178542e-08 5.459450401039838e-10 1.973834865496362e-10 3.476421756432088e-09 1.415763972853944e-09 1.176271663701564e-09 1.730361627435607e-09 1.851251913197809e-09 2.039680557877308e-09 7.497037787842036e-09 2.018722019359874e-09 0 5.501864365189132e-09 3.170775425447144e-09 2.450355615133668e-09 0 2.500335995365499e-09 3.570624575437598e-09 4.773055467784359e-09 1.372471290341635e-09 0 1.785807173049598e-09 1.139135713085154e-09 0 0 0 0 0 0 0 0 0 0 0 0 0 0 0 0 0 0 0 0 0 0 0 0 0 0 0 0 0 0 0 0 0 0 0 0 0 1:84 2:0 3:48 4:72 5:44 6:0 7:36 8:36 9:36 10:52 11:56 12:60 13:40 14:60 15:64 16:0 17:0 18:0 19:0 20:0 21:0 22:0 23:0 24:0 25:76 26:40 27:0 28:0 29:24 30:0 31:0 32:0 33:0 34:0 35:0 36:0 
