svm_type c_svc
kernel_type polynomial
degree 3
gamma 0.030303
coef0 0
nr_class 24
total_sv 1084
rho 1.29562e+06 -51547.1 122.354 41964.7 -17.9466 1.00011 -2.03952e+06 -31.0516 83000.9 -1.05472 0.81096 -7.49653 -0.357941 -0.994417 -1.0934 -0.995679 -0.99583 -1.29744 -1.00812 -1.05839 -1.07031 -1.10743 -1.22436 -459783 1.00014 -0.999811 -5.29873 -6.00667 -0.999844 -4381.91 -0.999836 -1.04908 -2.71481 -4.69169 -1.13523 -0.999876 -1.64098 -1.60991 -1.60985 -1.11267 -1.16556 -1.18222 -1.23981 -1.11253 -1.24042 -358184 -442245 1.05506 1.00023 -1.31963 -0.961373 -0.87446 -1.22106 0.998673 -4.4353 -13.7187 -2.21295 -1.04945 -0.998268 -0.998573 -1.32291 -1.1567 -1.09871 -1.3549 -1.12809 -0.998379 -1.81969e+06 -28.0434 -2.64701 -2.5399 -1.26804 -2.82457 -1 -5.57335 -1.96646 -15.673 -0.999788 -1.49704 -0.999642 -0.999641 -1.23182 -1.05362 -1.03027 -1.07279 -1.07258 -0.999819 2.92302e+06 43119.2 -362957 -89218.6 329345 13.2995 1.00011 0.918264 0.997566 -2.83985 -4.66835 -1.31034 -1.30997 -1.12689 -0.655359 -0.87299 -0.483515 -1.06117 -1.21092 14.2775 -100010 -40986.6 10.7675 3.44374 -7.59933 -0.999936 -0.99987 -0.999828 -0.999787 -1.0002 -1.00019 -1.00034 -1.00025 -0.999969 -0.999974 -1.09141 -0.999888 -4.2578 -76402.4 -2.85338 -9.15577e+06 -6.03185 -0.999952 -0.999842 -0.999728 -2.57869 -0.999745 -0.999889 -1.02749 -0.999881 -1.00004 -1.00025 -1.02914 -0.999849 -391612 -602572 -38.4002 1.00024 0.975145 1.158 -1.25038 -70.8827 -0.908267 -0.907171 -1.10285 -0.436553 -0.73732 -0.604013 -1.1016 -0.942647 -920189 0.0442847 0.999995 0.988156 1.24137 -11.1612 -449812 -0.880686 -0.88164 -1.37866 -0.344431 -0.501974 -0.289123 -1.17119 -0.91312 -28.1746 1.00218 0.993282 1.18942 -0.755029 -3.85359e+06 -0.850381 -0.850274 -1.01685 -0.030138 -0.643113 0.0846604 -1.1303 -0.883657 1.00254 0.999645 1.06098 -0.392425 -0.540402 -0.792991 -0.792791 -0.741683 -0.129519 -0.496643 -0.0841869 -0.957062 -0.835973 -0.999862 -0.999966 -0.999991 -0.999938 -0.999422 -0.999422 -0.999819 -1.00017 -0.999914 -1.00002 -1.01628 -0.999668 0.0188825 13297.3 -0.656534 -0.931536 -0.945571 -0.99798 -0.997903 -0.999829 -0.999785 -1.00005 -1.00032 -1.05074 -1.01328 -0.998138 -0.998138 -1.01256 -1.04361 -1.04371 -1.07283 -1.02042 -0.998486 -2.54874e+06 3.12492e+06 5.20378e+06 7.75349 0.313542 0.0469445 0.309618 -0.799319 -2.38672 41.2508 25.6347 -1.67624 0.500687 0.26677 0.49223 -0.700794 -1.54697 233.983 -0.0935903 0.758295 0.644628 0.777622 -0.26813 -1.00059 -0.158428 0.75767 0.644479 0.777608 -0.268061 -1.00068 0.821971 0.56158 0.706951 -0.482878 -0.106502 -0.99992 -0.0913564 -1.04617 -0.807296 0.999866 -0.999985 -0.721614 -1.24352 -0.827892 0.131767
label 0 -2 -4 -6 -8 -10 -14 -16 -20 -18 -12 4 2 6 8 10 16 18 20 22 24 30 26 12
nr_sv 223 184 163 112 92 75 20 20 48 25 23 13 8 10 11 8 1 2 19 17 1 7 1 1
SV
7.248590974669929e-06 0 0 0 0 0 0 0 0 0 1.014958870459538e-13 0 0 1.139944534128125e-12 0 1.541849751826884e-13 1.494810790471896e-13 0 0 0 0 0 0 1:0 2:0 3:0 4:0 5:255 6:255 7:0 8:0 9:0 10:0 11:0 12:0 13:0 14:255 15:255 16:255 17:0 18:0 19:0 20:0 21:0 22:0 23:255 24:255 25:0 26:0 27:0 28:0 29:0 30:0 31:0 32:255 33:1e-06 
0 0 0 0.0008225585787108252 0 0 0 0 0 0 0 0 0 0 0 0 0 0 0 0 0 0 0 1:0 2:0 3:0 4:0 5:255 6:255 7:0 8:0 9:0 10:0 11:0 12:0 13:0 14:255 15:255 16:255 17:0 18:0 19:0 20:0 21:0 22:0 23:255 24:255 25:0 26:0 27:0 28:0 29:0 30:0 31:0 32:255 33:0.363725 
0 0.01224066784423927 2.594616096365998e-08 0 3.468258265688257e-09 9.457499557424788e-10 0 0 0 0 0 0 6.715524780547128e-13 0 4.962810984106962e-10 0 0 4.258490858149343e-13 1.862832408574309e-13 0 0 5.775724574634268e-16 3.155797105063355e-14 1:0 2:0 3:0 4:0 5:255 6:255 7:0 8:0 9:0 10:0 11:0 12:0 13:0 14:255 15:255 16:255 17:0 18:0 19:0 20:0 21:0 22:0 23:255 24:255 25:0 26:0 27:0 28:0 29:0 30:0 31:0 32:255 33:1.034526 
1.803173330766955e-05 0 0 0 3.114895729060661e-06 1.409146148477156e-12 0.142678884735966 0 0 2.865050906146264e-12 0 0 9.583964869066765e-13 0 0 0 0 0 0 0 7.330437618574651e-13 0 0 1:255 2:0 3:0 4:0 5:0 6:255 7:255 8:255 9:0 10:0 11:0 12:0 13:0 14:0 15:255 16:255 17:0 18:0 19:0 20:0 21:0 22:0 23:0 24:0 25:0 26:0 27:0 28:0 29:0 30:0 31:0 32:0 33:19.66365 
0 0 0 0 0 0 0.8573241795337661 0 0 0 0 0 0 0 0 0 0 0 0 0 0 0 0 1:255 2:0 3:0 4:0 5:0 6:255 7:255 8:255 9:0 10:0 11:0 12:0 13:0 14:0 15:255 16:255 17:0 18:0 19:0 20:0 21:0 22:0 23:0 24:0 25:0 26:0 27:0 28:0 29:0 30:0 31:0 32:0 33:19.40259 
0 0 0 0.5207481917269554 0 0 0 0 0 0 0 0 0 0 0 0 0 0 0 0 0 0 0 1:255 2:0 3:0 4:0 5:0 6:255 7:255 8:255 9:0 10:0 11:0 12:0 13:0 14:0 15:255 16:255 17:0 18:0 19:0 20:0 21:0 22:0 23:0 24:0 25:0 26:0 27:0 28:0 29:0 30:0 31:0 32:0 33:19.19508 
0 0 0 1 1.408171552423367e-06 0 0 0 0.9999896837342644 0 0 0 0 0 0 0 0 0 0 0 0 0 0 1:255 2:0 3:0 4:0 5:0 6:255 7:255 8:255 9:0 10:0 11:0 12:0 13:0 14:0 15:255 16:255 17:0 18:0 19:0 20:0 21:0 22:0 23:0 24:0 25:0 26:0 27:0 28:0 29:0 30:0 31:0 32:0 33:19.03995 
0 0 0 0.9999947905890374 1.537064913836701e-05 3.084052666040232e-13 3.117017786016211e-09 1.6398006200632e-07 3.168937507631423e-06 0 0 0 0 0 0 0 0 7.177705541429722e-14 3.615867367355723e-12 4.778269818163457e-13 2.283115989595995e-14 5.87958284143305e-14 0 1:255 2:0 3:0 4:0 5:0 6:255 7:255 8:255 9:0 10:0 11:0 12:0 13:0 14:0 15:255 16:255 17:0 18:0 19:0 20:0 21:0 22:0 23:0 24:255 25:0 26:0 27:0 28:0 29:0 30:0 31:0 32:0 33:18.85661 
0 0 0 0 0 9.016092879063895e-12 0 1.60427594579618e-06 0 0 1.954583670743702e-12 0 5.190330655030156e-12 1.097564713177364e-12 6.697033182181999e-13 0 0 0 0 0 0 0 0 1:0 2:0 3:0 4:0 5:0 6:255 7:255 8:0 9:0 10:0 11:0 12:0 13:0 14:0 15:255 16:255 17:0 18:0 19:0 20:0 21:0 22:0 23:0 24:255 25:0 26:0 27:0 28:0 29:0 30:0 31:0 32:0 33:18.65351 
3.490148532851794e-05 0 0 0 0 2.774822974449194e-12 3.635172836418867e-07 1.194786694344554e-07 0.04199560110445542 0 0 0 1.213628353069111e-12 6.231853250495533e-13 2.350512982014048e-13 0 0 0 0 0 0 0 0 1:255 2:0 3:0 4:0 5:255 6:255 7:255 8:0 9:0 10:0 11:0 12:0 13:0 14:0 15:255 16:255 17:0 18:0 19:0 20:0 21:0 22:0 23:0 24:255 25:0 26:0 27:0 28:0 29:0 30:0 31:0 32:0 33:18.49819 
0 2.492954833600804e-06 0 0 0 0 0 0 0 0 0 1.919203205836614e-12 0 0 0 0 0 0 0 0 0 0 0 1:255 2:255 3:0 4:0 5:0 6:0 7:0 8:0 9:0 10:0 11:0 12:255 13:0 14:0 15:0 16:0 17:0 18:0 19:255 20:0 21:0 22:0 23:0 24:0 25:255 26:255 27:0 28:0 29:0 30:0 31:0 32:0 33:17.62153 
0 0 2.896220631899438e-08 0 0 0 0 0 0 0 0 0 0 0 0 0 0 0 0 0 0 0 0 1:255 2:255 3:0 4:255 5:0 6:0 7:0 8:0 9:0 10:0 11:0 12:255 13:0 14:0 15:0 16:0 17:0 18:255 19:255 20:0 21:0 22:0 23:0 24:0 25:255 26:255 27:0 28:0 29:0 30:0 31:0 32:0 33:17.40871 
0 0 0 0 0 0 0 0 0 2.700351780426014e-14 0 0 0 0 0 0 0 0 0 0 0 0 0 1:255 2:255 3:0 4:0 5:0 6:0 7:0 8:0 9:0 10:0 11:0 12:255 13:0 14:0 15:0 16:0 17:0 18:255 19:255 20:0 21:0 22:0 23:0 24:0 25:255 26:255 27:0 28:0 29:0 30:0 31:0 32:0 33:17.53111 
1.536705984158202e-06 0 0 0 0 0 0 0 0 0 0 0 0 0 0 0 0 0 0 0 0 0 0 1:255 2:0 3:0 4:255 5:0 6:0 7:0 8:0 9:0 10:0 11:255 12:255 13:0 14:0 15:0 16:0 17:0 18:255 19:255 20:0 21:0 22:0 23:0 24:0 25:0 26:255 27:0 28:0 29:0 30:0 31:0 32:0 33:16.99092 
0 1.624190410372026e-06 0 0 0 0 0 0 0 0 0 0 0 0 0 0 0 0 0 0 0 0 0 1:255 2:0 3:0 4:255 5:0 6:0 7:0 8:0 9:0 10:0 11:255 12:255 13:0 14:0 15:0 16:0 17:0 18:255 19:255 20:0 21:0 22:0 23:0 24:0 25:0 26:255 27:0 28:0 29:0 30:0 31:0 32:0 33:16.81744 
5.775973226760915e-06 0 0 0 0 0 0 0 0 0 0 0 0 0 0 0 0 0 0 0 0 0 0 1:255 2:0 3:0 4:255 5:0 6:0 7:0 8:0 9:0 10:0 11:255 12:255 13:0 14:0 15:0 16:0 17:0 18:255 19:255 20:0 21:0 22:0 23:0 24:0 25:255 26:255 27:0 28:0 29:0 30:0 31:0 32:0 33:16.4036 
0 0 7.96808810585636e-09 0 0 0 0 0 0 0 0 0 0 0 0 0 0 0 0 0 0 0 0 1:255 2:0 3:0 4:255 5:0 6:0 7:0 8:0 9:0 10:0 11:255 12:0 13:0 14:0 15:0 16:0 17:0 18:0 19:0 20:0 21:0 22:0 23:0 24:0 25:255 26:255 27:0 28:0 29:0 30:0 31:0 32:0 33:16.03872 
3.358835754083954e-05 0.1018548319642857 0.7407594302692312 0 0 0 0 0 0 0 0 0 0 0 0 0 0 0 0 0 0 0 0 1:255 2:0 3:0 4:255 5:0 6:0 7:0 8:0 9:0 10:0 11:255 12:0 13:0 14:0 15:0 16:0 17:255 18:255 19:0 20:0 21:0 22:0 23:0 24:0 25:255 26:0 27:0 28:0 29:0 30:0 31:0 32:0 33:16.2242 
0 0 0 4.631144408953312e-08 0 5.007178097928187e-13 0 0 0 0 0 0 0 0 0 0 0 0 0 0 0 0 0 1:0 2:0 3:255 4:255 5:0 6:0 7:0 8:0 9:0 10:0 11:255 12:0 13:0 14:0 15:0 16:0 17:0 18:255 19:0 20:0 21:0 22:0 23:0 24:0 25:255 26:0 27:0 28:0 29:0 30:0 31:0 32:0 33:16.15274 
0 0.01042238028941302 0 7.846635735166628e-08 1.727808925422332e-12 0 0 0 0 0 0 0 0 0 0 0 0 0 0 0 0 0 0 1:0 2:0 3:255 4:255 5:0 6:0 7:0 8:0 9:0 10:255 11:255 12:0 13:0 14:0 15:0 16:0 17:255 18:255 19:0 20:0 21:0 22:0 23:0 24:0 25:255 26:0 27:0 28:0 29:0 30:0 31:0 32:0 33:15.99616 
5.774630538583961e-07 0 0 1.460238377903839e-08 0 0 0 0 0 8.852515693091179e-14 0 0 0 0 0 0 0 0 0 0 0 0 0 1:0 2:0 3:255 4:0 5:0 6:0 7:0 8:0 9:0 10:255 11:0 12:0 13:0 14:0 15:0 16:0 17:255 18:255 19:0 20:0 21:0 22:0 23:0 24:0 25:255 26:0 27:0 28:0 29:0 30:0 31:0 32:0 33:15.83443 
0 9.575460444430248e-07 4.18590691772062e-08 3.098178487682214e-08 0 1.218988108107166e-12 0 0 0 0 0 0 0 0 0 0 0 0 0 0 0 0 0 1:0 2:0 3:255 4:0 5:0 6:0 7:0 8:0 9:0 10:255 11:0 12:0 13:0 14:0 15:0 16:0 17:255 18:0 19:0 20:0 21:0 22:0 23:0 24:0 25:255 26:0 27:0 28:0 29:0 30:0 31:0 32:0 33:15.67122 
0 1 0 0 1.431297289292342e-11 8.152707605486017e-12 0 0 3.015632600171109e-07 0 0 0 1.229904216975335e-12 8.63775306058189e-15 0 1.495782517307115e-14 1.445181184483629e-14 0 0 0 0 0 0 1:0 2:0 3:255 4:0 5:0 6:0 7:0 8:0 9:0 10:255 11:0 12:0 13:0 14:0 15:0 16:0 17:255 18:0 19:0 20:0 21:0 22:0 23:0 24:0 25:0 26:0 27:0 28:0 29:0 30:0 31:0 32:0 33:15.83972 
2.009112019284676e-07 6.212760841505301e-07 3.97317510736861e-10 0 5.849375816848652e-12 1.204938729382134e-12 0 0 3.095715902099815e-07 2.309861030983778e-13 0 0 0 0 0 0 0 0 0 0 0 0 0 1:0 2:0 3:255 4:0 5:0 6:0 7:0 8:0 9:255 10:255 11:0 12:0 13:0 14:0 15:0 16:0 17:255 18:0 19:0 20:0 21:0 22:0 23:0 24:0 25:0 26:0 27:0 28:0 29:0 30:0 31:0 32:0 33:15.71603 
2.157555036350209e-06 0 0 0 0 1.216243905326795e-13 0 0 0 0 0 0 1.765753686357509e-12 0 0 0 0 0 0 0 0 0 0 1:0 2:0 3:255 4:0 5:0 6:0 7:0 8:0 9:255 10:255 11:0 12:0 13:0 14:0 15:0 16:255 17:255 18:0 19:0 20:0 21:0 22:0 23:0 24:0 25:0 26:0 27:0 28:0 29:0 30:0 31:0 32:0 33:15.55254 
0 1.939110834373442e-07 1.048317268885975e-08 2.001880818160247e-07 0 0 0 0 0 3.522681668351843e-13 0 0 0 0 0 0 0 0 0 0 0 0 0 1:0 2:255 3:255 4:0 5:0 6:0 7:0 8:0 9:255 10:255 11:0 12:0 13:0 14:0 15:0 16:255 17:255 18:0 19:0 20:0 21:0 22:0 23:0 24:0 25:0 26:0 27:0 28:0 29:0 30:0 31:0 32:0 33:15.36234 
0 0 1.042603828501865e-08 2.697761965441405e-06 0 1.470245569503188e-12 0 0 2.013940258185964e-06 0 5.115184682607051e-12 0 0 0 0 0 0 0 0 0 0 0 0 1:0 2:255 3:0 4:0 5:0 6:0 7:0 8:0 9:255 10:0 11:0 12:0 13:0 14:0 15:0 16:0 17:0 18:0 19:0 20:0 21:0 22:0 23:0 24:0 25:0 26:0 27:0 28:0 29:0 30:0 31:0 32:0 33:15.05276 
1 0 0 0 0 0 0 0 0 0 0 0 0 0 0 0 0 0 0 0 0 0 0 1:0 2:255 3:0 4:0 5:0 6:0 7:0 8:0 9:255 10:0 11:0 12:0 13:0 14:0 15:0 16:0 17:0 18:0 19:0 20:0 21:0 22:0 23:0 24:0 25:0 26:0 27:0 28:0 29:0 30:0 31:0 32:0 33:15.33211 
0 0 1.692389556519153e-09 1.443514332766805e-07 7.501907323778864e-08 0 0 0 0 0 0 0 0 0 0 0 0 0 0 0 0 0 0 1:0 2:255 3:0 4:0 5:0 6:255 7:0 8:0 9:255 10:0 11:0 12:0 13:0 14:0 15:0 16:0 17:0 18:0 19:0 20:0 21:0 22:0 23:0 24:0 25:0 26:0 27:0 28:0 29:0 30:0 31:0 32:0 33:16.32538 
0.0195004202840621 0 0 0 0 0 0 0 0 0 0 0 0 0 0 0 0 0 0 4.386218909141759e-13 4.189876767673369e-13 3.865008773652485e-14 0 1:255 2:255 3:0 4:0 5:0 6:0 7:0 8:255 9:0 10:0 11:0 12:0 13:0 14:0 15:255 16:0 17:0 18:0 19:0 20:0 21:0 22:0 23:0 24:255 25:0 26:0 27:0 28:0 29:0 30:0 31:0 32:0 33:20.44117 
0.03720730821922578 2.583007305442272e-06 0 0 0 4.360145521884399e-12 0 0 0 0 0 0 3.535671979074005e-12 0 9.000593022852939e-14 0 0 0 0 0 0 0 0 1:255 2:0 3:0 4:0 5:0 6:0 7:0 8:0 9:0 10:0 11:0 12:0 13:0 14:0 15:255 16:0 17:0 18:0 19:0 20:0 21:0 22:0 23:0 24:255 25:0 26:0 27:0 28:0 29:0 30:0 31:0 32:0 33:20.51211 
0 2.204927293473449e-06 0 0 0 0 0 0 2.725402528127782e-06 0 0 0 0 0 2.895441789198473e-13 0 0 0 0 0 0 0 0 1:0 2:255 3:0 4:0 5:0 6:0 7:0 8:0 9:0 10:0 11:0 12:0 13:0 14:0 15:255 16:0 17:0 18:0 19:0 20:0 21:0 22:0 23:0 24:255 25:0 26:0 27:0 28:0 29:0 30:0 31:0 32:0 33:20.25757 
0 0 0 0 0 0 0 0 0 0 0 0 2.793582710699107e-12 0 0 0 0 0 0 0 0 0 0 1:255 2:255 3:0 4:0 5:0 6:255 7:0 8:0 9:0 10:0 11:0 12:0 13:0 14:0 15:255 16:0 17:0 18:0 19:0 20:0 21:0 22:0 23:0 24:255 25:0 26:0 27:0 28:0 29:0 30:0 31:0 32:0 33:20.37947 
0.0001077011790116557 6.911040732497506e-08 1.32589996444365e-07 0 0 2.948722686653515e-11 0 0 0 0 2.514999196317532e-11 2.033632508338761e-11 2.046897720534305e-11 0 0 2.882987318004008e-14 2.794179441501289e-14 0 0 0 0 0 0 1:255 2:0 3:0 4:0 5:0 6:0 7:0 8:0 9:0 10:0 11:0 12:0 13:0 14:0 15:255 16:0 17:0 18:0 19:0 20:0 21:0 22:0 23:0 24:0 25:0 26:0 27:0 28:0 29:0 30:0 31:0 32:0 33:19.98419 
0.03135850998841483 0 0 0 0 0 0 0 0 0 0 0 0 0 0 0 0 0 0 0 0 0 0 1:255 2:255 3:0 4:0 5:0 6:0 7:0 8:0 9:0 10:0 11:0 12:0 13:0 14:0 15:255 16:0 17:0 18:0 19:0 20:0 21:0 22:0 23:0 24:255 25:0 26:0 27:0 28:0 29:0 30:0 31:0 32:0 33:19.41737 
8.943077943248947e-05 0 3.326635732065601e-09 0 9.536865766236488e-12 1.129868787859593e-14 0 0 0 2.49805909354602e-13 0 0 0 0 0 0 0 0 0 0 0 0 0 1:255 2:255 3:0 4:0 5:0 6:255 7:0 8:0 9:255 10:0 11:0 12:0 13:0 14:0 15:0 16:0 17:0 18:0 19:0 20:0 21:0 22:0 23:0 24:0 25:0 26:0 27:0 28:0 29:0 30:0 31:0 32:0 33:19.60601 
6.768219947156978e-05 0 0 0 9.991770610289706e-11 0 0 0 0 0 0 0 1.379876013704158e-12 0 0 0 0 0 0 0 0 0 0 1:0 2:255 3:0 4:0 5:0 6:255 7:0 8:0 9:0 10:0 11:0 12:0 13:0 14:0 15:0 16:0 17:0 18:0 19:0 20:0 21:0 22:0 23:0 24:0 25:0 26:0 27:0 28:0 29:0 30:0 31:0 32:0 33:19.75805 
0.969867052845637 0 0 0 0 0 0 0 0 0 0 0 0 0 0 0 0 0 0 0 0 0 0 1:0 2:255 3:0 4:0 5:0 6:0 7:0 8:0 9:255 10:0 11:0 12:0 13:0 14:0 15:0 16:0 17:0 18:0 19:0 20:0 21:0 22:0 23:0 24:0 25:0 26:0 27:0 28:0 29:0 30:0 31:0 32:0 33:20.04526 
0 8.887892777456561e-07 0 0 1.024369968429777e-10 0 0 0 0 0 0 0 0 0 0 0 0 0 0 0 0 0 0 1:0 2:255 3:0 4:0 5:0 6:0 7:0 8:0 9:255 10:0 11:0 12:0 13:0 14:0 15:0 16:0 17:0 18:0 19:0 20:0 21:0 22:0 23:0 24:0 25:0 26:0 27:0 28:0 29:0 30:0 31:0 32:0 33:20.477 
0 0 0 6.716263049642594e-06 3.290304701233856e-10 2.555236228376663e-10 0 0 7.11807644688531e-06 0 2.549293260475637e-10 0 8.278092888758058e-11 6.581635920424442e-13 0 5.066025422716898e-13 4.884775010392937e-13 0 0 0 0 0 0 1:0 2:255 3:0 4:0 5:0 6:0 7:0 8:0 9:0 10:0 11:0 12:0 13:0 14:0 15:0 16:0 17:0 18:0 19:0 20:0 21:0 22:0 23:0 24:0 25:0 26:0 27:0 28:0 29:0 30:0 31:0 32:0 33:20.28527 
1.606497190064715e-06 0 0 0 0 1.028255029269892e-12 0 0 8.444415872676685e-07 6.473453067461306e-14 0 0 0 0 0 0 0 0 0 1.626916371441123e-13 0 0 0 1:255 2:255 3:0 4:0 5:0 6:255 7:0 8:0 9:0 10:0 11:0 12:0 13:0 14:0 15:0 16:0 17:0 18:0 19:0 20:0 21:0 22:0 23:0 24:255 25:0 26:0 27:0 28:0 29:0 30:0 31:0 32:0 33:20.19774 
0 0 0 0 0 0 0 0 0 0 0 0 0 0 1.413069493725926e-13 0 0 0 0 0 0 0 0 1:255 2:255 3:0 4:0 5:0 6:255 7:0 8:0 9:0 10:0 11:0 12:0 13:0 14:0 15:255 16:0 17:0 18:0 19:0 20:0 21:0 22:0 23:0 24:255 25:0 26:0 27:0 28:0 29:0 30:0 31:0 32:0 33:20.99385 
2.958464934288938e-05 0 0 0 0 0 0 0 0 0 0 0 0 0 0 0 0 0 0 0 0 0 0 1:255 2:255 3:0 4:0 5:0 6:255 7:0 8:255 9:0 10:0 11:0 12:0 13:0 14:0 15:255 16:0 17:0 18:0 19:0 20:0 21:0 22:0 23:0 24:0 25:0 26:0 27:0 28:0 29:0 30:0 31:0 32:0 33:20.34571 
0.06298163999393823 9.080529251905951e-08 1.514906846879163e-08 0 0 0 0 0 0 0 0 7.686698316194271e-12 0 0 0 0 0 0 0 4.471513235722876e-13 0 0 0 1:255 2:0 3:0 4:0 5:0 6:0 7:0 8:255 9:0 10:0 11:0 12:0 13:0 14:0 15:0 16:0 17:0 18:0 19:0 20:0 21:0 22:0 23:0 24:255 25:0 26:0 27:0 28:0 29:0 30:0 31:0 32:0 33:20.45685 
0.3673737450667437 0 0.05035134141531675 0 0 0 0 0 0 0 0 0 0 0 0 0 0 0 0 0 0 0 0 1:255 2:0 3:0 4:0 5:0 6:0 7:0 8:255 9:0 10:0 11:0 12:0 13:0 14:0 15:0 16:0 17:0 18:0 19:0 20:0 21:0 22:0 23:0 24:0 25:0 26:0 27:0 28:0 29:0 30:0 31:0 32:0 33:19.41023 
0 9.274624299628893e-07 0 0 0 0 0 0 0 1.543174922318903e-12 0 2.853633366057032e-10 0 0 0 0 0 0 0 0 2.990035202259022e-13 0 0 1:255 2:0 3:0 4:0 5:0 6:0 7:0 8:255 9:0 10:0 11:0 12:0 13:0 14:0 15:0 16:0 17:0 18:0 19:0 20:0 21:0 22:0 23:0 24:0 25:0 26:0 27:0 28:0 29:0 30:0 31:0 32:0 33:19.57396 
0 0 1 0 0 0 0 0 0 0 0 0 0 0 0 0 0 0 0 0 0 0 0 1:255 2:0 3:0 4:0 5:0 6:0 7:0 8:255 9:0 10:0 11:0 12:0 13:0 14:0 15:0 16:0 17:0 18:0 19:0 20:0 21:0 22:0 23:0 24:0 25:0 26:0 27:0 28:0 29:0 30:0 31:0 32:0 33:19.35854 
1 0 0 0 0 0 0 0 0 0 0 0 0 0 0 0 0 0 0 0 0 0 0 1:255 2:0 3:0 4:0 5:0 6:0 7:0 8:255 9:0 10:0 11:0 12:0 13:0 14:0 15:0 16:0 17:0 18:0 19:0 20:0 21:0 22:0 23:0 24:0 25:0 26:0 27:0 28:0 29:0 30:0 31:0 32:0 33:18.72453 
0.04240967082748336 0 0 0 0 0 0 0 0 0 0 0 0 0 0 0 0 0 0 0 0 0 0 1:255 2:0 3:0 4:0 5:0 6:0 7:0 8:255 9:0 10:0 11:0 12:0 13:0 14:0 15:0 16:0 17:0 18:0 19:0 20:0 21:0 22:0 23:0 24:0 25:0 26:0 27:0 28:0 29:0 30:0 31:0 32:0 33:18.99758 
0.590100679677468 0 0 0 0 0 0 0 0 0 0 0 0 0 0 0 0 0 0 0 0 0 0 1:255 2:0 3:0 4:0 5:0 6:0 7:0 8:255 9:0 10:0 11:0 12:0 13:0 14:0 15:0 16:0 17:0 18:0 19:0 20:0 21:0 22:0 23:0 24:0 25:0 26:0 27:0 28:0 29:0 30:0 31:0 32:0 33:18.71123 
0 0 0 0 0 0 0 0 0 0 0 0 0 0 0 0 0 0 2.458803936486736e-12 5.688674127329443e-14 0 0 0 1:255 2:0 3:0 4:0 5:0 6:0 7:0 8:255 9:0 10:0 11:0 12:0 13:0 14:0 15:0 16:0 17:0 18:0 19:0 20:0 21:0 22:0 23:0 24:255 25:0 26:0 27:0 28:0 29:0 30:0 31:0 32:0 33:18.77956 
8.009738138789187e-06 2.401162527682547e-07 0 0 0 0 0 0 0 4.947823413412508e-15 0 0 0 0 0 0 0 0 0 0 0 0 0 1:255 2:0 3:0 4:0 5:255 6:0 7:0 8:255 9:0 10:0 11:0 12:0 13:0 14:255 15:0 16:0 17:0 18:0 19:0 20:0 21:0 22:0 23:0 24:0 25:0 26:0 27:0 28:0 29:0 30:0 31:0 32:0 33:18.09706 
2.05023219609357e-05 0 0 0 0 0 0 0 0 0 0 0 0 0 0 0 0 0 0 0 0 0 0 1:255 2:0 3:0 4:0 5:255 6:0 7:0 8:255 9:0 10:0 11:0 12:0 13:0 14:0 15:0 16:0 17:0 18:0 19:0 20:0 21:0 22:0 23:0 24:0 25:0 26:0 27:0 28:0 29:0 30:0 31:0 32:0 33:17.86978 
3.458341374449714e-05 2.135425019992392e-07 0 0 0 2.801955222286969e-14 0 0 0 4.892440410472246e-16 0 0 0 0 0 0 0 0 1.748032260522238e-13 0 0 0 0 1:255 2:0 3:0 4:0 5:255 6:0 7:0 8:255 9:0 10:0 11:0 12:0 13:0 14:255 15:0 16:0 17:0 18:0 19:0 20:0 21:0 22:0 23:0 24:0 25:0 26:0 27:0 28:0 29:0 30:0 31:0 32:255 33:18.19602 
0 1 0 0 0 0 0 0 0 0 0 0 0 0 0 0 0 0 0 0 0 0 0 1:0 2:0 3:255 4:0 5:0 6:0 7:0 8:0 9:0 10:255 11:0 12:0 13:0 14:0 15:0 16:0 17:255 18:0 19:0 20:0 21:0 22:0 23:0 24:0 25:0 26:0 27:0 28:0 29:0 30:0 31:0 32:0 33:17.75557 
1 0.309281168337469 0 0 0 0 0 0 0 0 0 0 0 0 0 0 0 0 0 0 0 0 0 1:0 2:0 3:255 4:0 5:0 6:0 7:0 8:0 9:0 10:255 11:0 12:0 13:0 14:0 15:0 16:0 17:255 18:0 19:0 20:0 21:0 22:0 23:0 24:0 25:0 26:0 27:0 28:0 29:0 30:0 31:0 32:0 33:17.39353 
0 1 0.0001663577615932739 0 0 0 0 0 0 0 7.319709269056936e-11 0 0 0 0 0 0 0 0 0 0 0 0 1:0 2:0 3:255 4:0 5:0 6:0 7:0 8:0 9:0 10:255 11:0 12:0 13:0 14:0 15:0 16:0 17:255 18:0 19:0 20:0 21:0 22:0 23:0 24:0 25:0 26:0 27:0 28:0 29:0 30:0 31:0 32:0 33:17.75042 
0 0 7.209067757403979e-08 1.542508395170812e-08 0 0 0 0 0 0 6.98524379157423e-12 0 0 0 0 0 0 0 0 0 0 0 0 1:0 2:0 3:255 4:255 5:0 6:0 7:0 8:0 9:0 10:255 11:0 12:0 13:0 14:0 15:0 16:0 17:255 18:255 19:0 20:0 21:0 22:0 23:0 24:0 25:0 26:0 27:0 28:0 29:0 30:0 31:0 32:0 33:17.04347 
0 0 0 3.574027114165191e-08 0 9.954983744861856e-13 0 0 4.148526255350001e-08 0 0 0 1.347349784953808e-13 0 0 0 0 0 0 0 0 0 0 1:0 2:0 3:0 4:255 5:0 6:0 7:0 8:0 9:0 10:255 11:255 12:0 13:0 14:0 15:0 16:0 17:255 18:255 19:0 20:0 21:0 22:0 23:0 24:0 25:0 26:0 27:0 28:0 29:0 30:0 31:0 32:0 33:17.40165 
0.1073757348904299 0 0 0 0 0 0 0 0 0 0 0 0 0 0 0 0 0 0 0 0 0 0 1:0 2:0 3:0 4:255 5:0 6:0 7:0 8:0 9:0 10:0 11:255 12:0 13:0 14:0 15:0 16:0 17:255 18:255 19:0 20:0 21:0 22:0 23:0 24:0 25:255 26:0 27:0 28:0 29:0 30:0 31:0 32:0 33:17.19582 
0 0.0008651192299756711 0 1.227087440307791e-08 0 0 0 0 0 0 0 0 0 0 0 0 0 0 0 0 0 0 0 1:0 2:0 3:0 4:255 5:0 6:0 7:0 8:0 9:0 10:255 11:255 12:0 13:0 14:0 15:0 16:0 17:255 18:255 19:0 20:0 21:0 22:0 23:0 24:0 25:255 26:0 27:0 28:0 29:0 30:0 31:0 32:0 33:16.48352 
0 0.04186027735716804 0 0 0 0 0 0 0 0 0 0 0 0 0 0 0 0 0 0 0 0 0 1:0 2:0 3:0 4:255 5:0 6:0 7:0 8:0 9:0 10:0 11:255 12:0 13:0 14:0 15:0 16:0 17:255 18:255 19:0 20:0 21:0 22:0 23:0 24:0 25:255 26:0 27:0 28:0 29:0 30:0 31:0 32:0 33:17.18016 
0 0.03262848202862756 0 1.231550362598666e-08 0 0 0 0 0 0 0 0 0 0 0 0 0 0 0 0 0 0 0 1:0 2:0 3:0 4:255 5:0 6:0 7:0 8:0 9:0 10:0 11:255 12:0 13:0 14:0 15:0 16:0 17:255 18:255 19:0 20:0 21:0 22:0 23:0 24:0 25:255 26:0 27:0 28:0 29:0 30:0 31:0 32:0 33:16.73121 
0.09893624897573761 0 0 0 0 0 0 0 7.18165495826802e-08 0 0 0 2.601441655480274e-13 0 0 5.588100185653664e-16 1.070123341421235e-15 0 0 0 0 0 0 1:0 2:0 3:0 4:255 5:0 6:0 7:0 8:0 9:0 10:0 11:255 12:0 13:0 14:0 15:0 16:0 17:0 18:255 19:0 20:0 21:0 22:0 23:0 24:0 25:255 26:0 27:0 28:0 29:0 30:0 31:0 32:0 33:16.01862 
0.627196150855739 0 0 0 0 0 0 0 0 0 0 0 0 0 0 0 0 0 0 0 0 0 0 1:0 2:0 3:0 4:255 5:0 6:0 7:0 8:0 9:0 10:0 11:255 12:0 13:0 14:0 15:0 16:0 17:0 18:255 19:255 20:0 21:0 22:0 23:0 24:0 25:255 26:255 27:0 28:0 29:0 30:0 31:0 32:0 33:15.88864 
0.07333999577169457 0 0 0 0 0 0 0 0 0 0 0 0 0 0 0 0 0 0 0 0 0 0 1:0 2:0 3:0 4:255 5:0 6:0 7:0 8:0 9:0 10:0 11:255 12:255 13:0 14:0 15:0 16:0 17:0 18:0 19:255 20:0 21:0 22:0 23:0 24:0 25:0 26:255 27:0 28:0 29:0 30:0 31:0 32:0 33:15.82582 
0 5.396911824223408e-07 0 0 0 0 0 0 0 0 0 0 0 0 0 0 0 0 0 0 0 0 0 1:0 2:0 3:0 4:255 5:0 6:0 7:0 8:0 9:0 10:0 11:255 12:255 13:0 14:0 15:0 16:0 17:0 18:255 19:255 20:0 21:0 22:0 23:0 24:0 25:0 26:255 27:0 28:0 29:0 30:0 31:0 32:0 33:15.61296 
0.347047964632326 0 0 1.895042903518282e-08 0 0 0 0 0 0 0 0 0 0 0 0 0 0 0 0 0 0 0 1:0 2:0 3:0 4:255 5:0 6:0 7:0 8:0 9:0 10:0 11:255 12:0 13:0 14:0 15:0 16:0 17:0 18:255 19:255 20:0 21:0 22:0 23:0 24:0 25:0 26:255 27:0 28:0 29:0 30:0 31:0 32:0 33:16.39576 
4.057348120646536e-06 0 0 0 0 0 0 0 0 0 1.291997867238086e-11 2.320315230930629e-12 0 0 0 0 0 0 0 0 0 0 0 1:0 2:0 3:0 4:0 5:0 6:0 7:0 8:0 9:0 10:0 11:0 12:255 13:0 14:0 15:0 16:0 17:0 18:255 19:255 20:0 21:0 22:0 23:0 24:0 25:255 26:0 27:255 28:0 29:0 30:0 31:0 32:0 33:19.34255 
1.076790823292862e-05 0 0 0 0 0 0 0 0 0 0 0 0 0 0 0 0 0 0 0 0 0 0 1:0 2:0 3:0 4:0 5:0 6:0 7:0 8:0 9:0 10:0 11:0 12:255 13:0 14:0 15:0 16:0 17:0 18:255 19:255 20:0 21:0 22:0 23:0 24:0 25:255 26:255 27:255 28:0 29:0 30:0 31:0 32:0 33:18.84156 
0 0 0 1.103030589588652e-09 0 0 0 0 0 0 0 0 0 0 0 0 0 0 0 0 0 0 0 1:0 2:0 3:0 4:0 5:0 6:0 7:0 8:0 9:0 10:0 11:0 12:255 13:0 14:0 15:0 16:0 17:0 18:0 19:255 20:0 21:0 22:0 23:0 24:0 25:255 26:255 27:0 28:0 29:0 30:0 31:0 32:0 33:18.2093 
4.949000057975478e-06 0 0 0 0 0 0 0 0 0 1.946107999824125e-11 0 0 0 0 0 0 0 0 0 0 0 0 1:0 2:0 3:0 4:255 5:0 6:0 7:0 8:0 9:0 10:0 11:255 12:255 13:0 14:0 15:0 16:0 17:0 18:255 19:255 20:0 21:0 22:0 23:0 24:0 25:0 26:255 27:0 28:0 29:0 30:0 31:0 32:0 33:18.70972 
1.537260246376838e-06 0 0 0 0 0 0 0 0 0 3.494915566005623e-11 0 0 0 0 0 0 0 0 0 0 0 0 1:0 2:0 3:0 4:255 5:0 6:0 7:0 8:0 9:0 10:0 11:255 12:255 13:0 14:0 15:0 16:0 17:0 18:0 19:255 20:0 21:0 22:0 23:0 24:0 25:255 26:255 27:0 28:0 29:0 30:0 31:0 32:0 33:19.39634 
0.4730705612555742 0 0 0 0 0 0 0 0 0 0 0 0 0 0 0 0 0 0 0 0 0 0 1:0 2:0 3:0 4:255 5:0 6:0 7:0 8:0 9:0 10:0 11:255 12:255 13:0 14:0 15:0 16:0 17:0 18:0 19:255 20:0 21:0 22:0 23:0 24:0 25:0 26:255 27:0 28:0 29:0 30:0 31:0 32:0 33:19.43849 
0.3093825157588487 0 0 0 0 0 0 0 0 0 0 0 0 0 0 0 0 0 0 0 0 0 0 1:0 2:0 3:0 4:255 5:0 6:0 7:0 8:0 9:0 10:0 11:255 12:0 13:0 14:0 15:0 16:0 17:0 18:255 19:255 20:0 21:0 22:0 23:0 24:0 25:0 26:255 27:0 28:0 29:0 30:0 31:0 32:0 33:19.66764 
1 0 0 0 0 0 0 0 0 0 0 0 0 0 0 0 0 0 0 0 0 0 0 1:0 2:0 3:0 4:255 5:0 6:0 7:0 8:0 9:0 10:0 11:255 12:0 13:0 14:0 15:0 16:0 17:0 18:255 19:255 20:0 21:0 22:0 23:0 24:0 25:0 26:255 27:0 28:0 29:0 30:0 31:0 32:0 33:19.92271 
0.7292021136404742 0 0 0 0 0 0 0 0 0 0 0 0 0 0 0 0 0 0 0 0 0 0 1:0 2:0 3:0 4:255 5:0 6:0 7:0 8:0 9:0 10:0 11:255 12:0 13:0 14:0 15:0 16:0 17:0 18:255 19:255 20:0 21:0 22:0 23:0 24:0 25:255 26:255 27:0 28:0 29:0 30:0 31:0 32:0 33:19.51292 
0.3435607477606659 0 0 0 0 0 0 0 0 0 0 0 0 0 0 0 0 0 0 0 0 0 0 1:0 2:0 3:0 4:255 5:0 6:0 7:0 8:0 9:0 10:0 11:255 12:0 13:0 14:0 15:0 16:0 17:0 18:255 19:255 20:0 21:0 22:0 23:0 24:0 25:0 26:255 27:0 28:0 29:0 30:0 31:0 32:0 33:19.25859 
0 0 0 2.743693249921591e-08 2.72063256672633e-12 2.146557910344654e-12 0 0 7.11678704473652e-08 0 0 0 5.905147663271939e-13 0 0 8.632727843673698e-16 0 0 0 0 0 0 0 1:0 2:0 3:0 4:255 5:0 6:0 7:0 8:0 9:0 10:0 11:255 12:0 13:0 14:0 15:0 16:0 17:0 18:255 19:0 20:0 21:0 22:0 23:0 24:0 25:0 26:255 27:0 28:0 29:0 30:0 31:0 32:0 33:19.43995 
6.90404697411748e-06 0 0 0 0 0 0 0 0 0 1.920019443352486e-11 0 0 0 0 0 0 0 0 0 0 0 0 1:0 2:0 3:0 4:255 5:0 6:0 7:0 8:255 9:0 10:0 11:255 12:0 13:0 14:0 15:0 16:0 17:0 18:255 19:255 20:0 21:0 22:0 23:0 24:0 25:255 26:255 27:0 28:0 29:0 30:0 31:0 32:0 33:20.33183 
1 4.49074293187056e-07 0 0 0 0 0 0 0 0 0 0 0 0 0 0 0 0 0 0 0 0 0 1:0 2:0 3:0 4:255 5:0 6:0 7:0 8:0 9:0 10:0 11:255 12:0 13:0 14:0 15:0 16:0 17:0 18:255 19:0 20:0 21:0 22:0 23:0 24:0 25:255 26:255 27:0 28:0 29:0 30:0 31:0 32:0 33:20.82114 
1 0 0 0 0 0 0 0 0 0 0 0 0 0 0 0 0 0 0 0 0 0 0 1:0 2:0 3:0 4:255 5:0 6:0 7:0 8:0 9:0 10:0 11:255 12:0 13:0 14:0 15:0 16:0 17:0 18:255 19:255 20:0 21:0 22:0 23:0 24:0 25:255 26:255 27:0 28:0 29:0 30:0 31:0 32:0 33:20.56159 
0 0 0 0 0 0 0 0 0 0 0 1.747359170163359e-12 0 0 0 0 0 0 0 0 0 0 0 1:0 2:0 3:0 4:255 5:0 6:0 7:0 8:255 9:0 10:0 11:255 12:0 13:0 14:0 15:0 16:0 17:0 18:255 19:0 20:0 21:0 22:0 23:0 24:0 25:0 26:255 27:0 28:0 29:0 30:0 31:0 32:0 33:20.31116 
0 4.391257394394275e-07 0 2.607373049472511e-08 0 0 0 0 0 0 4.120238575153521e-11 0 0 0 0 0 0 0 0 0 0 0 0 1:0 2:0 3:0 4:255 5:0 6:0 7:0 8:0 9:0 10:0 11:255 12:0 13:0 14:0 15:0 16:0 17:0 18:255 19:255 20:0 21:0 22:0 23:0 24:0 25:255 26:0 27:0 28:0 29:0 30:0 31:0 32:0 33:19.89239 
0.6435997680804898 0 0 0 0 0 0 0 0 0 0 0 0 0 0 0 0 0 0 0 0 0 0 1:0 2:0 3:0 4:255 5:0 6:0 7:0 8:0 9:0 10:0 11:255 12:0 13:0 14:0 15:0 16:0 17:0 18:255 19:255 20:0 21:0 22:0 23:0 24:0 25:255 26:255 27:0 28:0 29:0 30:0 31:0 32:0 33:20.34697 
3.517508668800001e-06 0 0 0 0 0 0 0 0 0 1.274803781787662e-11 0 0 0 0 0 0 0 0 0 0 0 0 1:0 2:0 3:0 4:255 5:0 6:0 7:0 8:255 9:0 10:0 11:255 12:0 13:0 14:0 15:0 16:0 17:255 18:255 19:0 20:0 21:0 22:0 23:0 24:0 25:0 26:255 27:0 28:0 29:0 30:0 31:0 32:0 33:20.63642 
0.182688342626582 0 0 0 0 0 0 0 0 0 0 0 0 0 0 0 0 0 0 0 0 0 0 1:0 2:0 3:0 4:255 5:0 6:0 7:0 8:0 9:0 10:0 11:255 12:0 13:0 14:0 15:0 16:0 17:0 18:255 19:0 20:0 21:0 22:0 23:0 24:0 25:255 26:255 27:0 28:0 29:0 30:0 31:0 32:0 33:21.03436 
1.42541666929308e-05 0 0 9.49743647515763e-08 3.108865289488335e-12 2.666610209327784e-12 0 0 9.234172435739378e-08 0 2.511949747139645e-11 1.244691311578173e-11 6.57017606183216e-13 0 0 0 0 0 0 0 0 0 0 1:0 2:0 3:0 4:255 5:0 6:0 7:0 8:0 9:0 10:0 11:255 12:0 13:0 14:0 15:0 16:0 17:0 18:0 19:0 20:0 21:0 22:0 23:0 24:0 25:255 26:255 27:0 28:0 29:0 30:0 31:0 32:0 33:20.83884 
4.472658674611112e-06 0 0 0 0 0 0 0 0 0 5.462845927470347e-12 0 0 0 0 0 0 0 0 0 0 0 0 1:0 2:0 3:0 4:255 5:0 6:0 7:0 8:0 9:0 10:0 11:255 12:0 13:0 14:0 15:0 16:0 17:0 18:255 19:0 20:0 21:0 22:0 23:0 24:0 25:0 26:255 27:0 28:0 29:0 30:0 31:0 32:0 33:20.3196 
0 0 0 0 0 0 0 0 0 0 2.159505760937922e-12 0 0 0 0 0 0 0 0 0 0 0 0 1:0 2:0 3:0 4:255 5:0 6:0 7:0 8:0 9:0 10:0 11:255 12:0 13:0 14:0 15:0 16:0 17:0 18:255 19:255 20:0 21:0 22:0 23:0 24:0 25:0 26:255 27:0 28:0 29:0 30:0 31:0 32:0 33:20.74823 
0 0 0 0 0 0 0 0 0 0 2.629897635490997e-11 0 0 0 0 0 0 0 0 0 0 0 0 1:0 2:0 3:0 4:255 5:0 6:0 7:0 8:255 9:0 10:0 11:255 12:0 13:0 14:0 15:0 16:0 17:0 18:255 19:0 20:0 21:0 22:0 23:0 24:0 25:255 26:255 27:0 28:0 29:0 30:0 31:0 32:0 33:20.73793 
0 0.1113220645159433 0 0 0 0 0 0 0 0 0 1.02494314288277e-11 0 0 0 0 0 0 0 0 0 0 0 1:0 2:0 3:0 4:255 5:0 6:0 7:0 8:0 9:0 10:0 11:255 12:0 13:0 14:0 15:0 16:0 17:0 18:255 19:0 20:0 21:0 22:0 23:0 24:0 25:255 26:0 27:0 28:0 29:0 30:0 31:0 32:0 33:20.82595 
0.2739855595794959 0 0 0 0 0 0 0 0 0 0 0 0 0 0 0 0 0 0 0 0 0 0 1:0 2:0 3:0 4:255 5:0 6:0 7:0 8:255 9:0 10:0 11:255 12:0 13:0 14:0 15:0 16:0 17:0 18:255 19:0 20:0 21:0 22:0 23:0 24:0 25:255 26:0 27:0 28:0 29:0 30:0 31:0 32:0 33:20.58064 
0.4155597391994449 0 0 0 0 0 0 0 0 0 0 0 0 0 0 0 0 0 0 0 0 0 0 1:0 2:0 3:0 4:255 5:0 6:0 7:0 8:255 9:0 10:0 11:255 12:0 13:0 14:0 15:0 16:0 17:255 18:255 19:0 20:0 21:0 22:0 23:0 24:0 25:255 26:0 27:0 28:0 29:0 30:0 31:0 32:0 33:20.43746 
0 3.572411280204049e-07 0 1.202839611514569e-08 0 0 0 0 0 0 2.181640423366289e-11 0 0 0 0 0 0 0 0 0 0 0 0 1:0 2:0 3:0 4:255 5:0 6:0 7:0 8:0 9:0 10:255 11:255 12:0 13:0 14:0 15:0 16:0 17:0 18:255 19:0 20:0 21:0 22:0 23:0 24:0 25:255 26:0 27:0 28:0 29:0 30:0 31:0 32:0 33:21.26491 
0.1952874951891521 1.708500613067721e-05 2.350383433408266e-08 3.13179408809845e-08 0 0 0 0 0 0 2.705234221980727e-11 7.726244508194924e-12 0 0 0 0 0 0 0 0 0 0 0 1:0 2:0 3:255 4:0 5:0 6:0 7:0 8:0 9:0 10:255 11:255 12:0 13:0 14:0 15:0 16:0 17:255 18:255 19:0 20:0 21:0 22:0 23:0 24:0 25:255 26:0 27:0 28:0 29:0 30:0 31:0 32:0 33:21.03945 
1 0 0 0 0 0 0 0 0 0 0 0 0 0 0 0 0 0 0 0 0 0 0 1:0 2:0 3:0 4:255 5:0 6:0 7:0 8:255 9:0 10:0 11:255 12:0 13:0 14:0 15:0 16:0 17:0 18:255 19:0 20:0 21:0 22:0 23:0 24:0 25:255 26:0 27:0 28:0 29:0 30:0 31:0 32:0 33:21.22254 
0 0 0 0 0 0 0 0 0 0 2.494078934041962e-11 9.595486538850681e-12 0 0 0 0 0 0 0 0 0 0 0 1:0 2:0 3:0 4:255 5:0 6:0 7:0 8:255 9:0 10:0 11:255 12:0 13:0 14:0 15:0 16:0 17:255 18:255 19:0 20:0 21:0 22:0 23:0 24:0 25:255 26:0 27:0 28:0 29:0 30:0 31:0 32:0 33:22.20126 
1 0.9255053810990448 3.508079508160094e-07 0 0 0 0 0 0 0 0 0 0 0 0 0 0 0 0 0 0 0 0 1:0 2:0 3:0 4:255 5:0 6:0 7:0 8:0 9:0 10:0 11:255 12:0 13:0 14:0 15:0 16:0 17:255 18:255 19:0 20:0 21:0 22:0 23:0 24:0 25:255 26:0 27:0 28:0 29:0 30:0 31:0 32:0 33:21.34189 
1 0 0 0 0 0 0 0 0 0 0 0 0 0 0 0 0 0 0 0 0 0 0 1:0 2:0 3:0 4:255 5:0 6:0 7:0 8:255 9:0 10:0 11:255 12:0 13:0 14:0 15:0 16:0 17:255 18:255 19:0 20:0 21:0 22:0 23:0 24:0 25:255 26:0 27:0 28:0 29:0 30:0 31:0 32:0 33:21.41303 
1 0 0 0 0 0 0 0 0 0 3.603817593908086e-11 5.403652519170976e-11 0 0 0 0 0 0 0 0 0 0 0 1:0 2:0 3:0 4:255 5:0 6:0 7:0 8:255 9:0 10:0 11:255 12:0 13:0 14:0 15:0 16:0 17:0 18:255 19:0 20:0 21:0 22:0 23:0 24:0 25:255 26:0 27:0 28:0 29:0 30:0 31:0 32:0 33:21.29415 
1 0 0 0 0 0 0 0 0 0 0 0 0 0 0 0 0 0 0 0 0 0 0 1:0 2:0 3:0 4:255 5:0 6:0 7:0 8:255 9:0 10:0 11:255 12:0 13:0 14:0 15:0 16:0 17:255 18:255 19:0 20:0 21:0 22:0 23:0 24:0 25:255 26:0 27:0 28:0 29:0 30:0 31:0 32:0 33:21.39932 
0 0 0 1.679912364317214e-07 9.629545818138758e-12 9.376652882720023e-12 0 0 3.73960628485207e-07 0 0 0 2.921939657090029e-12 4.949396419619181e-15 0 1.368421863459366e-14 1.212935302857781e-14 0 0 0 0 0 0 1:0 2:0 3:0 4:0 5:0 6:0 7:0 8:0 9:0 10:0 11:0 12:255 13:0 14:0 15:0 16:0 17:0 18:0 19:255 20:0 21:0 22:0 23:0 24:0 25:0 26:255 27:0 28:0 29:0 30:0 31:0 32:0 33:18.81084 
0.3556449473830037 0 0 0 0 0 0 0 0 0 0 0 0 0 0 0 0 0 0 0 0 0 0 1:0 2:0 3:0 4:0 5:0 6:0 7:0 8:0 9:0 10:0 11:0 12:255 13:0 14:0 15:0 16:0 17:0 18:0 19:255 20:0 21:0 22:0 23:0 24:0 25:255 26:255 27:0 28:0 29:0 30:0 31:0 32:0 33:18.60105 
1.710709373592803e-05 0 0 0 0 0 0 0 0 0 0 0 0 0 0 0 0 0 0 0 0 0 0 1:0 2:0 3:0 4:0 5:0 6:0 7:0 8:0 9:0 10:0 11:0 12:255 13:0 14:0 15:0 16:0 17:0 18:255 19:255 20:0 21:0 22:0 23:0 24:0 25:255 26:255 27:0 28:0 29:0 30:0 31:0 32:0 33:19.11189 
0.3412483260128047 0 0 0 0 0 0 0 0 0 0 0 0 0 0 0 0 0 0 0 0 0 0 1:0 2:0 3:0 4:0 5:0 6:0 7:0 8:0 9:0 10:0 11:0 12:255 13:0 14:0 15:0 16:0 17:0 18:255 19:255 20:0 21:0 22:0 23:0 24:0 25:0 26:255 27:0 28:0 29:0 30:0 31:0 32:0 33:18.81801 
0 0 0 0 0 0 0 0 0 0 9.814520302911833e-11 7.578229420309638e-12 0 0 0 0 0 0 0 0 0 0 0 1:0 2:0 3:0 4:0 5:0 6:0 7:0 8:255 9:0 10:0 11:0 12:255 13:0 14:0 15:0 16:0 17:0 18:255 19:255 20:0 21:0 22:0 23:0 24:0 25:255 26:255 27:0 28:0 29:0 30:0 31:0 32:0 33:19.48945 
1 0 0 0 0 0 0 0 0 0 0 0 0 0 0 0 0 0 0 0 0 0 0 1:0 2:0 3:0 4:0 5:0 6:0 7:0 8:0 9:0 10:0 11:0 12:255 13:0 14:0 15:0 16:0 17:0 18:255 19:255 20:0 21:0 22:0 23:0 24:0 25:255 26:255 27:255 28:0 29:0 30:0 31:0 32:0 33:18.72749 
1 0 0 0 0 0 0 0 0 0 0 0 0 0 0 0 0 0 0 0 0 0 0 1:0 2:0 3:0 4:0 5:0 6:0 7:0 8:0 9:0 10:0 11:0 12:255 13:0 14:0 15:0 16:0 17:0 18:255 19:255 20:0 21:0 22:0 23:0 24:0 25:255 26:255 27:255 28:0 29:0 30:0 31:0 32:0 33:18.97037 
0 0 0 2.682348151045153e-08 5.842315892332529e-12 1.391913638539425e-12 0 0 5.218713004818826e-08 0 0 0 4.113715175277699e-13 0 0 0 0 0 0 0 0 0 0 1:0 2:0 3:0 4:0 5:0 6:0 7:0 8:0 9:0 10:0 11:0 12:255 13:0 14:0 15:0 16:0 17:0 18:255 19:255 20:0 21:0 22:0 23:0 24:0 25:255 26:0 27:255 28:0 29:0 30:0 31:0 32:0 33:18.68931 
1.210235169636441e-06 0 0 0 0 0 0 0 0 0 8.838523124164696e-12 0 0 0 0 0 0 0 0 0 0 0 0 1:0 2:0 3:0 4:0 5:0 6:0 7:0 8:0 9:0 10:0 11:255 12:255 13:0 14:0 15:0 16:0 17:0 18:255 19:255 20:0 21:0 22:0 23:0 24:0 25:255 26:255 27:255 28:0 29:0 30:0 31:0 32:0 33:18.96834 
0 0 0 0 0 0 0 0 0 0 2.727004312777964e-11 0 0 0 0 0 0 0 0 0 0 0 0 1:0 2:0 3:0 4:255 5:0 6:0 7:0 8:0 9:0 10:0 11:0 12:255 13:0 14:0 15:0 16:0 17:0 18:255 19:255 20:0 21:0 22:0 23:0 24:0 25:255 26:255 27:0 28:0 29:0 30:0 31:0 32:0 33:18.59892 
0 0 0 0 0 0 0 0 0 0 6.711682970032146e-11 0 0 0 0 0 0 0 0 0 0 0 0 1:0 2:0 3:0 4:255 5:0 6:0 7:0 8:255 9:0 10:0 11:255 12:255 13:0 14:0 15:0 16:0 17:0 18:0 19:255 20:0 21:0 22:0 23:0 24:0 25:255 26:255 27:0 28:0 29:0 30:0 31:0 32:0 33:17.91178 
7.130325909694258e-07 0 0 0 0 0 0 0 0 0 0 0 0 0 0 0 0 0 0 0 0 0 0 1:0 2:0 3:0 4:255 5:0 6:0 7:0 8:255 9:0 10:0 11:255 12:255 13:0 14:0 15:0 16:0 17:0 18:0 19:255 20:0 21:0 22:0 23:0 24:0 25:255 26:255 27:0 28:0 29:0 30:0 31:0 32:0 33:17.68616 
0 0 0 0 0 0 0 0 0 0 7.52189043809776e-11 0 0 0 0 0 0 0 0 0 0 0 0 1:0 2:0 3:0 4:255 5:0 6:0 7:0 8:255 9:0 10:0 11:255 12:255 13:0 14:0 15:0 16:0 17:0 18:255 19:255 20:0 21:0 22:0 23:0 24:0 25:0 26:255 27:0 28:0 29:0 30:0 31:0 32:0 33:17.95577 
0.02012674461583517 0 0 0 0 0 0 0 0 0 0 0 0 0 0 0 0 0 0 0 0 0 0 1:0 2:0 3:0 4:255 5:0 6:0 7:0 8:255 9:0 10:0 11:255 12:0 13:0 14:0 15:0 16:0 17:0 18:255 19:255 20:0 21:0 22:0 23:0 24:0 25:0 26:255 27:0 28:0 29:0 30:0 31:0 32:0 33:17.33769 
0.6727945745056964 0 0 0 0 0 0 0 0 0 0 0 0 0 0 0 0 0 0 0 0 0 0 1:0 2:0 3:0 4:255 5:0 6:0 7:0 8:255 9:0 10:0 11:255 12:0 13:0 14:0 15:0 16:0 17:0 18:255 19:0 20:0 21:0 22:0 23:0 24:0 25:255 26:0 27:0 28:0 29:0 30:0 31:0 32:0 33:17.83917 
1 0 0 0 0 0 0 0 0 0 0 0 0 0 0 0 0 0 0 0 0 0 0 1:0 2:0 3:0 4:255 5:0 6:0 7:0 8:255 9:0 10:0 11:255 12:0 13:0 14:0 15:0 16:0 17:255 18:255 19:0 20:0 21:0 22:0 23:0 24:0 25:255 26:0 27:0 28:0 29:0 30:0 31:0 32:0 33:17.97932 
1 0 0 0 0 0 0 0 0 0 0 0 0 0 0 0 0 0 0 0 0 0 0 1:0 2:0 3:0 4:255 5:0 6:0 7:0 8:255 9:0 10:0 11:255 12:0 13:0 14:0 15:0 16:0 17:255 18:255 19:0 20:0 21:0 22:0 23:0 24:0 25:255 26:0 27:0 28:0 29:0 30:0 31:0 32:0 33:18.27349 
1 0 0 0 0 0 0 0 0 0 0 0 0 0 0 0 0 0 0 0 0 0 0 1:0 2:0 3:0 4:255 5:0 6:0 7:0 8:255 9:0 10:0 11:255 12:0 13:0 14:0 15:0 16:0 17:0 18:255 19:0 20:0 21:0 22:0 23:0 24:0 25:255 26:0 27:0 28:0 29:0 30:0 31:0 32:0 33:17.58126 
0.0003949202703248035 7.328145469753917e-06 0.009001204781631725 0 1.79882238788259e-10 2.591610925832127e-10 0 0 0 0 4.015277052593993e-10 0 8.153414428757763e-11 6.922129155634216e-13 0 5.182817644090416e-13 4.997512320476444e-13 0 0 0 0 0 0 1:0 2:0 3:0 4:0 5:0 6:0 7:0 8:255 9:0 10:0 11:0 12:0 13:0 14:0 15:0 16:0 17:0 18:0 19:0 20:0 21:0 22:0 23:0 24:0 25:0 26:0 27:0 28:0 29:0 30:0 31:0 32:0 33:19.05762 
1.253011202133013e-06 0 0 0 0 0 0 0 0 0 5.775505269919863e-11 7.316029276661015e-11 0 0 0 0 0 0 0 0 0 0 0 1:0 2:0 3:0 4:255 5:0 6:0 7:0 8:255 9:0 10:0 11:0 12:0 13:0 14:0 15:0 16:0 17:0 18:0 19:0 20:0 21:0 22:0 23:0 24:0 25:0 26:0 27:0 28:0 29:0 30:0 31:0 32:0 33:18.38471 
0 5.034770355460678e-07 1.300121176521608e-08 0 0 0 0 0 0 1.267511163126972e-13 2.926847601968569e-06 0 0 0 0 0 0 0 0 0 0 0 0 1:0 2:0 3:255 4:255 5:0 6:0 7:0 8:255 9:0 10:255 11:255 12:255 13:0 14:0 15:0 16:0 17:255 18:255 19:255 20:0 21:0 22:0 23:0 24:0 25:255 26:255 27:0 28:0 29:0 30:0 31:0 32:0 33:18.3025 
3.006389324624204e-06 0 0 0 0 0 0 0 0 3.313198341505006e-14 0 0 0 0 0 0 0 0 0 0 0 0 0 1:0 2:0 3:255 4:255 5:0 6:0 7:0 8:255 9:0 10:255 11:255 12:255 13:0 14:0 15:0 16:0 17:255 18:255 19:255 20:0 21:0 22:0 23:0 24:0 25:255 26:255 27:0 28:0 29:0 30:0 31:0 32:0 33:18.3371 
7.757750306203516e-08 0 0 0 0 0 0 0 0 3.365056235581261e-14 0 0 0 0 0 0 0 0 0 0 0 0 0 1:0 2:0 3:255 4:255 5:0 6:0 7:0 8:255 9:0 10:255 11:255 12:0 13:0 14:0 15:0 16:0 17:255 18:255 19:0 20:0 21:0 22:0 23:0 24:0 25:255 26:255 27:0 28:255 29:0 30:0 31:0 32:0 33:18.24506 
5.178760698587261e-06 0.0002746538268700472 0 0 0 0 0 0 0 2.491869727404824e-13 0 0 0 0 0 0 0 0 0 0 0 0 0 1:0 2:0 3:255 4:255 5:0 6:0 7:0 8:255 9:0 10:255 11:255 12:0 13:0 14:0 15:0 16:0 17:255 18:255 19:0 20:0 21:0 22:0 23:0 24:0 25:255 26:0 27:0 28:0 29:0 30:0 31:0 32:0 33:17.55272 
1.050389523908481e-06 0 0 0 0 0 0 0 0 0 0 0 0 0 0 0 0 0 0 0 0 0 0 1:0 2:0 3:255 4:255 5:0 6:0 7:255 8:255 9:255 10:255 11:255 12:0 13:0 14:0 15:0 16:0 17:255 18:255 19:0 20:0 21:0 22:0 23:0 24:0 25:255 26:0 27:0 28:0 29:0 30:0 31:0 32:0 33:17.18376 
1 0 0 0 0 0 0 0 0 0 0 0 0 0 0 0 0 0 0 0 0 0 0 1:0 2:0 3:255 4:255 5:0 6:0 7:255 8:255 9:0 10:255 11:255 12:0 13:0 14:0 15:0 16:0 17:255 18:255 19:0 20:0 21:0 22:0 23:0 24:0 25:255 26:0 27:0 28:0 29:0 30:0 31:0 32:0 33:17.28572 
0 0 2.618176349864394e-08 0 0 0 0 0 0 0 0 0 0 0 0 0 0 0 0 0 0 0 0 1:0 2:0 3:255 4:255 5:0 6:0 7:255 8:255 9:255 10:255 11:255 12:0 13:0 14:0 15:0 16:0 17:255 18:255 19:0 20:0 21:0 22:0 23:0 24:0 25:255 26:0 27:0 28:0 29:0 30:0 31:0 32:0 33:17.64357 
0 0 0 0 0 3.763056213010138e-13 0 0 0 0 0 0 0 0 0 0 0 0 0 0 0 0 0 1:0 2:255 3:255 4:255 5:0 6:0 7:255 8:255 9:255 10:255 11:255 12:0 13:0 14:0 15:0 16:0 17:255 18:255 19:0 20:0 21:0 22:0 23:0 24:0 25:255 26:0 27:0 28:0 29:0 30:0 31:0 32:0 33:19.06812 
0 0 0 0 0 0 0 0 0 1.281754054237192e-12 0 0 0 0 0 0 0 0 0 0 0 0 0 1:0 2:255 3:255 4:255 5:0 6:0 7:255 8:255 9:255 10:255 11:255 12:0 13:0 14:0 15:0 16:0 17:255 18:255 19:0 20:0 21:0 22:0 23:0 24:0 25:255 26:0 27:0 28:0 29:0 30:0 31:0 32:0 33:19.61901 
8.156608007538467e-06 3.540286100875969e-07 0 0 0 1.440096195713028e-13 0 0 0 0 5.306600875229732e-13 0 0 0 0 0 0 0 0 0 0 0 0 1:0 2:0 3:255 4:0 5:0 6:0 7:255 8:0 9:255 10:255 11:255 12:0 13:0 14:0 15:0 16:0 17:255 18:255 19:0 20:0 21:0 22:0 23:0 24:0 25:0 26:0 27:0 28:0 29:0 30:0 31:0 32:0 33:19.92179 
2.537020464337846e-07 9.499658551078536e-07 0 1.644818854962318e-08 0 0 0 0 0 6.954289652002398e-14 0 0 0 0 0 0 0 0 0 0 0 0 0 1:0 2:255 3:255 4:255 5:0 6:0 7:255 8:255 9:255 10:255 11:255 12:0 13:0 14:0 15:0 16:255 17:255 18:255 19:0 20:0 21:0 22:0 23:0 24:0 25:0 26:0 27:0 28:0 29:0 30:0 31:0 32:0 33:20.00178 
4.56961433199927e-07 6.868768824840883e-07 1.547893529235466e-09 2.88104404693513e-08 3.519501892508157e-13 0 0 0 0 0 1.034998546245107e-12 8.194195935263993e-13 0 0 0 0 0 0 7.844836656959368e-14 7.83304162057308e-14 1.466016820823482e-13 2.812737612026239e-14 0 1:0 2:255 3:255 4:255 5:0 6:0 7:255 8:255 9:255 10:255 11:255 12:0 13:0 14:0 15:0 16:255 17:255 18:0 19:0 20:0 21:0 22:0 23:0 24:0 25:0 26:0 27:0 28:0 29:0 30:0 31:0 32:0 33:19.85043 
0 1 0 0 0 0 0 0 0 0 0 0 0 0 0 0 0 0 0 0 0 0 0 1:0 2:255 3:255 4:0 5:0 6:0 7:255 8:0 9:255 10:255 11:0 12:0 13:0 14:0 15:0 16:255 17:255 18:0 19:0 20:0 21:0 22:0 23:0 24:0 25:0 26:0 27:0 28:0 29:0 30:0 31:0 32:0 33:20.0897 
0 0.9527858062671012 0 0 0 0 0 0 0 0 0 0 0 0 0 0 0 0 0 0 0 0 0 1:0 2:255 3:255 4:0 5:0 6:0 7:255 8:0 9:255 10:255 11:0 12:0 13:0 14:0 15:0 16:255 17:255 18:0 19:0 20:0 21:0 22:0 23:0 24:0 25:0 26:0 27:0 28:0 29:0 30:0 31:0 32:0 33:20.11899 
0 1 0 0 0 0 0 0 0 0 0 0 0 0 0 0 0 0 0 0 0 0 0 1:0 2:255 3:255 4:255 5:0 6:0 7:255 8:0 9:255 10:255 11:0 12:0 13:0 14:0 15:0 16:255 17:255 18:0 19:0 20:0 21:0 22:0 23:0 24:0 25:0 26:0 27:0 28:0 29:0 30:0 31:0 32:0 33:20.36369 
0 1 0 0 0 0 0 0 0 0 0 0 0 0 0 0 0 0 6.476599063672483e-15 1.716874074287014e-14 4.060973444634671e-14 2.057408725304333e-14 0 1:0 2:255 3:255 4:0 5:0 6:0 7:255 8:0 9:255 10:255 11:0 12:0 13:0 14:0 15:0 16:255 17:255 18:0 19:0 20:0 21:0 22:0 23:0 24:0 25:0 26:0 27:0 28:0 29:0 30:0 31:0 32:0 33:20.46844 
0 1 0 0 0 0 0 0 0 0 3.262116919118126e-12 0 0 0 0 0 0 0 0 0 0 0 0 1:0 2:255 3:255 4:255 5:0 6:0 7:255 8:0 9:255 10:255 11:0 12:0 13:0 14:0 15:0 16:255 17:255 18:0 19:0 20:0 21:0 22:0 23:0 24:0 25:0 26:0 27:0 28:0 29:0 30:0 31:0 32:0 33:20.35628 
0 1 0 0 0 0 0 0 0 0 0 0 0 0 0 0 0 0 0 0 0 0 0 1:0 2:255 3:255 4:0 5:0 6:0 7:255 8:0 9:255 10:255 11:0 12:0 13:0 14:0 15:0 16:255 17:255 18:0 19:0 20:0 21:0 22:0 23:0 24:0 25:0 26:0 27:0 28:0 29:0 30:0 31:0 32:0 33:20.20407 
0 1 0 0 0 0 0 0 0 0 0 0 0 0 0 0 0 0 0 0 0 0 0 1:0 2:255 3:255 4:0 5:0 6:0 7:255 8:0 9:255 10:255 11:0 12:0 13:0 14:0 15:0 16:255 17:255 18:0 19:0 20:0 21:0 22:0 23:0 24:0 25:0 26:0 27:0 28:0 29:0 30:0 31:0 32:0 33:20.0488 
0 1 0 0 0 0 0 0 0 0 0 0 0 0 0 0 0 0 0 0 0 0 0 1:0 2:255 3:255 4:0 5:0 6:0 7:255 8:0 9:255 10:255 11:0 12:0 13:0 14:0 15:0 16:255 17:255 18:0 19:0 20:0 21:0 22:0 23:0 24:0 25:0 26:0 27:0 28:0 29:0 30:0 31:0 32:0 33:20.07679 
0 1 0 0 0 0 0 0 1.488916772099057e-07 0 0 0 0 0 0 0 0 0 0 0 0 0 0 1:0 2:255 3:255 4:0 5:0 6:0 7:255 8:0 9:255 10:255 11:0 12:0 13:0 14:0 15:0 16:255 17:255 18:0 19:0 20:0 21:0 22:0 23:0 24:0 25:0 26:0 27:0 28:0 29:0 30:0 31:0 32:0 33:19.97868 
0 0 0 0 0 0 0 7.515475183514702e-13 0 0 0 0 0 0 0 0 0 0 0 0 0 0 0 1:0 2:255 3:255 4:0 5:0 6:255 7:255 8:0 9:255 10:255 11:0 12:0 13:0 14:0 15:0 16:255 17:255 18:0 19:0 20:0 21:0 22:0 23:0 24:0 25:0 26:0 27:0 28:0 29:0 30:0 31:0 32:0 33:20.97713 
0.8953562581835969 0 4.902816548500139e-09 0 2.064494773950498e-12 0 0 8.273314430581773e-13 0 5.567090267435293e-14 6.167819149089814e-13 0 2.032285065643602e-13 0 0 0 0 0 0 1.294050183108633e-14 7.216244492543702e-14 3.375633433136879e-14 0 1:0 2:255 3:255 4:0 5:0 6:255 7:255 8:0 9:255 10:255 11:0 12:0 13:0 14:0 15:0 16:255 17:0 18:0 19:0 20:0 21:0 22:0 23:0 24:0 25:0 26:0 27:0 28:0 29:0 30:0 31:0 32:0 33:20.80766 
0 0.9999692543641612 0 0 0 0 0 0 0 0 0 0 0 0 0 0 0 0 0 0 0 0 0 1:0 2:255 3:255 4:0 5:0 6:255 7:255 8:0 9:255 10:255 11:0 12:0 13:0 14:0 15:0 16:255 17:255 18:0 19:0 20:0 21:0 22:0 23:0 24:0 25:0 26:0 27:0 28:0 29:0 30:0 31:0 32:0 33:20.82059 
1 0 0 0 0 0 0 0 0 0 0 0 0 0 0 0 0 0 0 0 0 0 0 1:0 2:255 3:255 4:255 5:255 6:255 7:255 8:0 9:255 10:255 11:255 12:255 13:255 14:255 15:255 16:255 17:255 18:255 19:255 20:255 21:255 22:255 23:255 24:255 25:255 26:255 27:255 28:255 29:255 30:255 31:255 32:255 33:20.48057 
0 0 0 0 0 0 0 0 0 1.5909802073429e-15 0 0 0 0 0 0 0 0 0 0 0 0 0 1:255 2:255 3:255 4:255 5:255 6:255 7:0 8:0 9:255 10:255 11:255 12:255 13:255 14:255 15:255 16:255 17:255 18:255 19:255 20:255 21:255 22:255 23:255 24:255 25:255 26:255 27:255 28:255 29:255 30:255 31:255 32:255 33:19.47506 
1.474252928771165e-06 0 0 0 0 0 0 0 0 0 0 0 0 5.931864644465214e-15 1.587139620769906e-15 2.181046987070741e-15 2.151040945872256e-15 0 0 0 0 0 4.521662616333475e-15 1:255 2:255 3:255 4:255 5:255 6:255 7:255 8:0 9:0 10:255 11:255 12:0 13:255 14:255 15:255 16:0 17:255 18:255 19:255 20:255 21:255 22:255 23:255 24:255 25:255 26:255 27:255 28:255 29:255 30:255 31:255 32:255 33:19.31784 
0 8.170913012434739e-08 0 0 0 0 6.612066596923749e-09 5.782726206693836e-14 0 0 0 0 0 0 0 0 0 4.097714029816391e-15 0 0 0 0 0 1:255 2:255 3:255 4:255 5:255 6:255 7:255 8:0 9:255 10:255 11:255 12:255 13:255 14:255 15:255 16:255 17:255 18:0 19:0 20:255 21:255 22:255 23:255 24:255 25:255 26:255 27:0 28:255 29:255 30:255 31:255 32:255 33:19.16076 
3.322263947667865e-07 0 0 0 0 0 0 0 0 0 0 0 0 0 0 0 0 0 0 0 0 0 0 1:255 2:255 3:255 4:255 5:255 6:255 7:255 8:0 9:255 10:255 11:255 12:255 13:255 14:255 15:255 16:255 17:255 18:255 19:255 20:255 21:255 22:255 23:255 24:255 25:255 26:255 27:0 28:255 29:255 30:255 31:255 32:255 33:19.00412 
1 0 0 0 0 0 0 0 0 0 0 0 0 0 0 0 0 0 0 0 0 0 0 1:255 2:255 3:255 4:255 5:255 6:255 7:255 8:0 9:255 10:255 11:255 12:255 13:255 14:255 15:255 16:255 17:255 18:255 19:255 20:255 21:255 22:255 23:255 24:255 25:255 26:255 27:255 28:255 29:255 30:255 31:255 32:255 33:18.79221 
1 0 0 0 0 0 0 0 0 0 0 0 0 0 0 0 0 0 0 0 0 0 0 1:255 2:255 3:255 4:255 5:255 6:255 7:255 8:0 9:255 10:255 11:255 12:255 13:255 14:255 15:255 16:255 17:255 18:255 19:255 20:255 21:255 22:255 23:255 24:255 25:255 26:255 27:255 28:255 29:255 30:255 31:255 32:255 33:18.70762 
1.738326673518451e-06 0 0 0 0 0 6.526100993421835e-09 1.222256407411073e-13 0 0 1.059507386388719e-13 0 0 0 8.597287554558052e-18 0 0 1.084640762716714e-14 9.628020702978561e-16 0 0 6.049994548461243e-15 5.711773053022566e-15 1:255 2:255 3:255 4:255 5:255 6:255 7:255 8:0 9:255 10:255 11:255 12:255 13:255 14:255 15:255 16:255 17:0 18:0 19:0 20:255 21:255 22:255 23:255 24:255 25:255 26:0 27:255 28:255 29:255 30:255 31:255 32:255 33:19.79478 
1 0 0 0 0 0 0 0 0 0 0 0 0 0 0 0 0 0 0 0 0 0 0 1:255 2:255 3:255 4:255 5:255 6:255 7:255 8:0 9:255 10:255 11:255 12:255 13:255 14:255 15:255 16:255 17:255 18:255 19:255 20:255 21:255 22:255 23:255 24:255 25:255 26:255 27:255 28:255 29:255 30:255 31:255 32:255 33:19.0437 
1 0 0 0 0 0 0 0 0 0 0 0 0 0 0 0 0 0 0 0 0 0 0 1:255 2:255 3:255 4:255 5:255 6:255 7:255 8:0 9:255 10:255 11:255 12:255 13:255 14:255 15:255 16:255 17:255 18:255 19:255 20:255 21:255 22:255 23:255 24:255 25:255 26:255 27:255 28:255 29:255 30:255 31:255 32:255 33:19.50952 
0 0 0 0 0 0 0 0 0 0 0 0 0 1.699608538609601e-15 4.662395330121652e-15 0 0 1.882993858822881e-15 0 0 0 0 0 1:0 2:255 3:0 4:255 5:255 6:255 7:255 8:0 9:255 10:255 11:255 12:255 13:255 14:255 15:255 16:255 17:255 18:255 19:255 20:255 21:255 22:255 23:255 24:255 25:255 26:255 27:255 28:255 29:255 30:255 31:255 32:255 33:19.03078 
0 0 0 0 0 0 0 0 0 0 0 0 0 8.871076363976411e-15 1.79709751366966e-14 4.536390043715649e-15 4.440429915438732e-15 1.597046842269638e-14 0 1.355689552866947e-15 2.689777759575816e-15 0 2.828380694987672e-15 1:255 2:255 3:255 4:255 5:255 6:255 7:255 8:0 9:255 10:0 11:255 12:255 13:255 14:255 15:255 16:255 17:0 18:0 19:0 20:255 21:255 22:255 23:255 24:255 25:255 26:255 27:255 28:255 29:255 30:255 31:255 32:255 33:18.86038 
1 0 0 0 0 0 0 0 0 0 0 0 0 0 0 0 0 0 0 0 0 0 0 1:255 2:255 3:255 4:255 5:255 6:255 7:255 8:0 9:255 10:255 11:255 12:255 13:255 14:255 15:255 16:255 17:255 18:255 19:255 20:255 21:255 22:255 23:255 24:255 25:255 26:255 27:255 28:255 29:255 30:255 31:255 32:255 33:18.55915 
0.5078379316931446 0 0 0 0 0 0 0 0 0 0 0 0 0 0 0 0 0 0 0 0 0 0 1:255 2:255 3:255 4:255 5:255 6:255 7:255 8:0 9:255 10:255 11:255 12:255 13:255 14:255 15:255 16:255 17:255 18:255 19:255 20:255 21:255 22:255 23:255 24:255 25:255 26:255 27:255 28:255 29:255 30:255 31:255 32:255 33:18.96383 
0 0 0 3.428933383616261e-08 0 6.289707127494401e-14 0 1.447892566474046e-13 3.987996625033176e-09 8.336605354527015e-14 0 0 0 0 0 0 0 0 9.580435206469987e-15 0 0 3.777425823696539e-15 0 1:255 2:255 3:255 4:255 5:255 6:255 7:255 8:255 9:255 10:255 11:255 12:255 13:255 14:255 15:255 16:255 17:255 18:255 19:255 20:255 21:255 22:255 23:255 24:255 25:255 26:255 27:255 28:255 29:255 30:255 31:255 32:255 33:18.68537 
1 0 0 0 0 0 0 0 0 0 0 0 0 0 0 0 0 0 0 0 0 0 0 1:255 2:255 3:255 4:255 5:255 6:255 7:255 8:0 9:255 10:255 11:255 12:255 13:255 14:255 15:255 16:255 17:255 18:255 19:255 20:255 21:255 22:255 23:255 24:255 25:255 26:255 27:255 28:255 29:255 30:255 31:255 32:255 33:19.78602 
2.030254083288968e-06 0 0 0 0 0 0 0 0 0 0 0 0 0 0 0 0 0 0 0 0 0 0 1:255 2:255 3:255 4:255 5:255 6:255 7:255 8:0 9:255 10:255 11:255 12:255 13:255 14:255 15:255 16:0 17:255 18:255 19:255 20:255 21:255 22:255 23:255 24:255 25:255 26:0 27:255 28:255 29:255 30:255 31:255 32:255 33:19.2782 
6.87887569186881e-06 0 0 0 0 0 0 0 0 0 0 0 0 0 0 0 0 0 0 0 0 0 0 1:255 2:255 3:255 4:255 5:255 6:255 7:255 8:0 9:255 10:255 11:255 12:255 13:255 14:255 15:255 16:255 17:255 18:255 19:255 20:255 21:255 22:255 23:255 24:255 25:0 26:255 27:255 28:255 29:255 30:255 31:255 32:255 33:19.678 
1 0 0 0 0 0 0 0 0 0 0 0 0 0 0 0 0 0 0 0 0 0 0 1:255 2:255 3:255 4:255 5:255 6:255 7:255 8:0 9:255 10:255 11:255 12:255 13:255 14:255 15:255 16:255 17:255 18:255 19:255 20:255 21:255 22:255 23:255 24:255 25:255 26:255 27:255 28:255 29:255 30:255 31:255 32:255 33:19.29151 
1 0 0 0 0 0 0 0 0 0 0 0 0 0 0 0 0 0 0 0 0 0 0 1:255 2:255 3:255 4:255 5:255 6:255 7:255 8:0 9:255 10:255 11:255 12:255 13:255 14:255 15:255 16:255 17:255 18:255 19:255 20:255 21:255 22:255 23:255 24:255 25:255 26:255 27:255 28:255 29:255 30:255 31:255 32:255 33:18.87033 
1 0 0 0 0 0 0 0 0 0 0 0 0 0 0 0 0 0 0 0 0 0 0 1:255 2:255 3:255 4:255 5:255 6:255 7:255 8:0 9:255 10:255 11:255 12:255 13:255 14:255 15:255 16:255 17:255 18:255 19:255 20:255 21:255 22:255 23:255 24:255 25:255 26:255 27:255 28:255 29:255 30:255 31:255 32:255 33:19.22183 
0 5.097988827442493e-08 0 0 0 0 0 0 0 0 0 0 0 8.752845785349759e-15 9.404835492283983e-15 9.92188936180655e-16 9.716613012923351e-16 0 0 0 0 0 0 1:0 2:255 3:255 4:255 5:255 6:255 7:255 8:0 9:255 10:255 11:255 12:255 13:255 14:255 15:255 16:255 17:255 18:255 19:255 20:255 21:255 22:255 23:255 24:255 25:0 26:255 27:255 28:255 29:255 30:255 31:255 32:255 33:18.74541 
1.537801163133059e-06 0 0 0 0 0 0 0 0 0 0 0 0 6.259465810794301e-15 0 3.858947572982655e-15 3.750736799737634e-15 0 0 0 0 0 3.354744502971171e-15 1:255 2:255 3:255 4:255 5:255 6:255 7:255 8:0 9:255 10:0 11:0 12:255 13:255 14:255 15:255 16:0 17:255 18:255 19:255 20:255 21:255 22:255 23:255 24:255 25:255 26:255 27:255 28:255 29:255 30:255 31:255 32:255 33:19.03379 
0 0 0 0 0 0 6.585141637989747e-09 1.357996293899194e-14 0 0 0 0 0 0 0 0 0 6.206376517630587e-15 0 0 0 0 0 1:255 2:255 3:255 4:255 5:255 6:255 7:255 8:0 9:255 10:255 11:255 12:255 13:255 14:255 15:255 16:255 17:255 18:255 19:255 20:255 21:255 22:255 23:255 24:255 25:0 26:0 27:255 28:255 29:255 30:255 31:255 32:255 33:19.76675 
1 0 0 0 0 0 0 0 0 0 0 0 0 0 0 0 0 0 0 0 0 0 0 1:255 2:255 3:255 4:255 5:255 6:255 7:255 8:0 9:255 10:255 11:255 12:255 13:255 14:255 15:255 16:255 17:255 18:255 19:255 20:255 21:255 22:255 23:255 24:255 25:0 26:255 27:255 28:255 29:255 30:255 31:255 32:255 33:20.12811 
1 0 0 0 0 0 0 0 0 0 0 0 0 0 0 0 0 0 0 0 0 0 0 1:255 2:255 3:255 4:255 5:255 6:255 7:255 8:0 9:255 10:255 11:255 12:255 13:255 14:255 15:255 16:255 17:255 18:255 19:255 20:255 21:255 22:255 23:255 24:255 25:255 26:255 27:255 28:255 29:255 30:255 31:255 32:255 33:20.34855 
1 0 0 0 0 0 0 0 0 0 0 0 0 0 0 0 0 0 0 0 0 0 0 1:255 2:255 3:255 4:255 5:255 6:255 7:255 8:0 9:255 10:255 11:255 12:255 13:255 14:255 15:255 16:255 17:255 18:255 19:255 20:255 21:255 22:255 23:255 24:255 25:255 26:255 27:255 28:255 29:255 30:255 31:255 32:255 33:20.67822 
0 0 1.702227990599989e-09 0 0 0 0 0 0 0 0 0 0 0 0 0 0 0 0 0 0 0 0 1:255 2:255 3:255 4:255 5:255 6:255 7:255 8:0 9:255 10:255 11:255 12:255 13:255 14:255 15:255 16:255 17:255 18:255 19:255 20:255 21:255 22:255 23:255 24:255 25:255 26:255 27:255 28:255 29:255 30:255 31:255 32:255 33:20.31716 
0.3374958253895425 0 0 0 0 0 0 0 0 0 0 0 0 0 0 0 0 0 0 0 0 0 0 1:255 2:255 3:255 4:255 5:255 6:255 7:255 8:0 9:255 10:255 11:255 12:255 13:255 14:255 15:255 16:255 17:255 18:255 19:255 20:255 21:255 22:255 23:255 24:255 25:255 26:255 27:255 28:255 29:255 30:255 31:255 32:255 33:19.90421 
1 0 0 0 0 0 0 0 0 0 0 0 0 0 0 0 0 0 0 0 0 0 0 1:255 2:255 3:255 4:255 5:255 6:255 7:255 8:0 9:255 10:255 11:255 12:255 13:255 14:255 15:255 16:255 17:255 18:255 19:255 20:255 21:255 22:255 23:255 24:255 25:255 26:255 27:255 28:255 29:255 30:255 31:255 32:255 33:19.70123 
0 0 0 0 0 0 0 0 0 0 0 0 0 0 0 0 0 7.446760844923564e-16 0 3.483782948243901e-16 0 0 0 1:255 2:255 3:255 4:255 5:255 6:255 7:255 8:0 9:0 10:0 11:255 12:255 13:255 14:255 15:255 16:255 17:255 18:255 19:255 20:255 21:255 22:255 23:0 24:255 25:0 26:255 27:255 28:255 29:255 30:255 31:255 32:255 33:19.49185 
2.156126643752115e-05 0 2.825389803916311e-07 0 0 3.152373542373093e-12 0 0 0 0 0 0 6.507175942317603e-13 0 0 1.476346994142128e-15 6.845971584748977e-16 0 0 0 0 0 0 1:255 2:0 3:0 4:0 5:0 6:0 7:0 8:0 9:0 10:0 11:255 12:0 13:0 14:0 15:0 16:0 17:0 18:255 19:0 20:0 21:0 22:0 23:0 24:0 25:255 26:0 27:0 28:0 29:0 30:0 31:0 32:0 33:15.93718 
0 0 0 0 0 0 0 0 0 0 0 1.500405789657057e-11 0 0 0 0 0 0 0 0 0 0 0 1:255 2:0 3:0 4:0 5:0 6:0 7:0 8:0 9:0 10:0 11:255 12:0 13:0 14:0 15:0 16:0 17:0 18:255 19:0 20:0 21:0 22:0 23:0 24:0 25:255 26:0 27:0 28:0 29:0 30:0 31:0 32:0 33:16.12172 
9.989709522905963e-06 0 8.62805312118639e-08 0 0 0 0 0 0 0 0 0 0 0 0 0 0 0 0 0 0 0 0 1:255 2:0 3:0 4:255 5:0 6:0 7:0 8:0 9:0 10:0 11:0 12:0 13:0 14:0 15:0 16:0 17:0 18:255 19:0 20:0 21:0 22:0 23:0 24:0 25:255 26:0 27:0 28:0 29:0 30:0 31:0 32:0 33:16.59741 
1.63464031270271e-06 0 2.131801276740201e-07 0 0 0 0 0 0 0 0 0 0 0 0 0 0 0 0 0 0 0 0 1:255 2:0 3:0 4:255 5:0 6:0 7:0 8:0 9:0 10:0 11:255 12:0 13:0 14:0 15:0 16:0 17:0 18:0 19:0 20:0 21:0 22:0 23:0 24:0 25:255 26:0 27:0 28:0 29:0 30:0 31:0 32:0 33:17.85586 
0 0 6.090677526170882e-08 0 0 0 0 0 0 0 0 0 0 0 0 0 0 0 0 0 0 0 0 1:255 2:0 3:0 4:255 5:0 6:0 7:0 8:0 9:0 10:0 11:255 12:0 13:0 14:0 15:0 16:0 17:0 18:0 19:0 20:0 21:0 22:0 23:0 24:0 25:0 26:0 27:0 28:0 29:0 30:0 31:0 32:0 33:18.73815 
0.08349842844986545 1.31205238589146e-06 1.584355494334836e-07 0 0 0 0 0 0 0 0 1.596904721719405e-11 0 0 0 0 0 0 0 4.188494785451416e-14 1.035404056127842e-12 0 0 1:255 2:255 3:0 4:0 5:0 6:0 7:0 8:0 9:0 10:0 11:0 12:0 13:0 14:0 15:0 16:0 17:0 18:0 19:0 20:0 21:0 22:0 23:0 24:0 25:0 26:0 27:0 28:0 29:0 30:0 31:0 32:0 33:19.60609 
2.510260449454702e-05 3.235616279582127e-07 1.909548899859316e-09 0 0 0 0 0 0 0 0 0 0 0 0 0 0 0 0 0 0 0 0 1:255 2:255 3:0 4:0 5:0 6:0 7:0 8:0 9:0 10:0 11:0 12:0 13:0 14:0 15:0 16:0 17:0 18:0 19:0 20:0 21:0 22:0 23:0 24:0 25:0 26:255 27:0 28:0 29:0 30:0 31:0 32:0 33:20.7308 
5.11707144811502e-05 0 0 0 0 0 0 0 0 0 0 0 0 0 0 0 0 0 0 0 0 0 0 1:255 2:255 3:0 4:0 5:0 6:0 7:0 8:0 9:0 10:0 11:0 12:255 13:0 14:0 15:0 16:0 17:0 18:0 19:255 20:0 21:0 22:0 23:0 24:0 25:0 26:255 27:0 28:0 29:0 30:0 31:0 32:0 33:22.58371 
0 2.231580559981726e-05 0 0 0 0 0 0 0 0 0 0 0 0 0 0 0 0 0 0 0 0 0 1:255 2:255 3:0 4:0 5:0 6:0 7:0 8:0 9:0 10:0 11:0 12:255 13:0 14:0 15:0 16:0 17:0 18:0 19:255 20:0 21:0 22:0 23:0 24:0 25:0 26:255 27:0 28:0 29:0 30:0 31:0 32:0 33:22.39787 
0 2.12642528019766e-07 0 0 0 0 0 0 0 0 1.514615661491897e-12 0 0 0 0 0 0 0 0 0 0 0 0 1:255 2:255 3:0 4:0 5:0 6:0 7:0 8:0 9:0 10:0 11:0 12:0 13:0 14:0 15:0 16:0 17:0 18:0 19:255 20:0 21:0 22:0 23:0 24:0 25:0 26:255 27:0 28:0 29:0 30:0 31:0 32:0 33:22.62381 
3.213112854669387e-05 0 0 0 0 0 0 0 0 0 5.006283087791593e-12 0 0 0 0 0 0 0 0 0 0 0 0 1:255 2:0 3:0 4:255 5:0 6:0 7:0 8:0 9:0 10:0 11:0 12:0 13:0 14:0 15:0 16:0 17:0 18:0 19:255 20:0 21:0 22:0 23:0 24:0 25:0 26:255 27:0 28:0 29:0 30:0 31:0 32:0 33:22.23554 
0 0 0 0 2.490447581816035e-11 2.889070324884046e-11 0 0 0 0 2.239318539013965e-11 1.66407077650456e-10 8.596028578199596e-12 0 0 5.09808502163368e-14 4.878589735910139e-14 0 0 0 0 0 0 1:255 2:0 3:0 4:255 5:0 6:0 7:0 8:0 9:0 10:0 11:0 12:0 13:0 14:0 15:0 16:0 17:0 18:0 19:0 20:0 21:0 22:0 23:0 24:0 25:0 26:0 27:0 28:0 29:0 30:0 31:0 32:0 33:22.05702 
2.607687598899689e-05 0 5.420137132454823e-09 0 0 0 0 0 0 0 1.313528846875351e-11 3.463270243288246e-11 0 0 0 0 0 0 0 0 0 0 0 1:255 2:0 3:0 4:255 5:0 6:0 7:0 8:0 9:0 10:0 11:0 12:0 13:0 14:0 15:0 16:0 17:0 18:255 19:0 20:0 21:0 22:0 23:0 24:0 25:0 26:255 27:0 28:0 29:0 30:0 31:0 32:0 33:21.836 
9.541397802950115e-06 0 0 0 0 0 0 0 0 0 7.617932001566871e-12 1.091498884390775e-10 0 0 0 0 0 0 0 0 0 0 0 1:255 2:0 3:0 4:255 5:0 6:0 7:0 8:0 9:0 10:0 11:255 12:0 13:0 14:0 15:0 16:0 17:0 18:0 19:0 20:0 21:0 22:0 23:0 24:0 25:0 26:0 27:0 28:0 29:0 30:0 31:0 32:0 33:21.9091 
0.5518581553207522 0.02256816008257227 0 0 0 0 0 0 0 0 0 3.424944261984168e-11 0 0 0 0 0 0 0 0 0 0 0 1:255 2:0 3:0 4:255 5:0 6:0 7:0 8:0 9:0 10:0 11:255 12:0 13:0 14:0 15:0 16:0 17:0 18:255 19:0 20:0 21:0 22:0 23:0 24:0 25:255 26:0 27:0 28:0 29:0 30:0 31:0 32:0 33:22.3551 
1.81868130605777e-05 0 0.0007818366280636198 0 0 0 0 0 0 0 4.624640682493963e-12 7.655539854074816e-06 0 0 0 0 0 0 0 0 0 0 0 1:255 2:0 3:0 4:255 5:0 6:0 7:0 8:255 9:0 10:0 11:255 12:0 13:0 14:0 15:0 16:0 17:0 18:255 19:0 20:0 21:0 22:0 23:0 24:0 25:255 26:0 27:0 28:0 29:0 30:0 31:0 32:0 33:23.42752 
0 0 0 0 1.159276082270639e-12 3.202620183813285e-13 0 0 0 0 3.661002432366153e-13 0 1.378063003333418e-13 0 0 0 0 0 0 0 0 0 0 1:0 2:0 3:0 4:0 5:0 6:0 7:0 8:0 9:0 10:0 11:0 12:0 13:255 14:0 15:0 16:0 17:0 18:0 19:0 20:0 21:255 22:255 23:255 24:0 25:0 26:0 27:0 28:0 29:0 30:255 31:255 32:0 33:19.09138 
0 0 0 1 0 0 0 0 0 0 0 0 0 0 0 0 0 0 0 0 0 0 0 1:0 2:0 3:0 4:0 5:0 6:0 7:0 8:255 9:0 10:0 11:0 12:0 13:255 14:0 15:0 16:0 17:0 18:0 19:0 20:0 21:255 22:255 23:0 24:0 25:0 26:0 27:0 28:0 29:255 30:255 31:255 32:0 33:17.82655 
0 0 0 1 0 0 0 0 0 0 0 0 0 0 0 0 0 0 0 0 0 0 0 1:0 2:0 3:0 4:0 5:0 6:0 7:0 8:255 9:0 10:0 11:0 12:0 13:255 14:0 15:0 16:0 17:0 18:0 19:0 20:0 21:255 22:255 23:0 24:0 25:0 26:0 27:0 28:0 29:255 30:255 31:255 32:0 33:17.66658 
3.971994928424059e-06 0.7868411878073704 0 1 0 0 0 0 0 0 0 0 0 0 0 0 0 0 0 0 0 0 0 1:0 2:0 3:0 4:0 5:0 6:0 7:0 8:255 9:0 10:0 11:0 12:0 13:255 14:0 15:0 16:0 17:0 18:0 19:0 20:0 21:255 22:255 23:0 24:0 25:0 26:0 27:0 28:0 29:255 30:255 31:255 32:0 33:17.71475 
0 0 0 2.689453114842527e-07 0 0 0 0 0 0 0 0 0 0 0 0 0 0 0 0 0 0 0 1:0 2:0 3:0 4:0 5:0 6:0 7:0 8:255 9:0 10:0 11:0 12:0 13:255 14:0 15:0 16:0 17:0 18:0 19:0 20:0 21:255 22:255 23:0 24:0 25:0 26:0 27:0 28:0 29:255 30:255 31:0 32:0 33:18.16533 
0 0 7.142886440524235e-10 0 0 0 0 0 0 0 0 0 0 0 0 0 0 0 0 0 0 0 0 1:0 2:0 3:0 4:0 5:0 6:0 7:0 8:255 9:0 10:0 11:0 12:0 13:0 14:0 15:0 16:0 17:0 18:0 19:0 20:0 21:255 22:0 23:0 24:0 25:0 26:0 27:0 28:0 29:255 30:255 31:0 32:0 33:18.21567 
0 0 7.174312757991695e-11 0 0 0 0 0 0 0 0 0 0 0 0 0 0 0 0 0 0 0 0 1:0 2:0 3:0 4:0 5:0 6:0 7:0 8:255 9:0 10:0 11:0 12:0 13:255 14:0 15:0 16:0 17:0 18:0 19:0 20:0 21:255 22:0 23:0 24:0 25:0 26:0 27:0 28:0 29:255 30:255 31:0 32:0 33:17.83606 
0 2.610565268224089e-07 0 0 0 0 0 0 0 0 0 0 0 0 0 0 0 0 0 0 0 0 0 1:0 2:0 3:0 4:0 5:0 6:0 7:0 8:255 9:0 10:0 11:0 12:0 13:0 14:0 15:0 16:0 17:0 18:0 19:0 20:0 21:255 22:0 23:0 24:0 25:0 26:0 27:0 28:0 29:255 30:255 31:0 32:0 33:18.76417 
0 5.340540665659173e-08 0 0 0 0 0 0 0 0 0 0 0 0 0 0 0 0 0 0 0 0 0 1:0 2:0 3:0 4:0 5:0 6:0 7:0 8:255 9:0 10:0 11:0 12:0 13:255 14:0 15:0 16:0 17:0 18:0 19:0 20:0 21:255 22:0 23:0 24:0 25:0 26:0 27:0 28:0 29:255 30:255 31:0 32:0 33:20.90368 
0 1.556335210862848e-08 0 0 0 0 0 0 0 0 0 0 0 0 0 0 0 0 0 0 0 0 0 1:0 2:0 3:0 4:0 5:0 6:0 7:0 8:255 9:0 10:0 11:0 12:0 13:255 14:0 15:0 16:0 17:0 18:0 19:0 20:0 21:255 22:255 23:0 24:0 25:0 26:0 27:0 28:0 29:255 30:255 31:0 32:0 33:21.61032 
0 0.2131598527442693 0 0 0 0 0 0 0 0 0 0 0 0 0 0 0 0 0 0 0 0 0 1:0 2:0 3:0 4:0 5:0 6:0 7:0 8:255 9:0 10:0 11:0 12:0 13:255 14:0 15:0 16:0 17:0 18:0 19:0 20:0 21:255 22:255 23:0 24:0 25:0 26:0 27:0 28:0 29:255 30:255 31:255 32:0 33:22.50252 
0 0 0 0.3816697380151631 0 0 0 0 0 0 0 0 0 0 0 0 0 0 0 0 0 0 0 1:0 2:0 3:0 4:0 5:0 6:0 7:0 8:255 9:0 10:0 11:0 12:0 13:255 14:0 15:0 16:0 17:0 18:0 19:0 20:0 21:255 22:255 23:0 24:0 25:0 26:0 27:0 28:0 29:255 30:255 31:255 32:0 33:22.85087 
0 0 0 0 0 3.860532646735978e-13 0 0 0 0 3.603129342082854e-13 0 1.184438476593643e-13 0 0 0 0 0 0 0 0 0 0 1:0 2:0 3:0 4:0 5:0 6:0 7:0 8:0 9:0 10:0 11:0 12:0 13:255 14:0 15:0 16:0 17:0 18:0 19:0 20:0 21:255 22:255 23:0 24:0 25:0 26:0 27:0 28:0 29:255 30:255 31:255 32:0 33:22.80383 
0 0 0 0 1.038956837861279e-12 6.81668084011433e-13 0 0 2.192942367568934e-07 0 6.042986128606231e-13 0 2.281008707402431e-13 0 0 0 0 0 0 0 0 0 0 1:0 2:0 3:0 4:0 5:255 6:0 7:0 8:0 9:0 10:0 11:0 12:0 13:255 14:0 15:0 16:0 17:0 18:0 19:0 20:0 21:255 22:0 23:0 24:0 25:0 26:0 27:0 28:0 29:255 30:255 31:255 32:0 33:23.50359 
0 0 0 0 0 4.073520057367274e-13 0 0 2.275178682848842e-07 0 5.972188395025902e-13 0 1.902009830448909e-13 0 0 0 0 0 0 0 0 0 0 1:0 2:0 3:0 4:0 5:255 6:0 7:0 8:0 9:0 10:0 11:0 12:0 13:255 14:0 15:0 16:0 17:0 18:0 19:0 20:0 21:255 22:255 23:255 24:0 25:0 26:0 27:0 28:0 29:0 30:0 31:255 32:0 33:23.78027 
3.700817218072527e-06 0.4466896286132123 0 0 0 0 0 0 0 0 0 3.127301329865639e-09 0 3.096453942029988e-09 3.282901012893097e-09 2.466126848045995e-09 2.286148550964074e-09 0 0 0 0 0 7.632621547647299e-13 1:0 2:0 3:0 4:0 5:255 6:0 7:0 8:0 9:0 10:0 11:0 12:0 13:255 14:255 15:0 16:0 17:0 18:0 19:0 20:0 21:255 22:255 23:255 24:0 25:0 26:0 27:0 28:0 29:255 30:255 31:255 32:255 33:23.51746 
0 1 0 0 0 0 0 0 0 0 0 0 0 0 0 0 0 0 0 0 0 0 0 1:0 2:0 3:0 4:0 5:255 6:0 7:0 8:0 9:0 10:0 11:0 12:0 13:255 14:255 15:0 16:0 17:0 18:0 19:0 20:0 21:255 22:255 23:255 24:0 25:0 26:0 27:0 28:0 29:255 30:255 31:255 32:255 33:23.78018 
0 0 0 0 0 0 0 0 2.190293504705503e-08 0 0 0 0 0 0 0 0 0 0 0 0 0 0 1:0 2:0 3:0 4:0 5:255 6:0 7:0 8:0 9:0 10:0 11:0 12:0 13:255 14:255 15:0 16:0 17:0 18:0 19:0 20:0 21:255 22:255 23:0 24:0 25:0 26:0 27:0 28:0 29:0 30:255 31:255 32:255 33:24.49981 
0 0 7.880246794719095e-10 6.448621605988436e-07 2.545707333514907e-12 5.13415676432071e-13 0 0 0 0 0 0 0 0 0 0 0 1.664904596709327e-13 0 0 0 0 0 1:0 2:0 3:0 4:0 5:255 6:0 7:0 8:0 9:0 10:0 11:0 12:0 13:255 14:255 15:0 16:0 17:0 18:0 19:0 20:0 21:255 22:255 23:255 24:0 25:0 26:0 27:0 28:0 29:0 30:0 31:255 32:255 33:24.54413 
0 0 0 1.467496368021593e-07 0 0 0 0 0 0 0 0 0 0 0 0 0 0 0 0 0 0 0 1:0 2:0 3:0 4:0 5:255 6:0 7:0 8:0 9:0 10:0 11:0 12:0 13:255 14:255 15:0 16:0 17:0 18:0 19:0 20:0 21:255 22:255 23:255 24:0 25:0 26:0 27:0 28:0 29:255 30:255 31:255 32:255 33:24.82359 
0 0.553308859743919 0 0 2.059654402164971e-13 0 0 0 0 0 0 0 0 0 0 0 0 2.745888371855862e-13 0 0 0 0 0 1:0 2:0 3:0 4:0 5:255 6:0 7:0 8:0 9:0 10:0 11:0 12:0 13:255 14:255 15:0 16:0 17:0 18:0 19:0 20:0 21:255 22:255 23:255 24:0 25:0 26:0 27:0 28:0 29:255 30:255 31:255 32:255 33:24.903 
0.6991943273373067 0 0 0 0 0 0 0 0 0 0 0 0 0 0 0 0 0 0 0 0 0 0 1:0 2:0 3:0 4:0 5:255 6:0 7:0 8:0 9:0 10:0 11:0 12:0 13:255 14:255 15:0 16:0 17:0 18:0 19:0 20:0 21:255 22:255 23:255 24:0 25:0 26:0 27:0 28:0 29:0 30:255 31:255 32:255 33:24.74925 
0 0 0 3.911364724249731e-08 0 0 0 0 0 1.319717162208386e-13 0 0 0 0 0 0 0 0 0 3.194600007423256e-14 6.849259106807178e-14 0 0 1:255 2:255 3:0 4:255 5:0 6:0 7:0 8:255 9:0 10:0 11:0 12:255 13:0 14:0 15:0 16:0 17:0 18:255 19:255 20:0 21:0 22:0 23:0 24:0 25:0 26:255 27:0 28:0 29:0 30:0 31:0 32:0 33:10.72056 
0 5.02509323868155e-06 0 0 0 0 0 0 0 0 0 0 0 0 0 0 0 0 0 0 0 0 0 1:255 2:255 3:0 4:255 5:0 6:0 7:0 8:0 9:0 10:0 11:0 12:255 13:0 14:0 15:0 16:0 17:0 18:255 19:255 20:0 21:0 22:0 23:0 24:0 25:255 26:255 27:0 28:0 29:0 30:0 31:0 32:0 33:10.59052 
0 4.525235862948287e-06 0 0 0 0 0 0 0 0 0 0 0 0 0 0 0 0 0 0 0 0 0 1:255 2:0 3:0 4:255 5:0 6:0 7:0 8:0 9:0 10:0 11:255 12:255 13:0 14:0 15:0 16:0 17:0 18:0 19:255 20:0 21:0 22:0 23:0 24:0 25:255 26:255 27:0 28:0 29:0 30:0 31:0 32:0 33:10.35618 
0 1.18110539131921e-06 0 0 0 0 0 0 0 0 0 0 0 0 0 0 0 0 0 0 0 0 0 1:255 2:0 3:0 4:255 5:0 6:0 7:0 8:0 9:0 10:0 11:255 12:0 13:0 14:0 15:0 16:0 17:0 18:255 19:255 20:0 21:0 22:0 23:0 24:0 25:0 26:255 27:0 28:0 29:0 30:0 31:0 32:0 33:10.04684 
0 0 2.217383698566302e-07 0 0 0 0 0 0 0 0 0 0 0 0 0 0 0 0 0 0 0 0 1:255 2:0 3:0 4:255 5:0 6:0 7:0 8:0 9:0 10:0 11:255 12:0 13:0 14:0 15:0 16:0 17:0 18:255 19:0 20:0 21:0 22:0 23:0 24:0 25:0 26:255 27:0 28:0 29:0 30:0 31:0 32:0 33:9.926265 
0 5.215907655875844e-07 0 0 0 0 0 0 0 0 0 0 0 0 0 0 0 0 0 0 0 0 0 1:255 2:0 3:0 4:255 5:0 6:0 7:0 8:0 9:0 10:0 11:255 12:0 13:0 14:0 15:0 16:0 17:0 18:255 19:0 20:0 21:0 22:0 23:0 24:0 25:0 26:255 27:0 28:0 29:0 30:0 31:0 32:0 33:9.807122 
0.4480566790275305 0 0 0 0 0 0 0 0 0 0 0 0 0 0 0 0 0 0 0 0 0 0 1:255 2:0 3:0 4:255 5:0 6:0 7:0 8:0 9:0 10:0 11:255 12:0 13:0 14:0 15:0 16:0 17:0 18:255 19:0 20:0 21:0 22:0 23:0 24:0 25:255 26:0 27:0 28:0 29:0 30:0 31:0 32:0 33:9.516036 
0 0 0.8204460502476497 0 1.209426269099595e-12 0 0 0 0 0 0 -0 0 0 0 0 0 0 0 0 0 0 0 1:255 2:0 3:0 4:255 5:0 6:0 7:0 8:0 9:0 10:0 11:255 12:0 13:0 14:0 15:0 16:0 17:255 18:255 19:0 20:0 21:0 22:0 23:0 24:0 25:255 26:0 27:0 28:0 29:0 30:0 31:0 32:0 33:9.440447 
-5.645620987546832e-06 0 1.546463009932811e-09 2.226656200441706e-08 0 0 5.693209251933726e-09 6.437702984482216e-06 0 0 0 0 0 1.139720664961237e-12 2.461840597945403e-10 0 0 7.474165438304743e-13 2.583292493339233e-13 0 0 2.014682340333124e-14 0 1:0 2:0 3:0 4:0 5:255 6:255 7:255 8:0 9:0 10:0 11:0 12:0 13:0 14:255 15:255 16:255 17:0 18:0 19:0 20:0 21:0 22:0 23:255 24:255 25:0 26:0 27:0 28:0 29:0 30:0 31:0 32:255 33:1.78915 
-0 2.42337346021031e-07 0 3.874536408502003e-07 1 4.224884535108364e-13 1.205341476974001e-06 5.873667241010774e-08 3.018055286699507e-07 2.918549325000187e-12 0 0 1.769537776345733e-12 0 0 0 0 8.347710002692111e-14 1.206353330697012e-12 2.633924622437825e-13 6.263174282476271e-13 0 0 1:255 2:0 3:0 4:0 5:0 6:255 7:255 8:255 9:0 10:0 11:0 12:0 13:0 14:0 15:255 16:255 17:0 18:0 19:0 20:0 21:0 22:0 23:0 24:0 25:0 26:0 27:0 28:0 29:0 30:0 31:0 32:0 33:19.84709 
-3.640492768324242e-05 0 0 1.221172219465345e-12 1.815817886669174e-07 2.449339665268302e-12 9.760821865825959e-12 1 1.576646212038333e-07 0 0 0 6.122561239619493e-12 2.164171782138944e-12 3.563706714604791e-13 0 0 0 1.146434246324813e-13 0 0 0 0 1:0 2:0 3:0 4:0 5:255 6:255 7:255 8:0 9:0 10:0 11:0 12:0 13:0 14:0 15:255 16:255 17:0 18:0 19:0 20:0 21:0 22:0 23:0 24:255 25:0 26:0 27:0 28:0 29:0 30:0 31:0 32:0 33:18.61581 
-1.638110648928296e-05 0 0 0 2.130057745900032e-09 0 0 0 0 5.902261556835057e-14 0 2.200061077737531e-13 5.935992444098517e-14 0 0 0 0 0 0 0 0 0 0 1:255 2:255 3:0 4:0 5:0 6:0 7:0 8:0 9:0 10:0 11:0 12:255 13:0 14:0 15:0 16:0 17:0 18:255 19:255 20:0 21:0 22:0 23:0 24:0 25:255 26:255 27:0 28:0 29:0 30:0 31:0 32:0 33:17.98693 
-4.807641930524832e-05 0 0 0 0 0 0 0 0 0 0 0 5.142201328714293e-12 0 0 0 0 0 0 0 0 0 0 1:0 2:255 3:0 4:0 5:0 6:0 7:0 8:0 9:0 10:0 11:0 12:0 13:0 14:0 15:255 16:0 17:0 18:0 19:0 20:0 21:0 22:0 23:0 24:0 25:0 26:0 27:0 28:0 29:0 30:0 31:0 32:0 33:15.77865 
-0.08359849574408919 9.694159062800142e-11 0 0 0 0 0 0 0 0 0 2.554779787446304e-12 1.555451634789661e-12 0 0 0 0 0 0 0 0 0 0 1:255 2:255 3:0 4:0 5:0 6:0 7:0 8:0 9:0 10:0 11:0 12:0 13:0 14:0 15:0 16:0 17:0 18:0 19:0 20:0 21:0 22:0 23:0 24:0 25:0 26:0 27:0 28:0 29:0 30:0 31:0 32:0 33:15.95082 
-0.03134188540165144 0 0 0 0 0 0 0 0 0 0 0 0 0 0 0 0 0 0 0 0 0 0 1:255 2:255 3:0 4:0 5:0 6:0 7:0 8:0 9:0 10:0 11:0 12:0 13:0 14:0 15:255 16:0 17:0 18:0 19:0 20:0 21:0 22:0 23:0 24:255 25:0 26:0 27:0 28:0 29:0 30:0 31:0 32:0 33:16.07577 
-0.03725183638681127 0 0 0 2.428976902046461e-08 0 0 3.80789953972878e-09 0 0 0 0 2.514165362631332e-12 1.120151306017795e-13 0 0 0 0 0 0 0 0 0 1:255 2:0 3:0 4:0 5:0 6:0 7:0 8:0 9:0 10:0 11:0 12:0 13:0 14:0 15:255 16:0 17:0 18:0 19:0 20:0 21:0 22:0 23:0 24:255 25:0 26:0 27:0 28:0 29:0 30:0 31:0 32:0 33:15.58498 
-0 4.265604275757442e-11 6.391965616315018e-09 0 3.066113894095208e-08 0 0 0 0 0 0 1.292453995857735e-12 0 0 0 0 0 0 0 0 0 0 0 1:255 2:0 3:0 4:0 5:0 6:0 7:0 8:0 9:0 10:0 11:0 12:0 13:0 14:0 15:0 16:0 17:0 18:0 19:0 20:0 21:0 22:0 23:0 24:255 25:0 26:0 27:0 28:0 29:0 30:0 31:0 32:0 33:15.406 
-0.0002691969106250147 5.712378041565642e-05 1.060951687704246e-06 0 1.644650962991432e-06 0 0 0 0 0 0 9.579276634909552e-08 0 0 0 0 0 0 0 0 0 0 0 1:255 2:0 3:0 4:0 5:0 6:0 7:0 8:0 9:0 10:0 11:0 12:0 13:0 14:0 15:0 16:0 17:0 18:0 19:0 20:0 21:0 22:0 23:0 24:0 25:0 26:0 27:0 28:0 29:0 30:0 31:0 32:0 33:15.13809 
-0 0 0 0 0 0 0 0 2.761870516825809e-12 0 0 0 0 0 0 0 0 0 0 0 0 0 0 1:255 2:0 3:0 4:0 5:0 6:0 7:0 8:0 9:0 10:0 11:0 12:0 13:0 14:0 15:0 16:0 17:0 18:0 19:0 20:0 21:0 22:0 23:0 24:255 25:0 26:0 27:0 28:0 29:0 30:0 31:0 32:0 33:15.01875 
-2.046741619747612e-05 0 0 0 0 0 0 0 0 0 0 0 0 0 0 0 0 0 0 0 0 0 0 1:0 2:0 3:0 4:0 5:0 6:0 7:0 8:255 9:0 10:0 11:0 12:0 13:0 14:0 15:0 16:0 17:0 18:0 19:0 20:0 21:0 22:0 23:0 24:0 25:0 26:0 27:0 28:0 29:0 30:0 31:0 32:255 33:19.30994 
-2.533421062360256e-05 0 0 5.64928021569598e-12 0 0 4.836199652050471e-12 1.109967796471105e-08 0 0 0 0 0 0 0 0 0 0 0 0 0 0 0 1:0 2:0 3:0 4:0 5:255 6:0 7:0 8:255 9:0 10:0 11:0 12:0 13:0 14:255 15:0 16:0 17:0 18:0 19:0 20:0 21:0 22:0 23:255 24:0 25:0 26:0 27:0 28:0 29:0 30:0 31:0 32:255 33:18.89932 
-0 0 0.0005934471846176674 0 0 0 0 0 0 0 0 0 0 0 0 0 0 0 0 0 0 0 0 1:255 2:0 3:0 4:0 5:255 6:0 7:0 8:255 9:0 10:0 11:0 12:0 13:0 14:0 15:0 16:0 17:0 18:0 19:0 20:0 21:0 22:0 23:255 24:0 25:0 26:0 27:0 28:0 29:0 30:0 31:0 32:255 33:18.2127 
-0 0 0 0 0 8.05763028345666e-13 0 0 0 0 0 1.374472617915835e-13 0 0 0 0 0 0 0 0 0 0 0 1:255 2:0 3:0 4:0 5:0 6:0 7:0 8:255 9:0 10:0 11:0 12:0 13:0 14:255 15:0 16:0 17:0 18:0 19:0 20:0 21:0 22:0 23:255 24:0 25:0 26:0 27:0 28:0 29:0 30:0 31:0 32:255 33:19.68815 
-0 0 0 0 0 0 0 4.211609198537678e-10 0 0 0 0 0 0 0 0 0 0 0 0 0 0 0 1:255 2:0 3:0 4:0 5:255 6:0 7:0 8:255 9:0 10:0 11:0 12:0 13:0 14:255 15:0 16:0 17:0 18:0 19:0 20:0 21:0 22:0 23:0 24:0 25:0 26:0 27:0 28:0 29:0 30:0 31:0 32:255 33:19.25028 
-0 0 0 0 9.837541547193544e-09 0 0 0 0 0 0 1.001111463200655e-13 0 0 0 0 0 0 0 0 0 0 0 1:255 2:0 3:0 4:0 5:255 6:0 7:0 8:255 9:0 10:0 11:0 12:0 13:0 14:255 15:0 16:0 17:0 18:0 19:0 20:0 21:0 22:0 23:255 24:0 25:0 26:0 27:0 28:0 29:0 30:0 31:0 32:255 33:19.39806 
-0 0 0.005056066508594806 0 0 0 0 0 0 0 0 0 0 0 0 0 0 0 0 0 0 0 0 1:255 2:0 3:0 4:0 5:255 6:0 7:0 8:255 9:0 10:0 11:0 12:0 13:0 14:255 15:0 16:0 17:0 18:0 19:0 20:0 21:0 22:0 23:255 24:0 25:0 26:0 27:0 28:0 29:0 30:0 31:0 32:255 33:19.18878 
-0.06296182677898209 0 0 0 7.590850285818042e-09 0 0 5.715539900311458e-09 0 5.930023862351656e-14 0 0 0 0 0 0 0 0 2.001988164159167e-12 1.551637321258391e-13 0 0 0 1:255 2:0 3:0 4:0 5:0 6:0 7:0 8:255 9:0 10:0 11:0 12:0 13:0 14:0 15:0 16:0 17:0 18:0 19:0 20:0 21:0 22:0 23:0 24:255 25:0 26:0 27:0 28:0 29:0 30:0 31:0 32:0 33:18.61145 
-1 0 0 0 0 0 0 0 0 0 0 0 0 0 0 0 0 0 0 0 0 0 0 1:255 2:0 3:0 4:0 5:0 6:0 7:0 8:255 9:0 10:0 11:0 12:0 13:0 14:0 15:0 16:0 17:0 18:0 19:0 20:0 21:0 22:0 23:0 24:0 25:0 26:0 27:0 28:0 29:0 30:0 31:0 32:0 33:19.01842 
-1 0 0 0 9.620185144696468e-07 0 0 0 0 0 0 0 0 0 0 0 0 0 0 0 0 0 0 1:255 2:0 3:0 4:0 5:0 6:0 7:0 8:255 9:0 10:0 11:0 12:0 13:0 14:0 15:0 16:0 17:0 18:0 19:0 20:0 21:0 22:0 23:0 24:0 25:0 26:0 27:0 28:0 29:0 30:0 31:0 32:0 33:18.95481 
-0 0 0.02963879404619944 0 0 0 0 0 0 7.443584747779193e-13 0 2.57076985150898e-11 0 0 0 0 0 0 0 0 0 0 0 1:255 2:0 3:0 4:0 5:0 6:0 7:0 8:255 9:0 10:0 11:0 12:0 13:0 14:0 15:0 16:0 17:0 18:0 19:0 20:0 21:0 22:0 23:0 24:0 25:0 26:0 27:0 28:0 29:0 30:0 31:0 32:0 33:19.15758 
-0 0 0 0 1.626769838295896e-08 0 0 0 0 9.261260557635031e-13 0 0 0 0 0 0 0 0 0 0 3.851147582778475e-13 0 0 1:255 2:255 3:0 4:0 5:0 6:255 7:0 8:255 9:0 10:0 11:0 12:0 13:0 14:0 15:0 16:0 17:0 18:0 19:0 20:0 21:0 22:0 23:0 24:0 25:0 26:0 27:0 28:0 29:0 30:0 31:0 32:0 33:18.51453 
-0 0 0 0 1.004501220304562e-07 0 0 0 0 0 0 0 0 0 0 0 0 0 1.08588779648223e-13 5.60617436724222e-13 3.491381502985964e-13 4.887100728572567e-14 0 1:255 2:255 3:0 4:0 5:0 6:0 7:0 8:255 9:0 10:0 11:0 12:0 13:0 14:0 15:255 16:0 17:0 18:0 19:0 20:0 21:0 22:0 23:0 24:255 25:0 26:0 27:0 28:0 29:0 30:0 31:0 32:0 33:18.80205 
-1.352666054112097e-05 0 0 0 2.37052719930356e-07 0 0 0 0 0 0 0 2.417024110872878e-12 0 0 0 0 0 0 0 0 0 0 1:255 2:0 3:0 4:0 5:0 6:255 7:0 8:255 9:0 10:0 11:0 12:0 13:0 14:0 15:255 16:0 17:0 18:0 19:0 20:0 21:0 22:0 23:0 24:0 25:0 26:0 27:0 28:0 29:0 30:0 31:0 32:0 33:18.48748 
-0.01952021019797574 0 0 0 0 0 0 1.080460045651332e-09 0 0 0 0 0 0 0 0 0 0 0 0 0 0 0 1:255 2:255 3:0 4:0 5:0 6:0 7:0 8:255 9:0 10:0 11:0 12:0 13:0 14:0 15:255 16:0 17:0 18:0 19:0 20:0 21:0 22:0 23:0 24:255 25:0 26:0 27:0 28:0 29:0 30:0 31:0 32:0 33:18.78117 
-9.172179303126798e-05 0 0 0 3.292547856714159e-06 2.743997902433723e-10 0 3.54646415431914e-08 0 0 9.251783273362153e-11 0 1.654636520041693e-11 2.384031130602963e-13 0 0 0 0 0 0 0 0 0 1:0 2:0 3:0 4:0 5:0 6:0 7:0 8:0 9:0 10:0 11:0 12:0 13:0 14:0 15:255 16:0 17:0 18:0 19:0 20:0 21:0 22:0 23:0 24:0 25:0 26:0 27:0 28:0 29:0 30:0 31:0 32:0 33:18.5609 
-3.480029609223168e-05 0 0 0 2.923910347146392e-07 0 0 9.558654083456805e-09 0 0 0 1.090235728111913e-12 5.582669993997877e-12 3.112784400846284e-14 0 0 0 0 0 0 0 0 0 1:255 2:255 3:0 4:0 5:0 6:255 7:0 8:0 9:0 10:0 11:0 12:0 13:0 14:0 15:255 16:0 17:0 18:0 19:0 20:0 21:0 22:0 23:0 24:0 25:0 26:0 27:0 28:0 29:0 30:0 31:0 32:0 33:17.8714 
-3.4839593921056e-05 0 7.891723191966992e-08 0 4.438534875860342e-07 0 0 0 0 0 0 0 1.58852767527282e-12 0 0 0 0 0 0 0 0 0 0 1:0 2:255 3:0 4:0 5:0 6:255 7:0 8:255 9:0 10:0 11:0 12:0 13:0 14:0 15:0 16:0 17:0 18:0 19:0 20:0 21:0 22:0 23:0 24:0 25:0 26:0 27:0 28:0 29:0 30:0 31:0 32:0 33:17.64719 
-7.717643614487456e-05 0 0 1.530612671256724e-12 0 1.737983464410062e-13 0 0 0 0 0 0 0 0 0 0 0 0 0 0 0 0 0 1:0 2:255 3:0 4:0 5:0 6:255 7:0 8:0 9:255 10:0 11:0 12:0 13:0 14:0 15:0 16:0 17:0 18:0 19:0 20:0 21:0 22:0 23:0 24:0 25:0 26:0 27:0 28:0 29:0 30:0 31:0 32:0 33:17.98297 
-0.969871687571357 0 0 1.828371110397843e-11 0 1.70423188861249e-11 3.975287882901259e-12 0 1.121473809842561e-12 0 6.271357030428138e-12 0 3.568635185557024e-12 0 0 0 0 0 0 0 0 0 0 1:0 2:255 3:0 4:0 5:0 6:0 7:0 8:0 9:255 10:0 11:0 12:0 13:0 14:0 15:0 16:0 17:0 18:0 19:0 20:0 21:0 22:0 23:0 24:0 25:0 26:0 27:0 28:0 29:0 30:0 31:0 32:0 33:17.77054 
-1 0 0 0 0 0 2.934935303847959e-13 0 0 0 0 0 0 0 0 0 0 0 0 0 0 0 0 1:0 2:255 3:0 4:0 5:0 6:0 7:0 8:0 9:255 10:0 11:0 12:0 13:0 14:0 15:0 16:0 17:0 18:0 19:0 20:0 21:0 22:0 23:0 24:0 25:0 26:0 27:0 28:0 29:0 30:0 31:0 32:0 33:17.45182 
-0 0 0 6.391324442115811e-12 0 0 0 0 0 0 0 0 5.863960085994614e-12 0 0 0 0 0 0 0 0 0 0 1:0 2:255 3:255 4:0 5:0 6:0 7:0 8:0 9:255 10:0 11:0 12:0 13:0 14:0 15:0 16:255 17:0 18:0 19:0 20:0 21:0 22:0 23:0 24:0 25:0 26:0 27:0 28:0 29:0 30:0 31:0 32:0 33:18.38527 
-0 1.06005608377661e-05 2.556497609243631e-06 0 0 2.408356386871546e-11 0 0 0 0 4.847787621379472e-11 0 0 0 0 0 0 0 0 0 0 0 0 1:0 2:0 3:255 4:0 5:0 6:0 7:0 8:0 9:255 10:0 11:0 12:0 13:0 14:0 15:0 16:0 17:0 18:0 19:0 20:0 21:0 22:0 23:0 24:0 25:0 26:0 27:0 28:0 29:0 30:0 31:0 32:0 33:18.29537 
-0 1.044241922095457e-06 4.787327751850963e-07 0 0 0 0 0 3.117520861673924e-14 0 0 0 0 0 0 0 0 0 0 0 0 0 0 1:0 2:0 3:255 4:0 5:0 6:0 7:255 8:0 9:255 10:255 11:0 12:0 13:0 14:0 15:0 16:0 17:0 18:0 19:0 20:0 21:0 22:0 23:0 24:0 25:0 26:0 27:0 28:0 29:0 30:0 31:0 32:0 33:18.53764 
-0 3.408097910387143e-06 6.590812445051095e-07 1.693379978252565e-13 0 0 4.340765971185677e-12 0 9.453076957682609e-13 5.576577361039513e-14 0 0 0 0 0 0 0 0 0 0 0 0 0 1:0 2:0 3:255 4:0 5:0 6:0 7:0 8:0 9:255 10:255 11:0 12:0 13:0 14:0 15:0 16:0 17:255 18:0 19:0 20:0 21:0 22:0 23:0 24:0 25:0 26:0 27:0 28:0 29:0 30:0 31:0 32:0 33:18.32659 
-0.8852932776850787 0 0 0 0 0 0 0 0 0 0 0 0 0 0 0 0 0 0 0 0 0 0 1:0 2:0 3:255 4:0 5:0 6:0 7:0 8:0 9:0 10:255 11:0 12:0 13:0 14:0 15:0 16:0 17:255 18:0 19:0 20:0 21:0 22:0 23:0 24:0 25:0 26:0 27:0 28:0 29:0 30:0 31:0 32:0 33:17.63112 
-0 0.0003037175362778403 0.00104817717291164 0 0 0 0 0 4.948556832345131e-14 0 0 0 0 0 0 0 0 0 0 0 0 0 0 1:0 2:0 3:255 4:0 5:0 6:0 7:255 8:0 9:0 10:255 11:0 12:0 13:0 14:0 15:0 16:0 17:255 18:0 19:0 20:0 21:0 22:0 23:0 24:0 25:0 26:0 27:0 28:0 29:0 30:0 31:0 32:0 33:17.96776 
-0 0 0 0 5.956834401418531e-10 0 0 0 0 0 0 0 0 0 0 0 0 0 0 0 0 0 0 1:0 2:0 3:0 4:255 5:0 6:0 7:0 8:0 9:0 10:0 11:255 12:255 13:0 14:0 15:0 16:0 17:0 18:255 19:255 20:0 21:0 22:0 23:0 24:0 25:0 26:255 27:0 28:0 29:0 30:0 31:0 32:0 33:18.47756 
-1 0 0 0 0 0 0 0 0 0 0 0 0 0 0 0 0 0 0 0 0 0 0 1:0 2:0 3:0 4:255 5:0 6:0 7:0 8:0 9:0 10:0 11:255 12:0 13:0 14:0 15:0 16:0 17:0 18:255 19:255 20:0 21:0 22:0 23:0 24:0 25:0 26:255 27:0 28:0 29:0 30:0 31:0 32:0 33:19.16538 
-0 0 0 0 0 0 0 0 0 0 3.788554898760993e-13 0 0 0 0 0 0 0 0 0 0 0 0 1:0 2:0 3:0 4:255 5:0 6:0 7:0 8:0 9:0 10:0 11:255 12:255 13:0 14:0 15:0 16:0 17:0 18:255 19:255 20:0 21:0 22:0 23:0 24:0 25:0 26:255 27:0 28:0 29:0 30:0 31:0 32:0 33:19.69078 
-2.134637008059653e-05 0 0 0 0 4.185748943784506e-12 0 0 0 0 4.846770080883613e-12 0 0 0 0 0 0 0 0 0 0 0 0 1:0 2:0 3:0 4:255 5:0 6:0 7:0 8:0 9:0 10:0 11:255 12:0 13:0 14:0 15:0 16:0 17:0 18:0 19:255 20:0 21:0 22:0 23:0 24:0 25:0 26:255 27:0 28:0 29:0 30:0 31:0 32:0 33:19.25141 
-0.5464077834792411 0 0 0 0 0 0 0 0 0 1.451609168190984e-12 0 0 0 0 0 0 0 0 0 0 0 0 1:0 2:0 3:0 4:255 5:0 6:0 7:0 8:0 9:0 10:0 11:255 12:255 13:0 14:0 15:0 16:0 17:0 18:0 19:255 20:0 21:0 22:0 23:0 24:0 25:0 26:255 27:0 28:0 29:0 30:0 31:0 32:0 33:18.99466 
-2.308162852025288e-05 0 0 0 1.76643946681597e-10 0 0 0 0 0 0 0 0 0 0 0 0 0 0 0 0 0 0 1:0 2:0 3:0 4:255 5:0 6:0 7:0 8:0 9:0 10:0 11:0 12:255 13:0 14:0 15:0 16:0 17:0 18:255 19:255 20:0 21:0 22:0 23:0 24:0 25:0 26:255 27:0 28:0 29:0 30:0 31:0 32:0 33:19.33133 
-0 0 1.073152289466157e-09 0 9.744073809520923e-12 0 0 0 0 0 0 0 0 0 0 0 0 0 0 0 0 0 0 1:0 2:0 3:0 4:255 5:0 6:0 7:0 8:0 9:0 10:0 11:255 12:255 13:0 14:0 15:0 16:0 17:0 18:0 19:255 20:0 21:0 22:0 23:0 24:0 25:0 26:255 27:0 28:0 29:0 30:0 31:0 32:0 33:18.76914 
-0 0 0 0 7.137535103823005e-10 0 0 0 0 0 1.103713813313141e-12 0 0 0 0 0 0 0 0 0 0 0 0 1:0 2:0 3:0 4:255 5:0 6:0 7:0 8:0 9:0 10:0 11:255 12:255 13:0 14:0 15:0 16:0 17:0 18:0 19:255 20:0 21:0 22:0 23:0 24:0 25:255 26:255 27:0 28:0 29:0 30:0 31:0 32:0 33:18.98957 
-1.105057146302244e-05 0 4.315110419677448e-10 0 1.228965096057859e-09 0 0 0 0 0 0 0 0 0 0 0 0 0 0 0 0 0 0 1:0 2:0 3:0 4:0 5:0 6:0 7:0 8:0 9:0 10:0 11:255 12:255 13:0 14:0 15:0 16:0 17:0 18:0 19:255 20:0 21:0 22:0 23:0 24:0 25:0 26:255 27:0 28:0 29:0 30:0 31:0 32:0 33:18.33153 
-0.3556910040840082 0 0 0 0 1.074754229373635e-12 0 0 0 0 6.923125418691258e-13 0 0 0 0 0 0 0 0 0 0 0 0 1:0 2:0 3:0 4:0 5:0 6:0 7:0 8:0 9:0 10:0 11:0 12:255 13:0 14:0 15:0 16:0 17:0 18:0 19:255 20:0 21:0 22:0 23:0 24:0 25:255 26:255 27:0 28:0 29:0 30:0 31:0 32:0 33:18.09695 
-1 0 1.155049089895376e-09 0 0 0 0 0 0 0 0 0 0 0 0 0 0 0 0 0 0 0 0 1:0 2:0 3:0 4:0 5:0 6:0 7:0 8:0 9:0 10:0 11:0 12:255 13:0 14:0 15:0 16:0 17:0 18:255 19:255 20:0 21:0 22:0 23:0 24:0 25:255 26:255 27:255 28:0 29:0 30:0 31:0 32:0 33:18.72249 
-0.3412343600337334 0 0 0 0 4.639912561984149e-12 0 0 0 0 2.404950574779723e-12 0 0 0 0 0 0 0 0 0 0 0 0 1:0 2:0 3:0 4:0 5:0 6:0 7:0 8:0 9:0 10:0 11:0 12:255 13:0 14:0 15:0 16:0 17:0 18:255 19:255 20:0 21:0 22:0 23:0 24:0 25:0 26:255 27:0 28:0 29:0 30:0 31:0 32:0 33:18.98286 
-1 0 0 0 0 0 0 0 0 0 8.0888705539339e-13 0 0 0 0 0 0 0 0 0 0 0 0 1:0 2:0 3:0 4:0 5:0 6:0 7:0 8:0 9:0 10:0 11:0 12:255 13:0 14:0 15:0 16:0 17:0 18:255 19:255 20:0 21:0 22:0 23:0 24:0 25:255 26:255 27:255 28:0 29:0 30:0 31:0 32:0 33:19.11536 
-1 0 0 1.146491856490311e-13 0 0 0 0 0 0 0 0 0 0 0 0 0 0 0 0 0 0 0 1:0 2:0 3:0 4:255 5:0 6:0 7:0 8:0 9:0 10:0 11:255 12:0 13:0 14:0 15:0 16:0 17:0 18:255 19:255 20:0 21:0 22:0 23:0 24:0 25:0 26:255 27:0 28:0 29:0 30:0 31:0 32:0 33:18.82759 
-1 0 0 0 0 0 0 0 0 0 0 0 0 0 0 0 0 0 0 0 0 0 0 1:0 2:0 3:0 4:255 5:0 6:0 7:0 8:0 9:0 10:0 11:255 12:0 13:0 14:0 15:0 16:0 17:0 18:255 19:255 20:0 21:0 22:0 23:0 24:0 25:255 26:255 27:0 28:0 29:0 30:0 31:0 32:0 33:18.91038 
-0.1826945097120983 0 0 0 0 0 0 0 0 0 0 0 0 0 0 0 0 0 0 0 0 0 0 1:0 2:0 3:0 4:255 5:0 6:0 7:0 8:0 9:0 10:0 11:255 12:0 13:0 14:0 15:0 16:0 17:0 18:255 19:0 20:0 21:0 22:0 23:0 24:0 25:255 26:255 27:0 28:0 29:0 30:0 31:0 32:0 33:19.8237 
-1 0 0 0 0 0 0 0 0 0 0 0 0 0 0 0 0 0 0 0 0 0 0 1:0 2:0 3:0 4:255 5:0 6:0 7:0 8:0 9:0 10:0 11:255 12:0 13:0 14:0 15:0 16:0 17:0 18:255 19:255 20:0 21:0 22:0 23:0 24:0 25:255 26:255 27:0 28:0 29:0 30:0 31:0 32:0 33:20.64256 
-3.468740618255721e-06 0 7.127613166202461e-09 0 0 0 0 0 0 0 0 0 0 0 0 0 0 0 0 0 0 0 0 1:0 2:0 3:0 4:255 5:0 6:0 7:0 8:0 9:0 10:0 11:255 12:0 13:0 14:0 15:0 16:0 17:255 18:255 19:0 20:0 21:0 22:0 23:0 24:0 25:255 26:255 27:0 28:0 29:0 30:0 31:0 32:0 33:21.37438 
-0.603010460031706 0 0 0 0 0 0 0 0 0 0 0 0 0 0 0 0 0 0 0 0 0 0 1:0 2:0 3:0 4:255 5:0 6:0 7:0 8:0 9:0 10:0 11:255 12:0 13:0 14:0 15:0 16:0 17:255 18:255 19:0 20:0 21:0 22:0 23:0 24:0 25:255 26:0 27:0 28:0 29:0 30:0 31:0 32:0 33:21.31314 
-0 1.264525995036271e-07 2.711638302642559e-08 0 0 1.663667293246246e-12 0 0 0 0 9.051826226473736e-12 0 0 0 0 0 0 0 0 0 0 0 0 1:0 2:0 3:0 4:255 5:0 6:0 7:0 8:0 9:0 10:0 11:255 12:0 13:0 14:0 15:0 16:0 17:255 18:255 19:0 20:0 21:0 22:0 23:0 24:0 25:255 26:0 27:0 28:0 29:0 30:0 31:0 32:0 33:22.14223 
-0 4.172967705695973e-06 0 0 0 1.213689776522991e-11 0 0 0 0 1.026575415004381e-12 0 0 0 0 0 0 0 0 0 0 0 0 1:0 2:0 3:0 4:255 5:0 6:0 7:0 8:0 9:0 10:0 11:255 12:0 13:0 14:0 15:0 16:0 17:0 18:255 19:0 20:0 21:0 22:0 23:0 24:0 25:255 26:0 27:0 28:0 29:0 30:0 31:0 32:0 33:21.84436 
-0 0 0 0 8.79971443838603e-09 0 0 0 0 0 8.072193855686536e-13 0 0 0 0 0 0 0 0 0 0 0 0 1:0 2:0 3:0 4:255 5:0 6:0 7:0 8:255 9:0 10:0 11:255 12:0 13:0 14:0 15:0 16:0 17:0 18:255 19:0 20:0 21:0 22:0 23:0 24:0 25:255 26:0 27:0 28:0 29:0 30:0 31:0 32:0 33:21.83826 
-1 0 0 0 2.494398657055545e-10 0 0 0 0 0 8.170856269293553e-13 0 0 0 0 0 0 0 0 0 0 0 0 1:0 2:0 3:0 4:255 5:0 6:0 7:0 8:255 9:0 10:0 11:255 12:0 13:0 14:0 15:0 16:0 17:255 18:255 19:0 20:0 21:0 22:0 23:0 24:0 25:255 26:0 27:0 28:0 29:0 30:0 31:0 32:0 33:21.7019 
-0.5043763384779917 0 0 0 0 0 0 0 0 0 0 0 0 0 0 0 0 0 0 0 0 0 0 1:0 2:0 3:0 4:255 5:0 6:0 7:0 8:0 9:0 10:0 11:255 12:0 13:0 14:0 15:0 16:0 17:255 18:255 19:0 20:0 21:0 22:0 23:0 24:0 25:255 26:0 27:0 28:0 29:0 30:0 31:0 32:0 33:20.99757 
-1 0 0 0 0 0 0 0 0 0 0 0 0 0 0 0 0 0 0 0 0 0 0 1:0 2:0 3:0 4:255 5:0 6:0 7:0 8:0 9:0 10:0 11:255 12:0 13:0 14:0 15:0 16:0 17:0 18:255 19:0 20:0 21:0 22:0 23:0 24:0 25:255 26:255 27:0 28:0 29:0 30:0 31:0 32:0 33:21.15623 
-0.09887040983496068 0 0 0 0 0 0 0 0 0 0 0 0 0 0 0 0 0 0 0 0 0 0 1:0 2:0 3:0 4:255 5:0 6:0 7:0 8:0 9:0 10:0 11:255 12:0 13:0 14:0 15:0 16:0 17:0 18:255 19:0 20:0 21:0 22:0 23:0 24:0 25:255 26:0 27:0 28:0 29:0 30:0 31:0 32:0 33:20.73569 
-4.277939599746271e-07 0 6.870205055186689e-10 7.293531888039115e-13 1.868179860667599e-09 0 0 0 0 8.637925627909854e-15 0 0 0 0 0 0 0 0 0 0 0 0 0 1:0 2:0 3:0 4:255 5:0 6:0 7:0 8:0 9:0 10:0 11:255 12:0 13:0 14:0 15:0 16:0 17:255 18:255 19:255 20:0 21:0 22:0 23:0 24:0 25:255 26:255 27:0 28:0 29:0 30:0 31:0 32:0 33:20.8184 
-7.219687702039105e-06 0 0 1.220031138448809e-13 0 0 0 0 0 0 5.730382779532484e-13 0 0 0 0 0 0 0 0 0 0 0 0 1:0 2:0 3:0 4:255 5:0 6:0 7:0 8:0 9:0 10:0 11:255 12:0 13:0 14:0 15:0 16:0 17:0 18:0 19:255 20:0 21:0 22:0 23:0 24:0 25:255 26:255 27:0 28:0 29:0 30:0 31:0 32:0 33:20.57372 
-0.1953074780026794 0 0 3.52455546077259e-13 2.76793144660107e-09 0 0 0 0 0 0 0 0 0 0 0 0 0 0 0 0 0 0 1:0 2:0 3:255 4:0 5:0 6:0 7:0 8:0 9:0 10:255 11:255 12:0 13:0 14:0 15:0 16:0 17:255 18:255 19:0 20:0 21:0 22:0 23:0 24:0 25:255 26:0 27:0 28:0 29:0 30:0 31:0 32:0 33:20.79058 
-0 1.471452401695706e-05 0.0004476935047931444 0 0 0 0 0 0 0 0 0 0 0 0 0 0 0 0 0 0 0 0 1:0 2:0 3:255 4:0 5:0 6:0 7:0 8:0 9:0 10:255 11:0 12:0 13:0 14:0 15:0 16:0 17:255 18:0 19:0 20:0 21:0 22:0 23:0 24:0 25:0 26:0 27:0 28:0 29:0 30:0 31:0 32:0 33:20.54558 
-0 0 0 0 0 0 0 5.105566710336189e-10 0 0 0 0 2.31464736264365e-13 0 0 0 0 0 0 0 0 0 0 1:0 2:0 3:255 4:255 5:0 6:0 7:255 8:0 9:0 10:255 11:0 12:0 13:0 14:0 15:0 16:0 17:255 18:0 19:0 20:0 21:0 22:0 23:0 24:0 25:0 26:0 27:0 28:0 29:0 30:0 31:0 32:0 33:20.3841 
-0 0 0 1.903473203955036e-13 0 0 0 0 0 0 0 0 0 0 0 0 0 0 0 0 0 0 0 1:0 2:0 3:255 4:0 5:0 6:0 7:0 8:0 9:0 10:255 11:255 12:0 13:0 14:0 15:0 16:0 17:255 18:0 19:0 20:0 21:0 22:0 23:0 24:0 25:0 26:0 27:0 28:0 29:0 30:0 31:0 32:0 33:20.56819 
-0 0.3242057960070173 0 0 0 2.812140906525703e-11 1.173087637858944e-13 0 0 0 1.119961255588704e-06 0 0 0 0 0 0 0 0 0 0 0 0 1:0 2:0 3:255 4:0 5:0 6:0 7:0 8:0 9:0 10:255 11:0 12:0 13:0 14:0 15:0 16:0 17:255 18:0 19:0 20:0 21:0 22:0 23:0 24:0 25:0 26:0 27:0 28:0 29:0 30:0 31:0 32:0 33:21.24412 
-0 0 0 6.524172569148862e-14 0 0 0 0 0 0 8.514665909179215e-13 0 0 0 0 0 0 0 0 0 0 0 0 1:0 2:0 3:255 4:0 5:0 6:0 7:0 8:0 9:0 10:255 11:255 12:0 13:0 14:0 15:0 16:0 17:255 18:255 19:0 20:0 21:0 22:0 23:0 24:0 25:0 26:0 27:0 28:0 29:0 30:0 31:0 32:0 33:21.50441 
-1 0 0 0 0 0 0 0 0 0 0 0 0 0 0 0 0 0 0 0 0 0 0 1:0 2:0 3:0 4:255 5:0 6:0 7:0 8:255 9:0 10:0 11:255 12:0 13:0 14:0 15:0 16:0 17:255 18:255 19:0 20:0 21:0 22:0 23:0 24:0 25:255 26:0 27:0 28:0 29:0 30:0 31:0 32:0 33:21.37207 
-1 0 0 0 0 0 0 0 0 0 0 0 0 0 0 0 0 0 0 0 0 0 0 1:0 2:0 3:0 4:255 5:0 6:0 7:0 8:255 9:0 10:0 11:255 12:0 13:0 14:0 15:0 16:0 17:0 18:255 19:0 20:0 21:0 22:0 23:0 24:0 25:255 26:0 27:0 28:0 29:0 30:0 31:0 32:0 33:20.22321 
-1 0 0 0 0 0 0 0 0 0 0 0 0 0 0 0 0 0 0 0 0 0 0 1:0 2:0 3:0 4:255 5:0 6:0 7:0 8:255 9:0 10:0 11:255 12:0 13:0 14:0 15:0 16:0 17:255 18:255 19:0 20:0 21:0 22:0 23:0 24:0 25:255 26:0 27:0 28:0 29:0 30:0 31:0 32:0 33:19.54099 
-0.9467941024839031 0 0 0 0 0 0 0 0 0 0 0 0 0 0 0 0 0 0 0 0 0 0 1:0 2:0 3:0 4:255 5:0 6:0 7:0 8:255 9:0 10:0 11:255 12:0 13:0 14:0 15:0 16:0 17:0 18:255 19:0 20:0 21:0 22:0 23:0 24:0 25:255 26:0 27:0 28:0 29:0 30:0 31:0 32:0 33:19.71025 
-1 0 0 0 0 0 0 0 0 0 0 0 0 0 0 0 0 0 0 0 0 0 0 1:0 2:0 3:0 4:255 5:0 6:0 7:0 8:255 9:0 10:0 11:255 12:0 13:0 14:0 15:0 16:0 17:0 18:255 19:0 20:0 21:0 22:0 23:0 24:0 25:255 26:0 27:0 28:0 29:0 30:0 31:0 32:0 33:19.68834 
-0 2.537570003833365e-07 0 0 0 0 0 0 0 0 0 0 0 0 0 0 0 0 0 0 0 0 0 1:0 2:0 3:0 4:255 5:0 6:0 7:0 8:0 9:0 10:0 11:255 12:0 13:0 14:0 15:0 16:0 17:0 18:255 19:0 20:0 21:0 22:0 23:0 24:0 25:255 26:0 27:0 28:0 29:0 30:0 31:0 32:0 33:19.06095 
-1 0 0 0 0 0 0 0 0 0 0 0 0 0 0 0 0 0 0 0 0 0 0 1:0 2:0 3:0 4:255 5:0 6:0 7:0 8:255 9:0 10:0 11:255 12:0 13:0 14:0 15:0 16:0 17:0 18:255 19:0 20:0 21:0 22:0 23:0 24:0 25:255 26:0 27:0 28:0 29:0 30:0 31:0 32:0 33:19.31245 
-3.96883517888573e-06 0 0 0 0 0 0 0 0 0 0 0 0 0 0 0 0 0 0 0 0 0 0 1:0 2:0 3:0 4:255 5:0 6:0 7:0 8:255 9:0 10:0 11:255 12:0 13:0 14:0 15:0 16:0 17:0 18:255 19:255 20:0 21:0 22:0 23:0 24:0 25:255 26:0 27:0 28:0 29:0 30:0 31:0 32:0 33:18.71581 
-1 0 0 0 0 0 0 0 0 0 0 0 0 0 0 0 0 0 0 0 0 0 0 1:0 2:0 3:0 4:255 5:0 6:0 7:0 8:0 9:0 10:0 11:255 12:0 13:0 14:0 15:0 16:0 17:0 18:255 19:255 20:0 21:0 22:0 23:0 24:0 25:255 26:255 27:0 28:0 29:0 30:0 31:0 32:0 33:18.42881 
-0.02013038807232085 0 5.001439767351802e-10 0 0 0 0 0 0 0 1.232363750394154e-12 0 0 0 0 0 0 0 0 0 0 0 0 1:0 2:0 3:0 4:255 5:0 6:0 7:0 8:255 9:0 10:0 11:255 12:0 13:0 14:0 15:0 16:0 17:0 18:255 19:255 20:0 21:0 22:0 23:0 24:0 25:0 26:255 27:0 28:0 29:0 30:0 31:0 32:0 33:19.29859 
-1 0 0 0 0 0 0 0 0 0 0 0 0 0 0 0 0 0 0 0 0 0 0 1:0 2:0 3:0 4:255 5:0 6:0 7:0 8:255 9:0 10:0 11:255 12:0 13:0 14:0 15:0 16:0 17:255 18:255 19:0 20:0 21:0 22:0 23:0 24:0 25:255 26:0 27:0 28:0 29:0 30:0 31:0 32:0 33:17.41465 
-0.4155727173518779 0 0 0 0 0 0 0 0 0 0 0 0 0 0 0 0 0 0 0 0 0 0 1:0 2:0 3:0 4:255 5:0 6:0 7:0 8:255 9:0 10:0 11:255 12:0 13:0 14:0 15:0 16:0 17:255 18:255 19:0 20:0 21:0 22:0 23:0 24:0 25:255 26:0 27:0 28:0 29:0 30:0 31:0 32:0 33:17.75932 
-0 0.01843335203670353 0 0 0 0 0 0 0 0 0 0 0 0 0 0 0 0 0 0 0 0 0 1:0 2:0 3:255 4:0 5:0 6:0 7:0 8:255 9:0 10:255 11:0 12:0 13:0 14:0 15:0 16:0 17:255 18:0 19:0 20:0 21:0 22:0 23:0 24:0 25:0 26:0 27:0 28:0 29:0 30:0 31:0 32:0 33:16.12409 
-0 1 8.141374599762148e-07 0 0 0 0 0 0 0 0 0 0 0 0 0 0 0 0 0 0 0 0 1:0 2:0 3:255 4:0 5:0 6:0 7:0 8:255 9:0 10:255 11:0 12:0 13:0 14:0 15:0 16:0 17:255 18:0 19:0 20:0 21:0 22:0 23:0 24:0 25:0 26:0 27:0 28:0 29:0 30:0 31:0 32:0 33:16.35648 
-0 0 1.517050242511432e-07 0 0 0 0 0 0 0 0 0 0 0 0 0 0 0 0 0 0 0 0 1:0 2:0 3:255 4:0 5:0 6:0 7:255 8:255 9:0 10:255 11:255 12:0 13:0 14:0 15:0 16:0 17:255 18:0 19:0 20:0 21:0 22:0 23:0 24:0 25:0 26:0 27:0 28:0 29:0 30:0 31:0 32:0 33:16.1617 
-0 0 0 0 0 0 0 0 0 0 0 9.632385103397827e-14 0 0 0 0 0 0 0 0 0 0 0 1:0 2:0 3:255 4:0 5:0 6:0 7:0 8:255 9:0 10:255 11:255 12:0 13:0 14:0 15:0 16:0 17:255 18:255 19:0 20:0 21:0 22:0 23:0 24:0 25:0 26:0 27:0 28:0 29:0 30:0 31:0 32:0 33:16.02893 
-1.322703529896113e-06 0 3.126012730729123e-09 0 0 0 0 0 0 0 0 0 0 0 0 0 0 0 0 0 0 0 0 1:0 2:0 3:0 4:255 5:0 6:0 7:0 8:255 9:0 10:255 11:0 12:0 13:0 14:0 15:0 16:0 17:255 18:0 19:0 20:0 21:0 22:0 23:0 24:0 25:0 26:0 27:0 28:0 29:0 30:0 31:0 32:0 33:15.71484 
-0 1.87611603893582e-06 0 0 0 0 0 0 0 1.466928421227233e-13 0 8.728286930475462e-14 0 0 0 0 0 0 0 0 0 0 0 1:0 2:0 3:255 4:0 5:0 6:0 7:0 8:255 9:0 10:255 11:0 12:0 13:0 14:0 15:0 16:0 17:255 18:255 19:0 20:0 21:0 22:0 23:0 24:0 25:255 26:0 27:0 28:0 29:0 30:0 31:0 32:0 33:16.68105 
-1.514197485007321e-05 0.01825006149483261 0 0 0 0 0 0 0 0 0 6.62218495955818e-12 0 0 0 0 0 0 0 0 0 0 0 1:0 2:0 3:255 4:0 5:0 6:0 7:0 8:255 9:0 10:255 11:0 12:0 13:0 14:0 15:0 16:0 17:255 18:0 19:0 20:0 21:0 22:0 23:0 24:0 25:0 26:0 27:0 28:0 29:0 30:0 31:0 32:0 33:16.92714 
-0 1 1 0 6.474824691903714e-08 0 0 0 0 0 0 0 0 0 0 0 0 0 0 0 0 0 0 1:0 2:0 3:255 4:0 5:0 6:0 7:255 8:255 9:0 10:255 11:0 12:0 13:0 14:0 15:0 16:0 17:255 18:0 19:0 20:0 21:0 22:0 23:0 24:0 25:0 26:0 27:0 28:0 29:0 30:0 31:0 32:0 33:16.88522 
-0 0 1 0 0 0 0 0 0 0 0 0 0 0 0 0 0 0 0 0 0 0 0 1:0 2:0 3:255 4:0 5:0 6:0 7:255 8:255 9:0 10:255 11:0 12:0 13:0 14:0 15:0 16:0 17:255 18:0 19:0 20:0 21:0 22:0 23:0 24:0 25:0 26:0 27:0 28:0 29:0 30:0 31:0 32:0 33:16.51715 
-0 1 1 0 0 0 0 0 0 0 0 0 0 0 0 0 0 0 0 0 0 0 0 1:0 2:0 3:255 4:0 5:0 6:0 7:255 8:255 9:0 10:255 11:0 12:0 13:0 14:0 15:0 16:0 17:255 18:0 19:0 20:0 21:0 22:0 23:0 24:0 25:0 26:0 27:0 28:0 29:0 30:0 31:0 32:0 33:16.52916 
-0 0.2138206044902471 0.3589518866683669 0 0 0 0 0 0 0 0 0 0 0 0 0 0 0 0 0 0 0 0 1:0 2:0 3:255 4:0 5:0 6:0 7:255 8:255 9:0 10:255 11:0 12:0 13:0 14:0 15:0 16:0 17:255 18:0 19:0 20:0 21:0 22:0 23:0 24:0 25:0 26:0 27:0 28:0 29:0 30:0 31:0 32:0 33:16.55833 
-0 1 1 0 0 0 0 0 0 0 0 0 0 0 0 0 0 0 0 0 0 0 0 1:0 2:0 3:255 4:0 5:0 6:0 7:255 8:255 9:0 10:255 11:0 12:0 13:0 14:0 15:0 16:0 17:255 18:0 19:0 20:0 21:0 22:0 23:0 24:0 25:0 26:0 27:0 28:0 29:0 30:0 31:0 32:0 33:16.26614 
-8.434868201567193e-07 1 0.0304471320888292 0 0 0 0 0 0 1.805578493556469e-13 0 0 0 0 0 0 0 0 1.405179431714557e-14 0 0 2.164354692573567e-14 0 1:0 2:0 3:255 4:0 5:0 6:0 7:255 8:255 9:255 10:255 11:0 12:0 13:0 14:0 15:0 16:0 17:255 18:0 19:0 20:0 21:0 22:0 23:0 24:0 25:0 26:0 27:0 28:0 29:0 30:0 31:0 32:0 33:16.20289 
-0 0.7615241937657367 0 0 0 0 4.04500404301316e-13 0 0 0 0 0 0 0 0 0 0 0 0 0 0 0 0 1:0 2:0 3:255 4:0 5:0 6:0 7:255 8:255 9:255 10:255 11:0 12:0 13:0 14:0 15:0 16:0 17:255 18:0 19:0 20:0 21:0 22:0 23:0 24:0 25:0 26:0 27:0 28:0 29:0 30:0 31:0 32:0 33:16.07037 
-0 0 0.3888831327002497 0 0 0 0 0 0 0 0 0 0 0 0 0 0 0 0 0 0 0 0 1:0 2:0 3:0 4:0 5:0 6:0 7:0 8:255 9:0 10:0 11:0 12:0 13:0 14:0 15:0 16:0 17:0 18:0 19:0 20:0 21:0 22:0 23:0 24:0 25:0 26:0 27:0 28:0 29:0 30:0 31:0 32:0 33:19.12536 
-0 0.2320142244620503 0.6111106185118108 0 2.608214926496415e-06 3.962339875372962e-10 0 0 0 0 1.365810527836927e-10 0 0 0 0 0 0 0 0 0 0 0 0 1:0 2:0 3:0 4:0 5:0 6:0 7:0 8:255 9:0 10:0 11:0 12:0 13:0 14:0 15:0 16:0 17:0 18:0 19:0 20:0 21:0 22:0 23:0 24:0 25:0 26:0 27:0 28:0 29:0 30:0 31:0 32:0 33:19.35466 
-2.582027634374949e-06 0 0 0 0 0 0 0 0 0 3.239951552475206e-13 0 0 0 0 0 0 0 0 0 0 0 0 1:0 2:0 3:0 4:0 5:0 6:0 7:0 8:255 9:0 10:0 11:0 12:0 13:0 14:0 15:0 16:0 17:0 18:0 19:0 20:0 21:0 22:0 23:0 24:0 25:0 26:255 27:0 28:0 29:0 30:0 31:0 32:0 33:19.20741 
-0 0 0 1.4795051487241e-12 0 0 0 0 0 2.020004460476978e-13 0 1.166482680264589e-13 0 0 0 0 0 0 0 0 0 0 0 1:0 2:0 3:255 4:255 5:0 6:0 7:0 8:255 9:0 10:255 11:255 12:0 13:0 14:0 15:0 16:0 17:255 18:255 19:0 20:0 21:0 22:0 23:0 24:0 25:255 26:0 27:0 28:0 29:0 30:0 31:0 32:0 33:17.40529 
-1 0 0 0 0 0 0 0 0 0 0 0 0 0 0 0 0 0 0 0 0 0 0 1:0 2:0 3:255 4:255 5:0 6:0 7:255 8:255 9:0 10:255 11:255 12:0 13:0 14:0 15:0 16:0 17:255 18:255 19:0 20:0 21:0 22:0 23:0 24:0 25:255 26:0 27:0 28:0 29:0 30:0 31:0 32:0 33:17.25989 
-0 0 2.383420671014165e-08 0 0 0 0 0 0 0 0 0 0 0 0 0 0 0 0 0 0 0 0 1:0 2:0 3:255 4:255 5:0 6:0 7:255 8:255 9:0 10:255 11:255 12:0 13:0 14:0 15:0 16:0 17:255 18:255 19:0 20:0 21:0 22:0 23:0 24:0 25:255 26:0 27:0 28:0 29:0 30:0 31:0 32:0 33:17.20999 
-2.639452094308071e-06 0 0 0 4.616484180100158e-09 0 0 0 0 0 0 0 0 0 0 0 0 0 0 0 0 0 0 1:0 2:0 3:255 4:255 5:0 6:0 7:255 8:255 9:0 10:255 11:255 12:0 13:0 14:0 15:0 16:0 17:255 18:255 19:0 20:0 21:0 22:0 23:0 24:0 25:255 26:0 27:0 28:0 29:0 30:0 31:0 32:0 33:17.55895 
-2.431786875564094e-06 0 0 1.397222367863178e-13 0 0 0 0 0 0 0 0 0 0 0 0 0 0 0 0 0 0 0 1:0 2:0 3:255 4:255 5:0 6:0 7:255 8:0 9:255 10:255 11:255 12:255 13:0 14:0 15:0 16:0 17:255 18:255 19:0 20:0 21:0 22:0 23:0 24:0 25:255 26:0 27:0 28:0 29:0 30:0 31:0 32:0 33:17.63218 
-0 0 0 9.608810330516469e-14 6.224893622610953e-09 0 0 0 0 3.99808109758003e-13 0 0 0 0 0 0 0 0 0 0 0 0 0 1:0 2:0 3:255 4:255 5:0 6:0 7:255 8:255 9:255 10:255 11:255 12:0 13:0 14:0 15:0 16:0 17:255 18:255 19:0 20:0 21:0 22:0 23:0 24:0 25:255 26:0 27:0 28:0 29:0 30:0 31:0 32:0 33:17.4742 
-0 0 0 0 1.137461645762466e-08 0 0 0 0 0 0 0 0 0 0 0 0 0 0 0 0 0 0 1:0 2:255 3:255 4:0 5:0 6:255 7:255 8:0 9:255 10:255 11:0 12:0 13:0 14:0 15:0 16:255 17:0 18:0 19:0 20:0 21:0 22:0 23:0 24:0 25:0 26:0 27:0 28:0 29:0 30:0 31:0 32:0 33:21.04539 
-0 0 4.304743153067469e-08 0 0 0 0 0 0 1.338716920204719e-13 1.459500367056631e-12 0 0 0 0 0 0 0 1.591122050381156e-15 0 0 1.390272615218462e-14 0 1:0 2:255 3:255 4:0 5:0 6:255 7:255 8:0 9:255 10:255 11:0 12:0 13:0 14:0 15:0 16:255 17:0 18:0 19:0 20:0 21:0 22:0 23:0 24:0 25:0 26:0 27:0 28:0 29:0 30:0 31:0 32:0 33:21.11456 
-0.8953374392383329 0 0 0 0 0 0 0 0 0 0 0 0 0 0 0 0 0 0 0 0 0 0 1:0 2:255 3:255 4:0 5:0 6:255 7:255 8:0 9:255 10:255 11:0 12:0 13:0 14:0 15:0 16:255 17:0 18:0 19:0 20:0 21:0 22:0 23:0 24:0 25:0 26:0 27:0 28:0 29:0 30:0 31:0 32:0 33:20.99473 
-0 0 1.547385869626604e-08 0 5.688408834239718e-08 1.494288943628154e-12 0 0 0 1.657514836846623e-13 0 0 0 0 0 0 0 0 0 0 0 0 0 1:0 2:255 3:255 4:0 5:0 6:255 7:255 8:0 9:255 10:0 11:0 12:0 13:0 14:0 15:0 16:255 17:0 18:0 19:0 20:0 21:0 22:0 23:0 24:0 25:0 26:0 27:0 28:0 29:0 30:0 31:0 32:0 33:20.8337 
-0 0 0 0 0 0 0 1.160456435839681e-08 0 0 0 0 0 0 0 0 0 0 0 0 0 0 0 1:0 2:255 3:255 4:0 5:0 6:255 7:255 8:0 9:255 10:0 11:0 12:0 13:0 14:0 15:0 16:255 17:0 18:0 19:0 20:0 21:0 22:0 23:0 24:0 25:0 26:0 27:0 28:0 29:0 30:0 31:0 32:0 33:20.67094 
-0 6.045166577123109e-13 0 1.238883676130872e-12 4.520243183161951e-08 0 0 5.187185742501706e-10 0 0 0 6.538792731134355e-14 0 0 0 0 0 0 0 2.381780315223118e-14 1.707318134954067e-13 7.998599398187572e-14 0 1:255 2:255 3:255 4:0 5:0 6:255 7:255 8:0 9:255 10:0 11:0 12:0 13:0 14:0 15:255 16:255 17:0 18:0 19:0 20:0 21:0 22:0 23:0 24:0 25:0 26:0 27:0 28:0 29:0 30:0 31:0 32:0 33:20.14906 
-0 1.972591128888427e-07 3.973952629558674e-08 0 6.745806199109125e-08 0 0 0 0 0 7.551257290709317e-13 0 0 0 0 0 0 0 0 0 0 0 0 1:0 2:255 3:0 4:255 5:0 6:0 7:255 8:0 9:255 10:0 11:0 12:0 13:0 14:0 15:255 16:255 17:0 18:0 19:0 20:0 21:0 22:0 23:0 24:0 25:0 26:0 27:0 28:0 29:0 30:0 31:0 32:0 33:20.2801 
-0 0 0 0 0 8.024010756275424e-14 0 0 5.582564123008314e-13 1.96370785502269e-14 6.741300119491427e-13 0 0 0 0 0 0 0 0 0 0 0 0 1:0 2:255 3:255 4:255 5:255 6:255 7:255 8:0 9:0 10:255 11:255 12:255 13:0 14:0 15:0 16:255 17:0 18:0 19:0 20:0 21:0 22:0 23:0 24:0 25:0 26:0 27:0 28:0 29:0 30:0 31:0 32:0 33:20.02898 
-0 1.214239183018171e-08 2.242250566425656e-09 1.80734570815203e-13 0 0 1.038539369226516e-13 8.717369105124315e-10 6.808204066388494e-14 9.590159510262996e-15 0 0 0 0 0 0 0 0 1.16450286888118e-15 7.948321455426009e-15 1.76686084055487e-15 0 0 1:255 2:255 3:255 4:255 5:255 6:255 7:255 8:255 9:255 10:255 11:255 12:255 13:255 14:255 15:255 16:255 17:255 18:255 19:255 20:255 21:255 22:255 23:0 24:255 25:255 26:0 27:255 28:255 29:0 30:0 31:0 32:0 33:19.86258 
-0 0 0 0 0 0 0 0 0 1.503482544050405e-14 0 0 0 0 0 0 0 0 0 0 0 0 0 1:255 2:255 3:255 4:255 5:255 6:255 7:255 8:255 9:255 10:255 11:255 12:255 13:255 14:255 15:255 16:255 17:255 18:255 19:255 20:255 21:255 22:255 23:255 24:255 25:255 26:255 27:255 28:255 29:255 30:255 31:255 32:0 33:19.69593 
-0 7.964533606641383e-10 0 0 0 0 0 0 0 0 0 0 0 0 0 0 0 0 0 0 0 0 0 1:255 2:255 3:255 4:255 5:255 6:255 7:255 8:255 9:255 10:255 11:255 12:255 13:255 14:255 15:255 16:255 17:255 18:255 19:255 20:255 21:255 22:255 23:255 24:255 25:255 26:255 27:255 28:255 29:255 30:255 31:255 32:255 33:20.09532 
-0 0 0 0 0 1.588135663874623e-13 0 0 0 0 0 0 0 0 0 0 0 0 0 0 0 0 0 1:255 2:255 3:255 4:255 5:255 6:255 7:255 8:255 9:255 10:255 11:255 12:255 13:255 14:255 15:255 16:255 17:255 18:255 19:255 20:255 21:255 22:255 23:255 24:255 25:255 26:255 27:255 28:255 29:255 30:255 31:255 32:255 33:20.1748 
-0 0 0 0 4.719760366858144e-09 0 0 0 0 0 0 0 0 0 0 0 0 0 0 0 0 0 0 1:255 2:255 3:255 4:255 5:255 6:255 7:255 8:255 9:255 10:255 11:255 12:255 13:255 14:255 15:255 16:255 17:255 18:255 19:255 20:255 21:255 22:255 23:255 24:255 25:255 26:255 27:255 28:255 29:255 30:255 31:255 32:255 33:19.92176 
-0 0 5.558549767089639e-10 0 0 0 0 0 0 0 0 0 0 0 0 0 0 0 0 0 0 0 0 1:255 2:255 3:255 4:255 5:255 6:255 7:255 8:255 9:255 10:255 11:255 12:255 13:255 14:255 15:255 16:255 17:255 18:255 19:255 20:255 21:255 22:255 23:255 24:255 25:255 26:255 27:255 28:255 29:255 30:255 31:255 32:255 33:19.74027 
-4.145868232832011e-06 0 0 0 0 0 0 0 0 0 0 0 0 0 0 0 0 0 0 0 0 0 0 1:255 2:255 3:255 4:255 5:255 6:255 7:255 8:255 9:255 10:255 11:255 12:255 13:255 14:255 15:255 16:255 17:255 18:255 19:255 20:255 21:255 22:255 23:255 24:255 25:255 26:255 27:255 28:255 29:255 30:255 31:255 32:255 33:19.58 
-1 0 0 0 0 0 0 0 0 0 0 0 0 0 0 0 0 0 0 0 0 0 0 1:255 2:255 3:255 4:255 5:255 6:255 7:255 8:0 9:255 10:255 11:255 12:255 13:255 14:255 15:255 16:255 17:255 18:255 19:255 20:255 21:255 22:255 23:255 24:255 25:255 26:255 27:255 28:255 29:255 30:255 31:255 32:255 33:19.64525 
-1 0 0 0 0 0 0 0 0 0 0 0 0 0 0 0 0 0 0 0 0 0 0 1:255 2:255 3:255 4:255 5:255 6:255 7:255 8:0 9:255 10:255 11:255 12:255 13:255 14:255 15:255 16:255 17:255 18:255 19:255 20:255 21:255 22:255 23:255 24:255 25:255 26:255 27:255 28:255 29:255 30:255 31:255 32:255 33:19.92581 
-1 0 0 0 0 0 0 0 0 0 0 0 0 0 0 0 0 0 0 0 0 0 0 1:255 2:255 3:255 4:255 5:255 6:255 7:255 8:0 9:255 10:255 11:255 12:255 13:255 14:255 15:255 16:255 17:255 18:255 19:255 20:255 21:255 22:255 23:255 24:255 25:255 26:255 27:255 28:255 29:255 30:255 31:255 32:255 33:19.97461 
-1 0 0 0 0 0 0 0 0 0 0 0 0 0 0 0 0 0 0 0 0 0 0 1:255 2:255 3:255 4:255 5:255 6:255 7:255 8:0 9:255 10:255 11:255 12:255 13:255 14:255 15:255 16:255 17:255 18:255 19:255 20:255 21:255 22:255 23:255 24:255 25:255 26:255 27:255 28:255 29:255 30:255 31:255 32:255 33:19.8331 
-1 0 0 0 0 0 0 0 0 0 0 0 0 0 0 0 0 0 0 0 0 0 0 1:255 2:255 3:255 4:255 5:255 6:255 7:255 8:0 9:255 10:255 11:255 12:255 13:255 14:255 15:255 16:255 17:255 18:255 19:255 20:255 21:255 22:255 23:255 24:255 25:255 26:255 27:255 28:255 29:255 30:255 31:255 32:255 33:19.67336 
-1 0 0 0 0 0 0 0 0 0 0 0 0 0 0 0 0 0 0 0 0 0 0 1:0 2:255 3:255 4:255 5:255 6:255 7:255 8:0 9:255 10:255 11:255 12:255 13:255 14:255 15:255 16:255 17:255 18:255 19:255 20:255 21:255 22:255 23:255 24:255 25:255 26:255 27:255 28:255 29:255 30:255 31:255 32:255 33:19.71104 
-1 0 0 0 0 0 0 1.69314183220205e-10 0 0 0 0 0 0 0 0 0 0 0 0 0 0 0 1:255 2:255 3:255 4:255 5:255 6:255 7:255 8:0 9:255 10:255 11:255 12:255 13:255 14:255 15:255 16:255 17:255 18:255 19:255 20:255 21:255 22:255 23:255 24:255 25:255 26:255 27:255 28:255 29:255 30:255 31:255 32:255 33:19.9931 
-4.948983303452784e-06 0 0 0 0 0 0 0 0 0 0 0 0 0 8.797315223342757e-15 8.1149371156193e-15 8.227437855980309e-15 0 0 0 0 0 6.434160579530062e-15 1:0 2:255 3:255 4:255 5:255 6:255 7:255 8:0 9:255 10:255 11:255 12:255 13:255 14:255 15:255 16:0 17:255 18:255 19:255 20:255 21:255 22:255 23:255 24:255 25:255 26:255 27:255 28:255 29:255 30:255 31:255 32:255 33:20.49868 
-0 0 0 0 0 1.407517991159898e-14 0 0 0 0 0 6.219913761515268e-15 0 0 7.323998514130375e-15 0 0 1.656765839354814e-14 0 0 0 1.545002932632261e-15 2.655142051651609e-15 1:255 2:255 3:255 4:255 5:255 6:255 7:255 8:0 9:255 10:255 11:255 12:255 13:255 14:255 15:255 16:255 17:0 18:0 19:0 20:255 21:255 22:255 23:255 24:255 25:255 26:255 27:255 28:255 29:255 30:255 31:255 32:255 33:20.7761 
-1.622315532876709e-06 0 0 0 0 0 0 0 0 0 0 6.509474988786276e-15 0 0 7.826225338132354e-15 0 0 1.657213295103034e-14 0 0 0 0 2.648377029627677e-15 1:255 2:255 3:255 4:255 5:255 6:255 7:255 8:0 9:255 10:255 11:255 12:255 13:255 14:255 15:255 16:255 17:0 18:255 19:255 20:255 21:255 22:255 23:255 24:255 25:0 26:0 27:255 28:255 29:255 30:255 31:255 32:255 33:20.91412 
