svm_type c_svc
kernel_type polynomial
degree 3
gamma 0.030303
coef0 0
nr_class 35
total_sv 7911
rho 4.71164e+06 201.917 0.745238 -11.8942 -2.44926 -0.999117 666222 -330512 -957432 -35.4583 -1.00011 7.44514e+06 -6.46368e+07 -2.5071 -277330 -4.78321e+06 1.39078e+07 -1.00031 53789 -152997 -125765 -3.2453e+06 -32185.7 -4.02509e+06 -2.85988e+06 -1.36249 -1.0943e+07 -2.70782 -245875 -6.44155e+06 -3106.7 -2.78419 0.819518 -119641 785.943 1.79371 -2.51528e+06 -2.33 -0.99984 -567763 -15.3773 -1.1413e+06 -1.598 -0.998955 -0.999016 -285327 -343714 15.7469 -1.69346e+06 1.68464e+07 -1.00016 100827 107.781 -624.088 -483.62 -2.28529 -382925 -3.36549 -1.25192 -0.999869 -2.55645 -0.99958 -1.55529e+06 -0.99975 -1.84242 -0.999725 -1.00007 -300.016 -806091 -316.643 310142 -4.09084 -29.4286 -9.18021e+06 -0.999969 -4.63071 -6.00233 -390054 9.64827 -155318 -272626 -4.35634 -21.1222 8195.01 10.0854 2.38431 -27416.4 -0.999713 -3.28942e+06 -3.1438 -1.27962 -1.13283e+06 -1.73393 -2.24316 -7.14679 -0.999977 -1.41988 -0.999683 -1.15015 -191502 -1.4829e+06 1.0006 1374.1 -1.02718 -1.21621e+06 -4.70926 585.403 4.30973 579.337 -122751 207.412 -2.993e+06 1246 6.4883 8.83783 -45656.6 -65394.1 -665427 -10011.1 -48703.7 -1.0096 -1.00556 -2090.92 -4.8449 -0.999773 -71223.7 146.145 -277892 -0.99637 -1.03738 44979.1 -10.6435 -12.2456 -0.725651 -36.7444 -1.27689 1.00015 0.999802 2.328 -3.6791 -32.239 406170 1.75655e+06 1.11053 2.94268e+06 0.874978 1.09911 -2.11437 0.961484 0.724732 -0.774028 -0.663188 -4.27474 1.00007 0.912171 0.111717 0.947935 -0.612408 -1.0157 -0.539519 70477.1 -9.54163e+07 -0.999875 -5323.28 -4.90362 168.146 91.1218 98.6159 -0.999937 -0.999859 7.41897e+06 3.10327 11.5779 5863.66 146.841 73.1999 -1.00013 -0.999896 -89596.3 -1.90289 -0.999881 -1.18559e+06 -3.47034 45.79 -2.39378 -0.578463 296.051 -0.999919 -1.00365 1.35566 -1.01176 -49274.5 -1.15143 -0.999913 -1.00004 498.898 -1300 -1.00011 207.121 0.999933 -0.999878 -2.27444 3.15869 -0.999926 -9252.42 -0.99987 -0.999908 -2.8404 -1.00767 -0.999932 -0.999977 -0.999888 -0.999902 -93.569 -1.00014 -0.999769 -1.03404 -1.50842 -181.923 -441532 -0.999879 -1.00007 6.9252e+06 -186947 -67917.5 -636233 -124467 -0.999944 -3.19067 -98970.2 -14782.8 -106868 -0.999881 -1.59709e+06 -1.99885 -1.07189 -649037 -3.35785 -1.36792 -2.98724 -1.00004 -2.1306 -0.999719 -1.00859 -0.976967 -0.577364 1.07924 1.25001 1.1226 0.42996 0.54719 0.885381 235401 1.13452 1.21266 1.14804 1.02721 0.82596 0.997966 0.983612 0.145919 0.304394 17.2263 1.03541 0.986829 -15.6472 0.998501 0.420948 0.447505 -0.00834443 0.468947 1.10086 0 9.76134 0.701249 1.45375 80359.7 1.02737e+07 1.00029 271.854 1.14633 0.987888 0.866071 1.00925 1.02633 2.82626 0.581386 1.09638 1.01194 1.02711 1.10297 0.994758 -0.0416394 0.0648504 0.305381 8.55715 227143 -2272.8 0.378481 0.932263 10.3046 1.34908e+06 1.00075 1.00022 1.56058e+06 -20133.4 10.0765 17192 1.84717e+06 0.0955682 0.314492 141084 1.7666 1.02242 999512 0.993013 0.479195 0.464681 0.0906201 0.999794 -0.999454 -1.17093 -1.1553 -54.537 1.00021 -2.21426 1.00017 -12928.6 -5247.67 -1.37265e+06 -341425 -251.672 -1.02852 -1.01277 6.73834 -2.42686 -1.09605 -0.999998 -19.2713 -0.999798 -1.03752 -1.00001 -0.999701 -1.43163 -1.22282 -62688.9 1.00126 -125398 1.00118 -12.275 262.752 -0.627038 -89525.9 -361542 -6.46283e+06 -1.10954 -69.2127 -2.38986 -1.03448 272.742 -0.999845 -1.03376 -0.999782 -1.00011 -27017.7 0.449423 -531341 -149.099 0.999256 196330 16431.7 35235.4 -88859.6 56124.8 -1.25916e+07 -1.17223 -1.00185 -52205.4 1.00011 9.20494 -1.04783 -0.391971 -0.828679 -0.476091 -0.99131 -0.14087 269246 25768.8 1.17927 2052.29 1.23808 1.37983 -66.9212 1.07048 0.863557 -0.302824 -0.178098 0.444701 1.02374 0.91901 0.507825 0.994512 0.153015 -0.166643 -0.227243 0.47352 166805 1.17284 -8.24325 0.904167 1.02359 0.449782 0.990485 0.91187 -0.370263 -0.266273 0.618045 1.01123 0.969623 0.740165 0.991691 0.0291835 -0.0349551 -0.320939 1.51146e+06 1.17482 2.71603e+06 160651 -8794.62 18538.1 -5183.49 0.227823 -1.24671 -0.936426 -1.93534 439151 0.559757 -0.428779 0.672161 -90.6551 -1.28006 -0.708906 -1.00068 70329.8 -28261.9 -93571.6 -1.66873e+06 -106047 -5.79938e+06 10.7459 -1.37965 29.5403 -4.06821 -147181 -754390 -255.968 -1.184 -8.92669 -21.7272 3585.32 -15.2869 -42853.1 -2.21739e+06 -32984.8 -468503 -1.21178 -1.14424 -10672.7 -2.8617 -0.999766 -7.2584 -0.999911 -0.999672 -0.993731 -176663 -20295.7 -0.9998 -2.73174e+06 -1.30121 -1.3469e+06 -1.22788 -1.20635 -3082.6 -54.4607 -12.298 -3.03577 -0.999729 -0.999717 -0.999832 -1.78726 128043 -592920 -222310 -2.62104e+06 -1.04472 -1.03708 -1.60196e+06 68.7996 -0.961602 -163.883 -18.4421 -0.935374 -0.956098 -0.996849 34350.4 18446.9 -2.64062e+06 -1.03308 -1.03985 -845067 4814.96 1.66148 4088.15 -5.54179 -1.15082 -17.6309 -36.4411 7.09932e+06 349250 -0.500493 -0.463245 1.66649e+06 409148 -0.713763 -0.282076 0.98999 1.24335e+06 -11.2152 -31.6371 213687 -1.23868 -1.30942 -3.20395e+06 1.0002 -1.15132 -133.639 0.78391 0.136931 -14.4295 -28.5881 -0.955994 -1.04822 -8.64276e+07 299734 -21361 -253842 125976 223749 -0.935233 -1.02693 163.912 8.76783 1.00221 0.946205 0.674659 0.999613 -0.0336528 -0.290507 -0.0315817 7.74472 1.00186 0.973308 0.620794 1.00253 0.308074 -0.0483437 -0.117711 1.00014 4.03984 787036 0.981403 0.0504344 -48.1933 -0.641198 -392949 -1.34979e+06 -0.998874 -1.00008 -0.999969 -0.999753 1109.38 0.747861 -0.84971 -0.955208 -1.00096 0.963597 -29.5818 -0.401399 -0.604201 -0.74748 -0.990107 -0.990671 -1.5341 -0.321769 5.87343
label 0 -4 -8 -20 -22 -14 -18 -10 32 28 26 8 2 -12 -32 -34 -16 -2 4 -6 10 12 14 16 18 30 34 24 6 20 22 -24 -28 -26 -46
nr_sv 1827 1221 424 186 40 242 152 602 4 9 26 67 207 163 3 5 181 1210 165 605 87 38 38 24 112 20 5 92 52 19 49 8 23 4 1
SV
0 0 0 0.0003652602543541093 0 0 0 0 0 0 0 0 0 0 0 0 0 0 0 0 0 0 0 0 0 0 0 0 0 0 0 0 0 0 1:0 2:0 3:0 4:0 5:255 6:255 7:0 8:0 9:0 10:0 11:0 12:0 13:0 14:255 15:255 16:255 17:0 18:0 19:0 20:0 21:0 22:0 23:255 24:255 25:0 26:0 27:0 28:0 29:0 30:0 31:0 32:255 33:9e-06 
0 0 0 1 0 0 0 0 0 0 0 0 0 0 0 0 0 0 0 0 0 0 0 0 0 0 0 0 0 0 0 0 0 0 1:0 2:0 3:0 4:0 5:255 6:255 7:0 8:0 9:0 10:0 11:0 12:0 13:0 14:255 15:255 16:255 17:0 18:0 19:0 20:0 21:0 22:0 23:255 24:255 25:0 26:0 27:0 28:0 29:0 30:0 31:0 32:255 33:7e-06 
0.0003446962574494238 2.556890650924939e-05 3.733001102974026e-05 0.9999997217969541 3.808826907102997e-06 0.003765759918460141 0.005967448385122363 0 0 9.642858917260669e-07 0 2.580568702936241e-05 0.008823535356046332 0 0 0.004261722684307177 0 2.82379280517247e-05 0 0 5.742114138623751e-07 0 5.816638375529871e-07 0 0 0 0 0 0 2.676878500181949e-05 0 7.359635246932601e-09 1.405035645560654e-08 0 1:0 2:0 3:0 4:0 5:255 6:255 7:0 8:0 9:0 10:0 11:0 12:0 13:0 14:255 15:255 16:255 17:0 18:0 19:0 20:0 21:0 22:0 23:255 24:255 25:0 26:0 27:0 28:0 29:0 30:0 31:0 32:255 33:9e-06 
0.2840846987353119 1.439562358834136e-06 0 0 0 0 0 0 0 0 0 1.286892986921655e-05 0 0 0 0 0 0 0.4325727130267342 0 0 0 0 0 0 0 0 0 0 0 0 0 0 0 1:255 2:255 3:255 4:0 5:0 6:0 7:0 8:0 9:255 10:255 11:0 12:0 13:0 14:0 15:0 16:0 17:255 18:0 19:0 20:0 21:0 22:0 23:0 24:0 25:0 26:0 27:0 28:255 29:0 30:0 31:0 32:0 33:16.91362 
2.289738720971884e-06 0 0 0 0 0 0 0 0 7.743117568037089e-09 0 0 0 0 0 0 0 0 1.015352379618965e-08 0 0 0 0 0 0 0 0 0 6.797389849709044e-10 0 0 0 0 0 1:255 2:255 3:255 4:255 5:0 6:0 7:0 8:0 9:255 10:255 11:0 12:0 13:0 14:0 15:0 16:0 17:255 18:0 19:0 20:0 21:0 22:0 23:0 24:0 25:0 26:0 27:255 28:255 29:0 30:0 31:0 32:0 33:16.73838 
9.68834889398481e-06 0 0 0 0 0 1.728053332288635e-06 0 0 0 0 0 0 0 0 0 1.31643174183157e-05 2.013869517483968e-05 0 0 8.704617625724667e-09 0 0 0 0 0 0 0 0 0 0 0 0 0 1:255 2:255 3:255 4:255 5:0 6:0 7:0 8:0 9:255 10:255 11:0 12:0 13:0 14:0 15:0 16:0 17:255 18:0 19:0 20:0 21:0 22:0 23:0 24:0 25:0 26:0 27:255 28:0 29:0 30:0 31:0 32:0 33:16.56424 
0 0 0 0 0 0 5.418505725827567e-06 0 0 0 0 5.388193016929872e-06 0 0 0 0 2.04935744625883e-06 0 0 0 0 0 0 0 0 0 0 0 0 0 0 0 0 0 1:255 2:255 3:255 4:255 5:0 6:0 7:0 8:0 9:255 10:255 11:255 12:0 13:0 14:0 15:0 16:0 17:255 18:0 19:0 20:0 21:0 22:0 23:0 24:0 25:0 26:0 27:0 28:0 29:0 30:0 31:0 32:0 33:16.72194 
0 0 0 0 0 0.01854169770293622 0 0 0 0 0 0 0 0 0 0 0 0 0.01099702895798863 0 0 0 0 0 5.306119949520006e-08 0 0 0 0 0 0 0 0 0 1:255 2:255 3:255 4:255 5:0 6:0 7:0 8:0 9:255 10:255 11:255 12:255 13:0 14:0 15:0 16:0 17:255 18:255 19:255 20:0 21:0 22:0 23:0 24:0 25:255 26:255 27:255 28:0 29:0 30:0 31:0 32:0 33:16.65858 
0 0 0 0 0 0 0 0 0 0 0 0 0 0 0 0 1 0 0 0 0 0 0 0 0 0 0 0 0 0 0 0 0 0 1:255 2:255 3:255 4:255 5:0 6:0 7:0 8:0 9:255 10:255 11:255 12:255 13:0 14:0 15:0 16:0 17:255 18:255 19:255 20:0 21:0 22:0 23:0 24:0 25:255 26:255 27:255 28:0 29:0 30:0 31:0 32:0 33:16.49946 
0 0 0 0 0 0 0 0 0 0 0 0.7522793037266031 0 0 0 0 0 0 0 0 0 0 0 0 0 0 0 0 0 0 0 0 0 0 1:255 2:255 3:255 4:255 5:0 6:0 7:0 8:0 9:255 10:255 11:255 12:255 13:0 14:0 15:0 16:0 17:255 18:255 19:255 20:0 21:0 22:0 23:0 24:0 25:255 26:255 27:255 28:0 29:0 30:0 31:0 32:0 33:16.35987 
0 0.05252120806961964 0 0 0 0 0 0 0 4.685540066080656e-09 0 0 0 0 0 0 0.4408433286220272 1 0 0 0 0 0 0 6.992164732647138e-08 0 0 0 0 0 0 0 0 0 1:255 2:255 3:255 4:255 5:0 6:0 7:0 8:0 9:255 10:255 11:255 12:255 13:0 14:0 15:0 16:0 17:255 18:255 19:255 20:0 21:0 22:0 23:0 24:0 25:255 26:255 27:0 28:0 29:0 30:0 31:0 32:0 33:15.41893 
1.14695556881742e-05 0 0 0 0 0 0 0 0 0 0 0 0 0 0 0 0.1007523022959091 0 0 0 0 0 0 0 0 0 0 0 0 0 0 0 0 0 1:255 2:255 3:255 4:255 5:0 6:0 7:0 8:0 9:255 10:255 11:255 12:255 13:0 14:0 15:0 16:0 17:255 18:255 19:255 20:0 21:0 22:0 23:0 24:0 25:255 26:255 27:0 28:0 29:0 30:0 31:0 32:0 33:15.26119 
0 0 0 0 0 0 0 0 0 0 0 1.254828666059928e-05 0 0 0 0.006714475951596927 0 0.3085703507913644 0 0 0 0 0 0 0 0 0 0 0 0 0 0 0 0 1:255 2:255 3:255 4:255 5:0 6:0 7:0 8:0 9:255 10:255 11:255 12:255 13:0 14:0 15:0 16:0 17:255 18:255 19:255 20:0 21:0 22:0 23:0 24:0 25:255 26:255 27:0 28:0 29:0 30:0 31:0 32:0 33:15.12699 
0 0 2.156887155701254e-09 0 0 0 0 0 0.07954639599662437 0 0 0 0 0 0 0 0 0 0 0 0 0 0 0 0 0 0 0 0 0 0 0 0 0 1:255 2:255 3:255 4:255 5:0 6:0 7:0 8:0 9:255 10:255 11:255 12:255 13:0 14:0 15:0 16:0 17:255 18:255 19:255 20:0 21:0 22:0 23:0 24:0 25:255 26:255 27:0 28:0 29:0 30:0 31:0 32:0 33:14.97141 
2.960320943544638e-06 0 0 0 1.413444841905381e-06 2.383479995902171e-06 0 0 0 0 0 0 0 0 0 0 9.705436848131307e-05 5.983585660521719e-07 0.008110014620060025 0 0 0 0 0 0 0 0 0 0 0 0 0 0 0 1:255 2:255 3:255 4:255 5:0 6:0 7:0 8:0 9:255 10:255 11:255 12:0 13:0 14:0 15:0 16:0 17:255 18:255 19:255 20:0 21:0 22:0 23:0 24:0 25:255 26:255 27:0 28:0 29:0 30:0 31:0 32:0 33:14.83941 
0 4.639953237716011e-06 2.121529702036533e-08 4.95608343812825e-09 0 0 1.901691595280641e-06 0 0 0 0 8.070355665082606e-06 0 0 0 0 0.506225213124021 1.329364112700459e-06 0 0 0 0 0 0 0 0 0 0 0 0 0 0 0 0 1:255 2:255 3:255 4:255 5:0 6:0 7:0 8:0 9:255 10:255 11:255 12:0 13:0 14:0 15:0 16:0 17:255 18:255 19:0 20:0 21:0 22:0 23:0 24:0 25:255 26:255 27:0 28:0 29:0 30:0 31:0 32:0 33:15.02859 
2.960581635272094e-06 0 1.734932220401005e-08 2.871954716473858e-08 0 0 0.1016943778850367 0 1.202206705808337e-06 0 0 0 0 0 0 0 0 0 0 0 0 0 0 0 0 0 0 0 0 3.979199015841585e-07 0 0 0 0 1:255 2:255 3:255 4:255 5:0 6:0 7:0 8:0 9:255 10:255 11:255 12:0 13:0 14:0 15:0 16:0 17:255 18:255 19:0 20:0 21:0 22:0 23:0 24:0 25:255 26:0 27:0 28:0 29:0 30:0 31:0 32:0 33:14.86722 
0 1.316337040297707e-06 0 1.249394199502554e-09 0 0 5.093505010617072e-06 0 0 1.348101843292692e-08 0 0 0 0 0 0 0 0 0 0 0 0 0 0 0 0 0 0 1.175328280500326e-08 0 0 0 0 0 1:255 2:255 3:255 4:0 5:0 6:0 7:0 8:0 9:255 10:255 11:255 12:0 13:0 14:0 15:0 16:0 17:255 18:255 19:0 20:0 21:0 22:0 23:0 24:0 25:255 26:0 27:0 28:255 29:0 30:0 31:0 32:0 33:14.74191 
0.7762388039178592 0.02648366667348287 0 0 0 0 0 0 0 5.958328782166155e-09 0 2.764804571275121e-06 0 0 0 7.163684256151182e-07 1 7.819039493726617e-06 0.0001932299359492747 0 0 0 0 0 0 0 0 0 0 0 0 0 0 0 1:255 2:255 3:0 4:255 5:0 6:0 7:0 8:255 9:0 10:0 11:255 12:255 13:0 14:0 15:0 16:0 17:0 18:0 19:255 20:0 21:0 22:0 23:0 24:0 25:0 26:255 27:0 28:0 29:0 30:0 31:0 32:0 33:18.85844 
1.785540111248752e-06 0 0 0 0 0 0 0 0 4.02381897469251e-09 0 7.938777016700564e-06 0 0 0 0 4.638234913693372e-07 2.681456642017818e-06 0 0 0 0 0 0 0 0 0 0 0 0 0 0 0 0 1:255 2:0 3:255 4:255 5:0 6:0 7:255 8:0 9:0 10:255 11:255 12:0 13:0 14:0 15:0 16:0 17:0 18:255 19:0 20:0 21:0 22:0 23:0 24:0 25:255 26:0 27:0 28:0 29:0 30:0 31:0 32:0 33:17.78098 
1.802526287103693e-05 0 0 0 0 0 0 0 0 0 0 2.507996873918208e-05 0 0 0 0 1.843399977656574e-05 0 0 0 0 0 0 0 0 0 0 0 0 0 0 0 0 0 1:0 2:0 3:255 4:0 5:0 6:0 7:255 8:0 9:0 10:255 11:0 12:0 13:0 14:0 15:0 16:0 17:255 18:0 19:0 20:0 21:0 22:0 23:0 24:0 25:255 26:0 27:0 28:0 29:0 30:0 31:0 32:0 33:18.10988 
0 0 0 0 0 0 0 0 0 0 0 0 0 0 0 0 0 0 1 0 0 0 0 0 0 0 0 0 0 0 0 0 0 0 1:0 2:255 3:255 4:0 5:0 6:0 7:255 8:0 9:255 10:255 11:0 12:0 13:0 14:0 15:0 16:255 17:255 18:0 19:0 20:0 21:0 22:0 23:0 24:0 25:0 26:0 27:0 28:0 29:0 30:0 31:0 32:0 33:18.68703 
0 0 0 0 0 0 7.239743602861928e-07 0 0 0 0 0 0 0 0 0 5.293713633835178e-05 0 1.028541866730817e-05 1.601560203805421e-07 0 0 0 0 0 0 0 1.256311720899869e-08 0 0 0 0 0 0 1:0 2:255 3:0 4:0 5:0 6:0 7:255 8:0 9:255 10:0 11:0 12:0 13:0 14:0 15:0 16:255 17:255 18:0 19:0 20:0 21:0 22:0 23:0 24:0 25:0 26:0 27:0 28:0 29:0 30:0 31:0 32:0 33:18.613 
0.995725968885839 0.1190592993772819 0 0 0 0 0.3744537681970347 0 0 0 0 0 0 0 0 0 0 0 0 0 0 0 0 0 0 0 0 0 0 0 7.649939275873888e-11 0 0 0 1:0 2:255 3:0 4:0 5:0 6:0 7:0 8:0 9:255 10:0 11:0 12:0 13:0 14:0 15:0 16:255 17:0 18:0 19:0 20:0 21:0 22:0 23:0 24:0 25:0 26:0 27:0 28:0 29:0 30:0 31:0 32:0 33:18.84464 
0.002722426075184772 0 0 0 1.026883056600117e-06 0 0 0 0 0 0 0 0 0 0 0 0.9999839305589092 0 1.84708446073253e-06 0 0 0 0 0 0 0 0 0 0 0 0 0 0 0 1:255 2:0 3:0 4:255 5:0 6:0 7:0 8:0 9:0 10:255 11:255 12:0 13:0 14:0 15:0 16:0 17:255 18:255 19:0 20:0 21:0 22:0 23:0 24:0 25:255 26:0 27:0 28:0 29:0 30:0 31:0 32:0 33:20.16812 
1 0 0 0 0 0 0 0 0 0 0 0.1294668721781509 0 0 0 0 0 0 0.9041291188467384 0 0 0 0 0 0 0 0 0 0 0 0 0 0 0 1:0 2:0 3:255 4:0 5:0 6:0 7:0 8:0 9:0 10:255 11:0 12:0 13:0 14:0 15:0 16:0 17:255 18:0 19:0 20:0 21:0 22:0 23:0 24:0 25:0 26:0 27:0 28:0 29:0 30:0 31:0 32:0 33:19.55555 
0 0 0 0 0 0 0 0 0 0 0 0 0 0 0 0 0 0 0 1.175554630440711e-07 0 0 0 0 0 0 0 0 0 0 0 0 0 0 1:0 2:0 3:255 4:0 5:0 6:0 7:0 8:0 9:255 10:255 11:0 12:0 13:0 14:0 15:0 16:255 17:255 18:0 19:0 20:0 21:0 22:0 23:0 24:0 25:0 26:0 27:0 28:0 29:0 30:0 31:0 32:0 33:19.585 
0 0 0 0 0 0 3.416705083593995e-06 0 0 0 0 0 0 0 0 0 0 0 9.058107535272621e-06 0 0 0 0 0 0 0 0 0 0 0 0 0 0 0 1:0 2:0 3:255 4:0 5:0 6:0 7:0 8:0 9:255 10:255 11:0 12:0 13:0 14:0 15:0 16:255 17:255 18:0 19:0 20:0 21:0 22:0 23:0 24:0 25:0 26:0 27:0 28:0 29:0 30:0 31:0 32:0 33:18.97151 
0 0 0 0 0 0 3.402849561662433e-05 0 0 0 0 0 0 0 0 0 0 0 0 0 0 0 0 0 0 0 0 0 0 0 0 0 0 0 1:255 2:0 3:0 4:0 5:0 6:0 7:0 8:0 9:0 10:0 11:0 12:0 13:0 14:0 15:0 16:0 17:0 18:0 19:0 20:0 21:0 22:0 23:0 24:0 25:0 26:0 27:0 28:0 29:0 30:0 31:0 32:0 33:19.21082 
3.038602068923933e-05 0 0 0 0 0 9.556122896487735e-06 0 0 0 0 0 0 0 0 0 0 0 1 0 0 0 0 0 0 0 0 0 0 0 0 0 0 0 1:255 2:0 3:0 4:0 5:0 6:0 7:0 8:0 9:0 10:0 11:0 12:0 13:0 14:0 15:0 16:0 17:0 18:0 19:0 20:0 21:0 22:0 23:0 24:0 25:0 26:0 27:0 28:0 29:0 30:0 31:0 32:0 33:18.56156 
0 0 0 0 0 0 0 0 0 0 0 0 0 0 0 0 0.865463629876564 0 0 0 0 0 0 0 0 0 0 0 0 0 0 0 0 0 1:255 2:0 3:0 4:0 5:0 6:0 7:0 8:255 9:0 10:0 11:0 12:0 13:0 14:0 15:0 16:0 17:0 18:0 19:0 20:0 21:0 22:0 23:0 24:0 25:0 26:0 27:0 28:0 29:0 30:0 31:0 32:0 33:19.13845 
0 0 0 0 0 0 0 0 0 0 0 0 0 0 0 0 0 0 0.9643796989699872 0 0 0 0 0 0 0 0 0 0 0 0 0 0 0 1:255 2:0 3:0 4:0 5:0 6:0 7:0 8:0 9:0 10:0 11:0 12:0 13:0 14:0 15:0 16:0 17:0 18:0 19:0 20:0 21:0 22:0 23:0 24:0 25:0 26:0 27:0 28:0 29:0 30:0 31:0 32:0 33:19.3837 
0 0 0 0 0 0 0 0 0 0 0 0 0 0 0 0 0 0 1 0 0 0 0 0 0 0 0 0 0 0 0 0 0 0 1:255 2:0 3:0 4:0 5:0 6:0 7:0 8:0 9:0 10:0 11:0 12:0 13:0 14:0 15:0 16:0 17:0 18:0 19:0 20:0 21:0 22:0 23:0 24:0 25:0 26:0 27:0 28:0 29:0 30:0 31:0 32:0 33:19.47684 
0.4481217898678408 0.000181116950552899 0 0 0.0001617889261798315 0.0001078918076477866 0.3258054003374633 0 0 0 0.0007087556357399785 0 0.01344198846543198 0 0 0 0.05711841666669974 0 1 0 0 0 0 0 0 0 0 0 0 0 0 0 0 0 1:255 2:0 3:0 4:0 5:0 6:0 7:0 8:0 9:0 10:0 11:0 12:0 13:0 14:0 15:0 16:0 17:0 18:0 19:0 20:0 21:0 22:0 23:0 24:0 25:0 26:0 27:0 28:0 29:0 30:0 31:0 32:0 33:19.62696 
0 0 0 0 0 0 0 0 0 0 0 0 0 0 0 0 0.0001784608646546894 0 0 0 0 0 0 0 0 0 0 0 0 0 0 0 0 0 1:255 2:0 3:0 4:0 5:0 6:0 7:0 8:0 9:0 10:0 11:0 12:0 13:0 14:0 15:0 16:0 17:0 18:0 19:0 20:0 21:0 22:0 23:0 24:0 25:0 26:0 27:0 28:0 29:0 30:0 31:0 32:0 33:19.05097 
0.1006575356150689 0.0615707756085215 0 0 0 0 3.429251750648411e-05 0 0 0 0 0 0 0 0 0 0 0 0.01988457063725014 1.397845401051147e-06 3.499378593086177e-06 0 5.2935265639368e-10 0 0 0 0 8.80005565142091e-07 0 0 0 0 0 0 1:255 2:0 3:0 4:0 5:0 6:0 7:0 8:0 9:0 10:0 11:0 12:0 13:0 14:255 15:0 16:0 17:0 18:0 19:0 20:0 21:0 22:0 23:255 24:0 25:0 26:0 27:0 28:0 29:0 30:0 31:0 32:255 33:19.88981 
0.1752875810645646 0 0 0 0 0 0 0 0 0 0 0 0 0 0 0 0 0 0 0 0 0 0 0 0 0 0 0 0 0 0 0 0 0 1:255 2:0 3:0 4:0 5:255 6:0 7:0 8:255 9:0 10:0 11:0 12:0 13:0 14:0 15:0 16:0 17:0 18:0 19:0 20:0 21:0 22:0 23:255 24:0 25:0 26:0 27:0 28:0 29:0 30:0 31:0 32:255 33:20.05487 
0 0 0 0 0 0 0 0 0 0 0 0 0 0 0 0 0.02158898865913738 4.643934233503564e-07 0 1.995010036145841e-07 0 0 0 0 0 0 0 0 0 0 0 0 0 0 1:255 2:0 3:0 4:0 5:0 6:0 7:0 8:255 9:0 10:0 11:0 12:0 13:0 14:255 15:0 16:0 17:0 18:0 19:0 20:0 21:0 22:0 23:255 24:0 25:0 26:0 27:0 28:0 29:0 30:0 31:0 32:255 33:21.34878 
0.0001156248276526566 0 0 0 0 0 2.283890473610929e-05 0 0 0 7.145534967063417e-06 0 2.263006699652903e-07 0 0 0 0.0368671477178505 1.547519290593593e-05 3.661948345797336e-05 5.920428628116926e-06 4.872831337549409e-08 0 0 0 0 0 0 1.913842817730989e-07 0 0 0 0 0 0 1:255 2:0 3:0 4:0 5:0 6:0 7:0 8:255 9:0 10:0 11:0 12:0 13:0 14:0 15:0 16:0 17:0 18:0 19:0 20:0 21:0 22:0 23:0 24:0 25:0 26:0 27:0 28:0 29:0 30:0 31:0 32:255 33:22.03406 
1.218768373819692e-05 0 0 0 0 0 0 0 0 0 0 0 0 0 0 0 0 0 0 0 0 0 0 0 0 0 0 0 0 0 0 0 0 0 1:0 2:0 3:0 4:0 5:0 6:0 7:0 8:255 9:0 10:0 11:0 12:0 13:0 14:0 15:0 16:0 17:0 18:0 19:0 20:0 21:0 22:0 23:0 24:0 25:0 26:0 27:0 28:0 29:0 30:0 31:0 32:0 33:22.17219 
0.02609658246802502 0 3.398474659683845e-08 0 0 0 0.009220203393665067 0 0 0 0 0 0 0 0 0 0.03938681799262351 1.065373335728861e-05 0 5.167546459509991e-06 1.017368885858753e-05 0 0 0 0 0 0 8.329023617098865e-07 0 0 0 0 0 0 1:0 2:0 3:0 4:0 5:0 6:0 7:255 8:255 9:0 10:0 11:0 12:0 13:0 14:0 15:0 16:0 17:0 18:0 19:0 20:0 21:0 22:0 23:0 24:0 25:0 26:0 27:0 28:0 29:0 30:0 31:255 32:0 33:23.78894 
0.5329757886348429 0 0 0 0 0 0 0 0 0 4.442072415774137e-07 3.005437456810598e-05 0 0 0 0 1 1.46698220866996e-06 0 0 0 0 0 0 0 0 0 0 0 0 0 0 0 0 1:0 2:0 3:0 4:0 5:0 6:0 7:255 8:255 9:0 10:0 11:0 12:0 13:255 14:0 15:0 16:0 17:0 18:0 19:0 20:0 21:0 22:255 23:0 24:0 25:0 26:0 27:0 28:0 29:0 30:0 31:255 32:0 33:24.52661 
1 0 0 0 0 0 0 0 0 0 0 0 0 0 0 0 0 0 8.768250512689351e-06 0 0 4.729782667967762e-07 0 0 0 0 0 5.029647876449513e-08 0 5.946855003605213e-06 0 0 0 0 1:0 2:0 3:0 4:0 5:255 6:0 7:255 8:255 9:0 10:0 11:0 12:0 13:0 14:255 15:0 16:0 17:0 18:0 19:0 20:0 21:0 22:0 23:255 24:0 25:0 26:0 27:0 28:0 29:0 30:0 31:0 32:0 33:22.13946 
0 0 0 0 0 0 2.160523513189955e-06 0 0 0 2.440676542297754e-06 0 1.312260651866512e-07 0 0 0 0 0 8.275348149210003e-06 3.602305686401812e-06 6.261176718256469e-07 6.381742096478133e-07 0 0 0 0 0 4.464809162611306e-07 0 0 0 0 0 0 1:255 2:0 3:0 4:0 5:255 6:0 7:0 8:255 9:0 10:0 11:0 12:0 13:0 14:0 15:0 16:0 17:0 18:0 19:0 20:0 21:0 22:0 23:255 24:0 25:0 26:0 27:0 28:0 29:0 30:0 31:0 32:0 33:22.32208 
0 0 0 0 0 0 0 0 0 0 0 0.007378276899207379 0 0 0 0 0 0.6321895057334489 0 0 0 0 0 0 0 0 0 0 0 0 0 0 0 0 1:255 2:0 3:0 4:0 5:255 6:0 7:0 8:255 9:0 10:0 11:0 12:0 13:0 14:255 15:0 16:0 17:0 18:0 19:0 20:0 21:0 22:0 23:255 24:0 25:0 26:0 27:0 28:0 29:0 30:0 31:0 32:255 33:22.68973 
8.359283369351795e-06 0 0 0 0 0 5.825888626449048e-07 0 0 0 2.574197943976333e-07 0 0 0 0 0 0.007506394869246441 0.0009869785706408841 1.757954941331158e-05 0 4.124579970157293e-07 2.173256707841255e-06 0 0 0 0 0 0 0 0 0 0 0 0 1:255 2:0 3:0 4:0 5:255 6:0 7:0 8:255 9:0 10:0 11:0 12:0 13:0 14:255 15:0 16:0 17:0 18:0 19:0 20:0 21:0 22:0 23:255 24:0 25:0 26:0 27:0 28:0 29:0 30:0 31:0 32:0 33:22.80107 
1.104675830999871e-05 0 0 0 0 0 0 0 0 0 0 0 0 0 0 0 0.01955601832504636 0 0 0 4.625179210883012e-07 0 0 0 0 0 0 3.248582926860866e-07 0 0 0 0 0 0 1:255 2:0 3:0 4:0 5:255 6:0 7:0 8:255 9:0 10:0 11:0 12:0 13:0 14:255 15:0 16:0 17:0 18:0 19:0 20:0 21:0 22:0 23:0 24:0 25:0 26:0 27:0 28:0 29:0 30:0 31:0 32:255 33:22.54915 
0.2828786146176538 0 0 0 0 0 0 0 0 0 0 0 0 0 0 0 1 1 0 0 0 0 0 0 0 0 0 0 0 0 0 0 0 0 1:255 2:0 3:0 4:0 5:255 6:0 7:0 8:255 9:0 10:0 11:0 12:0 13:0 14:255 15:0 16:0 17:0 18:0 19:0 20:0 21:0 22:0 23:255 24:0 25:0 26:0 27:0 28:0 29:0 30:0 31:0 32:255 33:22.33764 
0 0 0 0 0 0 0 0 0 0 0 0 0.1262695578802895 0 0 0 0 0 0 0 0 0 0 0 0 0 0 0 0 0 0 0 0 0 1:255 2:0 3:0 4:0 5:255 6:0 7:0 8:255 9:0 10:0 11:0 12:0 13:0 14:255 15:0 16:0 17:0 18:0 19:0 20:0 21:0 22:0 23:255 24:0 25:0 26:0 27:0 28:0 29:0 30:0 31:0 32:255 33:22.10458 
0 0 0 0 0 0 0 0 0 0 1.011137360504098e-05 2.379805985410002e-05 0 0 0 4.604113568826409e-06 1 1.611744122963666e-05 2.238423735081387e-05 8.252482596066734e-06 0 0 0 0 0 0 0 3.03204064550929e-07 0 0 0 0 0 0 1:0 2:0 3:0 4:0 5:255 6:0 7:0 8:255 9:0 10:0 11:0 12:0 13:0 14:255 15:0 16:0 17:0 18:0 19:0 20:0 21:0 22:0 23:255 24:0 25:0 26:0 27:0 28:0 29:0 30:0 31:0 32:255 33:21.83996 
0 0 0 0 0 0 0 0 0 0 0 0 0 0 0 0 0.02116893575993196 0 0 0 0 0 0 0 0 0 0 0 0 0 0 0 0 0 1:255 2:0 3:0 4:0 5:255 6:0 7:0 8:255 9:0 10:0 11:0 12:0 13:0 14:255 15:0 16:0 17:0 18:0 19:0 20:0 21:0 22:0 23:255 24:0 25:0 26:0 27:0 28:0 29:0 30:0 31:0 32:255 33:21.87354 
0 0 0 0 0 0 0 0 0 0 0 0.5712251491830798 0 0 0 0 1 0 0 0 0 0 0 0 0 0 0 0 0 0 0 0 0 0 1:255 2:0 3:0 4:0 5:255 6:0 7:0 8:255 9:0 10:0 11:0 12:0 13:0 14:255 15:0 16:0 17:0 18:0 19:0 20:0 21:0 22:0 23:255 24:0 25:0 26:0 27:0 28:0 29:0 30:0 31:0 32:255 33:21.67238 
1.098653395007323e-05 0 0 0 0 0 0 0 0 0 0 0 0 0 0 0 0 0 0 1.181515557785799e-06 1.007644453805305e-07 0 0 0 0 0 0 2.79722517010205e-07 0 0 0 0 0 0 1:0 2:0 3:0 4:0 5:255 6:0 7:255 8:255 9:0 10:0 11:0 12:0 13:0 14:0 15:0 16:0 17:0 18:0 19:0 20:0 21:0 22:0 23:255 24:0 25:0 26:0 27:0 28:0 29:0 30:0 31:0 32:255 33:21.41023 
0 0 0 0 0 0 0 0 0 0 0 0 0 0 0 0 1 0 0 0 0 0 0 0 0 0 0 0 0 0 0 0 0 0 1:0 2:0 3:0 4:0 5:255 6:0 7:255 8:255 9:0 10:0 11:0 12:0 13:0 14:255 15:0 16:0 17:0 18:0 19:0 20:0 21:0 22:0 23:255 24:0 25:0 26:0 27:0 28:0 29:0 30:0 31:0 32:255 33:19.30176 
1 0 0 0 0 0 0 0 0 0 0 0 0 0 0 0 0 0 0 0 0 0 0 0 0 0 0 0 0 0 0 0 0 0 1:0 2:0 3:0 4:0 5:0 6:0 7:255 8:255 9:0 10:0 11:0 12:0 13:0 14:255 15:0 16:0 17:0 18:0 19:0 20:0 21:0 22:0 23:0 24:0 25:0 26:0 27:0 28:0 29:0 30:0 31:0 32:0 33:18.43017 
0 0 0 0 0 0 0 0 0 0 0 0.2263838921718985 0 0 0 0 0 0 0 0 0 0 0 0 0 0 0 0 0 0 0 0 0 0 1:0 2:0 3:255 4:0 5:0 6:0 7:0 8:0 9:0 10:255 11:0 12:0 13:0 14:0 15:0 16:0 17:255 18:0 19:0 20:0 21:0 22:0 23:0 24:0 25:0 26:0 27:0 28:0 29:0 30:0 31:0 32:0 33:15.93324 
0 0 0 0 0 0 0 0 0 0 0 1.035206783560215e-05 0 0 0 0 0 0 3.905862753097273e-07 0 0 0 0 0 0 0 0 0 0 0 0 0 0 0 1:0 2:0 3:255 4:255 5:0 6:0 7:0 8:0 9:0 10:255 11:0 12:0 13:0 14:0 15:0 16:0 17:255 18:0 19:0 20:0 21:0 22:0 23:0 24:0 25:0 26:0 27:0 28:0 29:0 30:0 31:0 32:0 33:15.74656 
0 0 0 0 0 0 0 0 0 0 0 2.640182359668648e-05 0 0 0 0 0 0 0 0 0 0 0 0 0 0 0 0 0 0 0 0 0 0 1:0 2:0 3:0 4:255 5:0 6:0 7:0 8:0 9:0 10:255 11:255 12:0 13:0 14:0 15:0 16:0 17:255 18:0 19:0 20:0 21:0 22:0 23:0 24:0 25:0 26:0 27:0 28:0 29:0 30:0 31:0 32:0 33:15.78159 
0 0 0 0 0 0 0 0 0 0 0 0 0 0 0 0 5.404250759408767e-05 0 0 0 0 0 0 0 0 0 0 0 0 0 0 0 0 0 1:0 2:0 3:0 4:255 5:0 6:0 7:0 8:255 9:0 10:0 11:255 12:0 13:0 14:0 15:0 16:0 17:255 18:255 19:0 20:0 21:0 22:0 23:0 24:0 25:255 26:0 27:0 28:0 29:0 30:0 31:0 32:0 33:15.98029 
0 0 0 0 0 0 0 0 0 0 0 1.775041197589686e-06 0 0 0 0 0 0 0 0 0 0 0 0 0 0 0 0 0 0 0 0 0 0 1:0 2:0 3:0 4:255 5:0 6:0 7:0 8:0 9:0 10:0 11:255 12:0 13:0 14:0 15:0 16:0 17:0 18:255 19:0 20:0 21:0 22:0 23:0 24:0 25:255 26:0 27:0 28:0 29:0 30:0 31:0 32:0 33:15.65495 
0 0.1681284696345214 0 0 0 0 0 0 0 0 0 0 0 0 0 0 0 0 0 0 0 0 0 0 0 0 0 0 0 0 0 0 0 0 1:0 2:0 3:255 4:0 5:0 6:0 7:0 8:0 9:0 10:255 11:0 12:0 13:0 14:0 15:0 16:0 17:255 18:0 19:0 20:0 21:0 22:0 23:0 24:0 25:0 26:0 27:0 28:0 29:0 30:0 31:0 32:0 33:18.01087 
0 0 0 0 0 0 0 0 0 0 0 0.8204802552317098 0 0 0 0 0.5407911327128319 1 0 0 0 0 0 0 0 0 0 0 0 0 0 0 0 0 1:0 2:0 3:255 4:0 5:0 6:0 7:0 8:0 9:0 10:255 11:0 12:0 13:0 14:0 15:0 16:0 17:255 18:0 19:0 20:0 21:0 22:0 23:0 24:0 25:0 26:0 27:0 28:0 29:0 30:0 31:0 32:0 33:18.04495 
8.155892324282551e-06 0 0 0 0 0 0 0 0 0 0 0 0 0 0 0 0 0 0 0 0 0 0 0 0 0 0 0 0 0 0 0 0 0 1:0 2:255 3:255 4:0 5:0 6:0 7:255 8:0 9:255 10:255 11:0 12:0 13:0 14:0 15:0 16:0 17:255 18:0 19:0 20:0 21:0 22:0 23:0 24:0 25:0 26:0 27:0 28:0 29:0 30:0 31:0 32:0 33:17.32574 
1 1 0 0 0 0 0 0 0 0 0 0 0 0 0 0 0 0 0.9413797395984311 0 0 0 0 0 0 0 0 0 0 0 0 0 0 0 1:0 2:255 3:0 4:0 5:0 6:0 7:0 8:0 9:255 10:0 11:0 12:0 13:0 14:0 15:0 16:255 17:0 18:0 19:0 20:0 21:0 22:0 23:0 24:0 25:0 26:0 27:0 28:0 29:0 30:0 31:0 32:0 33:17.51536 
1 0 0.04968230186381603 0 0 0 0 0 0 0 0 0 0 0 0 0 1 0 0 0 0 0 0 0 0 0 0 0 0 0 0 0 0 0 1:0 2:255 3:0 4:0 5:0 6:0 7:0 8:0 9:255 10:0 11:0 12:0 13:0 14:0 15:0 16:0 17:0 18:0 19:0 20:0 21:0 22:0 23:0 24:0 25:0 26:0 27:0 28:0 29:0 30:0 31:0 32:0 33:16.96799 
0 0 0 0 0 0 0 0 0 0 0 0 0 0 0 0 1 0 0 0 0 0 0 0 0 0 0 0 0 0 0 0 0 0 1:0 2:255 3:0 4:0 5:0 6:0 7:0 8:0 9:255 10:0 11:0 12:0 13:0 14:0 15:0 16:0 17:0 18:0 19:0 20:0 21:0 22:0 23:0 24:0 25:0 26:0 27:0 28:0 29:0 30:0 31:0 32:0 33:16.75522 
0.9786777190832346 0 0 0 0 0 0 0 0 0 0 0 0 0 0 0 0 0 0 0 0 0 0 0 0 0 0 0 0 0 0 0 0 0 1:0 2:255 3:0 4:0 5:0 6:0 7:0 8:0 9:255 10:0 11:0 12:0 13:0 14:0 15:0 16:255 17:0 18:0 19:0 20:0 21:0 22:0 23:0 24:0 25:0 26:0 27:0 28:0 29:0 30:0 31:0 32:0 33:17.3037 
0 0 0 0 0 0 0 0 0 0 0 0 0 0 0 0 0 0 0 0 0 0 0 0 0 0 0 4.716988971534327e-08 0 0 0 0 0 0 1:0 2:0 3:0 4:255 5:0 6:0 7:0 8:255 9:0 10:0 11:255 12:0 13:0 14:0 15:0 16:0 17:0 18:255 19:0 20:0 21:0 22:0 23:0 24:0 25:255 26:0 27:0 28:0 29:0 30:0 31:0 32:0 33:18.7678 
0 0 0 0 0 0 0 0 0 0 0 9.36678580933133e-06 0 0 0 0 0 0 0 0 0 0 0 0 0 0 0 0 0 0 0 0 0 0 1:0 2:0 3:0 4:255 5:0 6:0 7:0 8:255 9:0 10:0 11:255 12:0 13:0 14:0 15:0 16:0 17:0 18:255 19:0 20:0 21:0 22:0 23:0 24:0 25:255 26:255 27:0 28:0 29:0 30:0 31:0 32:0 33:19.04132 
0 3.138213809384632e-07 0 0 0 0 6.717070754903118e-06 0 0 0 0 0 0 0 0 0 0 0 4.51094039315266e-07 0 0 0 0 0 0 0 0 0 0 0 0 0 0 0 1:0 2:0 3:0 4:255 5:0 6:0 7:0 8:0 9:0 10:0 11:255 12:0 13:0 14:0 15:0 16:0 17:0 18:0 19:255 20:0 21:0 22:0 23:0 24:0 25:255 26:255 27:0 28:0 29:0 30:0 31:0 32:0 33:18.36622 
0 1.84543054103675e-06 0 0 0 0 2.641227435380937e-06 0 0 0 0 0 0 0 0 0 0 0 0 0 0 0 0 0 0 0 0 0 0 0 0 0 0 0 1:0 2:0 3:0 4:255 5:0 6:0 7:0 8:0 9:0 10:0 11:255 12:255 13:0 14:0 15:0 16:0 17:0 18:0 19:255 20:0 21:0 22:0 23:0 24:0 25:0 26:255 27:0 28:0 29:0 30:0 31:0 32:0 33:18.66961 
0 0 0 0 0 0 7.04486170245962e-06 0 0 0 0 0 0 0 0 0 0 0 0 0 0 0 0 0 0 0 0 0 0 0 0 0 0 0 1:0 2:0 3:0 4:0 5:0 6:0 7:0 8:0 9:0 10:0 11:0 12:255 13:0 14:0 15:0 16:0 17:0 18:255 19:255 20:0 21:0 22:0 23:0 24:0 25:255 26:255 27:0 28:0 29:0 30:0 31:0 32:0 33:17.91434 
0 0 0 0 0 0 0 0 0 0 0 0.4012595835321923 0 0 0 0 0 0 1.339979684811108e-06 0 0 0 0 0 0 0 0 0 0 0 0 0 0 0 1:0 2:0 3:0 4:0 5:0 6:0 7:0 8:0 9:0 10:0 11:0 12:255 13:0 14:0 15:0 16:0 17:0 18:0 19:255 20:0 21:0 22:0 23:0 24:0 25:0 26:255 27:0 28:0 29:0 30:0 31:0 32:0 33:17.30875 
0 0 0 0 0 0 0 0 0 0 0 1 0 0 0 0 0 0 0 0 0 0 0 0 0 0 0 0 0 0 0 0 0 0 1:0 2:0 3:0 4:0 5:0 6:0 7:0 8:0 9:0 10:0 11:0 12:255 13:0 14:0 15:0 16:0 17:0 18:0 19:255 20:0 21:0 22:0 23:0 24:0 25:0 26:255 27:0 28:0 29:0 30:0 31:0 32:0 33:17.08306 
0 0 0 0 0 0 0 0 0 0 0 0.5331760379474523 0 0 0 0 0 0 0 0 0 0 0 0 0 0 0 0 0 0 0 0 0 0 1:0 2:0 3:0 4:255 5:0 6:0 7:0 8:0 9:0 10:0 11:0 12:255 13:0 14:0 15:0 16:0 17:0 18:0 19:255 20:0 21:0 22:0 23:0 24:0 25:255 26:255 27:0 28:0 29:0 30:0 31:0 32:0 33:16.9406 
0 0 0 0 0 0 0 0 0 0 0 0 0 0 0 0 0 0 0 0 0 0 0 0 0 0 0 0 0 0 0 0 3.432740416343548e-12 0 1:0 2:0 3:0 4:0 5:0 6:0 7:0 8:0 9:0 10:0 11:0 12:255 13:0 14:0 15:0 16:0 17:0 18:255 19:255 20:0 21:0 22:0 23:0 24:0 25:0 26:255 27:0 28:0 29:0 30:0 31:0 32:0 33:17.30198 
0 0 0 0 0 0 0 0 0 0 0 1 0 0 0 0 0 0 0 0 0 0 0 0 0 0 0 0 0 0 0 0 0 0 1:0 2:0 3:0 4:255 5:0 6:0 7:0 8:0 9:0 10:0 11:0 12:255 13:0 14:0 15:0 16:0 17:0 18:0 19:255 20:0 21:0 22:0 23:0 24:0 25:0 26:255 27:0 28:0 29:0 30:0 31:0 32:0 33:16.92383 
0 4.256766365193359e-08 0 0 0 0 4.182446052441727e-06 0 0 0 0 0 0 0 0 0 0 0 0 0 0 0 0 0 0 0 0 0 0 0 0 0 0 0 1:0 2:0 3:0 4:255 5:0 6:0 7:0 8:0 9:0 10:0 11:0 12:255 13:0 14:0 15:0 16:0 17:0 18:255 19:255 20:0 21:0 22:0 23:0 24:0 25:0 26:255 27:0 28:0 29:0 30:0 31:0 32:0 33:17.30532 
0 0 0 0 0 0 0 0 0 0 0 0.1805518536779057 0 0 0 0 0 0 1.51700254078931e-07 0 0 0 0 0 0 0 0 0 0 0 0 0 0 0 1:0 2:0 3:0 4:255 5:0 6:0 7:0 8:0 9:0 10:0 11:0 12:255 13:0 14:0 15:0 16:0 17:0 18:255 19:255 20:0 21:0 22:0 23:0 24:0 25:255 26:255 27:0 28:0 29:0 30:0 31:0 32:0 33:17.15819 
0 0 0 0 0 0 0 0 0 0 0 0 0 0 0 0 0 0 1.567420893273991e-07 0 0 0 0 0 0 0 0 0 0 0 0 0 0 0 1:0 2:0 3:0 4:255 5:0 6:0 7:0 8:0 9:0 10:0 11:255 12:0 13:0 14:0 15:0 16:0 17:0 18:255 19:255 20:0 21:0 22:0 23:0 24:0 25:0 26:255 27:0 28:0 29:0 30:0 31:0 32:0 33:16.81985 
1 0 0 0 0 0 0 0 0 0 0 0.01858741646194684 0 0 0 0 0 0 0 0 0 0 0 0 0 0 0 0 0 0 0 0 0 0 1:0 2:0 3:255 4:255 5:0 6:0 7:0 8:255 9:0 10:255 11:255 12:0 13:0 14:0 15:0 16:0 17:255 18:255 19:0 20:0 21:0 22:0 23:0 24:0 25:255 26:0 27:0 28:0 29:0 30:0 31:0 32:0 33:16.02533 
-0 0 0 0 0 0 0 0 0 0 0 1 0 0 0 0 0 0 0 0 0 0 0 0 0 0 0 0 0 0 0 0 0 0 1:0 2:0 3:255 4:0 5:0 6:0 7:0 8:0 9:0 10:255 11:0 12:0 13:0 14:0 15:0 16:0 17:255 18:0 19:0 20:0 21:0 22:0 23:0 24:0 25:0 26:0 27:0 28:0 29:0 30:0 31:0 32:0 33:17.02426 
0 0 0 0 0 0 0 0 0 0 0 0 0 0 0 0 0.6744099080166122 1 1 0 0 0 0 0 0 0 0 0 0 0 0 0 0 0 1:0 2:0 3:255 4:0 5:0 6:0 7:0 8:0 9:0 10:255 11:0 12:0 13:0 14:0 15:0 16:0 17:255 18:0 19:0 20:0 21:0 22:0 23:0 24:0 25:0 26:0 27:0 28:0 29:0 30:0 31:0 32:0 33:16.36755 
0 0 0 0 0 0 0 0 0 0 0 0.3562865111559158 0 0 0 0 0 0 0 0 0 0 0 0 0 0 0 0 0 0 0 0 0 0 1:0 2:0 3:255 4:0 5:0 6:0 7:255 8:0 9:0 10:255 11:0 12:0 13:0 14:0 15:0 16:0 17:255 18:0 19:0 20:0 21:0 22:0 23:0 24:0 25:0 26:0 27:0 28:0 29:0 30:0 31:0 32:0 33:16.16606 
0 1 0 0 0 0 0 0 0 0 0 0 0 0 0 0 0 0 0 0 0 0 0 0 0 0 0 0 0 0 0 0 0 0 1:0 2:0 3:255 4:0 5:0 6:0 7:0 8:0 9:0 10:255 11:0 12:0 13:0 14:0 15:0 16:0 17:255 18:0 19:0 20:0 21:0 22:0 23:0 24:0 25:0 26:0 27:0 28:0 29:0 30:0 31:0 32:0 33:16.5522 
1.062859431375493e-06 0 0 0 0 0 0 0 0 0 0 0 0 0 0 0 0 0 0 0 0 0 0 0 0 0 0 0 0 0 0 0 0 0 1:0 2:255 3:255 4:0 5:0 6:0 7:255 8:0 9:255 10:255 11:0 12:0 13:0 14:0 15:0 16:0 17:0 18:0 19:0 20:0 21:0 22:0 23:0 24:0 25:0 26:0 27:0 28:0 29:0 30:0 31:0 32:0 33:16.24783 
1 1 0 0 0 0 0 0 0 0 0 0 0 0 0 0 1 0 0.9999947568575853 0 0 0 0 0 0 0 0 0 0 0 0 0 0 0 1:0 2:255 3:0 4:0 5:0 6:0 7:255 8:0 9:255 10:0 11:0 12:0 13:0 14:0 15:0 16:255 17:0 18:0 19:0 20:0 21:0 22:0 23:0 24:0 25:0 26:0 27:0 28:0 29:0 30:0 31:0 32:0 33:16.06543 
1 0 0 0 0 0 0 0 0 0 0 0 0 0 0 0 1 0 0 0.04797903776773697 0 0 0 0 0 0 0 0 0 0 0 0 0 0 1:0 2:255 3:0 4:0 5:0 6:0 7:255 8:255 9:255 10:0 11:0 12:0 13:0 14:0 15:0 16:255 17:0 18:0 19:0 20:0 21:0 22:0 23:0 24:0 25:0 26:0 27:0 28:0 29:0 30:0 31:0 32:0 33:16.06489 
0 0 5.189452773640706e-08 0 0 0 0 0 0 0 0 0 0 0 0 0 0 0 0 0 0 0 0 0 0 0 0 0 0 0 0 0 0 0 1:255 2:255 3:0 4:0 5:0 6:255 7:0 8:255 9:255 10:0 11:0 12:0 13:0 14:0 15:0 16:255 17:0 18:0 19:0 20:0 21:0 22:0 23:0 24:0 25:0 26:0 27:0 28:0 29:0 30:0 31:0 32:0 33:17.0036 
0 0 0 0 0 0 0 0 0 0 0 0 0 0 0 0 0.006972333642171137 0 0 0 0 0 0 0 0 0 0 0 0 0 0 0 0 0 1:255 2:0 3:0 4:0 5:0 6:255 7:0 8:255 9:0 10:0 11:0 12:0 13:0 14:0 15:255 16:0 17:0 18:0 19:0 20:0 21:0 22:0 23:0 24:0 25:0 26:0 27:0 28:0 29:0 30:0 31:0 32:0 33:16.86064 
0 0 0 0 0 0 0 0 0 0 0 0 0 0 0 0 0 0 0.1143240181080466 0 0 0 0 0 0 0 0 0 0 0 0 0 0 0 1:255 2:0 3:0 4:0 5:0 6:255 7:0 8:255 9:0 10:0 11:0 12:0 13:0 14:0 15:255 16:0 17:0 18:0 19:0 20:0 21:0 22:0 23:0 24:255 25:0 26:0 27:0 28:0 29:0 30:0 31:0 32:0 33:16.66762 
0 0 0 0 0 0 0 0 0 0 0 0.01892587607094902 0 0 0 0 0 0 0 0 0 0 0 0 0 0 0 0 0 0 0 0 0 0 1:255 2:0 3:0 4:0 5:0 6:255 7:0 8:255 9:0 10:0 11:0 12:0 13:0 14:0 15:255 16:0 17:0 18:0 19:0 20:0 21:0 22:0 23:0 24:255 25:0 26:0 27:0 28:0 29:0 30:0 31:0 32:0 33:15.95577 
0 0 0 0 0 0 1.794959607218599e-06 0 0 0 0 0 0 0 0 0 0.3664055942028642 0 0 0 0 4.714016855405751e-07 0 0 0 0 3.743592490379033e-06 0 0 0 0 0 0 0 1:255 2:0 3:0 4:0 5:255 6:255 7:255 8:255 9:0 10:0 11:0 12:0 13:0 14:0 15:255 16:0 17:0 18:0 19:0 20:0 21:0 22:0 23:0 24:255 25:0 26:0 27:0 28:0 29:0 30:0 31:0 32:0 33:21.82882 
0 0 0 0 0 0 0 0 0 0 0 0 0 0 0 0 1 0 0 0 0 0 0 0 0 0 0 0 0 0 0 0 0 0 1:255 2:0 3:0 4:0 5:255 6:255 7:255 8:255 9:0 10:0 11:0 12:0 13:0 14:0 15:255 16:0 17:0 18:0 19:0 20:0 21:0 22:0 23:0 24:255 25:0 26:0 27:0 28:0 29:0 30:0 31:0 32:0 33:21.72704 
0.167430433749428 0 0 0 0 0 0 0 0 0 1.994658704761673e-07 0 0 0 0 0 0.09198351002797581 0 0 0 0 4.183670795668755e-07 0 0 0 0 0 0 0 0 0 0 0 0 1:255 2:0 3:0 4:0 5:255 6:255 7:0 8:255 9:0 10:0 11:0 12:0 13:0 14:255 15:255 16:0 17:0 18:0 19:0 20:0 21:0 22:0 23:0 24:255 25:0 26:0 27:0 28:0 29:0 30:0 31:0 32:0 33:21.25499 
6.895817496392582e-08 0 0 0 0 0 6.485817537565573e-06 0 0 0 5.974375027521393e-07 0 0 0 0 0 0 0 0 6.245919688244645e-07 0 8.599547684164048e-07 0 0 0 0 0 0 0 0 0 0 0 0 1:255 2:0 3:0 4:0 5:0 6:255 7:0 8:255 9:0 10:0 11:0 12:0 13:0 14:255 15:255 16:0 17:0 18:0 19:0 20:0 21:0 22:0 23:0 24:255 25:0 26:0 27:0 28:0 29:0 30:0 31:0 32:0 33:21.32728 
0.2147262360841449 0 0 0 0 0 0 0 0 0 0 0 0 0 0 0 0.0147780140508084 0 0 0 0 0 0 0 0 0 0 0 0 0 0 0 0 0 1:255 2:0 3:0 4:0 5:255 6:255 7:0 8:255 9:0 10:0 11:0 12:0 13:0 14:0 15:255 16:0 17:0 18:0 19:0 20:0 21:0 22:0 23:0 24:255 25:0 26:0 27:0 28:0 29:0 30:0 31:0 32:0 33:20.81502 
1 0 0 0 0 0 0 0 0 0 0 0 0 0 0 0 0 0 0 0 0 0 0 0 0 0 0 0 0 0 0 0 0 0 1:255 2:0 3:0 4:0 5:0 6:255 7:255 8:255 9:0 10:0 11:0 12:0 13:0 14:0 15:255 16:0 17:0 18:0 19:0 20:0 21:0 22:0 23:0 24:255 25:0 26:0 27:0 28:0 29:0 30:0 31:0 32:0 33:21.17989 
0.4363671625312858 0 3.076989397807913e-07 0 0 0 3.718334756027455e-06 0 0 0 0 0 0 0 0 0 0.5097082550685468 0 0 0 0 0 0 0 0 0 0 0 0 0 0 0 0 0 1:255 2:0 3:0 4:0 5:0 6:255 7:255 8:255 9:0 10:0 11:0 12:0 13:0 14:0 15:255 16:0 17:0 18:0 19:0 20:0 21:0 22:0 23:0 24:255 25:0 26:0 27:0 28:0 29:0 30:0 31:0 32:0 33:21.46442 
0.2533216274637543 0 0 0 0 0 0 0 2.377630915704455e-07 0 0 0 0 0 0 0 0 0 0 7.972204649822557e-08 0 0 0 0 0 0 0 0 0 0 0 0 0 0 1:255 2:0 3:0 4:0 5:255 6:255 7:255 8:255 9:0 10:0 11:0 12:0 13:0 14:0 15:255 16:0 17:0 18:0 19:0 20:0 21:0 22:0 23:0 24:255 25:0 26:0 27:0 28:0 29:0 30:0 31:0 32:0 33:21.83344 
0 0 0 0 0 0 0 0 0 0 0 0 0 0 0 0 0.99986416788148 0 0 0 0 0 0 0 0 0 0 0 0 0 0 0 0 0 1:255 2:0 3:0 4:0 5:0 6:255 7:0 8:255 9:0 10:0 11:0 12:0 13:0 14:0 15:255 16:0 17:0 18:0 19:0 20:0 21:0 22:0 23:0 24:255 25:0 26:0 27:0 28:0 29:0 30:0 31:0 32:0 33:21.44781 
0 1.163193226840366e-05 0 0 0 0 0 0 0 0 0 5.234601629930292e-05 0 2.143142974070245e-13 0 0 0 0 0.4893027173551736 0 6.450005204505819e-07 0 0 0 0 4.782180338696126e-15 1.67982507505022e-06 0 0 0 0 0 0 0 1:255 2:0 3:0 4:0 5:0 6:255 7:255 8:255 9:0 10:0 11:0 12:0 13:0 14:0 15:255 16:0 17:0 18:0 19:0 20:0 21:0 22:0 23:0 24:255 25:0 26:0 27:0 28:0 29:0 30:0 31:0 32:0 33:21.49152 
1 0 0 0 0 0 0.004578937802196922 0 0 0 0 0 0 0 0 0 1 0 0 0 0 0 0 0 0 0 0 0 0 0 0 0 0 0 1:255 2:0 3:0 4:0 5:0 6:255 7:0 8:255 9:0 10:0 11:0 12:0 13:0 14:0 15:255 16:0 17:0 18:0 19:0 20:0 21:0 22:0 23:0 24:255 25:0 26:0 27:0 28:0 29:0 30:0 31:0 32:0 33:21.34355 
1 0 0 0 0 0 0 0 0 0 0 0.01834043800040912 0 0 0 0 1 0 0 0 0 0 0 0 0 0 0 0 0 0 0 0 0 0 1:255 2:0 3:0 4:0 5:0 6:255 7:0 8:255 9:0 10:0 11:0 12:0 13:0 14:0 15:255 16:0 17:0 18:0 19:0 20:0 21:0 22:0 23:0 24:255 25:0 26:0 27:0 28:0 29:0 30:0 31:0 32:0 33:22.00217 
0 3.011791026677598e-05 0 0 0 0 0 0 0 0 0 0 0 0 0 0 0 1.861024071727448e-06 0 0 0 0 0 0 0 0 0 5.27827096884247e-06 0 0 0 0 0 0 1:0 2:0 3:0 4:0 5:0 6:0 7:0 8:255 9:0 10:0 11:255 12:0 13:0 14:0 15:0 16:0 17:0 18:0 19:0 20:0 21:0 22:0 23:0 24:0 25:0 26:0 27:0 28:0 29:0 30:0 31:0 32:0 33:19.65067 
1.446952172376583e-06 0 0 0 0 0 0 0 0 0 0 0 0 0 0 0 0 1.272919537850183e-06 0 0 0 0 0 0 0 0 0 1.649060108109878e-07 0 0 0 0 0 0 1:0 2:0 3:0 4:0 5:0 6:0 7:0 8:255 9:0 10:255 11:0 12:0 13:0 14:0 15:0 16:0 17:0 18:255 19:0 20:0 21:0 22:0 23:0 24:0 25:255 26:0 27:0 28:0 29:0 30:0 31:0 32:0 33:19.51296 
0 0 0 0 0 0 0 0 0 0 0 0 0 0 0 0 1 0 0 0 0 0 0 0 0 0 0 0 0 0 0 0 0 0 1:0 2:0 3:0 4:0 5:0 6:0 7:0 8:255 9:0 10:0 11:0 12:0 13:0 14:0 15:0 16:0 17:0 18:0 19:0 20:0 21:0 22:0 23:0 24:0 25:0 26:0 27:0 28:0 29:0 30:0 31:0 32:0 33:19.70479 
1 0 0 0 0 0 0 0 0 0 0 0 0 0 0 0 0 0 0 0 0 0 0 0 0 0 0 0 0 0 0 0 0 0 1:0 2:0 3:0 4:0 5:0 6:0 7:255 8:255 9:0 10:0 11:0 12:0 13:0 14:0 15:0 16:0 17:0 18:0 19:0 20:0 21:0 22:0 23:0 24:0 25:0 26:0 27:0 28:0 29:0 30:0 31:0 32:0 33:19.55582 
0.0002323809778032475 0 0 0 0 0 0 0 0 0 0 0 0 0 0 0 0 0 0 0 0 0 0 0 0 0 0 0 0 0 0 0 0 0 1:0 2:0 3:0 4:0 5:0 6:0 7:0 8:255 9:0 10:0 11:0 12:0 13:0 14:0 15:0 16:0 17:0 18:0 19:0 20:0 21:0 22:0 23:0 24:0 25:0 26:0 27:0 28:0 29:0 30:0 31:0 32:0 33:19.5987 
0 0 0 0 0 0 0 0 0 0 0 0 0 0 0 0 0.0006652384715761696 0 4.536047120785511e-05 0 0 0 0 0 0 0 0 0 0 0 0 0 0 0 1:0 2:0 3:0 4:0 5:0 6:0 7:255 8:0 9:0 10:0 11:0 12:0 13:0 14:0 15:0 16:0 17:0 18:0 19:0 20:0 21:0 22:0 23:0 24:0 25:0 26:0 27:0 28:0 29:0 30:0 31:0 32:0 33:19.79211 
1 0 0 0 0 0 0 0 0 0 0 0 0 0 0 0 0.0003845491399331273 0 0 0 0 0 0 0 0 0 0 0 0 0 0 0 0 0 1:0 2:0 3:0 4:0 5:0 6:0 7:255 8:255 9:0 10:0 11:0 12:0 13:0 14:0 15:0 16:0 17:0 18:0 19:0 20:0 21:0 22:0 23:0 24:0 25:0 26:0 27:0 28:0 29:0 30:0 31:0 32:0 33:19.96924 
0.9233835186523102 0 1.169903419056013e-07 0 0 0 2.448353509183832e-05 0 0 0 0 0 0 0 0 0 1 0 0.02054920387211485 0 0 0 0 0 0 0 0 0 0 0 0 0 0 0 1:0 2:0 3:0 4:0 5:0 6:0 7:255 8:255 9:0 10:0 11:0 12:0 13:0 14:0 15:0 16:255 17:0 18:0 19:0 20:0 21:0 22:0 23:0 24:0 25:0 26:0 27:0 28:0 29:0 30:0 31:0 32:0 33:19.66282 
0 0 0 0 0 0 0 0 0 0 0 0 0 0 0 0 0.999953352070126 0 0 0 0 0 0 0 0 0 0 0 0 0 0 0 0 0 1:0 2:0 3:0 4:0 5:0 6:0 7:255 8:255 9:0 10:0 11:0 12:0 13:0 14:0 15:0 16:0 17:0 18:0 19:0 20:0 21:0 22:0 23:0 24:0 25:0 26:0 27:0 28:0 29:0 30:0 31:0 32:0 33:19.03797 
0 0 0 0 1.721830987209641e-05 1.437692715462125e-05 0 0 0 0 0 0.3848358885085239 0 0 0 0 1 0 0 0 0.001747849451451318 0 6.269625462137514e-07 0 0 0 0 1.158565628367793e-06 0 0 0 0 0 0 1:0 2:0 3:0 4:0 5:0 6:0 7:255 8:0 9:0 10:0 11:0 12:0 13:0 14:0 15:0 16:255 17:0 18:0 19:0 20:0 21:0 22:0 23:0 24:0 25:0 26:0 27:0 28:0 29:0 30:0 31:0 32:0 33:19.14798 
0 0 0 0 0 0 4.456505405774224e-06 0 0 0 0 3.790008661905516e-05 0 0 0 0 4.681812466778646e-05 0 2.162601599098949e-06 0 0 0 0 0 0 2.475174401896493e-13 0 0 0 0 0 0 0 0 1:0 2:255 3:255 4:0 5:0 6:0 7:255 8:255 9:0 10:0 11:0 12:0 13:0 14:0 15:0 16:255 17:0 18:0 19:0 20:0 21:0 22:0 23:0 24:0 25:0 26:0 27:0 28:0 29:0 30:0 31:0 32:0 33:19.88419 
0.02141874532982705 0 0 0 0 0 0 0 0 0 0 0 0 0 0 0 0 0 0 0 0 0 0 0 0 0 0 0 0 0 0 0 0 0 1:0 2:255 3:255 4:0 5:0 6:0 7:255 8:0 9:255 10:255 11:0 12:0 13:0 14:0 15:0 16:255 17:0 18:0 19:0 20:0 21:0 22:0 23:0 24:0 25:0 26:0 27:0 28:0 29:0 30:0 31:0 32:0 33:20.05197 
0 0.0347519009796267 0 0 0 0 0 0 0 0 0 0 0 0 0 0 0 0 0 0 0 0 0 0 0 0 0 0 0 0 0 0 0 0 1:0 2:255 3:255 4:0 5:0 6:255 7:255 8:0 9:255 10:255 11:0 12:0 13:0 14:0 15:0 16:255 17:0 18:0 19:0 20:0 21:0 22:0 23:0 24:0 25:0 26:0 27:0 28:0 29:0 30:0 31:0 32:0 33:19.34783 
0 0 0 0 0 0 0 0 0 0 0 0 0 0 0 0 0.97511310704669 0 0 0 0 0 0 0 0 0 0 0 0 0 0 0 0 0 1:0 2:255 3:255 4:0 5:0 6:255 7:255 8:255 9:255 10:0 11:0 12:0 13:0 14:0 15:0 16:255 17:0 18:0 19:0 20:0 21:0 22:0 23:0 24:0 25:0 26:0 27:0 28:0 29:0 30:0 31:0 32:0 33:19.86224 
0 0 0 0 0 0 0 0 0 0 0 0 0 0 0 0 1.063319829413032e-05 0 0 0 0 0 0 0 0 0 0 0 0 0 0 0 0 0 1:255 2:255 3:255 4:255 5:255 6:255 7:255 8:255 9:255 10:255 11:255 12:255 13:255 14:255 15:255 16:255 17:255 18:255 19:255 20:255 21:255 22:255 23:255 24:255 25:255 26:255 27:0 28:255 29:255 30:255 31:255 32:255 33:19.55298 
0 0 0 0 0 0 0 0 0 0 0 1 0 0 0 0 0 0 0 0 0 0 0 0 0 0 0 0 0 0 0 0 0 0 1:255 2:255 3:255 4:255 5:255 6:255 7:255 8:0 9:255 10:255 11:255 12:255 13:255 14:255 15:255 16:255 17:255 18:255 19:255 20:255 21:255 22:255 23:255 24:255 25:255 26:255 27:255 28:255 29:255 30:255 31:255 32:255 33:18.92336 
0 0 0 0 0 0 0 0 0 0 0 1.882101764012404e-06 0 0 0 0 0.0001167744123879603 0 0 0 0 0 0 0 0 0 0 0 0 0 0 0 0 0 1:0 2:255 3:255 4:255 5:255 6:255 7:255 8:0 9:255 10:255 11:255 12:255 13:255 14:255 15:255 16:255 17:0 18:255 19:255 20:255 21:255 22:255 23:255 24:255 25:255 26:255 27:255 28:255 29:255 30:255 31:255 32:255 33:18.86604 
0 0 0 0 0 0 0 0 0 0 0 0 0 0 0 0 1 0 0 0 0 0 0 0 0 0 0 0 0 0 0 0 0 0 1:255 2:255 3:255 4:255 5:255 6:255 7:255 8:0 9:255 10:255 11:255 12:255 13:255 14:255 15:255 16:255 17:255 18:255 19:255 20:255 21:255 22:255 23:255 24:255 25:255 26:255 27:255 28:255 29:255 30:255 31:255 32:255 33:19.2763 
0 0 0 0 0 0 0 0 0 0 0 0 0 0 0 0 1 0 0 0 0 0 0 0 0 0 0 0 0 0 0 0 0 0 1:255 2:255 3:255 4:255 5:255 6:255 7:255 8:0 9:255 10:255 11:255 12:255 13:255 14:255 15:255 16:255 17:255 18:255 19:255 20:255 21:255 22:255 23:255 24:255 25:255 26:255 27:255 28:255 29:255 30:255 31:255 32:255 33:19.16475 
0 0 0 0 0 0 0 0 0 0 0 0 0 0 0 0 1.763485589082185e-05 0 0 0 0 0 0 0 0 0 0 0 0 0 0 0 0 0 1:255 2:255 3:255 4:255 5:255 6:255 7:255 8:0 9:255 10:255 11:255 12:255 13:255 14:255 15:255 16:255 17:255 18:255 19:255 20:255 21:255 22:255 23:255 24:255 25:255 26:255 27:255 28:255 29:255 30:255 31:0 32:255 33:18.75977 
0 0 0 0 0 0 0 0 0 0 0 0 0 0 0 0 1 0 0 0 0 0 0 0 0 0 0 0 0 0 0 0 0 0 1:255 2:255 3:255 4:255 5:255 6:255 7:255 8:0 9:255 10:255 11:255 12:255 13:255 14:255 15:255 16:255 17:255 18:255 19:255 20:255 21:255 22:255 23:255 24:255 25:255 26:255 27:255 28:255 29:255 30:255 31:255 32:255 33:18.37779 
0 0 0 0 0 0 0 0 0 0 0 0 0 0 0 0 1 0 0 0 0 0 0 0 0 0 0 0 0 0 0 0 0 0 1:255 2:255 3:255 4:255 5:255 6:255 7:255 8:0 9:255 10:255 11:255 12:255 13:255 14:255 15:255 16:255 17:255 18:255 19:255 20:255 21:255 22:255 23:255 24:255 25:255 26:255 27:255 28:255 29:255 30:255 31:255 32:255 33:18.23154 
0 0 0 0 0 0 0 0 0 0 0 1 0 0 0 0 0 0 0 0 0 0 0 0 0 0 0 0 0 0 0 0 0 0 1:255 2:255 3:255 4:255 5:255 6:255 7:255 8:0 9:255 10:255 11:255 12:255 13:255 14:255 15:255 16:255 17:255 18:255 19:255 20:255 21:255 22:255 23:255 24:255 25:255 26:255 27:255 28:255 29:255 30:255 31:255 32:255 33:18.08629 
0 0 0 0 0 0 0 0 0 0 0 0 0 0 0 0 1 0 0 0 0 0 0 0 0 0 0 0 0 0 0 0 0 0 1:255 2:255 3:255 4:255 5:255 6:255 7:0 8:0 9:255 10:255 11:255 12:255 13:255 14:255 15:255 16:255 17:255 18:255 19:255 20:255 21:255 22:255 23:255 24:255 25:255 26:255 27:255 28:255 29:255 30:255 31:255 32:255 33:18.12543 
0 0 0 0 0 0 0 0 0 0 0 1 0 0 0 0 0 0 0 0 0 0 0 0 0 0 0 0 0 0 0 0 0 0 1:255 2:0 3:255 4:255 5:255 6:255 7:0 8:0 9:255 10:255 11:255 12:255 13:255 14:255 15:255 16:255 17:255 18:255 19:255 20:255 21:255 22:255 23:255 24:255 25:255 26:255 27:255 28:255 29:255 30:255 31:255 32:255 33:18.62261 
0 0 0 0 0 0 0 0 0 0 0 0 0 0 0 0 8.491555071690159e-06 0 0 0 0 0 0 0 0 0 0 0 0 0 0 0 0 0 1:255 2:255 3:255 4:255 5:255 6:255 7:255 8:0 9:255 10:255 11:0 12:255 13:255 14:255 15:0 16:255 17:255 18:255 19:255 20:255 21:255 22:255 23:255 24:255 25:255 26:255 27:255 28:255 29:255 30:255 31:255 32:0 33:18.57803 
0 0 0 0 0 0 0 0 0 0 0 0 0 0 0 0 0.9971899004443693 0 0 0 0 0 0 0 0 0 0 0 0 0 0 0 0 0 1:255 2:255 3:255 4:255 5:255 6:255 7:255 8:0 9:255 10:255 11:255 12:255 13:255 14:255 15:255 16:255 17:255 18:255 19:255 20:255 21:255 22:255 23:255 24:255 25:255 26:0 27:255 28:255 29:255 30:255 31:255 32:255 33:17.77428 
0 0 0 0 0 0 0 0 0 0 0 0 0 0 0 0 1 0 0 0 0 0 0 0 0 0 0 0 0 0 0 0 0 0 1:255 2:255 3:255 4:255 5:255 6:255 7:255 8:0 9:255 10:255 11:255 12:255 13:255 14:255 15:255 16:255 17:255 18:255 19:255 20:255 21:255 22:255 23:255 24:255 25:255 26:255 27:255 28:255 29:255 30:255 31:255 32:255 33:17.47457 
0 0 0 0 0 0 0 0 0 0 0 0 0 0 0 0 1 0 0 0 0 0 0 0 0 0 0 0 0 0 0 0 0 0 1:255 2:255 3:255 4:255 5:255 6:255 7:255 8:0 9:255 10:255 11:255 12:255 13:255 14:255 15:255 16:255 17:255 18:255 19:255 20:255 21:255 22:255 23:255 24:255 25:255 26:255 27:255 28:255 29:255 30:255 31:255 32:255 33:17.57705 
1 0 0 0 0 0 0 0 0 0 0 0 0 0 0 0 1 0 0 0 0 0 0 0 0 0 0 0 0 0 0 0 0 0 1:255 2:255 3:255 4:255 5:255 6:255 7:0 8:0 9:255 10:255 11:255 12:255 13:255 14:255 15:255 16:255 17:255 18:255 19:255 20:255 21:255 22:255 23:255 24:255 25:255 26:255 27:255 28:255 29:255 30:255 31:255 32:255 33:17.42601 
0 0 0 0 0 0 0 0 0 0 0 0 0 0 0 0 1 0 0 0 0 0 0 0 0 0 0 0 0 0 0 0 0 0 1:255 2:255 3:255 4:255 5:255 6:255 7:0 8:0 9:255 10:255 11:255 12:255 13:255 14:255 15:255 16:255 17:255 18:255 19:255 20:255 21:255 22:255 23:255 24:255 25:255 26:255 27:255 28:255 29:255 30:255 31:255 32:255 33:17.76389 
0 0 0 0 0 0 0 0 0 0 0 0 0 0 0 0 0.08758056324913992 0 0 0 0 0 0 0 0 0 0 0 0 0 0 0 0 0 1:255 2:255 3:255 4:255 5:255 6:255 7:255 8:0 9:255 10:255 11:255 12:255 13:255 14:255 15:255 16:255 17:255 18:255 19:255 20:255 21:255 22:255 23:255 24:255 25:255 26:255 27:255 28:255 29:255 30:255 31:255 32:255 33:17.62203 
0 0 0 0 0 0 0 0 0 0 0 0 0 0 0 0 1 0 0 0 0 0 0 0 0 0 0 0 0 0 0 0 0 0 1:255 2:255 3:255 4:255 5:255 6:255 7:255 8:0 9:255 10:255 11:255 12:255 13:255 14:255 15:255 16:255 17:255 18:255 19:255 20:255 21:255 22:255 23:255 24:255 25:255 26:255 27:255 28:255 29:255 30:255 31:255 32:255 33:17.34172 
0 0 0 0 0 0 0 0 0 0 0 0 0 0 0 0 1 0 0 0 0 0 0 0 0 0 0 0 0 0 0 0 0 0 1:255 2:255 3:255 4:255 5:255 6:255 7:0 8:0 9:255 10:255 11:255 12:255 13:255 14:255 15:255 16:255 17:255 18:255 19:255 20:255 21:255 22:255 23:255 24:255 25:255 26:255 27:255 28:255 29:255 30:255 31:255 32:255 33:18.15717 
0 0 0 0 0 0 0 0 0 0 0 0 0 0 0 0 1 0 0 0 0 0 0 0 0 0 0 0 0 0 0 0 0 0 1:255 2:255 3:255 4:255 5:255 6:255 7:0 8:0 9:255 10:255 11:255 12:255 13:255 14:255 15:255 16:255 17:255 18:255 19:255 20:255 21:255 22:255 23:255 24:255 25:255 26:255 27:255 28:255 29:255 30:255 31:255 32:255 33:18.85145 
1 0 0 0 0 0 0 0 0 0 0 0 0 0 0 0 0 0 0 0 0 0 0 0 0 0 0 0 0 0 0 0 0 0 1:255 2:255 3:255 4:255 5:255 6:255 7:0 8:0 9:255 10:255 11:255 12:255 13:255 14:255 15:255 16:255 17:255 18:255 19:255 20:255 21:255 22:255 23:255 24:255 25:255 26:255 27:255 28:255 29:255 30:255 31:255 32:255 33:19.68258 
0 0 0 0 0 0 0 0 0 0 0 1 0 0 0 0 1 0 0 0 0 0 0 0 0 0 0 0 0 0 0 0 0 0 1:255 2:255 3:255 4:255 5:255 6:255 7:0 8:0 9:255 10:255 11:255 12:255 13:255 14:255 15:255 16:255 17:255 18:255 19:255 20:255 21:255 22:255 23:255 24:255 25:255 26:255 27:255 28:255 29:255 30:255 31:255 32:255 33:19.64236 
7.682464510225288e-07 0 0 0 0 0 0 0 0 0 0 0 0 0 0 0 0 0 0 0 0 0 0 0 0 0 0 0 0 0 0 0 0 0 1:255 2:0 3:255 4:255 5:255 6:255 7:0 8:0 9:255 10:255 11:255 12:255 13:255 14:255 15:255 16:0 17:0 18:255 19:255 20:255 21:255 22:255 23:255 24:255 25:255 26:255 27:255 28:255 29:255 30:255 31:255 32:255 33:19.35049 
4.893969407824148e-06 0 0 0 0 0 0 0 0 0 0 0 0 0 0 0 0 0 0 0 0 0 0 0 0 0 3.404537650055639e-08 0 2.093737249721822e-09 0 0 0 0 0 1:255 2:255 3:255 4:255 5:255 6:255 7:0 8:0 9:0 10:255 11:255 12:255 13:255 14:255 15:0 16:0 17:0 18:255 19:255 20:255 21:255 22:255 23:0 24:255 25:0 26:255 27:255 28:255 29:255 30:255 31:255 32:255 33:19.40071 
0 0 0 0 0 0 0 0 0 0 0 0 0 0 0 0 1 0 0 0 0 0 0 0 0 0 0 0 0 0 0 0 0 0 1:255 2:255 3:255 4:255 5:255 6:255 7:0 8:0 9:255 10:255 11:255 12:255 13:255 14:255 15:255 16:0 17:255 18:255 19:255 20:255 21:255 22:255 23:255 24:255 25:255 26:255 27:255 28:255 29:255 30:255 31:255 32:255 33:19.07525 
0.9999542889708906 0 0 0 0 0 0 0 0 0 0 0 0 0 0 0 0 0 4.764226602396397e-08 0 0 0 0 0 0 0 0 0 0 0 0 0 0 0 1:255 2:255 3:255 4:255 5:255 6:255 7:0 8:0 9:255 10:255 11:255 12:255 13:255 14:255 15:255 16:0 17:255 18:255 19:255 20:255 21:255 22:255 23:255 24:255 25:255 26:255 27:255 28:0 29:255 30:255 31:255 32:255 33:18.65252 
0 0 0 0 0 0 0 0 0 0 0 0 0 0 0 0 4.046542675170003e-05 0 0 0 0 0 0 0 0 0 0 0 0 0 0 0 0 0 1:255 2:255 3:255 4:255 5:255 6:255 7:0 8:0 9:255 10:255 11:255 12:255 13:255 14:255 15:255 16:0 17:255 18:255 19:255 20:255 21:255 22:255 23:255 24:255 25:255 26:255 27:255 28:255 29:255 30:255 31:255 32:255 33:18.84038 
0 0 0 0 0 0 0 0 0 0 0 0 0 0 0 0 0 0 0 0 0 0 0 0 0 0 0 0 9.517830449507344e-09 0 0 0 0 0 1:255 2:255 3:255 4:255 5:255 6:255 7:0 8:0 9:255 10:255 11:255 12:255 13:255 14:255 15:255 16:0 17:255 18:255 19:255 20:255 21:255 22:255 23:255 24:255 25:255 26:255 27:255 28:255 29:255 30:255 31:0 32:255 33:18.51278 
0 0 0 0 0 0 0 0 0 0 0 0 0 0 0 0 0.9999227400552085 0 0 0 0 0 0 0 0 0 0 0 0 0 0 0 0 0 1:255 2:255 3:255 4:255 5:255 6:0 7:0 8:0 9:255 10:255 11:255 12:255 13:255 14:255 15:255 16:0 17:255 18:255 19:255 20:255 21:255 22:255 23:255 24:255 25:255 26:255 27:255 28:255 29:255 30:255 31:255 32:255 33:18.31818 
5.694619075509273e-05 0 0 0 0 0 0 0 0 0 0 0 0 0 0 0 0 0 0 0 0 0 0 0 0 0 0 0 0 0 0 0 0 0 1:255 2:255 3:255 4:255 5:255 6:0 7:0 8:0 9:255 10:255 11:255 12:255 13:255 14:255 15:0 16:0 17:255 18:255 19:255 20:255 21:255 22:255 23:255 24:255 25:255 26:255 27:255 28:255 29:255 30:255 31:255 32:255 33:17.55004 
0 0 0 0 0 0 0 0 0 0 0 0 0 0 0 0 0.9840005365039084 0 0 0 0 0 0 0 0 0 0 0 0 0 0 0 0 0 1:255 2:255 3:255 4:255 5:255 6:0 7:0 8:0 9:255 10:255 11:255 12:255 13:255 14:255 15:0 16:0 17:255 18:255 19:255 20:255 21:255 22:255 23:255 24:255 25:255 26:255 27:255 28:255 29:255 30:255 31:255 32:255 33:17.32788 
0 0 0 0 0 0 0 0 0 0 0 0 0 0 0 0 0.0001123314596102606 0 0 0 0 0 0 0 0 0 0 0 0 0 0 0 0 0 1:255 2:255 3:255 4:255 5:255 6:0 7:0 8:0 9:255 10:255 11:255 12:255 13:255 14:255 15:255 16:0 17:255 18:255 19:255 20:255 21:255 22:255 23:255 24:255 25:255 26:0 27:255 28:255 29:255 30:255 31:255 32:255 33:17.1818 
1.421935137151326e-05 0 0 0 0 0 0 0 0 0 0 0 0 0 0 0 0 0 0 0 0 0 0 0 0 0 0 0 0 0 0 0 0 0 1:255 2:255 3:255 4:255 5:255 6:0 7:0 8:0 9:255 10:255 11:255 12:255 13:255 14:255 15:255 16:0 17:255 18:255 19:255 20:255 21:255 22:255 23:255 24:255 25:255 26:0 27:255 28:255 29:255 30:255 31:255 32:255 33:17.53328 
0 0 0 0 0 0 0 0 0 0 0 0 0 0 0 0 1 0 0 0 0 0 0 0 0 0 0 0 0 0 0 0 0 0 1:255 2:255 3:255 4:255 5:255 6:0 7:0 8:0 9:255 10:255 11:255 12:255 13:255 14:255 15:255 16:0 17:255 18:255 19:255 20:255 21:255 22:255 23:255 24:255 25:255 26:255 27:255 28:255 29:255 30:255 31:255 32:255 33:16.68058 
0 0 0 0 0 0 0 0 0 0 0 0 0 0 0 0 0 0 0 0 0 0 0 0 0 0 0 0 1.658746547921815e-09 0 0 0 0 0 1:255 2:255 3:255 4:255 5:255 6:0 7:0 8:0 9:255 10:255 11:255 12:255 13:255 14:255 15:0 16:0 17:255 18:255 19:255 20:255 21:255 22:255 23:255 24:255 25:255 26:255 27:255 28:255 29:255 30:255 31:255 32:255 33:16.76249 
7.197041660175586e-05 0 0 0 0 0 0 0 0 0 0 0 0 0 0 0 0 0 0 0 0 5.854812250077987e-08 0 0 0 0 0 0 0 0 0 0 0 0 1:255 2:255 3:255 4:255 5:255 6:0 7:0 8:0 9:255 10:255 11:255 12:255 13:255 14:255 15:0 16:0 17:255 18:255 19:255 20:255 21:255 22:255 23:255 24:0 25:0 26:255 27:255 28:255 29:255 30:255 31:255 32:255 33:15.87172 
0 0 0 0 0 0 0 0 0 0 0 0 0 0 0 0 1.693932026710146e-06 0 0 0 0 0 0 0 0 0 0 0 0 0 0 0 0 0 1:255 2:255 3:255 4:255 5:255 6:0 7:0 8:0 9:255 10:255 11:255 12:255 13:255 14:255 15:0 16:0 17:255 18:255 19:255 20:255 21:255 22:255 23:255 24:0 25:0 26:255 27:255 28:255 29:255 30:255 31:255 32:255 33:16.26058 
0 0 0 0 0 0 0 0 0 0 0 0 0 0 0 0 0.01608342642724357 0 0 0 0 0 0 0 0 0 0 0 0 0 0 0 0 0 1:255 2:255 3:255 4:255 5:255 6:0 7:0 8:0 9:255 10:255 11:255 12:255 13:255 14:255 15:0 16:0 17:255 18:255 19:255 20:255 21:255 22:255 23:255 24:255 25:255 26:255 27:255 28:255 29:255 30:255 31:255 32:255 33:15.44645 
0 0 0 0 0 0 0 0 0 0 0 0 0 0 0 0 1 0 0 0 0 0 0 0 0 0 0 2.082335949318377e-08 0 0 0 0 0 0 1:255 2:255 3:255 4:255 5:255 6:0 7:0 8:0 9:255 10:255 11:255 12:255 13:255 14:255 15:0 16:0 17:255 18:255 19:255 20:255 21:255 22:255 23:255 24:0 25:255 26:255 27:255 28:255 29:255 30:255 31:255 32:255 33:15.32233 
0 0 0 0 0 0 0 0 0 0 1.923361904161448e-08 0 0 0 0 0 1 0 0 0 0 0 0 0 0 0 0 0 0 0 0 0 0 0 1:255 2:255 3:255 4:255 5:255 6:0 7:0 8:0 9:255 10:255 11:255 12:255 13:255 14:255 15:0 16:0 17:255 18:255 19:255 20:255 21:255 22:255 23:255 24:0 25:255 26:255 27:255 28:255 29:255 30:255 31:255 32:255 33:15.69085 
0 0 0 0 0 0 0 0 0 0 0 0 0.5890720743939949 0 0 0 0 0 0 0 0 0 0 0 0 0 0 0 0 0 0 0 0 0 1:255 2:255 3:255 4:255 5:255 6:255 7:255 8:255 9:255 10:255 11:255 12:255 13:255 14:255 15:255 16:255 17:255 18:255 19:255 20:255 21:255 22:255 23:255 24:255 25:255 26:255 27:255 28:255 29:255 30:255 31:255 32:255 33:18.27894 
0 0 0 0 0 0 0 0 0 0 0 7.636261775221426e-06 0 0 0 4.713633392457776e-07 0 0 0 0 0 0 0 0 0 0 0 0 0 0 0 0 0 0 1:255 2:255 3:255 4:255 5:255 6:255 7:255 8:255 9:255 10:255 11:255 12:255 13:255 14:255 15:255 16:255 17:255 18:255 19:255 20:255 21:255 22:255 23:255 24:255 25:255 26:255 27:0 28:255 29:255 30:255 31:255 32:255 33:19.14115 
1.484218055130717e-05 0 0 0 0 0 0 0 0 0 0 2.032079491749309e-05 0 0 0 0 0 0 0 0 0 0 0 0 0 0 0 0 0 0 0 0 0 0 1:255 2:255 3:255 4:255 5:255 6:255 7:0 8:255 9:255 10:255 11:255 12:255 13:255 14:255 15:255 16:0 17:255 18:255 19:255 20:255 21:255 22:255 23:255 24:255 25:0 26:255 27:255 28:255 29:255 30:255 31:255 32:255 33:18.30709 
0 0 0 0 0 0 0 0 0 0 0 0 0 0 0 0 1 0 0 0 0 0 0 0 0 0 0 0 0 0 0 0 0 0 1:255 2:255 3:255 4:255 5:255 6:255 7:255 8:0 9:255 10:255 11:255 12:255 13:255 14:255 15:255 16:255 17:255 18:255 19:255 20:255 21:255 22:255 23:255 24:255 25:255 26:255 27:255 28:255 29:255 30:255 31:255 32:255 33:18.54704 
0 0 0 0 0 0 0 0 0 0 0 1.626693557599391e-06 0 0 0 0 0 0 0 0 0 0 0 0 0 0 0 5.259240045326281e-09 0 0 0 0 0 0 1:255 2:255 3:0 4:0 5:255 6:255 7:255 8:0 9:255 10:0 11:0 12:0 13:255 14:255 15:255 16:255 17:0 18:0 19:255 20:0 21:255 22:255 23:255 24:255 25:0 26:255 27:255 28:255 29:255 30:255 31:255 32:255 33:17.63733 
0 0 9.128293639079696e-09 0 0 0 0 0 0 0 0 0 0 0 0 0 0 0 0 0 0 0 0 0 0 0 0 0 0 0 0 0 0 0 1:255 2:255 3:0 4:0 5:255 6:255 7:255 8:0 9:255 10:0 11:0 12:0 13:255 14:255 15:255 16:255 17:0 18:0 19:0 20:0 21:255 22:255 23:255 24:255 25:0 26:0 27:0 28:255 29:255 30:255 31:255 32:255 33:17.85526 
0 5.855496121048201e-07 0 0 0 0 0 0 0 0 0 0 0 0 0 0 0 0 0 2.187057203708999e-08 0 0 0 0 0 0 0 9.881063879995596e-09 0 0 0 0 0 0 1:255 2:255 3:0 4:0 5:255 6:255 7:255 8:255 9:255 10:0 11:0 12:0 13:255 14:255 15:255 16:255 17:0 18:0 19:0 20:0 21:255 22:255 23:0 24:255 25:0 26:0 27:0 28:255 29:255 30:255 31:255 32:0 33:17.58231 
0 0 0 0 0 0 2.405859430987685e-06 0 0 0 1.959189167182486e-07 0 0 0 0 0 4.577276361064969e-06 0 1.055126981207624e-06 0 0 0 0 0 0 0 0 0 0 0 0 0 0 0 1:255 2:255 3:0 4:0 5:255 6:255 7:0 8:255 9:255 10:0 11:0 12:0 13:255 14:0 15:255 16:255 17:0 18:0 19:0 20:0 21:255 22:0 23:0 24:255 25:0 26:0 27:0 28:0 29:255 30:255 31:0 32:0 33:17.98636 
0 0 0 2.789030239090421e-08 7.96137441609728e-06 0 0 0 0 0 0 0 0 0 0 0 0 0 2.463397396769642e-06 0 0 7.315769103175352e-09 8.274035504778505e-09 0 0 0 0 0 0 0 0 0 0 0 1:255 2:255 3:0 4:0 5:255 6:255 7:255 8:255 9:255 10:0 11:0 12:0 13:0 14:0 15:255 16:255 17:0 18:0 19:0 20:0 21:0 22:0 23:0 24:255 25:0 26:0 27:0 28:0 29:255 30:0 31:0 32:0 33:17.29166 
0 0 0 0 0 0 1.613086443440725e-06 0 0 0 0 0 0 0 0 7.25966738422028e-07 0 0 0 0 0 0 0 0 0 0 0 0 0 0 0 0 0 0 1:255 2:255 3:0 4:0 5:255 6:255 7:255 8:255 9:255 10:0 11:0 12:0 13:0 14:0 15:255 16:255 17:0 18:0 19:0 20:0 21:0 22:0 23:0 24:255 25:0 26:0 27:0 28:0 29:0 30:0 31:0 32:0 33:17.62589 
2.341687253092926e-06 0 0 0 0 8.217042009227315e-08 0 0 0 0 0 0 0 0 0 0 4.896795318590704e-06 9.562634360296706e-06 0 0 0 0 0 0 0 0 0 2.048339852310035e-07 0 0 0 0 0 0 1:255 2:255 3:0 4:0 5:255 6:255 7:255 8:0 9:255 10:0 11:0 12:0 13:0 14:0 15:255 16:255 17:0 18:0 19:0 20:0 21:0 22:0 23:0 24:255 25:0 26:0 27:0 28:0 29:0 30:0 31:0 32:0 33:17.28393 
1.449992714601671e-05 0 0 0 2.124256415468694e-05 1.568640348536246e-06 0.001974722017394567 0 0 0 0 0 0 0 6.5741902315446e-09 8.163019912215359e-07 0.8164912163020227 0 0 1.995979326576387e-07 0 0 0 0 0 0 0 0 0 0 0 0 0 0 1:255 2:255 3:0 4:0 5:0 6:255 7:255 8:255 9:255 10:0 11:0 12:0 13:0 14:0 15:255 16:255 17:0 18:0 19:0 20:0 21:0 22:0 23:0 24:255 25:0 26:0 27:0 28:0 29:0 30:0 31:0 32:0 33:18.22199 
0.0936548100506519 0 0 0 0 0 0 0 0 0 0 0 0 0 0 0 0.03964895628183286 0 0 0 0 0 0 0 0 0 0 0 0 0 0 0 0 0 1:255 2:255 3:0 4:0 5:255 6:255 7:0 8:255 9:0 10:0 11:0 12:0 13:0 14:0 15:255 16:255 17:0 18:0 19:0 20:0 21:0 22:0 23:0 24:255 25:0 26:0 27:0 28:0 29:0 30:0 31:0 32:0 33:17.84435 
6.111435492651379e-06 0 0 0 0 0 0 0 0 0 0 0 0 0 0 0 0 0 0 0 0 0 0 0 0 0 0 0 0 0 0 0 0 0 1:255 2:255 3:0 4:0 5:255 6:255 7:0 8:255 9:0 10:0 11:0 12:0 13:0 14:255 15:255 16:255 17:0 18:0 19:0 20:0 21:0 22:0 23:0 24:255 25:0 26:0 27:0 28:0 29:0 30:0 31:0 32:0 33:18.16762 
0.003286807069559076 0 0 0 0 0 7.123073060722479e-07 0 0 0 0 0 0 0 0 0 1 0 0 0 0 0 0 0 0 0 0 0 0 0 0 0 0 0 1:255 2:255 3:0 4:0 5:255 6:255 7:0 8:255 9:0 10:0 11:0 12:0 13:0 14:0 15:255 16:0 17:0 18:0 19:0 20:0 21:0 22:0 23:0 24:255 25:0 26:0 27:0 28:0 29:0 30:0 31:0 32:0 33:18.10292 
0 0 0 0 1.91083905465155e-06 0 0 0 0 0 0 0 0 0 0 0 0 0 0 0 0 0 0 0 0 0 0 0 0 0 0 0 0 0 1:255 2:255 3:0 4:0 5:255 6:255 7:0 8:255 9:0 10:0 11:0 12:0 13:0 14:255 15:255 16:255 17:0 18:0 19:0 20:0 21:0 22:0 23:0 24:255 25:0 26:0 27:0 28:0 29:0 30:0 31:0 32:0 33:17.12107 
3.41145148812245e-05 3.117404269232622e-07 0 0 0 0 1.021269778073157e-06 0 0 0 0 0 0 0 0 0 1.45647002127404e-05 0 0 0 0 0 0 0 0 0 0 0 0 0 0 0 0 0 1:255 2:255 3:0 4:0 5:255 6:255 7:0 8:255 9:0 10:0 11:0 12:0 13:0 14:255 15:255 16:255 17:0 18:0 19:0 20:0 21:0 22:0 23:255 24:255 25:0 26:0 27:0 28:0 29:0 30:0 31:0 32:0 33:17.13352 
0 7.660347371745815e-07 0 0 0 0 0 0 0 0 0 0 0 0 0 0 1.497836603055104e-05 0 1.025600136070079e-07 0 0 0 0 0 0 0 0 0 0 0 0 0 0 0 1:255 2:255 3:0 4:0 5:255 6:255 7:0 8:255 9:0 10:0 11:0 12:0 13:0 14:255 15:255 16:0 17:0 18:0 19:0 20:0 21:0 22:0 23:0 24:255 25:0 26:0 27:0 28:0 29:0 30:0 31:0 32:255 33:16.9313 
0.08875870404033956 0 0 0 0 0 1.72857885375097e-06 0 0 0 0 0 0 0 0 0 0.02525035965982158 0 0 0 0 0 0 0 0 0 0 0 0 0 0 0 0 0 1:255 2:255 3:0 4:0 5:255 6:255 7:0 8:255 9:0 10:0 11:0 12:0 13:0 14:255 15:255 16:0 17:0 18:0 19:0 20:0 21:0 22:0 23:0 24:255 25:0 26:0 27:0 28:0 29:0 30:0 31:0 32:0 33:16.73192 
6.884753123992607e-05 0 0 0 0 0 4.053041973062775e-06 0 0 0 0 0 0 0 0 0 1 0 3.67726697839206e-06 0 0 0 0 0 0 0 0 0 0 0 0 0 0 0 1:255 2:255 3:0 4:0 5:255 6:255 7:0 8:0 9:0 10:0 11:0 12:0 13:0 14:255 15:255 16:0 17:0 18:0 19:0 20:0 21:0 22:0 23:255 24:255 25:0 26:0 27:0 28:0 29:0 30:0 31:0 32:0 33:16.60089 
0 2.848687445622941e-07 0 0 0 0 0 0 0 0 0 0 0 0 0 0 1.236791600821533e-05 0 0 0 0 0 0 0 0 0 0 0 0 0 0 0 0 0 1:255 2:255 3:0 4:0 5:255 6:255 7:0 8:255 9:0 10:0 11:0 12:0 13:0 14:255 15:255 16:0 17:0 18:0 19:0 20:0 21:0 22:0 23:255 24:255 25:0 26:0 27:0 28:0 29:0 30:0 31:0 32:0 33:15.8901 
0 0 0 0 0 0 0 0 0 0 0 0 0 0 0 0 3.753159777576235e-05 0 0 0 0 0 0 0 0 0 0 0 0 0 0 0 0 0 1:255 2:0 3:0 4:0 5:255 6:255 7:0 8:0 9:0 10:0 11:0 12:0 13:0 14:255 15:255 16:0 17:0 18:0 19:0 20:0 21:0 22:0 23:255 24:255 25:0 26:0 27:0 28:0 29:0 30:0 31:0 32:0 33:16.28257 
9.227219288015504e-06 2.53753799153421e-08 0 0 0 0 0 0 0 0 0 0 0 0 0 0 0 0 0 0 0 0 0 0 0 0 0 0 0 0 0 0 0 0 1:255 2:0 3:0 4:0 5:255 6:255 7:0 8:255 9:0 10:0 11:0 12:0 13:0 14:255 15:255 16:0 17:0 18:0 19:0 20:0 21:0 22:0 23:255 24:255 25:0 26:0 27:0 28:0 29:0 30:0 31:0 32:255 33:15.93579 
0 0 0 0 0 0 5.689192833364747e-06 0 0 0 0 0 0 0 0 0 0 0 0 0 0 0 0 0 0 0 0 0 0 0 0 0 0 0 1:255 2:0 3:0 4:0 5:255 6:255 7:0 8:0 9:0 10:0 11:0 12:0 13:0 14:255 15:255 16:0 17:0 18:0 19:0 20:0 21:0 22:0 23:255 24:255 25:0 26:0 27:0 28:0 29:0 30:0 31:0 32:0 33:16.81505 
0 0 0 0 0 0 0 0 0 0 0 0 0 0 0 0 1 0 0 0 0 0 0 0 0 0 0 0 0 0 0 0 0 0 1:255 2:0 3:0 4:0 5:255 6:255 7:0 8:255 9:0 10:0 11:0 12:0 13:0 14:255 15:255 16:0 17:0 18:0 19:0 20:0 21:0 22:0 23:255 24:255 25:0 26:0 27:0 28:0 29:0 30:0 31:0 32:255 33:17.15524 
1 0 1.014551717766747e-06 0 0 1 1 0 0 0 0.5758877466069626 0 0 0 0 0 1 0 1 0 0 0 0 0 0 0 0 0 0 0 0 0 0 0 1:0 2:0 3:0 4:0 5:0 6:0 7:0 8:0 9:0 10:0 11:0 12:0 13:0 14:0 15:0 16:0 17:0 18:0 19:0 20:0 21:0 22:0 23:0 24:0 25:0 26:0 27:0 28:0 29:0 30:0 31:0 32:0 33:17.57558 
0 0 0 0 0 0 0 0 0 0 0 0 0 0 0 0 0.2715120746600524 0 0 0 0 0 0 0 0 0 0 0 0 0 0 0 0 0 1:0 2:0 3:0 4:0 5:0 6:0 7:0 8:0 9:255 10:0 11:0 12:0 13:0 14:0 15:0 16:0 17:0 18:0 19:0 20:0 21:0 22:0 23:0 24:0 25:0 26:0 27:0 28:0 29:0 30:0 31:0 32:0 33:17.70835 
0 0 0 0 0 0 0 0 0 0 0 0 0 0 0 0 0.914856313151761 0 0 0 0 0 0 0 0 0 0 0 0 0 0 0 0 0 1:0 2:255 3:0 4:0 5:0 6:0 7:0 8:0 9:0 10:0 11:0 12:0 13:0 14:0 15:0 16:0 17:0 18:0 19:0 20:0 21:0 22:0 23:0 24:0 25:0 26:0 27:0 28:0 29:0 30:0 31:0 32:0 33:17.59159 
2.303553979395692e-05 0 0 0 1.330604159517579e-05 0 2.655144277037124e-06 0 0 0 0 0.0003138558988571123 0 0 0 0 0.000224514002077787 0 0 3.447773766765031e-06 0 0 0 0 0 0 0 1.531347957969558e-06 0 0 0 0 0 0 1:0 2:255 3:0 4:0 5:0 6:0 7:255 8:0 9:0 10:0 11:0 12:0 13:0 14:0 15:0 16:0 17:0 18:0 19:0 20:0 21:0 22:0 23:0 24:0 25:0 26:0 27:0 28:0 29:0 30:0 31:0 32:0 33:17.36191 
0 6.665370949964833e-06 0 0 5.129164933078114e-06 0 0 0 0 0 0 3.541494819738328e-05 0 0 0 0 9.364813164552165e-06 0 0 0 0 0 0 0 0 0 0 0.003919686095347823 0 0 0 0 0 0 1:0 2:255 3:0 4:0 5:0 6:0 7:255 8:0 9:0 10:0 11:0 12:0 13:0 14:0 15:0 16:255 17:0 18:0 19:0 20:0 21:0 22:0 23:0 24:0 25:0 26:0 27:0 28:0 29:0 30:0 31:0 32:0 33:17.18607 
1 0 0 0 0 0 0 0 0 0 0 0 0 0 0 0 0 0 0 0 0 0 0 0 0 0 0 0 0 0 0 0 0 0 1:0 2:255 3:0 4:0 5:0 6:0 7:0 8:0 9:255 10:0 11:0 12:0 13:0 14:0 15:0 16:255 17:0 18:0 19:0 20:0 21:0 22:0 23:0 24:0 25:0 26:0 27:0 28:0 29:0 30:0 31:0 32:0 33:17.01016 
0 0 0 0 0 0 0 0 0 0 0 0 0 0 0 0 1 0 0 0 0 0 0 0 0 0 0 0 0 0 0 0 0 0 1:0 2:255 3:0 4:0 5:0 6:0 7:255 8:0 9:255 10:0 11:0 12:0 13:0 14:0 15:0 16:255 17:0 18:0 19:0 20:0 21:0 22:0 23:0 24:0 25:0 26:0 27:0 28:0 29:0 30:0 31:0 32:0 33:16.80266 
1.1424269872406e-05 0 1.478151669177123e-07 0 0 0 0 0 0 0 2.44580395270256e-06 0 0 0 0 0 0 0 9.988176436246387e-06 0.05334151000916996 1.754945361935916e-06 0 0 0 0 0 0 0 0 0 0 0 0 0 1:0 2:255 3:0 4:0 5:0 6:0 7:255 8:0 9:0 10:0 11:0 12:0 13:0 14:0 15:0 16:255 17:0 18:0 19:0 20:0 21:0 22:0 23:0 24:0 25:0 26:0 27:0 28:0 29:0 30:0 31:0 32:0 33:16.98245 
0 0 0 0 0 0 0 0 0 0 0 0 0 0 0 0 1 0 0 0 0 0 0 0 0 0 0 0 0 0 2.258867568857932e-09 0 0 0 1:0 2:0 3:0 4:0 5:0 6:0 7:255 8:0 9:0 10:0 11:0 12:0 13:0 14:0 15:0 16:255 17:0 18:0 19:0 20:0 21:0 22:0 23:0 24:0 25:0 26:0 27:0 28:0 29:0 30:0 31:0 32:0 33:17.6108 
0 0 0 0 0 6.145312101798012e-05 0 0 0 0 0 0 0 0 0 0 0.1237248551566791 0 0 0 0 0 0 0 0 0 0 1.001725147059469e-06 0 0 0.4044463412354658 0 0 0 1:0 2:0 3:0 4:0 5:0 6:0 7:0 8:0 9:0 10:0 11:0 12:0 13:0 14:0 15:0 16:255 17:0 18:0 19:0 20:0 21:0 22:0 23:0 24:0 25:0 26:0 27:0 28:0 29:0 30:0 31:0 32:0 33:17.84002 
0 0 0 0 0 0 0 0 0 0 0 0 0 0 0 0 1 0 0.2377841100817485 0 0 0 0 0 0 0 0 0 0 0 0 0 0 0 1:0 2:0 3:0 4:0 5:0 6:0 7:0 8:0 9:0 10:0 11:0 12:0 13:0 14:0 15:0 16:255 17:0 18:0 19:0 20:0 21:0 22:0 23:0 24:0 25:0 26:0 27:0 28:0 29:0 30:0 31:0 32:0 33:17.49755 
4.210276460706367e-06 0 0 0 0 0 0 0 0 0 0 0 0 0 0 0 4.40838208499514e-05 0 0 0 0 0 0 0 0 0 0 0 0 0 0 0 0 0 1:0 2:0 3:0 4:0 5:0 6:0 7:0 8:0 9:0 10:0 11:0 12:0 13:0 14:0 15:0 16:255 17:0 18:0 19:0 20:0 21:0 22:0 23:0 24:0 25:0 26:0 27:0 28:0 29:0 30:0 31:0 32:0 33:17.37038 
0.0001769937816791773 3.597557774504023e-05 0 0 0 1.592012377630229e-06 2.26531973924084e-05 0 0 0 1.846254608918264e-07 0 5.308711405805015e-10 0 0 0 0.0001512536373147052 0 7.070033705696683e-05 0.02137118258625171 0 0 0 0 0 0 0 0 0 0 0 0 0 0 1:255 2:0 3:0 4:0 5:0 6:0 7:0 8:0 9:0 10:0 11:0 12:0 13:0 14:0 15:0 16:255 17:0 18:0 19:0 20:0 21:0 22:0 23:0 24:0 25:0 26:0 27:0 28:0 29:0 30:0 31:0 32:0 33:17.56413 
0 0 1.511968461055472e-07 0 9.310421600863659e-06 1.661766377651216e-06 0 0 0 0 1.598269029839963e-06 0 0 0 0 0 0 0 0 0 0 0 0 0 0 0 0 0 0 0 0 0 0 0 1:0 2:0 3:0 4:0 5:0 6:255 7:0 8:0 9:0 10:0 11:0 12:0 13:0 14:0 15:0 16:255 17:0 18:0 19:0 20:0 21:0 22:0 23:0 24:0 25:0 26:0 27:0 28:0 29:0 30:0 31:0 32:0 33:18.12574 
0 8.368189991480451e-06 6.870817883473616e-07 0 0 6.250404656291289e-06 2.738274302304987e-06 0 0 0 0 0 0 0 0 0 -0 0 0.6862555180071639 0 0 0 0 0 0 0 0 0 0 0 0 0 1.58987255315117e-10 0 1:255 2:0 3:0 4:0 5:0 6:255 7:0 8:0 9:0 10:0 11:0 12:0 13:0 14:0 15:255 16:255 17:0 18:0 19:0 20:0 21:0 22:0 23:0 24:0 25:0 26:0 27:0 28:0 29:0 30:0 31:0 32:0 33:18.39992 
0 0 0 0 0.4486680746966065 0 0 0 0 0 0 0 1.145769246558748e-07 0 0 0 0 0 0 6.18346495161899e-07 0 0 0 0 0 0 0 0 0 0 0 5.071269335804645e-12 0 0 1:0 2:0 3:0 4:0 5:0 6:255 7:0 8:0 9:0 10:0 11:0 12:0 13:0 14:0 15:255 16:255 17:0 18:0 19:0 20:0 21:0 22:0 23:0 24:0 25:0 26:0 27:0 28:0 29:0 30:0 31:0 32:0 33:18.27542 
0 0 0 6.835515837893076e-08 1.283236200466665e-05 5.932082103952201e-06 0 0 0 0 2.631736518515924e-06 0 0 0 0 0 0 0 0 0 0 0 0 0 0 0 0 1.93982604108754e-06 0 0 0 0 0 0 1:0 2:0 3:0 4:0 5:0 6:255 7:0 8:0 9:0 10:0 11:0 12:0 13:0 14:0 15:255 16:0 17:0 18:0 19:0 20:0 21:0 22:0 23:0 24:0 25:0 26:0 27:0 28:0 29:0 30:0 31:0 32:0 33:18.07491 
0 0 0 0 0 0 1.281240713728396e-05 0 0 0 0 0 0 0 0 0 0 0 1 0 0 0 0 0 0 0 0 0 0 0 0 0 2.144773846748838e-09 0 1:255 2:0 3:0 4:0 5:0 6:255 7:0 8:0 9:0 10:0 11:0 12:0 13:0 14:0 15:255 16:0 17:0 18:0 19:0 20:0 21:0 22:0 23:0 24:255 25:0 26:0 27:0 28:0 29:0 30:0 31:0 32:0 33:17.74762 
0 0 0.06524934834381156 0 0 0 0 0 0 0 0 0 0 0 0 0 0 0 0 0 0 0 0 0 0 0 0 0 0 0 0 0 0 0 1:0 2:0 3:0 4:0 5:0 6:255 7:0 8:0 9:0 10:0 11:0 12:0 13:0 14:0 15:255 16:0 17:0 18:0 19:0 20:0 21:0 22:0 23:0 24:255 25:0 26:0 27:0 28:0 29:0 30:0 31:0 32:0 33:17.56735 
0 0 0 0 0 0 0 0 0 0 0 0 0 0 0 0 0 0 0.0362136876505702 0 0 0 0 0 0 0 0 0 0 0 0 0 0 0 1:255 2:0 3:0 4:0 5:0 6:255 7:0 8:0 9:0 10:0 11:0 12:0 13:0 14:0 15:255 16:0 17:0 18:0 19:0 20:0 21:0 22:0 23:0 24:255 25:0 26:0 27:0 28:0 29:0 30:0 31:0 32:0 33:17.66597 
0.1506701564443554 0 0 4.580469447269706e-08 0 1.420726809024702e-05 0 0 0 0 6.578353019777591e-08 0 0 0 0 0 0 0 0 0 0 0 0 0 0 0 0 1.707219832916568e-06 0 0 0 0 0 0 1:0 2:0 3:0 4:0 5:0 6:255 7:0 8:0 9:0 10:0 11:0 12:0 13:0 14:0 15:255 16:0 17:0 18:0 19:0 20:0 21:0 22:0 23:0 24:255 25:0 26:0 27:0 28:0 29:0 30:0 31:0 32:0 33:18.14607 
0 0 0.6123439953980643 0 7.470194418860172e-07 1.09116797264209e-05 0 0 0 0 0 0 0 0 0 0 0.0002650477217724746 0 0 0 0 0 0 0 0 0 0 0 0 0 0 0 0 0 1:0 2:0 3:0 4:0 5:0 6:0 7:0 8:0 9:0 10:0 11:0 12:0 13:0 14:0 15:255 16:0 17:0 18:0 19:0 20:0 21:0 22:0 23:0 24:255 25:0 26:0 27:0 28:0 29:0 30:0 31:0 32:0 33:18.28587 
0 0 0 0 1.379257493577364e-06 8.122153883930708e-07 0 0 0 0 1.99416846884946e-06 0 0 0 0 0 0 0 0 0 0 0 0 0 0 0 0 3.354477773650012e-07 1.168836610493685e-06 0 0 0 0 0 1:0 2:0 3:0 4:0 5:255 6:0 7:0 8:0 9:0 10:0 11:0 12:0 13:0 14:255 15:255 16:0 17:0 18:0 19:0 20:0 21:0 22:0 23:0 24:255 25:0 26:0 27:0 28:0 29:0 30:0 31:0 32:0 33:18.1479 
0 1.207913349990901e-06 0.01444054077202536 0 0 0 0 0 0 0 0 0 0 0 0 0 0 0 0 0 0 0 0 0 0 0 0 0 0 0 0 0 0 0 1:0 2:0 3:0 4:0 5:255 6:0 7:0 8:0 9:0 10:0 11:0 12:0 13:0 14:255 15:255 16:0 17:0 18:0 19:0 20:0 21:0 22:0 23:0 24:255 25:0 26:0 27:0 28:0 29:0 30:0 31:0 32:0 33:17.95663 
0 0 0 1.012269103612782e-08 0 0.9999822388343075 0 0 0 0 1.848277616135637e-06 1.146462190156988e-05 0 0 0 0 0 1.706118157565992e-06 1.100082920898803e-05 0 0 0 3.558219931475523e-08 0 0 0 0 8.632883004062013e-07 1.408397353924024e-06 0 0 0 0 0 1:0 2:0 3:0 4:0 5:255 6:0 7:0 8:0 9:0 10:0 11:0 12:0 13:0 14:255 15:0 16:0 17:0 18:0 19:0 20:0 21:0 22:0 23:255 24:255 25:0 26:0 27:0 28:0 29:0 30:0 31:0 32:0 33:17.80826 
0 0 0 0 0 0 0 0 0 0 0 0 0 0 0 0 0 0 0 0 0 0 3.105841442414689e-07 0 0 0 0 0 0 0 0 0 0 0 1:0 2:0 3:0 4:0 5:255 6:0 7:0 8:0 9:0 10:0 11:0 12:0 13:0 14:255 15:0 16:0 17:0 18:0 19:0 20:0 21:0 22:0 23:255 24:255 25:0 26:0 27:0 28:0 29:0 30:0 31:0 32:255 33:17.62658 
0 2.945609088163334e-06 0 1.322547746317327e-09 0 1 0 0 0 0 0 1 0 0 0 3.349528166286106e-06 1.326624683061082e-05 0 7.191179784717023e-06 0 0 0 0 0 0 0 0 0 0 0 0 0 4.544033370244546e-10 0 1:0 2:0 3:0 4:0 5:255 6:0 7:0 8:0 9:0 10:0 11:0 12:0 13:0 14:255 15:0 16:0 17:0 18:0 19:0 20:0 21:0 22:0 23:255 24:255 25:0 26:0 27:0 28:0 29:0 30:0 31:0 32:255 33:18.15435 
0 0 2.045277952536799e-09 1.110428769083643e-08 0 4.173928390894216e-06 0 0 0 0 0 0 0 0 0 1.422845289662321e-06 0 0 0 0 0 0 0 0 0 0 0 0.07494800883585763 0 0 0 0 0 0 1:0 2:0 3:0 4:0 5:255 6:0 7:0 8:0 9:0 10:0 11:0 12:0 13:0 14:255 15:0 16:0 17:0 18:0 19:0 20:0 21:0 22:0 23:255 24:0 25:0 26:0 27:0 28:0 29:0 30:0 31:0 32:255 33:18.30541 
0 0.01842202384284083 0 0 0 0 0.06019284756405356 0 0 0 0 3.430148046050521e-05 0 0 0 0 0 0 0.6873484089442762 0 0 0 0 0 0 0 0 0 1.540704591150592e-06 0 0 0 0 0 1:0 2:0 3:0 4:0 5:255 6:0 7:0 8:0 9:0 10:0 11:0 12:0 13:0 14:255 15:0 16:0 17:0 18:0 19:0 20:0 21:0 22:0 23:255 24:0 25:0 26:0 27:0 28:0 29:0 30:0 31:0 32:255 33:18.21038 
1.259121953208106e-06 0 0 0 0 0 1.296778856028729e-06 0 0 0 0 0 0 0 0 0 0 3.47636190572806e-06 4.970577601259792e-06 0 0 0 0 0 0 0 0 0.1002277734656315 0 0 0 0 0 0 1:0 2:0 3:0 4:0 5:255 6:0 7:0 8:0 9:0 10:0 11:0 12:0 13:255 14:255 15:0 16:0 17:0 18:0 19:0 20:0 21:0 22:0 23:255 24:0 25:0 26:0 27:0 28:0 29:0 30:0 31:255 32:255 33:17.68341 
0 0 0 0 0 0 3.07980179478823e-06 0 0 0 0 0 0 0 0 0 0 5.960716439166832e-06 1.513934957012506e-05 0 0 0 0 0 0 0 0 0 0 0 0 0 0 0 1:0 2:0 3:0 4:0 5:255 6:0 7:0 8:0 9:0 10:0 11:0 12:0 13:255 14:255 15:0 16:0 17:0 18:0 19:0 20:0 21:0 22:255 23:255 24:0 25:0 26:0 27:0 28:0 29:0 30:0 31:255 32:255 33:17.51491 
0 0 0 0 1.499741910357521e-07 0 0 0 0 0 0 0 0 0 0 0 0 0 0 0 0 0 0 0 0 0 0 0 3.66921550222831e-07 2.028669122683096e-06 0 0 0 0 1:0 2:0 3:0 4:0 5:0 6:0 7:0 8:0 9:0 10:0 11:0 12:0 13:255 14:255 15:0 16:0 17:0 18:0 19:0 20:0 21:0 22:255 23:255 24:0 25:0 26:0 27:0 28:0 29:0 30:0 31:255 32:0 33:17.37041 
2.405250200912787e-05 0.008632048921776152 2.893030184528227e-08 0 3.019301171309674e-06 0 0 0 0 0 0 0 0 0 0 0 0 0 0 4.205377686096101e-06 0 0 3.041885033464211e-08 0 0 0 0 0 0 0 0 0 0 0 1:0 2:0 3:0 4:0 5:0 6:0 7:0 8:0 9:0 10:0 11:0 12:0 13:255 14:0 15:0 16:0 17:0 18:0 19:0 20:0 21:0 22:255 23:255 24:0 25:0 26:0 27:0 28:0 29:0 30:0 31:255 32:255 33:17.22946 
0.4115826317372611 0 0 0 0 0 6.087965300783717e-06 0 0 0 0 0 0 0 0 0 0 0 5.662080436419635e-05 0 1.226048078090043e-06 0 0 0 0 0 0 4.006371522692485e-06 0 0 0 0 0 0 1:0 2:0 3:0 4:0 5:0 6:0 7:0 8:0 9:0 10:0 11:0 12:0 13:255 14:0 15:0 16:0 17:0 18:0 19:0 20:0 21:0 22:255 23:0 24:0 25:0 26:0 27:0 28:0 29:0 30:0 31:255 32:0 33:17.3439 
0 0.4095789039827523 0 0 0 0 0.04865922718584804 0 0 0 0 0 0 0 0 0 0 0 0.3286076600006831 0 0 0 0 0 0 0 0 0 0 0 0 0 0 0 1:0 2:0 3:0 4:0 5:0 6:0 7:0 8:0 9:0 10:0 11:0 12:0 13:255 14:0 15:0 16:0 17:0 18:0 19:0 20:0 21:0 22:255 23:0 24:0 25:0 26:0 27:0 28:0 29:0 30:0 31:255 32:255 33:17.71094 
9.83545134691374e-06 1 0 0 0 0 0 0 0 0 0 0 0 0 0 0 0 0 0 0 7.243687926608016e-07 0 0 0 0 0 0 1.265654207956343e-06 0 0 0 0 0 0 1:0 2:0 3:0 4:0 5:0 6:0 7:0 8:0 9:0 10:0 11:0 12:0 13:255 14:0 15:0 16:0 17:0 18:0 19:0 20:0 21:0 22:255 23:0 24:0 25:0 26:0 27:0 28:0 29:0 30:0 31:255 32:255 33:17.86933 
1.426812341038105e-05 1.048099731346795e-05 0 0 0 0 2.524853662529332e-06 0 0 0 0 0 0 0 0 0 0 0 6.262166904035509e-07 0 0 0 0 0 0 0 0 0 0 0 0 0 0 0 1:0 2:0 3:0 4:0 5:0 6:0 7:0 8:0 9:0 10:0 11:0 12:0 13:255 14:0 15:0 16:0 17:0 18:0 19:0 20:0 21:0 22:255 23:0 24:0 25:0 26:0 27:0 28:0 29:0 30:255 31:255 32:255 33:17.74078 
0 0 0 0 0 0 0 0 0 0 0 0 0 0 0 0 0 0 0 0 0 0 0 0 0 0 0 4.230341963298264e-07 0 0 0 0 0 0 1:0 2:0 3:0 4:0 5:0 6:0 7:0 8:0 9:0 10:0 11:0 12:0 13:255 14:0 15:0 16:0 17:0 18:0 19:0 20:0 21:0 22:255 23:0 24:0 25:0 26:0 27:0 28:0 29:0 30:255 31:255 32:255 33:17.59083 
0 0 0 0 0 0 0 0 0 0 0 0 0 0 0 0 0 0 6.164652202968037e-06 0 0 0 0 0 0 0 0 1.439803144844478e-07 0 0 0 0 0 0 1:0 2:0 3:0 4:0 5:0 6:0 7:0 8:0 9:0 10:0 11:0 12:0 13:255 14:0 15:0 16:0 17:0 18:0 19:0 20:0 21:0 22:255 23:0 24:0 25:0 26:0 27:0 28:0 29:0 30:255 31:255 32:0 33:17.44597 
0 0 0 0 0 0 3.056490518202687e-06 0 0 0 0 0 0 0 0 0 0 0 4.730377541757712e-05 0 0 0 0 0 0 0 0 0 0 0 0 0 0 0 1:0 2:0 3:0 4:0 5:0 6:0 7:0 8:0 9:0 10:0 11:0 12:0 13:255 14:0 15:0 16:0 17:0 18:0 19:0 20:0 21:0 22:255 23:0 24:0 25:0 26:0 27:0 28:0 29:0 30:255 31:0 32:0 33:17.26808 
0 1.663725118745013e-06 0 0 0 0 0 0 0 0 0 0 0 0 0 0 0 0 0 0 0 0 0 0 0 0 0 0 0 0 0 0 0 0 1:0 2:0 3:0 4:0 5:0 6:0 7:0 8:0 9:0 10:0 11:0 12:0 13:255 14:0 15:0 16:0 17:0 18:0 19:0 20:0 21:255 22:0 23:0 24:0 25:0 26:0 27:0 28:0 29:0 30:255 31:0 32:0 33:16.84699 
0 0 0 0 0 0 0 0 0 0 0 0 0 0 0 0 0 0 2.821789636827207e-05 0 0 0 0 0 0 0 0 0 0 0 0 0 0 0 1:0 2:0 3:0 4:0 5:0 6:0 7:0 8:0 9:0 10:0 11:0 12:0 13:255 14:0 15:0 16:0 17:0 18:0 19:0 20:0 21:255 22:0 23:0 24:0 25:0 26:0 27:0 28:0 29:0 30:255 31:0 32:0 33:16.95119 
0 0 0 0 0 0 0 0 0 0 0 0 0 0 0 2.140475919943857e-07 0 0 0 0 0 0 0 0 0 0 0 0 0 0 0 0 0 0 1:0 2:0 3:0 4:0 5:0 6:0 7:0 8:0 9:0 10:0 11:0 12:0 13:255 14:0 15:0 16:0 17:0 18:0 19:0 20:0 21:255 22:255 23:0 24:0 25:0 26:0 27:0 28:0 29:0 30:255 31:0 32:0 33:17.30638 
0 1 0 0 0 0 0 0 0 0 0 0 0 0 0 0 0 0 0 0 0 0 0 0 0 0 0 0 0 0 0 0 0 0 1:0 2:0 3:0 4:0 5:0 6:0 7:0 8:0 9:0 10:0 11:0 12:0 13:255 14:0 15:0 16:0 17:0 18:0 19:0 20:0 21:255 22:255 23:0 24:0 25:0 26:0 27:0 28:0 29:0 30:255 31:255 32:0 33:17.42032 
0 0.06590973658319697 0 0 0 0 0.01455602244831158 0 0 0 0 0 0 0 0 0 4.401730215274831e-05 0 0 0 0 0 0 0 0 0 0 0.005595782570283752 0 0 0 0 0 0 1:0 2:0 3:0 4:0 5:0 6:0 7:0 8:0 9:0 10:0 11:0 12:0 13:255 14:0 15:0 16:0 17:0 18:0 19:0 20:0 21:255 22:255 23:0 24:0 25:0 26:0 27:0 28:0 29:0 30:255 31:255 32:0 33:17.31635 
0 2.329855444100661e-06 0 0 0 0 0 0 0 0 0 0 0 0 0 1.345892319765211e-06 0 0 0 0 2.915393941745037e-06 0 0 0 0 0 0 2.337113957658999e-06 0 0 0 0 0 0 1:0 2:0 3:0 4:0 5:0 6:0 7:0 8:0 9:0 10:0 11:0 12:0 13:255 14:0 15:0 16:0 17:0 18:0 19:0 20:0 21:255 22:0 23:0 24:0 25:0 26:0 27:0 28:0 29:0 30:255 31:255 32:0 33:17.1516 
9.259783609723293e-06 0 0 0 0 0 0 0 0 0 0 0 0 0 0 0 0 0 0 0 0 0 0 0 0 0 0 0 0 0 0 0 0 0 1:0 2:0 3:0 4:0 5:255 6:0 7:0 8:0 9:0 10:0 11:0 12:0 13:255 14:0 15:0 16:0 17:0 18:0 19:0 20:0 21:255 22:255 23:0 24:0 25:0 26:0 27:0 28:0 29:0 30:255 31:255 32:0 33:16.69904 
3.220487301765381e-06 0 0 0 0 0 7.070465005254741e-07 0 0 0 0 0 0 0 0 0 1.372739010984685e-05 0 0 0 0 0 0 0 0 0 0 0 0 0 0 0 0 0 1:0 2:0 3:0 4:0 5:255 6:0 7:0 8:0 9:0 10:0 11:0 12:0 13:255 14:255 15:255 16:0 17:0 18:0 19:0 20:0 21:255 22:255 23:255 24:0 25:0 26:0 27:0 28:0 29:0 30:255 31:255 32:0 33:16.84202 
0 0 1.434806432647929e-08 0 2.842356159701786e-06 0 0.7588282123593769 0 0 1 0 0 0 0 0 0 0.7052710945637809 0 0 1 1.815592017762121e-06 0 0.005330067473860497 0 0 0 0.3898821595139856 7.947045890968701e-07 0 0 0 2.486589646587029e-13 0 0 1:0 2:0 3:0 4:0 5:255 6:255 7:0 8:0 9:0 10:0 11:0 12:0 13:255 14:255 15:255 16:0 17:0 18:0 19:0 20:0 21:255 22:255 23:255 24:255 25:0 26:0 27:0 28:0 29:0 30:255 31:255 32:255 33:17.13853 
0 0 0 0 0 0 0 0 0 0.4810806025475441 0 0.9999844308414293 0 0 0 0 0 1.377197159474815e-05 0 0.2478282952487523 0 0.08206421924255147 0 0 0 0 0 0 0 0 0 0 0 0 1:0 2:0 3:0 4:0 5:255 6:255 7:0 8:0 9:0 10:0 11:0 12:0 13:255 14:255 15:255 16:0 17:0 18:0 19:0 20:0 21:255 22:255 23:255 24:255 25:0 26:0 27:0 28:0 29:0 30:255 31:255 32:255 33:17.21637 
0 0 0 0 0 0 0 0 0 0 0 0 0 0 0 0 0 0.7828165802354482 0 0.110248855114983 0 0.07847075020660421 0 0 0 0 0 0 0 4.817571334808602e-06 0 0 0 0 1:0 2:0 3:0 4:0 5:255 6:0 7:0 8:255 9:0 10:0 11:0 12:0 13:255 14:255 15:0 16:0 17:0 18:0 19:0 20:0 21:255 22:255 23:255 24:0 25:0 26:0 27:0 28:0 29:255 30:255 31:255 32:255 33:18.35685 
4.188124695825161e-06 0 0 0 0 0 0 0 0 0 0.08510448850498926 0 0 0 0 0 3.243282746904751e-05 0 0 0 0 0 0 0 0 0 0 2.833531197146641e-08 0 0 0 0 0 0 1:0 2:0 3:0 4:0 5:255 6:0 7:0 8:255 9:0 10:0 11:0 12:0 13:255 14:255 15:0 16:0 17:0 18:0 19:0 20:0 21:255 22:255 23:255 24:0 25:0 26:0 27:0 28:0 29:255 30:255 31:255 32:255 33:18.19891 
7.416084463520498e-06 0 1.296415284971696e-08 0 0 0 0 0 0 0 4.003499923020263e-07 6.439420233939729e-06 0 0 0 0 0 2.801716045664833e-06 0 1.809699479056939e-06 0 0 0 0 0 0 0 0 0 0 0 0 0 0 1:0 2:0 3:0 4:0 5:0 6:0 7:0 8:255 9:0 10:0 11:0 12:0 13:255 14:255 15:0 16:0 17:0 18:0 19:0 20:0 21:255 22:255 23:255 24:0 25:0 26:0 27:0 28:0 29:255 30:255 31:255 32:255 33:18.31558 
0.01799566447666696 0 0 0 0 0 0 0 0 0 0 0.02064862509969083 0 0 0 0 0 9.262296886655424e-06 0 0 6.10109331611009e-06 0 0 0 0 0 0 0 0 0 0 0 0 0 1:0 2:0 3:0 4:0 5:0 6:0 7:0 8:255 9:0 10:0 11:0 12:0 13:255 14:0 15:0 16:0 17:0 18:0 19:0 20:0 21:255 22:0 23:0 24:0 25:0 26:0 27:0 28:0 29:255 30:255 31:255 32:0 33:18.16743 
0.1766697121365125 0 0 0 0 0 0 0 0 0 0 0 0 0 0 0 0.000331560794502736 0 0 0 0 0 0 0 0 0 0 0 0 0 0 0 0 0 1:0 2:0 3:0 4:0 5:0 6:0 7:255 8:255 9:0 10:0 11:0 12:0 13:0 14:0 15:0 16:255 17:0 18:0 19:0 20:0 21:0 22:0 23:0 24:0 25:0 26:0 27:0 28:0 29:255 30:0 31:0 32:0 33:18.35596 
0 0 0 0 0 0 0 0 0 0 0 0.1688086526149866 0 0 0 0 0 0 0 0 0 0 0.001430160077245962 0 0 0 0 0 0 0 0 0 0 0 1:0 2:0 3:0 4:0 5:0 6:0 7:255 8:255 9:0 10:0 11:0 12:0 13:0 14:0 15:0 16:255 17:0 18:0 19:0 20:0 21:0 22:0 23:0 24:0 25:0 26:0 27:0 28:0 29:255 30:0 31:0 32:0 33:18.21583 
5.94117126644087e-05 0 0 0 0 0 0 0 0 0 0 1.334379713492333e-05 0 0 0 0 0.0003296594296055535 0 0 1.700111454611844e-06 0 0 0 0 0 0 0 0 0 0 0 0 0 0 1:0 2:0 3:0 4:0 5:0 6:0 7:255 8:255 9:0 10:0 11:0 12:0 13:0 14:0 15:0 16:255 17:0 18:0 19:0 20:0 21:255 22:0 23:0 24:0 25:0 26:0 27:0 28:0 29:0 30:0 31:0 32:0 33:18.07147 
0.1621155219339939 0 0 0 0 0 0 0 0 0 0 0.06289501239794355 0 0 0 0 0 0.03135148330058875 0 0 0 0 0 0 0 0 0 0 0 0 0 0 0 0 1:0 2:0 3:0 4:0 5:0 6:0 7:255 8:255 9:0 10:0 11:0 12:0 13:0 14:0 15:0 16:255 17:0 18:0 19:0 20:0 21:0 22:0 23:0 24:0 25:0 26:0 27:0 28:0 29:255 30:0 31:0 32:0 33:17.3695 
0 0 0 0 0 0 0 0 0 0 0 0 0 0 0 0 0 7.738803720847467e-07 0 0 0 0 0 0 0 0 0 0 0 0 0 0 0 0 1:0 2:0 3:0 4:0 5:0 6:0 7:255 8:255 9:0 10:0 11:0 12:0 13:0 14:0 15:0 16:255 17:0 18:0 19:0 20:0 21:255 22:0 23:0 24:0 25:0 26:0 27:0 28:0 29:0 30:0 31:0 32:0 33:17.22389 
7.020353741904274e-05 0 0 0 0 0 0 0 0 0 0 5.017015557596409e-05 0 0 0 0 0 5.010303768204793e-06 0 0 0 0 0 3.910750180714451e-08 0 0 0 0 0 0 0 0 0 0 1:0 2:0 3:0 4:0 5:0 6:0 7:255 8:255 9:0 10:0 11:0 12:0 13:0 14:0 15:0 16:0 17:0 18:0 19:0 20:0 21:255 22:0 23:0 24:0 25:0 26:0 27:0 28:0 29:255 30:255 31:0 32:0 33:15.87796 
0 0 0 0 0 0 0 0 0 0 0 0 0 0 0 0 0 5.218511856151111e-06 0 0 0 0 0 0 0 0 0 0 0 0 0 0 0 0 1:0 2:0 3:0 4:0 5:0 6:0 7:255 8:255 9:0 10:0 11:0 12:0 13:0 14:0 15:0 16:0 17:0 18:0 19:0 20:0 21:255 22:0 23:0 24:0 25:0 26:0 27:0 28:0 29:255 30:0 31:0 32:0 33:16.77278 
1 0 0 0 0 0 0 0 0 0 0 0 0 0 0 0 8.52660678618134e-05 0 0 0 0 0 0 0 0 0 0 0 0 0 0 0 0 0 1:0 2:0 3:0 4:0 5:0 6:0 7:255 8:255 9:0 10:0 11:0 12:0 13:0 14:0 15:0 16:0 17:0 18:0 19:0 20:0 21:255 22:0 23:0 24:0 25:0 26:0 27:0 28:0 29:255 30:0 31:0 32:0 33:17.01106 
0.001526572236454707 0 0 0 0 0 0 0 0 0 0 2.674925182401891e-05 0 0 0 0 0 0 0 0 0 0 0 0 0 0 0 0 0 0 0 0 0 0 1:0 2:0 3:0 4:0 5:0 6:0 7:0 8:255 9:0 10:0 11:0 12:0 13:0 14:0 15:0 16:0 17:0 18:0 19:0 20:0 21:255 22:255 23:0 24:0 25:0 26:0 27:0 28:0 29:255 30:255 31:0 32:0 33:16.94571 
9.462049088766972e-06 0 0 0 0 0 0 0 0 0 0 0 0 0 0 0 0 1 0.03168852023489992 0 1 0 0 0 0 0 0 0 1 0 0 0 0 0 1:0 2:0 3:0 4:0 5:0 6:0 7:0 8:255 9:0 10:0 11:0 12:0 13:255 14:0 15:0 16:0 17:0 18:0 19:0 20:0 21:255 22:0 23:0 24:0 25:0 26:0 27:0 28:0 29:255 30:255 31:0 32:0 33:16.35455 
0 0 0 0 0 0 0 0 0 0 0 1 0 0 0 0 0 0 0 0 0 0 0 6.542612760572355e-05 0 0 0 0 0 0 0 0 0 0 1:0 2:0 3:0 4:0 5:0 6:0 7:0 8:255 9:0 10:0 11:0 12:0 13:0 14:0 15:0 16:0 17:0 18:0 19:0 20:0 21:255 22:0 23:0 24:0 25:0 26:0 27:0 28:0 29:255 30:255 31:0 32:0 33:16.65764 
0 6.016047152283295e-07 0 0 0 0 0 0 0 0 0 0 0 0 0 0 0 0 0 0 0 0 0 0 0 0 0 0 0 0 0 0 0 0 1:0 2:0 3:0 4:0 5:0 6:0 7:0 8:255 9:0 10:0 11:0 12:0 13:0 14:0 15:0 16:0 17:0 18:0 19:0 20:0 21:255 22:0 23:0 24:0 25:0 26:0 27:0 28:0 29:255 30:255 31:0 32:0 33:17.09001 
0 0 0 0 0 0 2.223742979790973e-06 0 0 0 0 0 0 0 0 0 0 0 0 0 0 0 0 0 0 0 0 0 0 0 0 0 0.6516084343084525 0 1:0 2:0 3:0 4:0 5:0 6:0 7:0 8:255 9:0 10:0 11:0 12:0 13:255 14:0 15:0 16:0 17:0 18:0 19:0 20:0 21:255 22:255 23:0 24:0 25:0 26:0 27:0 28:0 29:255 30:255 31:0 32:0 33:17.13866 
0 0 0 0 0 0 0 0 0 0 0 0 0 0 0 0 0 0.8716019224737526 0 0 0.9999874958857576 0 0.01866609878787668 0 0 0 0 0 0 0 0 0 0 0 1:0 2:0 3:0 4:0 5:0 6:0 7:0 8:255 9:0 10:0 11:0 12:0 13:255 14:0 15:0 16:0 17:0 18:0 19:0 20:0 21:255 22:255 23:0 24:0 25:0 26:0 27:0 28:0 29:255 30:255 31:0 32:0 33:16.83471 
0 0 0 0 0 0 0 0 0 0 0 0 0 0 0 0 0 1 0 0 0 0 0 0 0 0 0 0 0 0 0 0 0 0 1:0 2:0 3:0 4:0 5:0 6:0 7:0 8:255 9:0 10:0 11:0 12:0 13:255 14:0 15:0 16:0 17:0 18:0 19:0 20:0 21:255 22:255 23:0 24:0 25:0 26:0 27:0 28:0 29:255 30:255 31:0 32:0 33:17.25321 
0 0 0 0 0 0 0 0 0 0 0 0 0 0 0 0 0 0 0 0 0 0 0 0 0 0 0 0 0 0 0 0 0 0.9909774277363474 1:0 2:0 3:0 4:0 5:0 6:0 7:0 8:255 9:0 10:0 11:0 12:0 13:255 14:0 15:0 16:0 17:0 18:0 19:0 20:0 21:255 22:255 23:0 24:0 25:0 26:0 27:0 28:0 29:255 30:255 31:0 32:0 33:17.50947 
0 0 0 0 0 0 0 0 0 0 0 1 0 0 0 0 0 0 0 0.111721862327248 0 0 0 0 0 0 0 0.2435734436499089 0 0 0 0 0 0 1:0 2:0 3:0 4:0 5:0 6:0 7:0 8:255 9:0 10:0 11:0 12:0 13:255 14:0 15:0 16:0 17:0 18:0 19:0 20:0 21:255 22:255 23:0 24:0 25:0 26:0 27:0 28:0 29:255 30:255 31:255 32:0 33:18.24811 
0 0 0 0 0 0 0 0 0 0 0 0 0 0 0 0 0.2036881027775397 0 0.01924740402040247 0 0 0 0 0 0 0 0 0 0 0 0 0 0 0 1:0 2:0 3:0 4:0 5:0 6:0 7:0 8:0 9:0 10:0 11:0 12:0 13:255 14:0 15:0 16:0 17:0 18:0 19:0 20:0 21:255 22:255 23:0 24:0 25:0 26:0 27:0 28:0 29:255 30:255 31:255 32:0 33:18.0577 
0 0 0 0 0 0 0 0 0 0 0.05199565198038038 0 0 0 0 0 0 0 0 0 0 0 0 0 0 0 0 0 0.1421205918719035 0 0 0 0 0 1:0 2:0 3:0 4:0 5:255 6:0 7:0 8:0 9:0 10:0 11:0 12:0 13:255 14:255 15:0 16:0 17:0 18:0 19:0 20:0 21:255 22:255 23:0 24:0 25:0 26:0 27:0 28:0 29:255 30:255 31:255 32:0 33:17.88238 
0 0 0 0 0 0 0 0 0 0 0 0 0 0 0 0 0.03118381838480545 0 0 0 0 0 0 0 0 0 0 0 0 0 0 0 0 0 1:0 2:0 3:0 4:0 5:255 6:0 7:0 8:0 9:0 10:0 11:0 12:0 13:255 14:255 15:0 16:0 17:0 18:0 19:0 20:0 21:255 22:255 23:0 24:0 25:0 26:0 27:0 28:0 29:255 30:255 31:255 32:0 33:18.46279 
0 0 0 0 0 0 0 0 0 0 0 0 0 0 0 0 0 0 0 0 0 0 0 1 0 0 0 0 0 0 0 0 0 0 1:0 2:0 3:0 4:0 5:255 6:0 7:0 8:0 9:0 10:0 11:0 12:0 13:255 14:255 15:0 16:0 17:0 18:0 19:0 20:0 21:255 22:255 23:255 24:0 25:0 26:0 27:0 28:0 29:255 30:255 31:255 32:255 33:18.68301 
7.72027954538398e-06 1.334916781698916e-06 0 0 0 0 0 0 0 0 0 0.6338367812888612 0 0 0 0 2.842552623335769e-05 0 0 0 0 0.3706673017197501 0.5566522728661839 0 0 0 0 0 0.2691598432312211 0 0 0 0 0 1:0 2:0 3:0 4:0 5:255 6:0 7:0 8:0 9:0 10:0 11:0 12:0 13:255 14:255 15:0 16:0 17:0 18:0 19:0 20:0 21:255 22:255 23:255 24:255 25:0 26:0 27:0 28:0 29:255 30:255 31:255 32:255 33:18.94319 
0 0 0 0 0 0 0 0 0 0 0 0 0 0 0 0 1 0 0.7308260124311016 0 0.07041986359261132 0 0 1 0 0 0 0 0 0 0 0 0 0 1:0 2:0 3:0 4:0 5:255 6:0 7:0 8:0 9:0 10:0 11:0 12:0 13:255 14:255 15:0 16:0 17:0 18:0 19:0 20:0 21:255 22:255 23:255 24:0 25:0 26:0 27:0 28:0 29:255 30:255 31:255 32:255 33:18.79788 
0 0 0 0 0 0 0 0 0 0 0 0 0 0 0 0 0 0 0 0 0 0 0 0 0 0 1 0 0 0 0 0 0 0 1:0 2:0 3:0 4:0 5:255 6:255 7:0 8:0 9:0 10:0 11:0 12:0 13:255 14:255 15:255 16:0 17:0 18:0 19:0 20:0 21:255 22:255 23:255 24:255 25:0 26:0 27:0 28:0 29:255 30:255 31:255 32:255 33:18.65157 
0.04025202354219697 0 0 0 0 0 0 0 0 0 0 0 0 0 0 0 1 0.02470017064834008 4.832095456101125e-06 9.084359197905125e-07 1.085697014358766e-06 0 0 0 0 0 0 0 0 0 0 0 0 0 1:0 2:0 3:0 4:0 5:255 6:255 7:0 8:0 9:0 10:0 11:0 12:0 13:255 14:255 15:255 16:0 17:0 18:0 19:0 20:0 21:255 22:255 23:255 24:255 25:0 26:0 27:0 28:0 29:0 30:0 31:255 32:255 33:18.69278 
0 0 0 0 0 0 0 0 0 0.4326826435250951 0 0 0 0 0 0 0 0 0.6866029185504979 0 0 0 0 0 0 0 0.7918585811076291 0 0 0 0 0 0 0 1:0 2:0 3:0 4:0 5:255 6:255 7:0 8:0 9:0 10:0 11:0 12:0 13:255 14:255 15:255 16:0 17:0 18:0 19:0 20:0 21:255 22:255 23:255 24:255 25:0 26:0 27:0 28:0 29:255 30:255 31:255 32:255 33:18.75018 
0 0 0 0 0 0 0 0 0 0 0 0 0 0 0 0 0 0 0 0 0.5033198385558841 0 0 0 0 0 0 0 0 0 0 0 0 0 1:0 2:0 3:0 4:0 5:255 6:255 7:0 8:0 9:0 10:0 11:0 12:0 13:255 14:255 15:255 16:0 17:0 18:0 19:0 20:0 21:255 22:255 23:255 24:255 25:0 26:0 27:0 28:0 29:255 30:255 31:255 32:255 33:19.17678 
3.102172534738053e-06 0 0 0 0 0 4.990822287051018e-06 0 0 9.24867647264398e-07 0 0 0 0 0 3.105828747016537e-07 0 0 1.478756196893371e-05 0 0 0 0 0 0 0 0 0 0 0 0 0 0 0 1:255 2:0 3:0 4:0 5:255 6:255 7:0 8:0 9:0 10:0 11:0 12:0 13:255 14:255 15:255 16:0 17:0 18:0 19:0 20:0 21:0 22:255 23:255 24:255 25:0 26:0 27:0 28:0 29:0 30:255 31:255 32:255 33:18.65519 
0 0 0 0 0 0 2.776802750955977e-05 0 0 0 0 0 0 0 0 0 0 0 0 1.59398302490661e-07 1.294291498154547e-07 0 0 0 0 0 0 0 0 0 0 0 0 0 1:255 2:0 3:0 4:0 5:255 6:0 7:0 8:0 9:0 10:0 11:0 12:0 13:255 14:255 15:255 16:0 17:0 18:0 19:0 20:0 21:255 22:255 23:255 24:255 25:0 26:0 27:0 28:0 29:255 30:255 31:255 32:255 33:18.4737 
1.538576798122548e-06 5.753265198707793e-07 0 0 0 0 0 0 0 0 0 0 0 0 0 0 0 4.863404943970172e-06 0 0 0 0 0 0 0 0 0 0 0 0 0 0 0 0 1:255 2:0 3:0 4:0 5:255 6:255 7:0 8:0 9:0 10:0 11:0 12:0 13:0 14:255 15:255 16:0 17:0 18:0 19:0 20:0 21:255 22:0 23:255 24:0 25:0 26:0 27:0 28:0 29:255 30:0 31:0 32:255 33:19.28054 
0 0 0 0 0 0 0 0 0 0 0 0 0 0 0 0 0 2.753879197475475e-06 0 0 0 0 0 0 0 0 0 8.147970425091278e-08 0 0 0 0 0 0 1:255 2:0 3:0 4:0 5:255 6:255 7:0 8:0 9:0 10:0 11:0 12:0 13:255 14:255 15:255 16:0 17:0 18:0 19:0 20:0 21:0 22:0 23:255 24:255 25:0 26:0 27:0 28:0 29:0 30:0 31:0 32:0 33:19.41745 
0 6.370673940669767e-06 0 0 0 0 0 0 0 0 0 0 0 0 0 0 0 0.002869765798273525 0 0 0.002789325375326056 0 0 0 0 0 0 0 0 0 0 0 0 0 1:255 2:0 3:0 4:0 5:255 6:255 7:0 8:0 9:0 10:0 11:0 12:0 13:255 14:255 15:255 16:0 17:0 18:0 19:0 20:0 21:255 22:255 23:255 24:255 25:0 26:0 27:0 28:0 29:0 30:0 31:0 32:255 33:19.32119 
1.777767863759706e-06 0 0 0 0 0 0 0 0 0 0 0 0 0 0 0 0 0 0 0 0 0 0 0 0 0 0 0 0 0 0 0 0 0 1:255 2:0 3:0 4:0 5:255 6:255 7:0 8:0 9:0 10:0 11:0 12:0 13:255 14:255 15:255 16:0 17:0 18:0 19:0 20:0 21:255 22:255 23:255 24:255 25:0 26:0 27:0 28:0 29:255 30:255 31:0 32:255 33:19.18425 
0 0 0 0 0 0 0 0 0 0 0 0 0 0 0 0 0 0 0 0 0 0.7473341935539926 0 0 0 0 0 0 0 0 0 0 0 0 1:0 2:0 3:0 4:0 5:255 6:255 7:0 8:0 9:0 10:0 11:0 12:0 13:255 14:255 15:255 16:0 17:0 18:0 19:0 20:0 21:255 22:255 23:255 24:255 25:0 26:0 27:0 28:0 29:255 30:255 31:255 32:255 33:18.91684 
0 0.02296151490647463 0 0 0 0 0 0 0 0 0 0 0 0 0 0 0 0 0 0 0 0 0 0 0 0 0 0 0 0 0 0 0 0 1:255 2:0 3:0 4:0 5:255 6:255 7:0 8:0 9:0 10:0 11:0 12:0 13:255 14:255 15:255 16:255 17:0 18:0 19:0 20:0 21:255 22:255 23:255 24:255 25:0 26:0 27:0 28:0 29:255 30:255 31:0 32:255 33:18.97051 
0 1.31952477723107e-06 0 0 0 0 0 0 0 0 0 0 0 0 0 0 0 0 0.218883220023777 0 6.920206718409132e-07 0 0 0 0 0 2.622330420347204e-06 0 0 0 0 0 0 0 1:255 2:255 3:0 4:0 5:255 6:255 7:0 8:0 9:0 10:0 11:0 12:0 13:255 14:255 15:255 16:255 17:0 18:0 19:0 20:0 21:255 22:255 23:255 24:255 25:0 26:0 27:0 28:0 29:255 30:255 31:255 32:255 33:18.3776 
1.127377686125411e-06 0 1.096345754540315e-08 0 1.69125015765774e-06 0 3.485762448876246e-07 0 0 0 2.537664277183635e-08 0 0 0 0 0 0 1.31600906796319e-05 0 0 0 0 0 0 0 0 0 0 0 0 0 4.203121625959157e-15 0 0 1:255 2:255 3:0 4:0 5:255 6:255 7:255 8:0 9:0 10:0 11:0 12:0 13:0 14:255 15:255 16:255 17:0 18:0 19:0 20:0 21:0 22:0 23:0 24:255 25:0 26:0 27:0 28:0 29:255 30:255 31:0 32:0 33:18.26251 
1.369560516753487e-05 0 4.483677316267319e-09 0 0 0 0 0 0 0 0 0 0 0 0 0 0 0 0 0 5.859040839976812e-07 0 0 0 0 0 0 2.21819457597773e-07 0 0 0 0 0 0 1:255 2:255 3:0 4:0 5:255 6:255 7:255 8:0 9:0 10:0 11:0 12:0 13:255 14:255 15:255 16:255 17:0 18:0 19:0 20:0 21:0 22:255 23:255 24:255 25:0 26:0 27:0 28:0 29:0 30:0 31:0 32:0 33:18.09235 
0 0 0 0 0 0 0 0 0 0 0 0 0 0 0 8.33907958713207e-07 0 0 1.502842539799303e-06 0 0 0 0 0 0 0 0 0 0 0 0 0 0 0 1:255 2:255 3:0 4:0 5:255 6:255 7:255 8:0 9:0 10:0 11:0 12:0 13:255 14:255 15:255 16:255 17:0 18:0 19:0 20:0 21:255 22:255 23:0 24:255 25:0 26:0 27:0 28:0 29:0 30:255 31:255 32:0 33:17.93905 
0 0 0 0 3.039361900613057e-07 0 0 0 0 0 0 0 0 0 0 4.219392767618737e-08 0.9078267754898062 0 0 0 0 0 0 0 0 0 0 0 0 0 0 0 0 0 1:255 2:255 3:0 4:0 5:255 6:255 7:255 8:0 9:255 10:0 11:0 12:0 13:255 14:255 15:255 16:255 17:0 18:0 19:0 20:0 21:255 22:255 23:255 24:255 25:0 26:0 27:0 28:0 29:255 30:255 31:255 32:0 33:18.26264 
0 0 0 0 0 0 0 0 0 0 0 0 0 0 0 0 0 0 0 0 1.509770916809827e-07 0 0 0 0 0 0 0 0 0 0 0 0 0 1:0 2:0 3:0 4:0 5:255 6:255 7:255 8:0 9:0 10:0 11:0 12:0 13:255 14:255 15:255 16:255 17:0 18:0 19:0 20:0 21:255 22:255 23:255 24:255 25:0 26:0 27:0 28:0 29:255 30:255 31:0 32:0 33:18.11872 
0 1.062991950419364e-06 0 0 0 0 0 0 0 0 0 0 0 0 0 0 0 0 0 0 0 0 0 0 0 0 0 0 0 0 0 0 0 0 1:0 2:255 3:0 4:0 5:255 6:255 7:255 8:0 9:0 10:0 11:0 12:0 13:255 14:255 15:255 16:255 17:0 18:0 19:0 20:0 21:255 22:255 23:0 24:255 25:0 26:0 27:0 28:0 29:255 30:255 31:255 32:0 33:18.14692 
0 0 0 0 0 0 2.202229485482968e-07 0 0 0 0 0 0 0 0 0 0 0 0 0 0 0 0 0 0 0 0 0 0 0 0 0 0 0 1:255 2:255 3:0 4:0 5:255 6:255 7:255 8:0 9:255 10:0 11:0 12:0 13:255 14:255 15:255 16:255 17:0 18:0 19:0 20:0 21:255 22:0 23:255 24:255 25:0 26:0 27:0 28:0 29:255 30:0 31:0 32:0 33:18.05614 
0 4.105735477768727e-06 0 0 0 0 0 0 0 0 0 3.56350631343749e-07 0 0 0 0 0 0 0 0 0 0 0 0 0 0 0 0 0 0 0 0 0 0 1:255 2:255 3:0 4:0 5:255 6:255 7:255 8:0 9:255 10:0 11:0 12:0 13:255 14:255 15:255 16:255 17:0 18:0 19:0 20:0 21:255 22:255 23:255 24:255 25:0 26:0 27:0 28:0 29:255 30:255 31:255 32:0 33:17.91555 
1.626205836879696e-06 0 0 0 0 0 0 0 0 0 0 0 0 0 0 0 0 3.483791917429765e-06 0 0 0 0 0 0 0 0 0 0 0 0 0 0 0 0 1:255 2:255 3:0 4:0 5:255 6:255 7:255 8:0 9:255 10:0 11:0 12:0 13:255 14:255 15:255 16:255 17:0 18:0 19:0 20:0 21:255 22:0 23:255 24:255 25:0 26:0 27:0 28:0 29:255 30:0 31:0 32:0 33:17.77415 
0 0 0 0 0 0 0 0 0 0 1.618907116012461e-07 2.791321525724575e-06 0 0 0 0 0 0 0 0 0 0 4.25233699777946e-08 0 0 0 0 0 0 0 0 0 0 0 1:0 2:255 3:0 4:0 5:255 6:255 7:255 8:0 9:255 10:0 11:0 12:0 13:255 14:255 15:255 16:255 17:0 18:0 19:0 20:0 21:255 22:255 23:255 24:255 25:0 26:0 27:0 28:0 29:255 30:255 31:0 32:0 33:17.68904 
0 1 0 0 0 5.061903505985942e-06 0 0 0 0 0 0 0 0 0 0 1 0 0.0006656350344721967 0 0 0 0 0 0 0 0 0 0 0 0 0 0 0 1:0 2:0 3:255 4:0 5:0 6:0 7:0 8:0 9:0 10:255 11:0 12:0 13:0 14:0 15:0 16:0 17:255 18:0 19:0 20:0 21:0 22:0 23:0 24:0 25:0 26:0 27:0 28:0 29:0 30:0 31:0 32:0 33:21.28457 
0 1 0 0 0 0 0 0 0 0 0 0 0 0 0 0 0 0 0 0 0 0 0 0 0 0 0 0 0 0 0 0 0 0 1:0 2:0 3:255 4:0 5:0 6:0 7:0 8:0 9:0 10:255 11:0 12:0 13:0 14:0 15:0 16:0 17:255 18:0 19:0 20:0 21:0 22:0 23:0 24:0 25:0 26:0 27:0 28:0 29:0 30:0 31:0 32:0 33:20.77114 
0 1 0 0 0 0 0 0 0 0 0 0 0 0 0 0 0.7854250846066939 0 0 0 0 0 0 0 0 0 0 0 0 0 0 0 0 0 1:0 2:0 3:255 4:0 5:0 6:0 7:0 8:0 9:0 10:255 11:0 12:0 13:0 14:0 15:0 16:0 17:255 18:0 19:0 20:0 21:0 22:0 23:0 24:0 25:0 26:0 27:0 28:0 29:0 30:0 31:0 32:0 33:20.51327 
1.39005126701153e-06 0 0 0 0 0 0 0 0 0 0 0 0 0 0 0 0 1.30216388162397e-06 0 0 0 0 0 0 0 0 0 0 0 0 0 0 0 0 1:0 2:0 3:255 4:255 5:0 6:0 7:0 8:0 9:0 10:255 11:255 12:0 13:0 14:0 15:0 16:0 17:255 18:0 19:0 20:0 21:0 22:0 23:0 24:0 25:0 26:0 27:0 28:0 29:0 30:0 31:0 32:0 33:20.9185 
0 7.37107243861605e-06 0 0 0 0 4.024987425720886e-06 0 0 0 0 0 0 0 0 0 2.589475922453731e-05 0 0 0 0 0 0 0 0 0 0 0 0 0 0 0 0 0 1:0 2:0 3:255 4:255 5:0 6:0 7:0 8:0 9:0 10:255 11:255 12:0 13:0 14:0 15:0 16:0 17:255 18:255 19:0 20:0 21:0 22:0 23:0 24:0 25:0 26:0 27:0 28:0 29:0 30:0 31:0 32:0 33:21.25739 
0 1.725795850909712e-05 0 0 0 0 1.454333127777901e-05 0 0 0 0 5.638379427114293e-06 0 0 0 0 0 0 0 0 0 0 0 0 0 0 0 0 0 0 0 0 0 0 1:0 2:0 3:255 4:255 5:0 6:0 7:0 8:0 9:0 10:255 11:0 12:0 13:0 14:0 15:0 16:0 17:255 18:255 19:0 20:0 21:0 22:0 23:0 24:0 25:255 26:0 27:0 28:0 29:0 30:0 31:0 32:0 33:21.26391 
0 0.1323705513333401 0 0 0 0 0 0 0 0 0 0 0 0 0 0 0 0 0 0 0 0 0 0 0 0 0 0 0 0 0 0 0 0 1:0 2:0 3:255 4:255 5:0 6:0 7:0 8:0 9:0 10:255 11:255 12:0 13:0 14:0 15:0 16:0 17:255 18:255 19:0 20:0 21:0 22:0 23:0 24:0 25:255 26:0 27:0 28:0 29:0 30:0 31:0 32:0 33:21.30387 
0.7383169980256989 0.8096264849900018 0 0 0 0 0 0 0 0 0 0 0 0 0 0 0 0 0 0 0 0 0 0 0 0 0 0 0 0 0 0 0 0 1:255 2:0 3:0 4:255 5:0 6:0 7:0 8:0 9:0 10:0 11:255 12:0 13:0 14:0 15:0 16:0 17:255 18:255 19:0 20:0 21:0 22:0 23:0 24:0 25:255 26:0 27:0 28:0 29:0 30:0 31:0 32:0 33:20.53026 
0.027298444039522 0 0 0 0 0 0 0 0 0 0 0 8.903658648740351e-12 0 0 0 0 0 0 0 0 0 0 0 0 0 0 0.7406447507647024 0 0 0 0 0 0 1:255 2:0 3:0 4:255 5:0 6:0 7:0 8:0 9:0 10:0 11:255 12:0 13:0 14:0 15:0 16:0 17:0 18:255 19:0 20:0 21:0 22:0 23:0 24:0 25:255 26:0 27:0 28:0 29:0 30:0 31:0 32:0 33:21.24539 
0 0 0 0 0 0 0 0 0 0 0 0 0 1.306824005452598e-12 0 0 0.4240614011866466 9.697964149817556e-06 2.378656414122271e-06 0 0 0 0 0 0 0 0 0 0 0 0 0 0 0 1:255 2:0 3:0 4:255 5:0 6:0 7:0 8:0 9:0 10:0 11:255 12:0 13:0 14:0 15:0 16:0 17:255 18:255 19:0 20:0 21:0 22:0 23:0 24:0 25:255 26:0 27:0 28:0 29:0 30:0 31:0 32:0 33:21.63951 
0 7.344918496711939e-05 0 0 0 0 0.0001097274943518865 0 0 0 0 0.6086074592292287 0 0 0 0 0 0 2.685912210335891e-06 0 0 0 0 0 0 0 0 0 0 0 0 0 0 0 1:0 2:0 3:0 4:255 5:0 6:0 7:0 8:0 9:0 10:0 11:255 12:0 13:0 14:0 15:0 16:0 17:0 18:255 19:0 20:0 21:0 22:0 23:0 24:0 25:255 26:0 27:0 28:0 29:0 30:0 31:0 32:0 33:21.26851 
0 0 0 0 0 0 0 0 0 0 0 0 0 0 0 0 0.02275910867499681 0 0 0 0 0 0 0 0 0 0 0 0 0 0 0 0 0 1:0 2:0 3:255 4:255 5:0 6:0 7:0 8:0 9:0 10:255 11:255 12:0 13:0 14:0 15:0 16:0 17:255 18:255 19:0 20:0 21:0 22:0 23:0 24:0 25:255 26:0 27:0 28:0 29:0 30:0 31:0 32:0 33:21.32672 
0 1.114109285066712e-05 0 0 0 0 0 0 0 0 0 0 0 0 0 0 0.001918460497937574 0 0 0 0 0 0 0 0 0 0 0 0 0 0 0 0 0 1:0 2:0 3:0 4:255 5:0 6:0 7:0 8:0 9:0 10:255 11:255 12:0 13:0 14:0 15:0 16:0 17:255 18:255 19:0 20:0 21:0 22:0 23:0 24:0 25:255 26:0 27:0 28:0 29:0 30:0 31:0 32:0 33:20.81502 
0 0 0 0 0 0 0 0 0 0 0 0 0 0 0 0 1 0 0 0 0 0 0 0 0 0 0 0 0 0 0 0 0 0 1:0 2:0 3:255 4:255 5:0 6:0 7:0 8:0 9:0 10:255 11:255 12:0 13:0 14:0 15:0 16:0 17:255 18:255 19:0 20:0 21:0 22:0 23:0 24:0 25:255 26:0 27:0 28:0 29:0 30:0 31:0 32:0 33:21.06643 
0 1.816714847649866e-05 0 0 0 0 9.253456768142199e-06 0 0 0 0 0 0 0 0 0 0 0 0 0 0 0 0 0 0 0 0 0 0 0 0 0 0 0 1:0 2:0 3:255 4:0 5:0 6:0 7:0 8:0 9:0 10:255 11:255 12:0 13:0 14:0 15:0 16:0 17:255 18:255 19:0 20:0 21:0 22:0 23:0 24:0 25:255 26:0 27:0 28:0 29:0 30:0 31:0 32:0 33:20.68587 
0 0 0 0 0 0 0 0 0 0 0 0 0 0 0 0 1 0 0 0 0 0 0 0 0 0 0 0 0 0 0 0 0 0 1:0 2:0 3:255 4:0 5:0 6:0 7:0 8:0 9:0 10:255 11:0 12:0 13:0 14:0 15:0 16:0 17:255 18:0 19:0 20:0 21:0 22:0 23:0 24:0 25:0 26:0 27:0 28:0 29:0 30:0 31:0 32:0 33:20.25899 
0 0 0 0 0 0 0 0 0 0 0 0 0 0 0 0 3.463543822116628e-06 0 0 0 0 0 0 0 0 0 0 0 0 0 0 0 0 0 1:0 2:0 3:255 4:0 5:0 6:0 7:0 8:0 9:0 10:255 11:0 12:0 13:0 14:0 15:0 16:0 17:255 18:0 19:0 20:0 21:0 22:0 23:0 24:0 25:0 26:0 27:0 28:0 29:0 30:0 31:0 32:0 33:20.09017 
1 0 0 0 0 0 0 0 0 0 0 1 0 0 0 0 0 0 0 0 0 0 0 0 0 0 0 0 0 0 0 0 0 0 1:0 2:0 3:255 4:0 5:0 6:0 7:0 8:0 9:0 10:255 11:0 12:0 13:0 14:0 15:0 16:0 17:255 18:0 19:0 20:0 21:0 22:0 23:0 24:0 25:0 26:0 27:0 28:0 29:0 30:0 31:0 32:0 33:20.50695 
1 0 0 0 0 0 0 0 0 0 0 0 0 0 0 0 0.2145749153933061 0 0 0 0 0 0 0 0 0 0 0 0 0 0 0 0 0 1:0 2:0 3:255 4:0 5:0 6:0 7:0 8:0 9:0 10:255 11:0 12:0 13:0 14:0 15:0 16:0 17:255 18:0 19:0 20:0 21:0 22:0 23:0 24:0 25:0 26:0 27:0 28:0 29:0 30:0 31:0 32:0 33:20.77972 
0 0 0 0 7.627336065129973e-06 0 0.01446342476626356 0 0 0 0 0 0 0 0 0 0 0 0 0 0 0 0 0 0 0 0 0 0 0 0 0 0 0 1:0 2:0 3:255 4:0 5:0 6:0 7:0 8:0 9:0 10:255 11:0 12:0 13:0 14:0 15:0 16:0 17:255 18:0 19:0 20:0 21:0 22:0 23:0 24:0 25:0 26:0 27:0 28:0 29:0 30:0 31:0 32:0 33:21.17842 
1 0 0 0 0 0 0 0 0 0 0 0 0 0 0 0 0 0 0.003443045616843285 0 0 0 0 0 0 0 0 0 0 0 0 0 0 0 1:0 2:0 3:255 4:0 5:0 6:0 7:0 8:0 9:0 10:255 11:0 12:0 13:0 14:0 15:0 16:0 17:255 18:0 19:0 20:0 21:0 22:0 23:0 24:0 25:0 26:0 27:0 28:0 29:0 30:0 31:0 32:0 33:20.73976 
1 0 0 0 0 0 1.165959906310393e-05 0 0 0 0 0.2398417251464788 0 0 0 0 0.2518094133420504 0 0 0 0 0 0 0 0 0 0 0 0 0 0 0 0 0 1:0 2:0 3:255 4:0 5:0 6:0 7:0 8:0 9:255 10:255 11:0 12:0 13:0 14:0 15:0 16:0 17:255 18:0 19:0 20:0 21:0 22:0 23:0 24:0 25:0 26:0 27:0 28:0 29:0 30:0 31:0 32:0 33:20.82478 
0 0 0 0 0 0 0 0 0 0 0 0 0 0 0 0 9.522740215161179e-05 0 0 1.835755949056364e-07 0 0 0 0 0 0 0 0 0 0 0 0 0 0 1:0 2:0 3:255 4:0 5:0 6:0 7:0 8:0 9:255 10:0 11:0 12:0 13:0 14:0 15:0 16:255 17:255 18:0 19:0 20:0 21:0 22:0 23:0 24:0 25:0 26:0 27:0 28:0 29:0 30:0 31:0 32:0 33:20.72231 
0 0 0 0 0 0 0 0 0 0 0 0 0 0 0 0 0 0 7.871154667910604e-07 0 0 0 0 0 0 0 0 0 0 0 0 0 0 0 1:0 2:255 3:0 4:0 5:0 6:0 7:0 8:0 9:255 10:255 11:0 12:0 13:0 14:0 15:0 16:255 17:0 18:0 19:0 20:0 21:0 22:0 23:0 24:0 25:0 26:0 27:0 28:0 29:0 30:0 31:0 32:0 33:20.76397 
0.002195413168954985 0 0 0 0 0 3.472971064369514e-06 0 0 0 0 0 0 0 0 0 0 0 0 0 0 0 0 0 0 0 0 0 0 0 0 0 0 0 1:0 2:255 3:255 4:0 5:0 6:0 7:0 8:0 9:255 10:255 11:0 12:0 13:0 14:0 15:0 16:255 17:0 18:0 19:0 20:0 21:0 22:0 23:0 24:0 25:0 26:0 27:0 28:0 29:0 30:0 31:0 32:0 33:19.97197 
5.209392287784586e-05 8.257775755352616e-06 0 0 0 7.277542077700686e-07 0 0 0 0 0 0.4880110612350783 0 0 0 0 0 0 0 0 0 0 0 0 0 0 0 0 0 0 0 0 0 0 1:0 2:0 3:255 4:0 5:0 6:0 7:0 8:0 9:255 10:0 11:0 12:0 13:0 14:0 15:0 16:0 17:0 18:0 19:0 20:0 21:0 22:0 23:0 24:0 25:0 26:0 27:0 28:0 29:0 30:0 31:0 32:0 33:19.72159 
0 0 0 0 0 0 0 0 0 0 0 0 0 0 0 0 0 0 4.216621479157571e-06 0 0 0 0 0 0 0 0 0 0 0 0 0 0 0 1:0 2:255 3:255 4:0 5:0 6:0 7:0 8:0 9:255 10:255 11:0 12:0 13:0 14:0 15:0 16:255 17:0 18:0 19:0 20:0 21:0 22:0 23:0 24:0 25:0 26:0 27:0 28:0 29:0 30:0 31:0 32:0 33:19.55435 
0 0 0 0 0 0 0 0 0 0 0 0 0 0 0 0 0.5551632180161065 0 0 0 0 0 0 0 0 0 0 0 0 0 0 0 0 0 1:0 2:255 3:255 4:0 5:0 6:0 7:0 8:0 9:255 10:0 11:0 12:0 13:0 14:0 15:0 16:255 17:0 18:0 19:0 20:0 21:0 22:0 23:0 24:0 25:0 26:0 27:0 28:0 29:0 30:0 31:0 32:0 33:19.50727 
3.481563425001e-07 0 0 0 0 0 0 0 0 0 0 0 0 0 0 0 0 0 0 0 0 0 0 0 0 0 0 0 0 0 0 0 0 0 1:0 2:0 3:255 4:0 5:0 6:0 7:0 8:0 9:255 10:0 11:0 12:0 13:0 14:0 15:0 16:255 17:0 18:0 19:0 20:0 21:0 22:0 23:0 24:0 25:0 26:0 27:0 28:0 29:0 30:0 31:0 32:0 33:19.5056 
0.01373090685503715 0 0 0 0 0 0 0 0 0 0 0 0 0 0 0 0 0 0.06346477208377083 0 0 0 0 0 0 0 0 0 0 0 0 0 0 0 1:0 2:255 3:255 4:0 5:0 6:0 7:0 8:0 9:255 10:0 11:0 12:0 13:0 14:0 15:0 16:0 17:0 18:0 19:0 20:0 21:0 22:0 23:0 24:0 25:0 26:0 27:0 28:0 29:0 30:0 31:0 32:0 33:19.28042 
0.08578214349097023 1.192896707055386e-05 0 0 1.499039736243574e-06 3.647252687667977e-06 4.80715260791052e-06 0 0 0 0 0 0 0 0 0 9.495258155638549e-06 0 0 0 0 0 0 0 0 0 0 0 0 0 0 0 0 0 1:0 2:255 3:0 4:0 5:0 6:0 7:0 8:0 9:255 10:255 11:0 12:0 13:0 14:0 15:0 16:0 17:0 18:0 19:0 20:0 21:0 22:0 23:0 24:0 25:0 26:0 27:0 28:0 29:0 30:0 31:0 32:0 33:18.68504 
0 0 0 0 0 0 0 0 0 0 0 0 0 0 0 0 0.5198935847597496 0 0 0 0 0 0 0 0 0 0 0 0 0 0 0 0 0 1:0 2:255 3:255 4:0 5:0 6:0 7:0 8:0 9:255 10:0 11:0 12:0 13:0 14:0 15:0 16:0 17:0 18:0 19:0 20:0 21:0 22:0 23:0 24:0 25:0 26:0 27:0 28:0 29:0 30:0 31:0 32:0 33:17.99925 
0 0 0 0 0 0 0 0 0 0 0 0 0 0 0 0 1 0 0 0 0 0 0 0 0 0 0 0 0 0 0 0 0 0 1:0 2:255 3:0 4:0 5:0 6:0 7:0 8:0 9:255 10:0 11:0 12:0 13:0 14:0 15:0 16:0 17:0 18:0 19:0 20:0 21:0 22:0 23:0 24:0 25:0 26:0 27:0 28:0 29:0 30:0 31:0 32:0 33:18.12477 
1 0 0 0 0 0 0 0 0 0 0 0 0 0 0 0 1 0 0 0 0 0 0 0 0 0 0 0 0 0 0 0 0 0 1:0 2:255 3:0 4:0 5:0 6:0 7:0 8:0 9:255 10:0 11:0 12:0 13:0 14:0 15:0 16:0 17:0 18:0 19:0 20:0 21:0 22:0 23:0 24:0 25:0 26:0 27:0 28:0 29:0 30:0 31:0 32:0 33:19.23892 
1 0 0 0 0 0 0.0741819535679491 0 0 0 0 0 0 0 0 0 0 0 0 0 0 0 0 0 0 0 0 0 0 0 0 0 0 0 1:0 2:255 3:0 4:0 5:0 6:0 7:0 8:0 9:255 10:0 11:0 12:0 13:0 14:0 15:0 16:0 17:0 18:0 19:0 20:0 21:0 22:0 23:0 24:0 25:0 26:0 27:0 28:0 29:0 30:0 31:0 32:0 33:18.6866 
0 0 0 0 0 0 0 0 0 0 0 0 0 0 0 0 1 0 0 0 0 0 0 0 0 0 0 0 0 0 0 0 0 0 1:0 2:255 3:0 4:0 5:0 6:0 7:0 8:0 9:255 10:0 11:0 12:0 13:0 14:0 15:0 16:0 17:0 18:0 19:0 20:0 21:0 22:0 23:0 24:0 25:0 26:0 27:0 28:0 29:0 30:0 31:0 32:0 33:18.42138 
