svm_type c_svc
kernel_type polynomial
degree 3
gamma 0.000566893
coef0 0
nr_class 2
total_sv 313
rho 0.301456
label 1 -1
nr_sv 153 160
SV
7.132526812422342e-15 1:203 2:29 3:118 4:93 5:45 6:105 7:117 8:133 9:156 10:203 11:29 12:118 13:93 14:45 15:105 16:117 17:133 18:156 19:203 20:29 21:118 22:93 23:45 24:105 25:117 26:133 27:156 28:203 29:29 30:118 31:93 32:45 33:105 34:117 35:133 36:156 37:143 38:135 39:79 40:38 41:4 42:32 43:143 44:85 45:377 46:143 47:135 48:79 49:38 50:4 51:32 52:143 53:85 54:377 55:143 56:135 57:79 58:38 59:4 60:32 61:143 62:85 63:377 64:143 65:135 66:79 67:38 68:4 69:32 70:143 71:85 72:377 73:200 74:53 75:16 76:9 77:16 78:3 79:35 80:3 81:160 82:200 83:53 84:16 85:9 86:16 87:3 88:35 89:3 90:160 91:200 92:53 93:16 94:9 95:16 96:3 97:35 98:3 99:160 100:200 101:53 102:16 103:9 104:16 105:3 106:35 107:3 108:160 109:80 110:65 111:12 112:1 113:15 114:4 115:15 116:48 117:102 118:80 119:65 120:12 121:1 122:15 123:4 124:15 125:48 126:102 127:80 128:65 129:12 130:1 131:15 132:4 133:15 134:48 135:102 136:80 137:65 138:12 139:1 140:15 141:4 142:15 143:48 144:102 145:119 146:71 147:48 148:69 149:10 150:33 151:58 152:43 153:115 154:119 155:71 156:48 157:69 158:10 159:33 160:58 161:43 162:115 163:119 164:71 165:48 166:69 167:10 168:33 169:58 170:43 171:115 172:119 173:71 174:48 175:69 176:10 177:33 178:58 179:43 180:115 181:101 182:45 183:95 184:22 185:25 186:78 187:44 188:194 189:85 190:101 191:45 192:95 193:22 194:25 195:78 196:44 197:194 198:85 199:101 200:45 201:95 202:22 203:25 204:78 205:44 206:194 207:85 208:101 209:45 210:95 211:22 212:25 213:78 214:44 215:194 216:85 217:95 218:135 219:94 220:45 221:80 222:16 223:41 224:101 225:87 226:95 227:135 228:94 229:45 230:80 231:16 232:41 233:101 234:87 235:95 236:135 237:94 238:45 239:80 240:16 241:41 242:101 243:87 244:95 245:135 246:94 247:45 248:80 249:16 250:41 251:101 252:87 253:487 254:269 255:24 256:5 257:5 258:17 259:120 260:27 261:342 262:487 263:269 264:24 265:5 266:5 267:17 268:120 269:27 270:342 271:487 272:269 273:24 274:5 275:5 276:17 277:120 278:27 279:342 280:487 281:269 282:24 283:5 284:5 285:17 286:120 287:27 288:342 289:386 290:69 292:27 293:8 294:20 295:9 296:28 297:215 298:386 299:69 301:27 302:8 303:20 304:9 305:28 306:215 307:386 308:69 310:27 311:8 312:20 313:9 314:28 315:215 316:386 317:69 319:27 320:8 321:20 322:9 323:28 324:215 325:259 326:30 327:27 328:21 329:29 330:5 331:28 332:15 333:275 334:259 335:30 336:27 337:21 338:29 339:5 340:28 341:15 342:275 343:259 344:30 345:27 346:21 347:29 348:5 349:28 350:15 351:275 352:259 353:30 354:27 355:21 356:29 357:5 358:28 359:15 360:275 361:246 362:127 363:193 364:119 365:92 366:31 367:62 368:49 369:221 370:246 371:127 372:193 373:119 374:92 375:31 376:62 377:49 378:221 379:246 380:127 381:193 382:119 383:92 384:31 385:62 386:49 387:221 388:246 389:127 390:193 391:119 392:92 393:31 394:62 395:49 396:221 397:337 398:194 399:68 400:30 401:154 402:89 403:107 404:170 405:336 406:337 407:194 408:68 409:30 410:154 411:89 412:107 413:170 414:336 415:337 416:194 417:68 418:30 419:154 420:89 421:107 422:170 423:336 424:337 425:194 426:68 427:30 428:154 429:89 430:107 431:170 432:336 433:385 434:131 435:65 437:14 438:2 439:65 440:64 441:418 442:385 443:131 444:65 446:14 447:2 448:65 449:64 450:418 451:385 452:131 453:65 455:14 456:2 457:65 458:64 459:418 460:385 461:131 462:65 464:14 465:2 466:65 467:64 468:418 469:287 470:49 471:28 472:2 474:40 475:66 476:166 477:368 478:287 479:49 480:28 481:2 483:40 484:66 485:166 486:368 487:287 488:49 489:28 490:2 492:40 493:66 494:166 495:368 496:287 497:49 498:28 499:2 501:40 502:66 503:166 504:368 505:257 506:42 507:5 508:8 509:12 510:19 512:51 513:243 514:257 515:42 516:5 517:8 518:12 519:19 521:51 522:243 523:257 524:42 525:5 526:8 527:12 528:19 530:51 531:243 532:257 533:42 534:5 535:8 536:12 537:19 539:51 540:243 541:303 542:103 543:43 544:4 545:4 546:7 547:2 548:5 549:195 550:303 551:103 552:43 553:4 554:4 555:7 556:2 557:5 558:195 559:303 560:103 561:43 562:4 563:4 564:7 565:2 566:5 567:195 568:303 569:103 570:43 571:4 572:4 573:7 574:2 575:5 576:195 577:224 578:82 579:49 580:10 581:6 582:7 583:9 584:5 585:237 586:224 587:82 588:49 589:10 590:6 591:7 592:9 593:5 594:237 595:224 596:82 597:49 598:10 599:6 600:7 601:9 602:5 603:237 604:224 605:82 606:49 607:10 608:6 609:7 610:9 611:5 612:237 613:176 614:60 615:107 616:8 617:9 618:4 619:6 620:12 621:313 622:176 623:60 624:107 625:8 626:9 627:4 628:6 629:12 630:313 631:176 632:60 633:107 634:8 635:9 636:4 637:6 638:12 639:313 640:176 641:60 642:107 643:8 644:9 645:4 646:6 647:12 648:313 649:111 650:38 651:118 652:32 653:1 654:14 655:6 656:68 657:502 658:111 659:38 660:118 661:32 662:1 663:14 664:6 665:68 666:502 667:111 668:38 669:118 670:32 671:1 672:14 673:6 674:68 675:502 676:111 677:38 678:118 679:32 680:1 681:14 682:6 683:68 684:502 685:332 686:163 687:73 688:6 689:3 690:6 691:4 692:6 693:404 694:332 695:163 696:73 697:6 698:3 699:6 700:4 701:6 702:404 703:332 704:163 705:73 706:6 707:3 708:6 709:4 710:6 711:404 712:332 713:163 714:73 715:6 716:3 717:6 718:4 719:6 720:404 721:223 722:252 723:4 724:1 725:31 726:2 727:11 728:6 729:597 730:223 731:252 732:4 733:1 734:31 735:2 736:11 737:6 738:597 739:223 740:252 741:4 742:1 743:31 744:2 745:11 746:6 747:597 748:223 749:252 750:4 751:1 752:31 753:2 754:11 755:6 756:597 757:202 758:217 760:13 761:148 762:9 763:110 764:59 765:411 766:202 767:217 769:13 770:148 771:9 772:110 773:59 774:411 775:202 776:217 778:13 779:148 780:9 781:110 782:59 783:411 784:202 785:217 787:13 788:148 789:9 790:110 791:59 792:411 793:272 794:129 795:217 796:66 797:26 798:22 799:45 800:73 801:563 802:272 803:129 804:217 805:66 806:26 807:22 808:45 809:73 810:563 811:272 812:129 813:217 814:66 815:26 816:22 817:45 818:73 819:563 820:272 821:129 822:217 823:66 824:26 825:22 826:45 827:73 828:563 829:326 830:179 831:76 832:61 833:20 834:62 835:78 836:65 837:532 838:326 839:179 840:76 841:61 842:20 843:62 844:78 845:65 846:532 847:326 848:179 849:76 850:61 851:20 852:62 853:78 854:65 855:532 856:326 857:179 858:76 859:61 860:20 861:62 862:78 863:65 864:532 865:525 866:62 867:109 868:67 869:10 870:41 871:77 872:46 873:385 874:525 875:62 876:109 877:67 878:10 879:41 880:77 881:46 882:385 883:525 884:62 885:109 886:67 887:10 888:41 889:77 890:46 891:385 892:525 893:62 894:109 895:67 896:10 897:41 898:77 899:46 900:385 901:348 902:38 903:1 904:3 905:18 906:28 907:24 908:16 909:335 910:348 911:38 912:1 913:3 914:18 915:28 916:24 917:16 918:335 919:348 920:38 921:1 922:3 923:18 924:28 925:24 926:16 927:335 928:348 929:38 930:1 931:3 932:18 933:28 934:24 935:16 936:335 937:148 938:72 939:31 940:6 941:31 942:3 943:12 944:18 945:264 946:148 947:72 948:31 949:6 950:31 951:3 952:12 953:18 954:264 955:148 956:72 957:31 958:6 959:31 960:3 961:12 962:18 963:264 964:148 965:72 966:31 967:6 968:31 969:3 970:12 971:18 972:264 973:57 974:12 975:0 976:7 977:24 978:1 979:5 980:6 981:40 982:57 983:12 984:0 985:7 986:24 987:1 988:5 989:6 990:40 991:57 992:12 993:0 994:7 995:24 996:1 997:5 998:6 999:40 1000:57 1001:12 1002:0 1003:7 1004:24 1005:1 1006:5 1007:6 1008:40 1009:262 1010:172 1011:146 1012:52 1014:36 1015:21 1016:93 1017:230 1018:262 1019:172 1020:146 1021:52 1023:36 1024:21 1025:93 1026:230 1027:262 1028:172 1029:146 1030:52 1032:36 1033:21 1034:93 1035:230 1036:262 1037:172 1038:146 1039:52 1041:36 1042:21 1043:93 1044:230 1045:221 1046:350 1047:152 1048:74 1049:87 1050:12 1051:56 1052:137 1053:58 1054:221 1055:350 1056:152 1057:74 1058:87 1059:12 1060:56 1061:137 1062:58 1063:221 1064:350 1065:152 1066:74 1067:87 1068:12 1069:56 1070:137 1071:58 1072:221 1073:350 1074:152 1075:74 1076:87 1077:12 1078:56 1079:137 1080:58 1081:278 1082:212 1083:99 1084:27 1085:20 1086:18 1087:35 1088:35 1089:205 1090:278 1091:212 1092:99 1093:27 1094:20 1095:18 1096:35 1097:35 1098:205 1099:278 1100:212 1101:99 1102:27 1103:20 1104:18 1105:35 1106:35 1107:205 1108:278 1109:212 1110:99 1111:27 1112:20 1113:18 1114:35 1115:35 1116:205 1117:122 1118:156 1119:178 1120:14 1121:13 1122:26 1123:88 1124:55 1125:94 1126:122 1127:156 1128:178 1129:14 1130:13 1131:26 1132:88 1133:55 1134:94 1135:122 1136:156 1137:178 1138:14 1139:13 1140:26 1141:88 1142:55 1143:94 1144:122 1145:156 1146:178 1147:14 1148:13 1149:26 1150:88 1151:55 1152:94 1153:434 1154:245 1155:167 1156:147 1157:22 1158:15 1159:1 1160:101 1161:178 1162:434 1163:245 1164:167 1165:147 1166:22 1167:15 1168:1 1169:101 1170:178 1171:434 1172:245 1173:167 1174:147 1175:22 1176:15 1177:1 1178:101 1179:178 1180:434 1181:245 1182:167 1183:147 1184:22 1185:15 1186:1 1187:101 1188:178 1189:375 1190:261 1191:58 1192:44 1193:19 1194:1 1195:9 1196:66 1197:418 1198:375 1199:261 1200:58 1201:44 1202:19 1203:1 1204:9 1205:66 1206:418 1207:375 1208:261 1209:58 1210:44 1211:19 1212:1 1213:9 1214:66 1215:418 1216:375 1217:261 1218:58 1219:44 1220:19 1221:1 1222:9 1223:66 1224:418 1225:292 1226:120 1227:94 1228:55 1231:13 1232:71 1233:451 1234:292 1235:120 1236:94 1237:55 1240:13 1241:71 1242:451 1243:292 1244:120 1245:94 1246:55 1249:13 1250:71 1251:451 1252:292 1253:120 1254:94 1255:55 1258:13 1259:71 1260:451 1261:188 1262:233 1263:67 1264:36 1265:25 1266:16 1267:52 1268:110 1269:205 1270:188 1271:233 1272:67 1273:36 1274:25 1275:16 1276:52 1277:110 1278:205 1279:188 1280:233 1281:67 1282:36 1283:25 1284:16 1285:52 1286:110 1287:205 1288:188 1289:233 1290:67 1291:36 1292:25 1293:16 1294:52 1295:110 1296:205 1297:335 1298:260 1299:78 1300:88 1301:81 1303:65 1304:70 1305:118 1306:335 1307:260 1308:78 1309:88 1310:81 1312:65 1313:70 1314:118 1315:335 1316:260 1317:78 1318:88 1319:81 1321:65 1322:70 1323:118 1324:335 1325:260 1326:78 1327:88 1328:81 1330:65 1331:70 1332:118 1333:334 1334:111 1335:39 1336:25 1337:27 1338:24 1339:41 1340:104 1341:171 1342:334 1343:111 1344:39 1345:25 1346:27 1347:24 1348:41 1349:104 1350:171 1351:334 1352:111 1353:39 1354:25 1355:27 1356:24 1357:41 1358:104 1359:171 1360:334 1361:111 1362:39 1363:25 1364:27 1365:24 1366:41 1367:104 1368:171 1369:641 1370:215 1371:50 1373:8 1374:4 1376:13 1377:94 1378:641 1379:215 1380:50 1382:8 1383:4 1385:13 1386:94 1387:641 1388:215 1389:50 1391:8 1392:4 1394:13 1395:94 1396:641 1397:215 1398:50 1400:8 1401:4 1403:13 1404:94 1405:319 1406:129 1407:139 1408:44 1409:21 1410:12 1411:3 1412:7 1413:103 1414:319 1415:129 1416:139 1417:44 1418:21 1419:12 1420:3 1421:7 1422:103 1423:319 1424:129 1425:139 1426:44 1427:21 1428:12 1429:3 1430:7 1431:103 1432:319 1433:129 1434:139 1435:44 1436:21 1437:12 1438:3 1439:7 1440:103 1441:142 1442:160 1443:42 1444:56 1445:16 1446:19 1447:1 1448:17 1449:129 1450:142 1451:160 1452:42 1453:56 1454:16 1455:19 1456:1 1457:17 1458:129 1459:142 1460:160 1461:42 1462:56 1463:16 1464:19 1465:1 1466:17 1467:129 1468:142 1469:160 1470:42 1471:56 1472:16 1473:19 1474:1 1475:17 1476:129 1477:276 1478:230 1479:83 1480:72 1481:26 1482:33 1483:38 1484:45 1485:90 1486:276 1487:230 1488:83 1489:72 1490:26 1491:33 1492:38 1493:45 1494:90 1495:276 1496:230 1497:83 1498:72 1499:26 1500:33 1501:38 1502:45 1503:90 1504:276 1505:230 1506:83 1507:72 1508:26 1509:33 1510:38 1511:45 1512:90 1513:157 1514:251 1515:100 1516:79 1517:84 1518:87 1519:40 1520:65 1521:186 1522:157 1523:251 1524:100 1525:79 1526:84 1527:87 1528:40 1529:65 1530:186 1531:157 1532:251 1533:100 1534:79 1535:84 1536:87 1537:40 1538:65 1539:186 1540:157 1541:251 1542:100 1543:79 1544:84 1545:87 1546:40 1547:65 1548:186 1549:229 1550:236 1551:225 1552:151 1553:52 1554:147 1555:82 1556:60 1557:37 1558:229 1559:236 1560:225 1561:151 1562:52 1563:147 1564:82 1565:60 1566:37 1567:229 1568:236 1569:225 1570:151 1571:52 1572:147 1573:82 1574:60 1575:37 1576:229 1577:236 1578:225 1579:151 1580:52 1581:147 1582:82 1583:60 1584:37 1585:182 1586:309 1587:149 1588:208 1589:132 1590:37 1591:110 1592:99 1593:102 1594:182 1595:309 1596:149 1597:208 1598:132 1599:37 1600:110 1601:99 1602:102 1603:182 1604:309 1605:149 1606:208 1607:132 1608:37 1609:110 1610:99 1611:102 1612:182 1613:309 1614:149 1615:208 1616:132 1617:37 1618:110 1619:99 1620:102 1621:52 1622:121 1623:67 1624:22 1625:69 1626:34 1627:157 1628:51 1629:136 1630:52 1631:121 1632:67 1633:22 1634:69 1635:34 1636:157 1637:51 1638:136 1639:52 1640:121 1641:67 1642:22 1643:69 1644:34 1645:157 1646:51 1647:136 1648:52 1649:121 1650:67 1651:22 1652:69 1653:34 1654:157 1655:51 1656:136 1657:274 1658:328 1659:108 1660:105 1661:20 1662:28 1663:33 1664:62 1665:97 1666:274 1667:328 1668:108 1669:105 1670:20 1671:28 1672:33 1673:62 1674:97 1675:274 1676:328 1677:108 1678:105 1679:20 1680:28 1681:33 1682:62 1683:97 1684:274 1685:328 1686:108 1687:105 1688:20 1689:28 1690:33 1691:62 1692:97 1693:338 1694:242 1695:166 1696:66 1697:33 1698:130 1699:29 1700:60 1701:63 1702:338 1703:242 1704:166 1705:66 1706:33 1707:130 1708:29 1709:60 1710:63 1711:338 1712:242 1713:166 1714:66 1715:33 1716:130 1717:29 1718:60 1719:63 1720:338 1721:242 1722:166 1723:66 1724:33 1725:130 1726:29 1727:60 1728:63 1729:219 1730:527 1731:90 1732:15 1733:6 1734:31 1735:22 1736:17 1737:142 1738:219 1739:527 1740:90 1741:15 1742:6 1743:31 1744:22 1745:17 1746:142 1747:219 1748:527 1749:90 1750:15 1751:6 1752:31 1753:22 1754:17 1755:142 1756:219 1757:527 1758:90 1759:15 1760:6 1761:31 1762:22 1763:17 1764:142 
3.173528574058413e-14 1:141 2:124 3:176 4:40 5:105 6:77 7:35 8:91 9:147 10:141 11:124 12:176 13:40 14:105 15:77 16:35 17:91 18:147 19:141 20:124 21:176 22:40 23:105 24:77 25:35 26:91 27:147 28:141 29:124 30:176 31:40 32:105 33:77 34:35 35:91 36:147 37:156 38:135 39:67 40:164 41:120 42:151 43:103 44:144 45:144 46:156 47:135 48:67 49:164 50:120 51:151 52:103 53:144 54:144 55:156 56:135 57:67 58:164 59:120 60:151 61:103 62:144 63:144 64:156 65:135 66:67 67:164 68:120 69:151 70:103 71:144 72:144 73:175 74:49 75:19 76:16 77:27 78:62 79:44 80:112 81:309 82:175 83:49 84:19 85:16 86:27 87:62 88:44 89:112 90:309 91:175 92:49 93:19 94:16 95:27 96:62 97:44 98:112 99:309 100:175 101:49 102:19 103:16 104:27 105:62 106:44 107:112 108:309 109:204 110:60 111:1 112:16 113:2 114:6 115:14 116:18 117:183 118:204 119:60 120:1 121:16 122:2 123:6 124:14 125:18 126:183 127:204 128:60 129:1 130:16 131:2 132:6 133:14 134:18 135:183 136:204 137:60 138:1 139:16 140:2 141:6 142:14 143:18 144:183 145:100 146:36 147:13 148:3 149:4 150:3 151:3 152:2 153:102 154:100 155:36 156:13 157:3 158:4 159:3 160:3 161:2 162:102 163:100 164:36 165:13 166:3 167:4 168:3 169:3 170:2 171:102 172:100 173:36 174:13 175:3 176:4 177:3 178:3 179:2 180:102 181:74 182:38 183:14 184:25 185:22 186:67 187:49 188:71 189:26 190:74 191:38 192:14 193:25 194:22 195:67 196:49 197:71 198:26 199:74 200:38 201:14 202:25 203:22 204:67 205:49 206:71 207:26 208:74 209:38 210:14 211:25 212:22 213:67 214:49 215:71 216:26 217:145 218:28 219:25 220:33 221:38 222:26 223:56 224:80 225:88 226:145 227:28 228:25 229:33 230:38 231:26 232:56 233:80 234:88 235:145 236:28 237:25 238:33 239:38 240:26 241:56 242:80 243:88 244:145 245:28 246:25 247:33 248:38 249:26 250:56 251:80 252:88 253:318 254:73 255:151 256:5 258:11 259:10 260:67 261:337 262:318 263:73 264:151 265:5 267:11 268:10 269:67 270:337 271:318 272:73 273:151 274:5 276:11 277:10 278:67 279:337 280:318 281:73 282:151 283:5 285:11 286:10 287:67 288:337 289:296 290:78 291:18 292:10 293:32 294:48 295:18 296:146 297:301 298:296 299:78 300:18 301:10 302:32 303:48 304:18 305:146 306:301 307:296 308:78 309:18 310:10 311:32 312:48 313:18 314:146 315:301 316:296 317:78 318:18 319:10 320:32 321:48 322:18 323:146 324:301 325:315 326:86 327:27 329:4 330:23 332:19 333:199 334:315 335:86 336:27 338:4 339:23 341:19 342:199 343:315 344:86 345:27 347:4 348:23 350:19 351:199 352:315 353:86 354:27 356:4 357:23 359:19 360:199 361:262 362:64 363:31 364:20 365:2 367:12 369:328 370:262 371:64 372:31 373:20 374:2 376:12 378:328 379:262 380:64 381:31 382:20 383:2 385:12 387:328 388:262 389:64 390:31 391:20 392:2 394:12 396:328 397:187 398:34 399:15 400:94 401:68 404:10 405:249 406:187 407:34 408:15 409:94 410:68 413:10 414:249 415:187 416:34 417:15 418:94 419:68 422:10 423:249 424:187 425:34 426:15 427:94 428:68 431:10 432:249 433:438 434:38 435:227 436:28 437:75 438:56 439:194 440:55 441:395 442:438 443:38 444:227 445:28 446:75 447:56 448:194 449:55 450:395 451:438 452:38 453:227 454:28 455:75 456:56 457:194 458:55 459:395 460:438 461:38 462:227 463:28 464:75 465:56 466:194 467:55 468:395 469:376 470:201 471:38 472:41 473:169 474:102 475:98 476:109 477:365 478:376 479:201 480:38 481:41 482:169 483:102 484:98 485:109 486:365 487:376 488:201 489:38 490:41 491:169 492:102 493:98 494:109 495:365 496:376 497:201 498:38 499:41 500:169 501:102 502:98 503:109 504:365 505:216 506:83 507:3 508:7 509:9 510:5 511:4 512:4 513:282 514:216 515:83 516:3 517:7 518:9 519:5 520:4 521:4 522:282 523:216 524:83 525:3 526:7 527:9 528:5 529:4 530:4 531:282 532:216 533:83 534:3 535:7 536:9 537:5 538:4 539:4 540:282 541:250 542:41 543:54 544:1 545:19 546:8 547:4 548:5 549:262 550:250 551:41 552:54 553:1 554:19 555:8 556:4 557:5 558:262 559:250 560:41 561:54 562:1 563:19 564:8 565:4 566:5 567:262 568:250 569:41 570:54 571:1 572:19 573:8 574:4 575:5 576:262 577:161 578:121 579:11 580:5 581:10 582:3 583:4 584:2 585:360 586:161 587:121 588:11 589:5 590:10 591:3 592:4 593:2 594:360 595:161 596:121 597:11 598:5 599:10 600:3 601:4 602:2 603:360 604:161 605:121 606:11 607:5 608:10 609:3 610:4 611:2 612:360 613:258 614:195 615:23 616:3 617:6 618:1 619:14 620:10 621:357 622:258 623:195 624:23 625:3 626:6 627:1 628:14 629:10 630:357 631:258 632:195 633:23 634:3 635:6 636:1 637:14 638:10 639:357 640:258 641:195 642:23 643:3 644:6 645:1 646:14 647:10 648:357 649:398 650:82 651:69 652:2 653:6 654:1 655:13 656:32 657:479 658:398 659:82 660:69 661:2 662:6 663:1 664:13 665:32 666:479 667:398 668:82 669:69 670:2 671:6 672:1 673:13 674:32 675:479 676:398 677:82 678:69 679:2 680:6 681:1 682:13 683:32 684:479 685:363 686:270 687:45 688:21 689:48 690:29 691:29 692:60 693:511 694:363 695:270 696:45 697:21 698:48 699:29 700:29 701:60 702:511 703:363 704:270 705:45 706:21 707:48 708:29 709:29 710:60 711:511 712:363 713:270 714:45 715:21 716:48 717:29 718:29 719:60 720:511 721:526 722:122 723:197 724:34 725:32 726:59 727:28 728:81 729:441 730:526 731:122 732:197 733:34 734:32 735:59 736:28 737:81 738:441 739:526 740:122 741:197 742:34 743:32 744:59 745:28 746:81 747:441 748:526 749:122 750:197 751:34 752:32 753:59 754:28 755:81 756:441 757:376 758:116 759:143 760:131 761:23 762:27 763:81 764:88 765:451 766:376 767:116 768:143 769:131 770:23 771:27 772:81 773:88 774:451 775:376 776:116 777:143 778:131 779:23 780:27 781:81 782:88 783:451 784:376 785:116 786:143 787:131 788:23 789:27 790:81 791:88 792:451 793:421 794:169 795:137 796:112 797:7 798:18 799:46 800:114 801:544 802:421 803:169 804:137 805:112 806:7 807:18 808:46 809:114 810:544 811:421 812:169 813:137 814:112 815:7 816:18 817:46 818:114 819:544 820:421 821:169 822:137 823:112 824:7 825:18 826:46 827:114 828:544 829:360 830:2 831:179 832:15 833:8 834:14 835:81 836:112 837:435 838:360 839:2 840:179 841:15 842:8 843:14 844:81 845:112 846:435 847:360 848:2 849:179 850:15 851:8 852:14 853:81 854:112 855:435 856:360 857:2 858:179 859:15 860:8 861:14 862:81 863:112 864:435 865:418 866:19 867:21 868:4 869:34 870:12 871:22 872:79 873:331 874:418 875:19 876:21 877:4 878:34 879:12 880:22 881:79 882:331 883:418 884:19 885:21 886:4 887:34 888:12 889:22 890:79 891:331 892:418 893:19 894:21 895:4 896:34 897:12 898:22 899:79 900:331 901:144 902:3 903:58 904:21 905:12 906:5 907:7 908:70 909:135 910:144 911:3 912:58 913:21 914:12 915:5 916:7 917:70 918:135 919:144 920:3 921:58 922:21 923:12 924:5 925:7 926:70 927:135 928:144 929:3 930:58 931:21 932:12 933:5 934:7 935:70 936:135 937:56 938:5 939:6 940:13 941:6 942:4 943:6 944:5 945:51 946:56 947:5 948:6 949:13 950:6 951:4 952:6 953:5 954:51 955:56 956:5 957:6 958:13 959:6 960:4 961:6 962:5 963:51 964:56 965:5 966:6 967:13 968:6 969:4 970:6 971:5 972:51 973:48 974:6 975:9 976:5 977:7 978:8 979:0 980:5 981:47 982:48 983:6 984:9 985:5 986:7 987:8 988:0 989:5 990:47 991:48 992:6 993:9 994:5 995:7 996:8 997:0 998:5 999:47 1000:48 1001:6 1002:9 1003:5 1004:7 1005:8 1006:0 1007:5 1008:47 1009:200 1010:165 1011:19 1012:109 1013:148 1014:106 1015:174 1016:172 1017:223 1018:200 1019:165 1020:19 1021:109 1022:148 1023:106 1024:174 1025:172 1026:223 1027:200 1028:165 1029:19 1030:109 1031:148 1032:106 1033:174 1034:172 1035:223 1036:200 1037:165 1038:19 1039:109 1040:148 1041:106 1042:174 1043:172 1044:223 1045:102 1046:95 1047:85 1048:33 1049:51 1050:32 1051:40 1052:155 1053:165 1054:102 1055:95 1056:85 1057:33 1058:51 1059:32 1060:40 1061:155 1062:165 1063:102 1064:95 1065:85 1066:33 1067:51 1068:32 1069:40 1070:155 1071:165 1072:102 1073:95 1074:85 1075:33 1076:51 1077:32 1078:40 1079:155 1080:165 1081:277 1082:299 1083:14 1084:17 1085:32 1086:11 1087:90 1088:51 1089:119 1090:277 1091:299 1092:14 1093:17 1094:32 1095:11 1096:90 1097:51 1098:119 1099:277 1100:299 1101:14 1102:17 1103:32 1104:11 1105:90 1106:51 1107:119 1108:277 1109:299 1110:14 1111:17 1112:32 1113:11 1114:90 1115:51 1116:119 1117:475 1118:161 1119:195 1120:191 1121:18 1122:6 1123:22 1124:85 1125:325 1126:475 1127:161 1128:195 1129:191 1130:18 1131:6 1132:22 1133:85 1134:325 1135:475 1136:161 1137:195 1138:191 1139:18 1140:6 1141:22 1142:85 1143:325 1144:475 1145:161 1146:195 1147:191 1148:18 1149:6 1150:22 1151:85 1152:325 1153:190 1154:281 1155:106 1156:112 1158:20 1159:34 1160:165 1161:277 1162:190 1163:281 1164:106 1165:112 1167:20 1168:34 1169:165 1170:277 1171:190 1172:281 1173:106 1174:112 1176:20 1177:34 1178:165 1179:277 1180:190 1181:281 1182:106 1183:112 1185:20 1186:34 1187:165 1188:277 1189:358 1190:123 1191:239 1193:3 1194:10 1195:17 1196:19 1197:518 1198:358 1199:123 1200:239 1202:3 1203:10 1204:17 1205:19 1206:518 1207:358 1208:123 1209:239 1211:3 1212:10 1213:17 1214:19 1215:518 1216:358 1217:123 1218:239 1220:3 1221:10 1222:17 1223:19 1224:518 1225:447 1226:189 1227:60 1231:10 1232:22 1233:657 1234:447 1235:189 1236:60 1240:10 1241:22 1242:657 1243:447 1244:189 1245:60 1249:10 1250:22 1251:657 1252:447 1253:189 1254:60 1258:10 1259:22 1260:657 1261:136 1262:75 1263:115 1264:36 1265:48 1266:53 1267:58 1268:216 1269:179 1270:136 1271:75 1272:115 1273:36 1274:48 1275:53 1276:58 1277:216 1278:179 1279:136 1280:75 1281:115 1282:36 1283:48 1284:53 1285:58 1286:216 1287:179 1288:136 1289:75 1290:115 1291:36 1292:48 1293:53 1294:58 1295:216 1296:179 1297:212 1298:490 1299:30 1300:4 1301:3 1302:22 1303:11 1304:65 1305:67 1306:212 1307:490 1308:30 1309:4 1310:3 1311:22 1312:11 1313:65 1314:67 1315:212 1316:490 1317:30 1318:4 1319:3 1320:22 1321:11 1322:65 1323:67 1324:212 1325:490 1326:30 1327:4 1328:3 1329:22 1330:11 1331:65 1332:67 1333:357 1334:181 1335:197 1336:39 1337:33 1338:4 1339:90 1340:36 1341:232 1342:357 1343:181 1344:197 1345:39 1346:33 1347:4 1348:90 1349:36 1350:232 1351:357 1352:181 1353:197 1354:39 1355:33 1356:4 1357:90 1358:36 1359:232 1360:357 1361:181 1362:197 1363:39 1364:33 1365:4 1366:90 1367:36 1368:232 1369:211 1370:132 1371:97 1372:35 1373:26 1374:5 1375:15 1376:51 1377:125 1378:211 1379:132 1380:97 1381:35 1382:26 1383:5 1384:15 1385:51 1386:125 1387:211 1388:132 1389:97 1390:35 1391:26 1392:5 1393:15 1394:51 1395:125 1396:211 1397:132 1398:97 1399:35 1400:26 1401:5 1402:15 1403:51 1404:125 1405:202 1406:294 1407:126 1408:22 1409:64 1410:19 1411:5 1412:47 1413:67 1414:202 1415:294 1416:126 1417:22 1418:64 1419:19 1420:5 1421:47 1422:67 1423:202 1424:294 1425:126 1426:22 1427:64 1428:19 1429:5 1430:47 1431:67 1432:202 1433:294 1434:126 1435:22 1436:64 1437:19 1438:5 1439:47 1440:67 1441:160 1442:286 1443:71 1444:113 1445:56 1446:80 1447:29 1448:155 1449:160 1450:160 1451:286 1452:71 1453:113 1454:56 1455:80 1456:29 1457:155 1458:160 1459:160 1460:286 1461:71 1462:113 1463:56 1464:80 1465:29 1466:155 1467:160 1468:160 1469:286 1470:71 1471:113 1472:56 1473:80 1474:29 1475:155 1476:160 1477:249 1478:159 1479:259 1480:53 1481:69 1482:22 1483:185 1484:45 1485:177 1486:249 1487:159 1488:259 1489:53 1490:69 1491:22 1492:185 1493:45 1494:177 1495:249 1496:159 1497:259 1498:53 1499:69 1500:22 1501:185 1502:45 1503:177 1504:249 1505:159 1506:259 1507:53 1508:69 1509:22 1510:185 1511:45 1512:177 1513:226 1514:177 1515:27 1516:119 1518:73 1519:150 1520:84 1521:195 1522:226 1523:177 1524:27 1525:119 1527:73 1528:150 1529:84 1530:195 1531:226 1532:177 1533:27 1534:119 1536:73 1537:150 1538:84 1539:195 1540:226 1541:177 1542:27 1543:119 1545:73 1546:150 1547:84 1548:195 1549:266 1550:270 1551:93 1552:26 1553:7 1554:9 1555:11 1556:26 1557:251 1558:266 1559:270 1560:93 1561:26 1562:7 1563:9 1564:11 1565:26 1566:251 1567:266 1568:270 1569:93 1570:26 1571:7 1572:9 1573:11 1574:26 1575:251 1576:266 1577:270 1578:93 1579:26 1580:7 1581:9 1582:11 1583:26 1584:251 1585:217 1586:114 1587:102 1588:154 1589:53 1590:64 1591:71 1592:103 1593:66 1594:217 1595:114 1596:102 1597:154 1598:53 1599:64 1600:71 1601:103 1602:66 1603:217 1604:114 1605:102 1606:154 1607:53 1608:64 1609:71 1610:103 1611:66 1612:217 1613:114 1614:102 1615:154 1616:53 1617:64 1618:71 1619:103 1620:66 1621:162 1622:121 1623:219 1624:205 1625:25 1626:96 1627:150 1628:185 1629:54 1630:162 1631:121 1632:219 1633:205 1634:25 1635:96 1636:150 1637:185 1638:54 1639:162 1640:121 1641:219 1642:205 1643:25 1644:96 1645:150 1646:185 1647:54 1648:162 1649:121 1650:219 1651:205 1652:25 1653:96 1654:150 1655:185 1656:54 1657:196 1658:314 1659:181 1660:118 1661:76 1663:150 1664:131 1665:86 1666:196 1667:314 1668:181 1669:118 1670:76 1672:150 1673:131 1674:86 1675:196 1676:314 1677:181 1678:118 1679:76 1681:150 1682:131 1683:86 1684:196 1685:314 1686:181 1687:118 1688:76 1690:150 1691:131 1692:86 1693:461 1694:425 1695:152 1696:18 1697:19 1698:16 1699:32 1700:90 1701:156 1702:461 1703:425 1704:152 1705:18 1706:19 1707:16 1708:32 1709:90 1710:156 1711:461 1712:425 1713:152 1714:18 1715:19 1716:16 1717:32 1718:90 1719:156 1720:461 1721:425 1722:152 1723:18 1724:19 1725:16 1726:32 1727:90 1728:156 1729:293 1730:141 1731:13 1732:11 1733:37 1734:31 1735:27 1736:29 1737:119 1738:293 1739:141 1740:13 1741:11 1742:37 1743:31 1744:27 1745:29 1746:119 1747:293 1748:141 1749:13 1750:11 1751:37 1752:31 1753:27 1754:29 1755:119 1756:293 1757:141 1758:13 1759:11 1760:37 1761:31 1762:27 1763:29 1764:119 
1.248222515698848e-15 1:126 2:126 3:66 4:78 5:112 6:21 7:71 8:55 9:253 10:126 11:126 12:66 13:78 14:112 15:21 16:71 17:55 18:253 19:126 20:126 21:66 22:78 23:112 24:21 25:71 26:55 27:253 28:126 29:126 30:66 31:78 32:112 33:21 34:71 35:55 36:253 37:240 38:105 39:90 40:134 41:48 42:51 43:142 44:41 45:155 46:240 47:105 48:90 49:134 50:48 51:51 52:142 53:41 54:155 55:240 56:105 57:90 58:134 59:48 60:51 61:142 62:41 63:155 64:240 65:105 66:90 67:134 68:48 69:51 70:142 71:41 72:155 73:147 74:79 75:30 76:59 77:40 78:62 79:160 80:148 81:265 82:147 83:79 84:30 85:59 86:40 87:62 88:160 89:148 90:265 91:147 92:79 93:30 94:59 95:40 96:62 97:160 98:148 99:265 100:147 101:79 102:30 103:59 104:40 105:62 106:160 107:148 108:265 109:109 110:75 111:60 113:21 114:17 115:17 116:13 117:248 118:109 119:75 120:60 122:21 123:17 124:17 125:13 126:248 127:109 128:75 129:60 131:21 132:17 133:17 134:13 135:248 136:109 137:75 138:60 140:21 141:17 142:17 143:13 144:248 145:183 146:56 147:25 148:15 149:9 150:3 151:5 152:29 153:83 154:183 155:56 156:25 157:15 158:9 159:3 160:5 161:29 162:83 163:183 164:56 165:25 166:15 167:9 168:3 169:5 170:29 171:83 172:183 173:56 174:25 175:15 176:9 177:3 178:5 179:29 180:83 181:54 182:55 183:26 184:7 185:12 186:12 187:17 188:26 189:77 190:54 191:55 192:26 193:7 194:12 195:12 196:17 197:26 198:77 199:54 200:55 201:26 202:7 203:12 204:12 205:17 206:26 207:77 208:54 209:55 210:26 211:7 212:12 213:12 214:17 215:26 216:77 217:68 218:59 219:46 220:10 221:59 222:35 223:73 224:52 225:104 226:68 227:59 228:46 229:10 230:59 231:35 232:73 233:52 234:104 235:68 236:59 237:46 238:10 239:59 240:35 241:73 242:52 243:104 244:68 245:59 246:46 247:10 248:59 249:35 250:73 251:52 252:104 253:226 254:59 255:108 256:13 257:22 258:15 259:16 260:28 261:290 262:226 263:59 264:108 265:13 266:22 267:15 268:16 269:28 270:290 271:226 272:59 273:108 274:13 275:22 276:15 277:16 278:28 279:290 280:226 281:59 282:108 283:13 284:22 285:15 286:16 287:28 288:290 289:531 290:57 291:62 292:23 293:26 294:42 296:107 297:249 298:531 299:57 300:62 301:23 302:26 303:42 305:107 306:249 307:531 308:57 309:62 310:23 311:26 312:42 314:107 315:249 316:531 317:57 318:62 319:23 320:26 321:42 323:107 324:249 325:291 326:91 327:9 328:12 329:9 330:18 332:32 333:262 334:291 335:91 336:9 337:12 338:9 339:18 341:32 342:262 343:291 344:91 345:9 346:12 347:9 348:18 350:32 351:262 352:291 353:91 354:9 355:12 356:9 357:18 359:32 360:262 361:269 362:94 363:30 364:17 365:15 366:4 368:24 369:221 370:269 371:94 372:30 373:17 374:15 375:4 377:24 378:221 379:269 380:94 381:30 382:17 383:15 384:4 386:24 387:221 388:269 389:94 390:30 391:17 392:15 393:4 395:24 396:221 397:201 398:27 399:10 401:2 403:3 405:361 406:201 407:27 408:10 410:2 412:3 414:361 415:201 416:27 417:10 419:2 421:3 423:361 424:201 425:27 426:10 428:2 430:3 432:361 433:248 434:89 435:53 436:76 437:115 438:56 439:85 440:38 441:195 442:248 443:89 444:53 445:76 446:115 447:56 448:85 449:38 450:195 451:248 452:89 453:53 454:76 455:115 456:56 457:85 458:38 459:195 460:248 461:89 462:53 463:76 464:115 465:56 466:85 467:38 468:195 469:424 470:83 471:139 472:17 473:124 474:76 475:56 476:67 477:502 478:424 479:83 480:139 481:17 482:124 483:76 484:56 485:67 486:502 487:424 488:83 489:139 490:17 491:124 492:76 493:56 494:67 495:502 496:424 497:83 498:139 499:17 500:124 501:76 502:56 503:67 504:502 505:240 506:71 507:38 508:5 509:2 510:0 511:3 512:4 513:276 514:240 515:71 516:38 517:5 518:2 519:0 520:3 521:4 522:276 523:240 524:71 525:38 526:5 527:2 528:0 529:3 530:4 531:276 532:240 533:71 534:38 535:5 536:2 537:0 538:3 539:4 540:276 541:174 542:85 543:42 544:2 545:6 546:3 547:5 548:2 549:221 550:174 551:85 552:42 553:2 554:6 555:3 556:5 557:2 558:221 559:174 560:85 561:42 562:2 563:6 564:3 565:5 566:2 567:221 568:174 569:85 570:42 571:2 572:6 573:3 574:5 575:2 576:221 577:194 578:121 579:80 580:18 581:15 582:15 583:9 584:16 585:298 586:194 587:121 588:80 589:18 590:15 591:15 592:9 593:16 594:298 595:194 596:121 597:80 598:18 599:15 600:15 601:9 602:16 603:298 604:194 605:121 606:80 607:18 608:15 609:15 610:9 611:16 612:298 613:159 614:23 615:157 616:37 617:7 618:4 619:13 620:45 621:488 622:159 623:23 624:157 625:37 626:7 627:4 628:13 629:45 630:488 631:159 632:23 633:157 634:37 635:7 636:4 637:13 638:45 639:488 640:159 641:23 642:157 643:37 644:7 645:4 646:13 647:45 648:488 649:289 650:86 651:136 652:14 653:6 654:16 655:2 656:24 657:430 658:289 659:86 660:136 661:14 662:6 663:16 664:2 665:24 666:430 667:289 668:86 669:136 670:14 671:6 672:16 673:2 674:24 675:430 676:289 677:86 678:136 679:14 680:6 681:16 682:2 683:24 684:430 685:92 686:12 687:151 688:16 689:21 690:18 691:32 692:35 693:611 694:92 695:12 696:151 697:16 698:21 699:18 700:32 701:35 702:611 703:92 704:12 705:151 706:16 707:21 708:18 709:32 710:35 711:611 712:92 713:12 714:151 715:16 716:21 717:18 718:32 719:35 720:611 721:133 722:57 723:176 724:14 725:1 726:11 727:24 728:23 729:773 730:133 731:57 732:176 733:14 734:1 735:11 736:24 737:23 738:773 739:133 740:57 741:176 742:14 743:1 744:11 745:24 746:23 747:773 748:133 749:57 750:176 751:14 752:1 753:11 754:24 755:23 756:773 757:341 758:173 759:78 760:124 761:31 762:10 763:62 764:101 765:290 766:341 767:173 768:78 769:124 770:31 771:10 772:62 773:101 774:290 775:341 776:173 777:78 778:124 779:31 780:10 781:62 782:101 783:290 784:341 785:173 786:78 787:124 788:31 789:10 790:62 791:101 792:290 793:407 794:95 795:219 796:9 797:12 798:0 799:15 800:118 801:594 802:407 803:95 804:219 805:9 806:12 807:0 808:15 809:118 810:594 811:407 812:95 813:219 814:9 815:12 816:0 817:15 818:118 819:594 820:407 821:95 822:219 823:9 824:12 825:0 826:15 827:118 828:594 829:457 830:29 831:84 832:72 833:4 835:34 836:77 837:330 838:457 839:29 840:84 841:72 842:4 844:34 845:77 846:330 847:457 848:29 849:84 850:72 851:4 853:34 854:77 855:330 856:457 857:29 858:84 859:72 860:4 862:34 863:77 864:330 865:218 866:46 867:27 868:14 869:2 870:3 871:10 872:29 873:378 874:218 875:46 876:27 877:14 878:2 879:3 880:10 881:29 882:378 883:218 884:46 885:27 886:14 887:2 888:3 889:10 890:29 891:378 892:218 893:46 894:27 895:14 896:2 897:3 898:10 899:29 900:378 901:123 902:13 903:10 904:14 905:15 906:8 907:13 908:21 909:118 910:123 911:13 912:10 913:14 914:15 915:8 916:13 917:21 918:118 919:123 920:13 921:10 922:14 923:15 924:8 925:13 926:21 927:118 928:123 929:13 930:10 931:14 932:15 933:8 934:13 935:21 936:118 937:223 938:10 939:3 940:3 941:4 942:5 943:2 945:44 946:223 947:10 948:3 949:3 950:4 951:5 952:2 954:44 955:223 956:10 957:3 958:3 959:4 960:5 961:2 963:44 964:223 965:10 966:3 967:3 968:4 969:5 970:2 972:44 973:89 974:1 975:1 976:2 977:19 978:6 979:3 980:3 981:15 982:89 983:1 984:1 985:2 986:19 987:6 988:3 989:3 990:15 991:89 992:1 993:1 994:2 995:19 996:6 997:3 998:3 999:15 1000:89 1001:1 1002:1 1003:2 1004:19 1005:6 1006:3 1007:3 1008:15 1009:224 1010:210 1011:47 1012:102 1013:82 1014:31 1015:17 1016:43 1017:90 1018:224 1019:210 1020:47 1021:102 1022:82 1023:31 1024:17 1025:43 1026:90 1027:224 1028:210 1029:47 1030:102 1031:82 1032:31 1033:17 1034:43 1035:90 1036:224 1037:210 1038:47 1039:102 1040:82 1041:31 1042:17 1043:43 1044:90 1045:240 1046:95 1047:132 1048:16 1049:69 1050:80 1051:59 1052:60 1053:133 1054:240 1055:95 1056:132 1057:16 1058:69 1059:80 1060:59 1061:60 1062:133 1063:240 1064:95 1065:132 1066:16 1067:69 1068:80 1069:59 1070:60 1071:133 1072:240 1073:95 1074:132 1075:16 1076:69 1077:80 1078:59 1079:60 1080:133 1081:272 1082:124 1083:315 1084:1 1085:28 1086:46 1087:79 1088:85 1089:182 1090:272 1091:124 1092:315 1093:1 1094:28 1095:46 1096:79 1097:85 1098:182 1099:272 1100:124 1101:315 1102:1 1103:28 1104:46 1105:79 1106:85 1107:182 1108:272 1109:124 1110:315 1111:1 1112:28 1113:46 1114:79 1115:85 1116:182 1117:393 1118:212 1119:195 1120:3 1121:14 1122:5 1123:1 1124:155 1125:354 1126:393 1127:212 1128:195 1129:3 1130:14 1131:5 1132:1 1133:155 1134:354 1135:393 1136:212 1137:195 1138:3 1139:14 1140:5 1141:1 1142:155 1143:354 1144:393 1145:212 1146:195 1147:3 1148:14 1149:5 1150:1 1151:155 1152:354 1153:320 1154:143 1155:164 1156:72 1157:3 1158:7 1159:5 1160:93 1161:440 1162:320 1163:143 1164:164 1165:72 1166:3 1167:7 1168:5 1169:93 1170:440 1171:320 1172:143 1173:164 1174:72 1175:3 1176:7 1177:5 1178:93 1179:440 1180:320 1181:143 1182:164 1183:72 1184:3 1185:7 1186:5 1187:93 1188:440 1189:439 1190:246 1191:81 1192:10 1193:2 1195:13 1196:88 1197:651 1198:439 1199:246 1200:81 1201:10 1202:2 1204:13 1205:88 1206:651 1207:439 1208:246 1209:81 1210:10 1211:2 1213:13 1214:88 1215:651 1216:439 1217:246 1218:81 1219:10 1220:2 1222:13 1223:88 1224:651 1225:159 1226:62 1227:183 1228:49 1229:5 1230:21 1231:14 1232:156 1233:278 1234:159 1235:62 1236:183 1237:49 1238:5 1239:21 1240:14 1241:156 1242:278 1243:159 1244:62 1245:183 1246:49 1247:5 1248:21 1249:14 1250:156 1251:278 1252:159 1253:62 1254:183 1255:49 1256:5 1257:21 1258:14 1259:156 1260:278 1261:151 1262:317 1263:175 1264:12 1265:22 1266:3 1267:74 1268:24 1269:66 1270:151 1271:317 1272:175 1273:12 1274:22 1275:3 1276:74 1277:24 1278:66 1279:151 1280:317 1281:175 1282:12 1283:22 1284:3 1285:74 1286:24 1287:66 1288:151 1289:317 1290:175 1291:12 1292:22 1293:3 1294:74 1295:24 1296:66 1297:185 1298:311 1299:147 1300:86 1301:12 1302:39 1303:21 1304:82 1305:89 1306:185 1307:311 1308:147 1309:86 1310:12 1311:39 1312:21 1313:82 1314:89 1315:185 1316:311 1317:147 1318:86 1319:12 1320:39 1321:21 1322:82 1323:89 1324:185 1325:311 1326:147 1327:86 1328:12 1329:39 1330:21 1331:82 1332:89 1333:254 1334:145 1335:200 1336:149 1337:97 1338:51 1339:16 1340:70 1341:55 1342:254 1343:145 1344:200 1345:149 1346:97 1347:51 1348:16 1349:70 1350:55 1351:254 1352:145 1353:200 1354:149 1355:97 1356:51 1357:16 1358:70 1359:55 1360:254 1361:145 1362:200 1363:149 1364:97 1365:51 1366:16 1367:70 1368:55 1369:296 1370:340 1371:216 1372:65 1373:62 1374:51 1375:9 1376:48 1377:161 1378:296 1379:340 1380:216 1381:65 1382:62 1383:51 1384:9 1385:48 1386:161 1387:296 1388:340 1389:216 1390:65 1391:62 1392:51 1393:9 1394:48 1395:161 1396:296 1397:340 1398:216 1399:65 1400:62 1401:51 1402:9 1403:48 1404:161 1405:252 1406:147 1407:72 1408:97 1409:74 1410:49 1411:45 1412:60 1413:198 1414:252 1415:147 1416:72 1417:97 1418:74 1419:49 1420:45 1421:60 1422:198 1423:252 1424:147 1425:72 1426:97 1427:74 1428:49 1429:45 1430:60 1431:198 1432:252 1433:147 1434:72 1435:97 1436:74 1437:49 1438:45 1439:60 1440:198 1441:238 1442:109 1443:166 1444:17 1445:173 1446:65 1447:28 1448:19 1449:155 1450:238 1451:109 1452:166 1453:17 1454:173 1455:65 1456:28 1457:19 1458:155 1459:238 1460:109 1461:166 1462:17 1463:173 1464:65 1465:28 1466:19 1467:155 1468:238 1469:109 1470:166 1471:17 1472:173 1473:65 1474:28 1475:19 1476:155 1477:244 1478:147 1479:198 1480:118 1481:94 1482:14 1483:94 1484:61 1485:84 1486:244 1487:147 1488:198 1489:118 1490:94 1491:14 1492:94 1493:61 1494:84 1495:244 1496:147 1497:198 1498:118 1499:94 1500:14 1501:94 1502:61 1503:84 1504:244 1505:147 1506:198 1507:118 1508:94 1509:14 1510:94 1511:61 1512:84 1513:162 1514:208 1515:294 1516:142 1517:68 1518:90 1519:49 1520:111 1521:146 1522:162 1523:208 1524:294 1525:142 1526:68 1527:90 1528:49 1529:111 1530:146 1531:162 1532:208 1533:294 1534:142 1535:68 1536:90 1537:49 1538:111 1539:146 1540:162 1541:208 1542:294 1543:142 1544:68 1545:90 1546:49 1547:111 1548:146 1549:329 1550:466 1551:99 1552:37 1553:99 1554:81 1555:35 1556:54 1557:273 1558:329 1559:466 1560:99 1561:37 1562:99 1563:81 1564:35 1565:54 1566:273 1567:329 1568:466 1569:99 1570:37 1571:99 1572:81 1573:35 1574:54 1575:273 1576:329 1577:466 1578:99 1579:37 1580:99 1581:81 1582:35 1583:54 1584:273 1585:257 1586:359 1587:105 1588:61 1589:45 1590:60 1591:153 1592:77 1593:280 1594:257 1595:359 1596:105 1597:61 1598:45 1599:60 1600:153 1601:77 1602:280 1603:257 1604:359 1605:105 1606:61 1607:45 1608:60 1609:153 1610:77 1611:280 1612:257 1613:359 1614:105 1615:61 1616:45 1617:60 1618:153 1619:77 1620:280 1621:260 1622:275 1623:169 1624:151 1625:51 1626:61 1627:49 1628:107 1629:231 1630:260 1631:275 1632:169 1633:151 1634:51 1635:61 1636:49 1637:107 1638:231 1639:260 1640:275 1641:169 1642:151 1643:51 1644:61 1645:49 1646:107 1647:231 1648:260 1649:275 1650:169 1651:151 1652:51 1653:61 1654:49 1655:107 1656:231 1657:478 1658:326 1659:92 1660:59 1661:66 1662:60 1663:36 1664:98 1665:138 1666:478 1667:326 1668:92 1669:59 1670:66 1671:60 1672:36 1673:98 1674:138 1675:478 1676:326 1677:92 1678:59 1679:66 1680:60 1681:36 1682:98 1683:138 1684:478 1685:326 1686:92 1687:59 1688:66 1689:60 1690:36 1691:98 1692:138 1693:302 1694:190 1695:203 1696:51 1697:2 1698:10 1699:5 1700:75 1701:223 1702:302 1703:190 1704:203 1705:51 1706:2 1707:10 1708:5 1709:75 1710:223 1711:302 1712:190 1713:203 1714:51 1715:2 1716:10 1717:5 1718:75 1719:223 1720:302 1721:190 1722:203 1723:51 1724:2 1725:10 1726:5 1727:75 1728:223 1729:330 1730:341 1731:58 1732:42 1733:71 1734:11 1735:19 1736:30 1737:37 1738:330 1739:341 1740:58 1741:42 1742:71 1743:11 1744:19 1745:30 1746:37 1747:330 1748:341 1749:58 1750:42 1751:71 1752:11 1753:19 1754:30 1755:37 1756:330 1757:341 1758:58 1759:42 1760:71 1761:11 1762:19 1763:30 1764:37 
1.633060324180141e-14 1:511 2:62 3:85 4:59 5:41 6:14 7:44 8:218 9:226 10:511 11:62 12:85 13:59 14:41 15:14 16:44 17:218 18:226 19:511 20:62 21:85 22:59 23:41 24:14 25:44 26:218 27:226 28:511 29:62 30:85 31:59 32:41 33:14 34:44 35:218 36:226 37:115 38:87 39:112 40:47 41:106 42:11 43:96 44:86 45:238 46:115 47:87 48:112 49:47 50:106 51:11 52:96 53:86 54:238 55:115 56:87 57:112 58:47 59:106 60:11 61:96 62:86 63:238 64:115 65:87 66:112 67:47 68:106 69:11 70:96 71:86 72:238 73:205 74:84 75:155 76:98 77:94 78:44 79:66 80:151 81:108 82:205 83:84 84:155 85:98 86:94 87:44 88:66 89:151 90:108 91:205 92:84 93:155 94:98 95:94 96:44 97:66 98:151 99:108 100:205 101:84 102:155 103:98 104:94 105:44 106:66 107:151 108:108 109:151 110:111 111:59 112:23 113:102 114:80 115:16 116:145 117:201 118:151 119:111 120:59 121:23 122:102 123:80 124:16 125:145 126:201 127:151 128:111 129:59 130:23 131:102 132:80 133:16 134:145 135:201 136:151 137:111 138:59 139:23 140:102 141:80 142:16 143:145 144:201 145:91 146:56 147:14 148:10 149:20 150:71 151:63 152:95 153:232 154:91 155:56 156:14 157:10 158:20 159:71 160:63 161:95 162:232 163:91 164:56 165:14 166:10 167:20 168:71 169:63 170:95 171:232 172:91 173:56 174:14 175:10 176:20 177:71 178:63 179:95 180:232 181:154 182:55 183:25 184:3 185:9 186:6 187:18 188:35 189:148 190:154 191:55 192:25 193:3 194:9 195:6 196:18 197:35 198:148 199:154 200:55 201:25 202:3 203:9 204:6 205:18 206:35 207:148 208:154 209:55 210:25 211:3 212:9 213:6 214:18 215:35 216:148 217:157 218:65 219:3 220:21 221:11 222:4 223:10 224:40 225:123 226:157 227:65 228:3 229:21 230:11 231:4 232:10 233:40 234:123 235:157 236:65 237:3 238:21 239:11 240:4 241:10 242:40 243:123 244:157 245:65 246:3 247:21 248:11 249:4 250:10 251:40 252:123 253:280 254:83 255:62 256:32 257:49 258:6 259:75 260:82 261:218 262:280 263:83 264:62 265:32 266:49 267:6 268:75 269:82 270:218 271:280 272:83 273:62 274:32 275:49 276:6 277:75 278:82 279:218 280:280 281:83 282:62 283:32 284:49 285:6 286:75 287:82 288:218 289:221 290:113 291:3 292:111 293:10 294:26 295:30 296:48 297:209 298:221 299:113 300:3 301:111 302:10 303:26 304:30 305:48 306:209 307:221 308:113 309:3 310:111 311:10 312:26 313:30 314:48 315:209 316:221 317:113 318:3 319:111 320:10 321:26 322:30 323:48 324:209 325:307 326:111 327:91 328:19 329:11 330:64 331:149 332:53 333:341 334:307 335:111 336:91 337:19 338:11 339:64 340:149 341:53 342:341 343:307 344:111 345:91 346:19 347:11 348:64 349:149 350:53 351:341 352:307 353:111 354:91 355:19 356:11 357:64 358:149 359:53 360:341 361:259 362:43 363:0 365:0 368:21 369:340 370:259 371:43 372:0 374:0 377:21 378:340 379:259 380:43 381:0 383:0 386:21 387:340 388:259 389:43 390:0 392:0 395:21 396:340 397:270 398:56 399:48 400:12 404:1 405:254 406:270 407:56 408:48 409:12 413:1 414:254 415:270 416:56 417:48 418:12 422:1 423:254 424:270 425:56 426:48 427:12 431:1 432:254 433:326 434:22 435:8 436:12 437:8 438:2 439:1 440:11 441:315 442:326 443:22 444:8 445:12 446:8 447:2 448:1 449:11 450:315 451:326 452:22 453:8 454:12 455:8 456:2 457:1 458:11 459:315 460:326 461:22 462:8 463:12 464:8 465:2 466:1 467:11 468:315 469:324 470:12 472:2 476:10 477:298 478:324 479:12 481:2 485:10 486:298 487:324 488:12 490:2 494:10 495:298 496:324 497:12 499:2 503:10 504:298 505:237 506:150 507:2 508:0 509:9 510:9 511:3 512:3 513:194 514:237 515:150 516:2 517:0 518:9 519:9 520:3 521:3 522:194 523:237 524:150 525:2 526:0 527:9 528:9 529:3 530:3 531:194 532:237 533:150 534:2 535:0 536:9 537:9 538:3 539:3 540:194 541:211 542:79 543:20 544:13 545:4 546:9 547:8 548:37 549:203 550:211 551:79 552:20 553:13 554:4 555:9 556:8 557:37 558:203 559:211 560:79 561:20 562:13 563:4 564:9 565:8 566:37 567:203 568:211 569:79 570:20 571:13 572:4 573:9 574:8 575:37 576:203 577:159 578:54 579:165 580:12 581:6 582:18 583:2 584:20 585:264 586:159 587:54 588:165 589:12 590:6 591:18 592:2 593:20 594:264 595:159 596:54 597:165 598:12 599:6 600:18 601:2 602:20 603:264 604:159 605:54 606:165 607:12 608:6 609:18 610:2 611:20 612:264 613:78 614:29 615:122 616:7 618:3 619:1 620:1 621:576 622:78 623:29 624:122 625:7 627:3 628:1 629:1 630:576 631:78 632:29 633:122 634:7 636:3 637:1 638:1 639:576 640:78 641:29 642:122 643:7 645:3 646:1 647:1 648:576 649:216 650:132 651:141 652:2 653:6 654:5 655:9 656:8 657:457 658:216 659:132 660:141 661:2 662:6 663:5 664:9 665:8 666:457 667:216 668:132 669:141 670:2 671:6 672:5 673:9 674:8 675:457 676:216 677:132 678:141 679:2 680:6 681:5 682:9 683:8 684:457 685:381 686:258 688:3 690:3 691:21 692:33 693:546 694:381 695:258 697:3 699:3 700:21 701:33 702:546 703:381 704:258 706:3 708:3 709:21 710:33 711:546 712:381 713:258 715:3 717:3 718:21 719:33 720:546 721:431 722:102 723:63 724:8 725:11 726:9 727:18 728:5 729:369 730:431 731:102 732:63 733:8 734:11 735:9 736:18 737:5 738:369 739:431 740:102 741:63 742:8 743:11 744:9 745:18 746:5 747:369 748:431 749:102 750:63 751:8 752:11 753:9 754:18 755:5 756:369 757:325 758:99 759:72 760:137 761:13 762:9 763:38 764:155 765:594 766:325 767:99 768:72 769:137 770:13 771:9 772:38 773:155 774:594 775:325 776:99 777:72 778:137 779:13 780:9 781:38 782:155 783:594 784:325 785:99 786:72 787:137 788:13 789:9 790:38 791:155 792:594 793:256 794:149 795:150 797:35 798:26 799:38 800:66 801:506 802:256 803:149 804:150 806:35 807:26 808:38 809:66 810:506 811:256 812:149 813:150 815:35 816:26 817:38 818:66 819:506 820:256 821:149 822:150 824:35 825:26 826:38 827:66 828:506 829:463 830:5 831:136 832:12 833:3 834:1 836:71 837:505 838:463 839:5 840:136 841:12 842:3 843:1 845:71 846:505 847:463 848:5 849:136 850:12 851:3 852:1 854:71 855:505 856:463 857:5 858:136 859:12 860:3 861:1 863:71 864:505 865:180 866:19 867:23 868:25 869:2 871:2 872:88 873:258 874:180 875:19 876:23 877:25 878:2 880:2 881:88 882:258 883:180 884:19 885:23 886:25 887:2 889:2 890:88 891:258 892:180 893:19 894:23 895:25 896:2 898:2 899:88 900:258 901:268 902:13 903:18 904:2 905:15 906:2 907:3 908:3 909:174 910:268 911:13 912:18 913:2 914:15 915:2 916:3 917:3 918:174 919:268 920:13 921:18 922:2 923:15 924:2 925:3 926:3 927:174 928:268 929:13 930:18 931:2 932:15 933:2 934:3 935:3 936:174 937:90 938:50 939:63 940:15 941:13 942:7 943:2 944:3 945:79 946:90 947:50 948:63 949:15 950:13 951:7 952:2 953:3 954:79 955:90 956:50 957:63 958:15 959:13 960:7 961:2 962:3 963:79 964:90 965:50 966:63 967:15 968:13 969:7 970:2 971:3 972:79 973:38 974:22 975:13 976:4 977:6 978:20 979:6 980:9 981:52 982:38 983:22 984:13 985:4 986:6 987:20 988:6 989:9 990:52 991:38 992:22 993:13 994:4 995:6 996:20 997:6 998:9 999:52 1000:38 1001:22 1002:13 1003:4 1004:6 1005:20 1006:6 1007:9 1008:52 1009:364 1010:236 1011:192 1012:42 1013:96 1014:5 1015:73 1016:100 1017:90 1018:364 1019:236 1020:192 1021:42 1022:96 1023:5 1024:73 1025:100 1026:90 1027:364 1028:236 1029:192 1030:42 1031:96 1032:5 1033:73 1034:100 1035:90 1036:364 1037:236 1038:192 1039:42 1040:96 1041:5 1042:73 1043:100 1044:90 1045:289 1046:107 1047:170 1048:85 1049:15 1050:46 1051:32 1052:39 1053:282 1054:289 1055:107 1056:170 1057:85 1058:15 1059:46 1060:32 1061:39 1062:282 1063:289 1064:107 1065:170 1066:85 1067:15 1068:46 1069:32 1070:39 1071:282 1072:289 1073:107 1074:170 1075:85 1076:15 1077:46 1078:32 1079:39 1080:282 1081:338 1082:247 1083:273 1084:19 1085:22 1087:99 1088:124 1089:193 1090:338 1091:247 1092:273 1093:19 1094:22 1096:99 1097:124 1098:193 1099:338 1100:247 1101:273 1102:19 1103:22 1105:99 1106:124 1107:193 1108:338 1109:247 1110:273 1111:19 1112:22 1114:99 1115:124 1116:193 1117:350 1118:213 1119:120 1120:126 1121:28 1122:17 1123:23 1124:32 1125:261 1126:350 1127:213 1128:120 1129:126 1130:28 1131:17 1132:23 1133:32 1134:261 1135:350 1136:213 1137:120 1138:126 1139:28 1140:17 1141:23 1142:32 1143:261 1144:350 1145:213 1146:120 1147:126 1148:28 1149:17 1150:23 1151:32 1152:261 1153:325 1154:251 1155:110 1156:107 1157:18 1158:26 1159:43 1160:95 1161:621 1162:325 1163:251 1164:110 1165:107 1166:18 1167:26 1168:43 1169:95 1170:621 1171:325 1172:251 1173:110 1174:107 1175:18 1176:26 1177:43 1178:95 1179:621 1180:325 1181:251 1182:110 1183:107 1184:18 1185:26 1186:43 1187:95 1188:621 1189:253 1190:57 1191:40 1192:167 1193:5 1194:40 1195:43 1196:153 1197:410 1198:253 1199:57 1200:40 1201:167 1202:5 1203:40 1204:43 1205:153 1206:410 1207:253 1208:57 1209:40 1210:167 1211:5 1212:40 1213:43 1214:153 1215:410 1216:253 1217:57 1218:40 1219:167 1220:5 1221:40 1222:43 1223:153 1224:410 1225:233 1226:27 1227:103 1229:7 1230:1 1231:15 1232:25 1233:609 1234:233 1235:27 1236:103 1238:7 1239:1 1240:15 1241:25 1242:609 1243:233 1244:27 1245:103 1247:7 1248:1 1249:15 1250:25 1251:609 1252:233 1253:27 1254:103 1256:7 1257:1 1258:15 1259:25 1260:609 1261:202 1262:88 1263:63 1264:27 1265:27 1266:53 1267:8 1268:37 1269:162 1270:202 1271:88 1272:63 1273:27 1274:27 1275:53 1276:8 1277:37 1278:162 1279:202 1280:88 1281:63 1282:27 1283:27 1284:53 1285:8 1286:37 1287:162 1288:202 1289:88 1290:63 1291:27 1292:27 1293:53 1294:8 1295:37 1296:162 1297:151 1298:201 1299:58 1300:34 1301:19 1302:54 1303:18 1304:82 1305:231 1306:151 1307:201 1308:58 1309:34 1310:19 1311:54 1312:18 1313:82 1314:231 1315:151 1316:201 1317:58 1318:34 1319:19 1320:54 1321:18 1322:82 1323:231 1324:151 1325:201 1326:58 1327:34 1328:19 1329:54 1330:18 1331:82 1332:231 1333:250 1334:302 1335:53 1336:80 1337:25 1338:37 1339:32 1340:36 1341:96 1342:250 1343:302 1344:53 1345:80 1346:25 1347:37 1348:32 1349:36 1350:96 1351:250 1352:302 1353:53 1354:80 1355:25 1356:37 1357:32 1358:36 1359:96 1360:250 1361:302 1362:53 1363:80 1364:25 1365:37 1366:32 1367:36 1368:96 1369:246 1370:108 1371:99 1372:23 1373:21 1374:36 1375:37 1376:33 1377:15 1378:246 1379:108 1380:99 1381:23 1382:21 1383:36 1384:37 1385:33 1386:15 1387:246 1388:108 1389:99 1390:23 1391:21 1392:36 1393:37 1394:33 1395:15 1396:246 1397:108 1398:99 1399:23 1400:21 1401:36 1402:37 1403:33 1404:15 1405:175 1406:111 1407:28 1408:28 1409:61 1410:50 1411:109 1412:78 1413:96 1414:175 1415:111 1416:28 1417:28 1418:61 1419:50 1420:109 1421:78 1422:96 1423:175 1424:111 1425:28 1426:28 1427:61 1428:50 1429:109 1430:78 1431:96 1432:175 1433:111 1434:28 1435:28 1436:61 1437:50 1438:109 1439:78 1440:96 1441:120 1442:87 1443:40 1444:10 1445:37 1446:111 1447:57 1448:76 1449:257 1450:120 1451:87 1452:40 1453:10 1454:37 1455:111 1456:57 1457:76 1458:257 1459:120 1460:87 1461:40 1462:10 1463:37 1464:111 1465:57 1466:76 1467:257 1468:120 1469:87 1470:40 1471:10 1472:37 1473:111 1474:57 1475:76 1476:257 1477:231 1478:150 1479:385 1480:37 1481:5 1482:53 1483:5 1484:124 1485:85 1486:231 1487:150 1488:385 1489:37 1490:5 1491:53 1492:5 1493:124 1494:85 1495:231 1496:150 1497:385 1498:37 1499:5 1500:53 1501:5 1502:124 1503:85 1504:231 1505:150 1506:385 1507:37 1508:5 1509:53 1510:5 1511:124 1512:85 1513:352 1514:370 1515:68 1516:70 1517:6 1518:12 1519:26 1520:61 1521:60 1522:352 1523:370 1524:68 1525:70 1526:6 1527:12 1528:26 1529:61 1530:60 1531:352 1532:370 1533:68 1534:70 1535:6 1536:12 1537:26 1538:61 1539:60 1540:352 1541:370 1542:68 1543:70 1544:6 1545:12 1546:26 1547:61 1548:60 1549:167 1550:301 1551:218 1552:51 1553:83 1554:10 1555:102 1556:71 1557:93 1558:167 1559:301 1560:218 1561:51 1562:83 1563:10 1564:102 1565:71 1566:93 1567:167 1568:301 1569:218 1570:51 1571:83 1572:10 1573:102 1574:71 1575:93 1576:167 1577:301 1578:218 1579:51 1580:83 1581:10 1582:102 1583:71 1584:93 1585:249 1586:173 1587:50 1588:60 1589:31 1590:59 1591:104 1592:43 1593:166 1594:249 1595:173 1596:50 1597:60 1598:31 1599:59 1600:104 1601:43 1602:166 1603:249 1604:173 1605:50 1606:60 1607:31 1608:59 1609:104 1610:43 1611:166 1612:249 1613:173 1614:50 1615:60 1616:31 1617:59 1618:104 1619:43 1620:166 1621:360 1622:103 1623:80 1624:118 1625:57 1626:60 1627:37 1628:146 1629:34 1630:360 1631:103 1632:80 1633:118 1634:57 1635:60 1636:37 1637:146 1638:34 1639:360 1640:103 1641:80 1642:118 1643:57 1644:60 1645:37 1646:146 1647:34 1648:360 1649:103 1650:80 1651:118 1652:57 1653:60 1654:37 1655:146 1656:34 1657:382 1658:340 1659:113 1660:52 1661:25 1662:18 1663:19 1664:43 1665:60 1666:382 1667:340 1668:113 1669:52 1670:25 1671:18 1672:19 1673:43 1674:60 1675:382 1676:340 1677:113 1678:52 1679:25 1680:18 1681:19 1682:43 1683:60 1684:382 1685:340 1686:113 1687:52 1688:25 1689:18 1690:19 1691:43 1692:60 1693:324 1694:375 1695:48 1696:10 1697:3 1698:16 1699:5 1700:20 1701:158 1702:324 1703:375 1704:48 1705:10 1706:3 1707:16 1708:5 1709:20 1710:158 1711:324 1712:375 1713:48 1714:10 1715:3 1716:16 1717:5 1718:20 1719:158 1720:324 1721:375 1722:48 1723:10 1724:3 1725:16 1726:5 1727:20 1728:158 1729:120 1730:224 1731:98 1732:4 1733:5 1734:15 1735:49 1736:52 1737:210 1738:120 1739:224 1740:98 1741:4 1742:5 1743:15 1744:49 1745:52 1746:210 1747:120 1748:224 1749:98 1750:4 1751:5 1752:15 1753:49 1754:52 1755:210 1756:120 1757:224 1758:98 1759:4 1760:5 1761:15 1762:49 1763:52 1764:210 
3.699702081346777e-15 1:206 4:52 5:35 6:115 7:98 8:66 9:376 10:206 13:52 14:35 15:115 16:98 17:66 18:376 19:206 22:52 23:35 24:115 25:98 26:66 27:376 28:206 31:52 32:35 33:115 34:98 35:66 36:376 37:84 38:53 40:5 41:94 42:16 43:32 44:94 45:99 46:84 47:53 49:5 50:94 51:16 52:32 53:94 54:99 55:84 56:53 58:5 59:94 60:16 61:32 62:94 63:99 64:84 65:53 67:5 68:94 69:16 70:32 71:94 72:99 73:136 74:38 75:58 76:11 77:78 78:28 79:189 80:122 81:443 82:136 83:38 84:58 85:11 86:78 87:28 88:189 89:122 90:443 91:136 92:38 93:58 94:11 95:78 96:28 97:189 98:122 99:443 100:136 101:38 102:58 103:11 104:78 105:28 106:189 107:122 108:443 109:126 110:172 111:124 112:19 113:44 114:89 115:160 116:267 117:188 118:126 119:172 120:124 121:19 122:44 123:89 124:160 125:267 126:188 127:126 128:172 129:124 130:19 131:44 132:89 133:160 134:267 135:188 136:126 137:172 138:124 139:19 140:44 141:89 142:160 143:267 144:188 145:189 146:127 147:142 148:40 149:168 150:77 151:329 152:346 153:224 154:189 155:127 156:142 157:40 158:168 159:77 160:329 161:346 162:224 163:189 164:127 165:142 166:40 167:168 168:77 169:329 170:346 171:224 172:189 173:127 174:142 175:40 176:168 177:77 178:329 179:346 180:224 181:139 182:13 183:39 184:42 185:81 186:53 187:78 188:139 189:131 190:139 191:13 192:39 193:42 194:81 195:53 196:78 197:139 198:131 199:139 200:13 201:39 202:42 203:81 204:53 205:78 206:139 207:131 208:139 209:13 210:39 211:42 212:81 213:53 214:78 215:139 216:131 217:90 218:57 219:1 220:21 221:9 222:15 223:9 224:39 225:36 226:90 227:57 228:1 229:21 230:9 231:15 232:9 233:39 234:36 235:90 236:57 237:1 238:21 239:9 240:15 241:9 242:39 243:36 244:90 245:57 246:1 247:21 248:9 249:15 250:9 251:39 252:36 253:245 254:68 255:63 256:5 257:3 258:4 259:2 260:43 261:528 262:245 263:68 264:63 265:5 266:3 267:4 268:2 269:43 270:528 271:245 272:68 273:63 274:5 275:3 276:4 277:2 278:43 279:528 280:245 281:68 282:63 283:5 284:3 285:4 286:2 287:43 288:528 289:337 290:51 291:24 292:2 293:22 296:10 297:326 298:337 299:51 300:24 301:2 302:22 305:10 306:326 307:337 308:51 309:24 310:2 311:22 314:10 315:326 316:337 317:51 318:24 319:2 320:22 323:10 324:326 325:138 326:31 327:27 328:9 329:62 330:4 331:0 332:29 333:340 334:138 335:31 336:27 337:9 338:62 339:4 340:0 341:29 342:340 343:138 344:31 345:27 346:9 347:62 348:4 349:0 350:29 351:340 352:138 353:31 354:27 355:9 356:62 357:4 358:0 359:29 360:340 361:366 362:10 363:108 364:22 366:7 367:151 368:57 369:490 370:366 371:10 372:108 373:22 375:7 376:151 377:57 378:490 379:366 380:10 381:108 382:22 384:7 385:151 386:57 387:490 388:366 389:10 390:108 391:22 393:7 394:151 395:57 396:490 397:130 398:158 399:35 400:9 401:15 402:12 403:22 404:88 405:248 406:130 407:158 408:35 409:9 410:15 411:12 412:22 413:88 414:248 415:130 416:158 417:35 418:9 419:15 420:12 421:22 422:88 423:248 424:130 425:158 426:35 427:9 428:15 429:12 430:22 431:88 432:248 433:419 434:69 435:23 437:3 441:47 442:419 443:69 444:23 446:3 450:47 451:419 452:69 453:23 455:3 459:47 460:419 461:69 462:23 464:3 468:47 469:408 470:9 473:3 475:0 476:2 477:141 478:408 479:9 482:3 484:0 485:2 486:141 487:408 488:9 491:3 493:0 494:2 495:141 496:408 497:9 500:3 502:0 503:2 504:141 505:276 506:11 507:15 508:60 509:7 510:9 511:10 512:37 513:303 514:276 515:11 516:15 517:60 518:7 519:9 520:10 521:37 522:303 523:276 524:11 525:15 526:60 527:7 528:9 529:10 530:37 531:303 532:276 533:11 534:15 535:60 536:7 537:9 538:10 539:37 540:303 541:293 542:82 543:1 544:26 545:28 546:11 547:12 549:227 550:293 551:82 552:1 553:26 554:28 555:11 556:12 558:227 559:293 560:82 561:1 562:26 563:28 564:11 565:12 567:227 568:293 569:82 570:1 571:26 572:28 573:11 574:12 576:227 577:218 578:51 579:69 580:0 581:12 582:6 583:2 584:2 585:176 586:218 587:51 588:69 589:0 590:12 591:6 592:2 593:2 594:176 595:218 596:51 597:69 598:0 599:12 600:6 601:2 602:2 603:176 604:218 605:51 606:69 607:0 608:12 609:6 610:2 611:2 612:176 613:125 614:16 615:98 616:8 617:2 618:19 619:1 620:9 621:299 622:125 623:16 624:98 625:8 626:2 627:19 628:1 629:9 630:299 631:125 632:16 633:98 634:8 635:2 636:19 637:1 638:9 639:299 640:125 641:16 642:98 643:8 644:2 645:19 646:1 647:9 648:299 649:249 650:60 651:72 653:13 654:6 655:7 656:21 657:301 658:249 659:60 660:72 662:13 663:6 664:7 665:21 666:301 667:249 668:60 669:72 671:13 672:6 673:7 674:21 675:301 676:249 677:60 678:72 680:13 681:6 682:7 683:21 684:301 685:382 686:70 687:71 688:4 689:9 690:6 691:13 692:3 693:338 694:382 695:70 696:71 697:4 698:9 699:6 700:13 701:3 702:338 703:382 704:70 705:71 706:4 707:9 708:6 709:13 710:3 711:338 712:382 713:70 714:71 715:4 716:9 717:6 718:13 719:3 720:338 721:418 722:213 723:7 725:4 726:8 727:0 728:19 729:318 730:418 731:213 732:7 734:4 735:8 736:0 737:19 738:318 739:418 740:213 741:7 743:4 744:8 745:0 746:19 747:318 748:418 749:213 750:7 752:4 753:8 754:0 755:19 756:318 757:312 758:177 759:159 760:42 762:62 763:62 764:214 765:195 766:312 767:177 768:159 769:42 771:62 772:62 773:214 774:195 775:312 776:177 777:159 778:42 780:62 781:62 782:214 783:195 784:312 785:177 786:159 787:42 789:62 790:62 791:214 792:195 793:200 794:93 795:147 796:122 797:14 798:22 799:69 800:127 801:401 802:200 803:93 804:147 805:122 806:14 807:22 808:69 809:127 810:401 811:200 812:93 813:147 814:122 815:14 816:22 817:69 818:127 819:401 820:200 821:93 822:147 823:122 824:14 825:22 826:69 827:127 828:401 829:346 830:205 831:32 832:83 833:27 834:13 835:9 836:140 837:583 838:346 839:205 840:32 841:83 842:27 843:13 844:9 845:140 846:583 847:346 848:205 849:32 850:83 851:27 852:13 853:9 854:140 855:583 856:346 857:205 858:32 859:83 860:27 861:13 862:9 863:140 864:583 865:380 866:28 867:134 868:130 869:44 870:20 871:12 872:33 873:486 874:380 875:28 876:134 877:130 878:44 879:20 880:12 881:33 882:486 883:380 884:28 885:134 886:130 887:44 888:20 889:12 890:33 891:486 892:380 893:28 894:134 895:130 896:44 897:20 898:12 899:33 900:486 901:445 902:13 903:25 904:3 906:0 907:1 908:55 909:361 910:445 911:13 912:25 913:3 915:0 916:1 917:55 918:361 919:445 920:13 921:25 922:3 924:0 925:1 926:55 927:361 928:445 929:13 930:25 931:3 933:0 934:1 935:55 936:361 937:96 938:20 939:8 940:38 941:14 942:0 943:10 944:75 945:245 946:96 947:20 948:8 949:38 950:14 951:0 952:10 953:75 954:245 955:96 956:20 957:8 958:38 959:14 960:0 961:10 962:75 963:245 964:96 965:20 966:8 967:38 968:14 969:0 970:10 971:75 972:245 973:241 974:33 975:2 976:18 977:1 978:5 979:5 980:3 981:15 982:241 983:33 984:2 985:18 986:1 987:5 988:5 989:3 990:15 991:241 992:33 993:2 994:18 995:1 996:5 997:5 998:3 999:15 1000:241 1001:33 1002:2 1003:18 1004:1 1005:5 1006:5 1007:3 1008:15 1009:189 1010:111 1011:57 1012:44 1013:11 1014:14 1015:34 1016:59 1017:67 1018:189 1019:111 1020:57 1021:44 1022:11 1023:14 1024:34 1025:59 1026:67 1027:189 1028:111 1029:57 1030:44 1031:11 1032:14 1033:34 1034:59 1035:67 1036:189 1037:111 1038:57 1039:44 1040:11 1041:14 1042:34 1043:59 1044:67 1045:275 1046:247 1047:103 1048:37 1049:19 1050:20 1051:41 1052:34 1053:152 1054:275 1055:247 1056:103 1057:37 1058:19 1059:20 1060:41 1061:34 1062:152 1063:275 1064:247 1065:103 1066:37 1067:19 1068:20 1069:41 1070:34 1071:152 1072:275 1073:247 1074:103 1075:37 1076:19 1077:20 1078:41 1079:34 1080:152 1081:245 1082:142 1083:110 1084:22 1085:17 1086:29 1087:12 1088:76 1089:73 1090:245 1091:142 1092:110 1093:22 1094:17 1095:29 1096:12 1097:76 1098:73 1099:245 1100:142 1101:110 1102:22 1103:17 1104:29 1105:12 1106:76 1107:73 1108:245 1109:142 1110:110 1111:22 1112:17 1113:29 1114:12 1115:76 1116:73 1117:287 1118:157 1119:57 1120:24 1121:37 1122:16 1123:103 1124:72 1125:119 1126:287 1127:157 1128:57 1129:24 1130:37 1131:16 1132:103 1133:72 1134:119 1135:287 1136:157 1137:57 1138:24 1139:37 1140:16 1141:103 1142:72 1143:119 1144:287 1145:157 1146:57 1147:24 1148:37 1149:16 1150:103 1151:72 1152:119 1153:410 1154:276 1155:82 1156:123 1157:31 1158:6 1159:53 1160:8 1161:106 1162:410 1163:276 1164:82 1165:123 1166:31 1167:6 1168:53 1169:8 1170:106 1171:410 1172:276 1173:82 1174:123 1175:31 1176:6 1177:53 1178:8 1179:106 1180:410 1181:276 1182:82 1183:123 1184:31 1185:6 1186:53 1187:8 1188:106 1189:400 1190:225 1191:266 1192:8 1193:9 1194:1 1195:15 1196:72 1197:344 1198:400 1199:225 1200:266 1201:8 1202:9 1203:1 1204:15 1205:72 1206:344 1207:400 1208:225 1209:266 1210:8 1211:9 1212:1 1213:15 1214:72 1215:344 1216:400 1217:225 1218:266 1219:8 1220:9 1221:1 1222:15 1223:72 1224:344 1225:89 1226:182 1227:147 1228:47 1231:15 1232:123 1233:520 1234:89 1235:182 1236:147 1237:47 1240:15 1241:123 1242:520 1243:89 1244:182 1245:147 1246:47 1249:15 1250:123 1251:520 1252:89 1253:182 1254:147 1255:47 1258:15 1259:123 1260:520 1261:467 1262:259 1263:80 1264:24 1265:22 1267:24 1268:26 1269:262 1270:467 1271:259 1272:80 1273:24 1274:22 1276:24 1277:26 1278:262 1279:467 1280:259 1281:80 1282:24 1283:22 1285:24 1286:26 1287:262 1288:467 1289:259 1290:80 1291:24 1292:22 1294:24 1295:26 1296:262 1297:242 1298:215 1299:30 1300:48 1301:10 1302:34 1303:25 1304:139 1305:355 1306:242 1307:215 1308:30 1309:48 1310:10 1311:34 1312:25 1313:139 1314:355 1315:242 1316:215 1317:30 1318:48 1319:10 1320:34 1321:25 1322:139 1323:355 1324:242 1325:215 1326:30 1327:48 1328:10 1329:34 1330:25 1331:139 1332:355 1333:525 1334:185 1335:32 1336:28 1337:43 1339:20 1341:230 1342:525 1343:185 1344:32 1345:28 1346:43 1348:20 1350:230 1351:525 1352:185 1353:32 1354:28 1355:43 1357:20 1359:230 1360:525 1361:185 1362:32 1363:28 1364:43 1366:20 1368:230 1369:151 1370:308 1371:125 1372:15 1373:38 1374:4 1375:42 1376:19 1377:45 1378:151 1379:308 1380:125 1381:15 1382:38 1383:4 1384:42 1385:19 1386:45 1387:151 1388:308 1389:125 1390:15 1391:38 1392:4 1393:42 1394:19 1395:45 1396:151 1397:308 1398:125 1399:15 1400:38 1401:4 1402:42 1403:19 1404:45 1405:329 1406:585 1407:76 1408:6 1409:2 1410:12 1411:48 1412:8 1413:7 1414:329 1415:585 1416:76 1417:6 1418:2 1419:12 1420:48 1421:8 1422:7 1423:329 1424:585 1425:76 1426:6 1427:2 1428:12 1429:48 1430:8 1431:7 1432:329 1433:585 1434:76 1435:6 1436:2 1437:12 1438:48 1439:8 1440:7 1441:321 1442:117 1443:113 1444:81 1445:24 1446:90 1447:36 1448:14 1449:93 1450:321 1451:117 1452:113 1453:81 1454:24 1455:90 1456:36 1457:14 1458:93 1459:321 1460:117 1461:113 1462:81 1463:24 1464:90 1465:36 1466:14 1467:93 1468:321 1469:117 1470:113 1471:81 1472:24 1473:90 1474:36 1475:14 1476:93 1477:352 1478:108 1479:90 1480:64 1481:33 1482:40 1483:16 1484:55 1485:242 1486:352 1487:108 1488:90 1489:64 1490:33 1491:40 1492:16 1493:55 1494:242 1495:352 1496:108 1497:90 1498:64 1499:33 1500:40 1501:16 1502:55 1503:242 1504:352 1505:108 1506:90 1507:64 1508:33 1509:40 1510:16 1511:55 1512:242 1513:202 1514:231 1515:86 1516:74 1517:112 1518:60 1519:83 1520:103 1521:311 1522:202 1523:231 1524:86 1525:74 1526:112 1527:60 1528:83 1529:103 1530:311 1531:202 1532:231 1533:86 1534:74 1535:112 1536:60 1537:83 1538:103 1539:311 1540:202 1541:231 1542:86 1543:74 1544:112 1545:60 1546:83 1547:103 1548:311 1549:446 1550:224 1551:164 1552:180 1553:84 1554:31 1555:27 1556:80 1557:273 1558:446 1559:224 1560:164 1561:180 1562:84 1563:31 1564:27 1565:80 1566:273 1567:446 1568:224 1569:164 1570:180 1571:84 1572:31 1573:27 1574:80 1575:273 1576:446 1577:224 1578:164 1579:180 1580:84 1581:31 1582:27 1583:80 1584:273 1585:163 1586:175 1587:106 1588:18 1589:88 1590:104 1591:129 1592:84 1593:309 1594:163 1595:175 1596:106 1597:18 1598:88 1599:104 1600:129 1601:84 1602:309 1603:163 1604:175 1605:106 1606:18 1607:88 1608:104 1609:129 1610:84 1611:309 1612:163 1613:175 1614:106 1615:18 1616:88 1617:104 1618:129 1619:84 1620:309 1621:444 1622:206 1623:51 1624:12 1625:52 1626:30 1627:23 1628:60 1629:237 1630:444 1631:206 1632:51 1633:12 1634:52 1635:30 1636:23 1637:60 1638:237 1639:444 1640:206 1641:51 1642:12 1643:52 1644:30 1645:23 1646:60 1647:237 1648:444 1649:206 1650:51 1651:12 1652:52 1653:30 1654:23 1655:60 1656:237 1657:349 1658:111 1659:119 1660:33 1661:77 1662:28 1663:45 1664:21 1665:167 1666:349 1667:111 1668:119 1669:33 1670:77 1671:28 1672:45 1673:21 1674:167 1675:349 1676:111 1677:119 1678:33 1679:77 1680:28 1681:45 1682:21 1683:167 1684:349 1685:111 1686:119 1687:33 1688:77 1689:28 1690:45 1691:21 1692:167 1693:351 1694:205 1695:65 1696:21 1697:49 1698:75 1699:105 1700:157 1701:101 1702:351 1703:205 1704:65 1705:21 1706:49 1707:75 1708:105 1709:157 1710:101 1711:351 1712:205 1713:65 1714:21 1715:49 1716:75 1717:105 1718:157 1719:101 1720:351 1721:205 1722:65 1723:21 1724:49 1725:75 1726:105 1727:157 1728:101 1729:361 1730:355 1731:143 1732:22 1733:92 1734:65 1735:27 1736:124 1737:230 1738:361 1739:355 1740:143 1741:22 1742:92 1743:65 1744:27 1745:124 1746:230 1747:361 1748:355 1749:143 1750:22 1751:92 1752:65 1753:27 1754:124 1755:230 1756:361 1757:355 1758:143 1759:22 1760:92 1761:65 1762:27 1763:124 1764:230 
5.258037117422021e-14 1:67 2:39 3:14 4:11 5:49 6:23 7:5 8:27 9:107 10:67 11:39 12:14 13:11 14:49 15:23 16:5 17:27 18:107 19:67 20:39 21:14 22:11 23:49 24:23 25:5 26:27 27:107 28:67 29:39 30:14 31:11 32:49 33:23 34:5 35:27 36:107 37:329 38:9 39:49 41:43 42:38 43:113 44:211 45:422 46:329 47:9 48:49 50:43 51:38 52:113 53:211 54:422 55:329 56:9 57:49 59:43 60:38 61:113 62:211 63:422 64:329 65:9 66:49 68:43 69:38 70:113 71:211 72:422 73:156 74:52 75:6 76:1 77:46 78:12 79:71 80:16 81:171 82:156 83:52 84:6 85:1 86:46 87:12 88:71 89:16 90:171 91:156 92:52 93:6 94:1 95:46 96:12 97:71 98:16 99:171 100:156 101:52 102:6 103:1 104:46 105:12 106:71 107:16 108:171 109:246 110:63 111:62 112:67 113:85 114:93 115:177 116:210 117:225 118:246 119:63 120:62 121:67 122:85 123:93 124:177 125:210 126:225 127:246 128:63 129:62 130:67 131:85 132:93 133:177 134:210 135:225 136:246 137:63 138:62 139:67 140:85 141:93 142:177 143:210 144:225 145:259 146:83 147:22 148:7 149:69 150:71 151:248 152:194 153:251 154:259 155:83 156:22 157:7 158:69 159:71 160:248 161:194 162:251 163:259 164:83 165:22 166:7 167:69 168:71 169:248 170:194 171:251 172:259 173:83 174:22 175:7 176:69 177:71 178:248 179:194 180:251 181:289 182:101 183:104 184:189 185:123 186:87 187:235 188:126 189:212 190:289 191:101 192:104 193:189 194:123 195:87 196:235 197:126 198:212 199:289 200:101 201:104 202:189 203:123 204:87 205:235 206:126 207:212 208:289 209:101 210:104 211:189 212:123 213:87 214:235 215:126 216:212 217:283 218:3 219:92 220:113 221:88 222:78 223:233 224:175 225:451 226:283 227:3 228:92 229:113 230:88 231:78 232:233 233:175 234:451 235:283 236:3 237:92 238:113 239:88 240:78 241:233 242:175 243:451 244:283 245:3 246:92 247:113 248:88 249:78 250:233 251:175 252:451 253:516 254:126 255:59 256:7 257:11 258:10 259:3 261:426 262:516 263:126 264:59 265:7 266:11 267:10 268:3 270:426 271:516 272:126 273:59 274:7 275:11 276:10 277:3 279:426 280:516 281:126 282:59 283:7 284:11 285:10 286:3 288:426 289:293 290:71 291:12 292:4 293:1 294:12 295:12 296:49 297:439 298:293 299:71 300:12 301:4 302:1 303:12 304:12 305:49 306:439 307:293 308:71 309:12 310:4 311:1 312:12 313:12 314:49 315:439 316:293 317:71 318:12 319:4 320:1 321:12 322:12 323:49 324:439 325:232 326:92 327:34 329:8 330:9 331:11 332:55 333:191 334:232 335:92 336:34 338:8 339:9 340:11 341:55 342:191 343:232 344:92 345:34 347:8 348:9 349:11 350:55 351:191 352:232 353:92 354:34 356:8 357:9 358:11 359:55 360:191 361:225 362:78 363:16 364:10 365:17 366:3 367:32 368:64 369:189 370:225 371:78 372:16 373:10 374:17 375:3 376:32 377:64 378:189 379:225 380:78 381:16 382:10 383:17 384:3 385:32 386:64 387:189 388:225 389:78 390:16 391:10 392:17 393:3 394:32 395:64 396:189 397:298 398:50 399:48 400:36 402:7 403:4 404:39 405:440 406:298 407:50 408:48 409:36 411:7 412:4 413:39 414:440 415:298 416:50 417:48 418:36 420:7 421:4 422:39 423:440 424:298 425:50 426:48 427:36 429:7 430:4 431:39 432:440 433:192 434:29 435:19 436:27 437:13 439:125 440:70 441:478 442:192 443:29 444:19 445:27 446:13 448:125 449:70 450:478 451:192 452:29 453:19 454:27 455:13 457:125 458:70 459:478 460:192 461:29 462:19 463:27 464:13 466:125 467:70 468:478 469:217 470:98 471:7 475:19 476:10 477:156 478:217 479:98 480:7 484:19 485:10 486:156 487:217 488:98 489:7 493:19 494:10 495:156 496:217 497:98 498:7 502:19 503:10 504:156 505:189 506:53 507:21 508:17 509:7 510:22 511:36 512:41 513:274 514:189 515:53 516:21 517:17 518:7 519:22 520:36 521:41 522:274 523:189 524:53 525:21 526:17 527:7 528:22 529:36 530:41 531:274 532:189 533:53 534:21 535:17 536:7 537:22 538:36 539:41 540:274 541:198 542:70 543:59 544:57 545:22 546:13 547:12 548:20 549:198 550:198 551:70 552:59 553:57 554:22 555:13 556:12 557:20 558:198 559:198 560:70 561:59 562:57 563:22 564:13 565:12 566:20 567:198 568:198 569:70 570:59 571:57 572:22 573:13 574:12 575:20 576:198 577:200 578:39 579:45 580:3 581:9 582:2 583:0 585:220 586:200 587:39 588:45 589:3 590:9 591:2 592:0 594:220 595:200 596:39 597:45 598:3 599:9 600:2 601:0 603:220 604:200 605:39 606:45 607:3 608:9 609:2 610:0 612:220 613:161 614:72 615:13 616:0 617:1 618:8 619:2 620:6 621:264 622:161 623:72 624:13 625:0 626:1 627:8 628:2 629:6 630:264 631:161 632:72 633:13 634:0 635:1 636:8 637:2 638:6 639:264 640:161 641:72 642:13 643:0 644:1 645:8 646:2 647:6 648:264 649:217 650:54 651:66 652:12 653:9 654:3 655:3 656:7 657:302 658:217 659:54 660:66 661:12 662:9 663:3 664:3 665:7 666:302 667:217 668:54 669:66 670:12 671:9 672:3 673:3 674:7 675:302 676:217 677:54 678:66 679:12 680:9 681:3 682:3 683:7 684:302 685:296 686:70 687:65 688:7 689:15 690:5 691:18 692:9 693:368 694:296 695:70 696:65 697:7 698:15 699:5 700:18 701:9 702:368 703:296 704:70 705:65 706:7 707:15 708:5 709:18 710:9 711:368 712:296 713:70 714:65 715:7 716:15 717:5 718:18 719:9 720:368 721:363 722:229 723:24 724:12 725:12 727:1 728:4 729:490 730:363 731:229 732:24 733:12 734:12 736:1 737:4 738:490 739:363 740:229 741:24 742:12 743:12 745:1 746:4 747:490 748:363 749:229 750:24 751:12 752:12 754:1 755:4 756:490 757:347 758:317 759:33 760:24 761:46 762:39 764:133 765:132 766:347 767:317 768:33 769:24 770:46 771:39 773:133 774:132 775:347 776:317 777:33 778:24 779:46 780:39 782:133 783:132 784:347 785:317 786:33 787:24 788:46 789:39 791:133 792:132 793:166 794:142 795:150 796:163 797:34 798:13 799:102 800:144 801:424 802:166 803:142 804:150 805:163 806:34 807:13 808:102 809:144 810:424 811:166 812:142 813:150 814:163 815:34 816:13 817:102 818:144 819:424 820:166 821:142 822:150 823:163 824:34 825:13 826:102 827:144 828:424 829:341 830:159 831:138 832:123 834:25 835:40 836:84 837:488 838:341 839:159 840:138 841:123 843:25 844:40 845:84 846:488 847:341 848:159 849:138 850:123 852:25 853:40 854:84 855:488 856:341 857:159 858:138 859:123 861:25 862:40 863:84 864:488 865:355 866:48 867:202 868:2 869:45 870:3 871:24 872:75 873:597 874:355 875:48 876:202 877:2 878:45 879:3 880:24 881:75 882:597 883:355 884:48 885:202 886:2 887:45 888:3 889:24 890:75 891:597 892:355 893:48 894:202 895:2 896:45 897:3 898:24 899:75 900:597 901:317 902:16 903:48 904:52 905:3 906:7 907:0 908:47 909:437 910:317 911:16 912:48 913:52 914:3 915:7 916:0 917:47 918:437 919:317 920:16 921:48 922:52 923:3 924:7 925:0 926:47 927:437 928:317 929:16 930:48 931:52 932:3 933:7 934:0 935:47 936:437 937:212 938:76 939:4 940:3 941:17 942:4 943:1 944:19 945:410 946:212 947:76 948:4 949:3 950:17 951:4 952:1 953:19 954:410 955:212 956:76 957:4 958:3 959:17 960:4 961:1 962:19 963:410 964:212 965:76 966:4 967:3 968:17 969:4 970:1 971:19 972:410 973:76 974:43 975:24 976:23 977:14 978:7 979:2 980:46 981:30 982:76 983:43 984:24 985:23 986:14 987:7 988:2 989:46 990:30 991:76 992:43 993:24 994:23 995:14 996:7 997:2 998:46 999:30 1000:76 1001:43 1002:24 1003:23 1004:14 1005:7 1006:2 1007:46 1008:30 1009:196 1010:194 1011:320 1012:143 1013:35 1014:50 1015:44 1016:39 1017:204 1018:196 1019:194 1020:320 1021:143 1022:35 1023:50 1024:44 1025:39 1026:204 1027:196 1028:194 1029:320 1030:143 1031:35 1032:50 1033:44 1034:39 1035:204 1036:196 1037:194 1038:320 1039:143 1040:35 1041:50 1042:44 1043:39 1044:204 1045:244 1046:215 1047:120 1048:53 1049:167 1050:55 1051:44 1052:186 1053:193 1054:244 1055:215 1056:120 1057:53 1058:167 1059:55 1060:44 1061:186 1062:193 1063:244 1064:215 1065:120 1066:53 1067:167 1068:55 1069:44 1070:186 1071:193 1072:244 1073:215 1074:120 1075:53 1076:167 1077:55 1078:44 1079:186 1080:193 1081:169 1082:182 1083:183 1084:65 1085:82 1086:69 1087:116 1088:58 1089:172 1090:169 1091:182 1092:183 1093:65 1094:82 1095:69 1096:116 1097:58 1098:172 1099:169 1100:182 1101:183 1102:65 1103:82 1104:69 1105:116 1106:58 1107:172 1108:169 1109:182 1110:183 1111:65 1112:82 1113:69 1114:116 1115:58 1116:172 1117:319 1118:208 1119:25 1120:58 1121:11 1123:26 1124:82 1125:214 1126:319 1127:208 1128:25 1129:58 1130:11 1132:26 1133:82 1134:214 1135:319 1136:208 1137:25 1138:58 1139:11 1141:26 1142:82 1143:214 1144:319 1145:208 1146:25 1147:58 1148:11 1150:26 1151:82 1152:214 1153:272 1154:255 1155:130 1156:172 1157:9 1158:27 1159:44 1160:82 1161:214 1162:272 1163:255 1164:130 1165:172 1166:9 1167:27 1168:44 1169:82 1170:214 1171:272 1172:255 1173:130 1174:172 1175:9 1176:27 1177:44 1178:82 1179:214 1180:272 1181:255 1182:130 1183:172 1184:9 1185:27 1186:44 1187:82 1188:214 1189:373 1190:311 1191:112 1192:6 1193:20 1194:12 1195:9 1196:91 1197:384 1198:373 1199:311 1200:112 1201:6 1202:20 1203:12 1204:9 1205:91 1206:384 1207:373 1208:311 1209:112 1210:6 1211:20 1212:12 1213:9 1214:91 1215:384 1216:373 1217:311 1218:112 1219:6 1220:20 1221:12 1222:9 1223:91 1224:384 1225:391 1226:102 1227:174 1228:55 1229:5 1230:7 1231:27 1232:103 1233:312 1234:391 1235:102 1236:174 1237:55 1238:5 1239:7 1240:27 1241:103 1242:312 1243:391 1244:102 1245:174 1246:55 1247:5 1248:7 1249:27 1250:103 1251:312 1252:391 1253:102 1254:174 1255:55 1256:5 1257:7 1258:27 1259:103 1260:312 1261:285 1262:83 1263:11 1264:6 1265:12 1266:33 1267:42 1268:54 1269:276 1270:285 1271:83 1272:11 1273:6 1274:12 1275:33 1276:42 1277:54 1278:276 1279:285 1280:83 1281:11 1282:6 1283:12 1284:33 1285:42 1286:54 1287:276 1288:285 1289:83 1290:11 1291:6 1292:12 1293:33 1294:42 1295:54 1296:276 1297:172 1298:113 1299:83 1300:38 1301:66 1302:39 1303:80 1304:43 1305:110 1306:172 1307:113 1308:83 1309:38 1310:66 1311:39 1312:80 1313:43 1314:110 1315:172 1316:113 1317:83 1318:38 1319:66 1320:39 1321:80 1322:43 1323:110 1324:172 1325:113 1326:83 1327:38 1328:66 1329:39 1330:80 1331:43 1332:110 1333:178 1334:306 1335:29 1336:40 1337:16 1338:34 1339:63 1340:6 1341:168 1342:178 1343:306 1344:29 1345:40 1346:16 1347:34 1348:63 1349:6 1350:168 1351:178 1352:306 1353:29 1354:40 1355:16 1356:34 1357:63 1358:6 1359:168 1360:178 1361:306 1362:29 1363:40 1364:16 1365:34 1366:63 1367:6 1368:168 1369:253 1370:66 1371:113 1372:33 1373:58 1374:26 1375:17 1376:17 1377:68 1378:253 1379:66 1380:113 1381:33 1382:58 1383:26 1384:17 1385:17 1386:68 1387:253 1388:66 1389:113 1390:33 1391:58 1392:26 1393:17 1394:17 1395:68 1396:253 1397:66 1398:113 1399:33 1400:58 1401:26 1402:17 1403:17 1404:68 1405:292 1406:176 1407:55 1408:44 1409:19 1410:25 1411:22 1412:57 1413:39 1414:292 1415:176 1416:55 1417:44 1418:19 1419:25 1420:22 1421:57 1422:39 1423:292 1424:176 1425:55 1426:44 1427:19 1428:25 1429:22 1430:57 1431:39 1432:292 1433:176 1434:55 1435:44 1436:19 1437:25 1438:22 1439:57 1440:39 1441:390 1442:406 1443:5 1444:11 1445:31 1446:63 1447:19 1448:14 1449:81 1450:390 1451:406 1452:5 1453:11 1454:31 1455:63 1456:19 1457:14 1458:81 1459:390 1460:406 1461:5 1462:11 1463:31 1464:63 1465:19 1466:14 1467:81 1468:390 1469:406 1470:5 1471:11 1472:31 1473:63 1474:19 1475:14 1476:81 1477:166 1478:133 1479:129 1480:48 1481:52 1482:89 1483:80 1484:80 1485:298 1486:166 1487:133 1488:129 1489:48 1490:52 1491:89 1492:80 1493:80 1494:298 1495:166 1496:133 1497:129 1498:48 1499:52 1500:89 1501:80 1502:80 1503:298 1504:166 1505:133 1506:129 1507:48 1508:52 1509:89 1510:80 1511:80 1512:298 1513:223 1514:207 1515:36 1516:73 1517:68 1518:68 1519:56 1520:108 1521:276 1522:223 1523:207 1524:36 1525:73 1526:68 1527:68 1528:56 1529:108 1530:276 1531:223 1532:207 1533:36 1534:73 1535:68 1536:68 1537:56 1538:108 1539:276 1540:223 1541:207 1542:36 1543:73 1544:68 1545:68 1546:56 1547:108 1548:276 1549:330 1550:286 1551:81 1552:15 1553:36 1554:12 1555:27 1556:46 1557:149 1558:330 1559:286 1560:81 1561:15 1562:36 1563:12 1564:27 1565:46 1566:149 1567:330 1568:286 1569:81 1570:15 1571:36 1572:12 1573:27 1574:46 1575:149 1576:330 1577:286 1578:81 1579:15 1580:36 1581:12 1582:27 1583:46 1584:149 1585:417 1586:186 1587:25 1589:54 1590:37 1591:91 1592:44 1593:118 1594:417 1595:186 1596:25 1598:54 1599:37 1600:91 1601:44 1602:118 1603:417 1604:186 1605:25 1607:54 1608:37 1609:91 1610:44 1611:118 1612:417 1613:186 1614:25 1616:54 1617:37 1618:91 1619:44 1620:118 1621:268 1622:319 1623:162 1624:31 1625:108 1626:90 1627:114 1628:87 1629:140 1630:268 1631:319 1632:162 1633:31 1634:108 1635:90 1636:114 1637:87 1638:140 1639:268 1640:319 1641:162 1642:31 1643:108 1644:90 1645:114 1646:87 1647:140 1648:268 1649:319 1650:162 1651:31 1652:108 1653:90 1654:114 1655:87 1656:140 1657:311 1658:407 1659:101 1660:18 1661:64 1662:69 1663:14 1664:40 1665:162 1666:311 1667:407 1668:101 1669:18 1670:64 1671:69 1672:14 1673:40 1674:162 1675:311 1676:407 1677:101 1678:18 1679:64 1680:69 1681:14 1682:40 1683:162 1684:311 1685:407 1686:101 1687:18 1688:64 1689:69 1690:14 1691:40 1692:162 1693:251 1694:234 1695:117 1696:79 1697:37 1698:16 1699:108 1700:108 1701:168 1702:251 1703:234 1704:117 1705:79 1706:37 1707:16 1708:108 1709:108 1710:168 1711:251 1712:234 1713:117 1714:79 1715:37 1716:16 1717:108 1718:108 1719:168 1720:251 1721:234 1722:117 1723:79 1724:37 1725:16 1726:108 1727:108 1728:168 1729:424 1730:75 1731:93 1732:9 1733:28 1734:2 1735:15 1736:89 1737:193 1738:424 1739:75 1740:93 1741:9 1742:28 1743:2 1744:15 1745:89 1746:193 1747:424 1748:75 1749:93 1750:9 1751:28 1752:2 1753:15 1754:89 1755:193 1756:424 1757:75 1758:93 1759:9 1760:28 1761:2 1762:15 1763:89 1764:193 
4.543781807254236e-14 1:103 2:73 3:80 4:9 5:64 6:118 7:74 8:219 9:94 10:103 11:73 12:80 13:9 14:64 15:118 16:74 17:219 18:94 19:103 20:73 21:80 22:9 23:64 24:118 25:74 26:219 27:94 28:103 29:73 30:80 31:9 32:64 33:118 34:74 35:219 36:94 37:57 38:36 39:30 40:36 41:16 42:20 43:12 44:54 45:133 46:57 47:36 48:30 49:36 50:16 51:20 52:12 53:54 54:133 55:57 56:36 57:30 58:36 59:16 60:20 61:12 62:54 63:133 64:57 65:36 66:30 67:36 68:16 69:20 70:12 71:54 72:133 73:266 74:219 75:80 76:48 77:125 78:44 79:106 80:158 81:298 82:266 83:219 84:80 85:48 86:125 87:44 88:106 89:158 90:298 91:266 92:219 93:80 94:48 95:125 96:44 97:106 98:158 99:298 100:266 101:219 102:80 103:48 104:125 105:44 106:106 107:158 108:298 109:108 110:58 111:42 112:4 113:29 114:44 115:155 116:136 117:189 118:108 119:58 120:42 121:4 122:29 123:44 124:155 125:136 126:189 127:108 128:58 129:42 130:4 131:29 132:44 133:155 134:136 135:189 136:108 137:58 138:42 139:4 140:29 141:44 142:155 143:136 144:189 145:113 146:28 147:74 148:113 149:85 150:105 151:82 152:144 153:204 154:113 155:28 156:74 157:113 158:85 159:105 160:82 161:144 162:204 163:113 164:28 165:74 166:113 167:85 168:105 169:82 170:144 171:204 172:113 173:28 174:74 175:113 176:85 177:105 178:82 179:144 180:204 181:157 182:120 183:59 184:61 185:14 186:35 187:124 188:323 189:255 190:157 191:120 192:59 193:61 194:14 195:35 196:124 197:323 198:255 199:157 200:120 201:59 202:61 203:14 204:35 205:124 206:323 207:255 208:157 209:120 210:59 211:61 212:14 213:35 214:124 215:323 216:255 217:216 218:77 219:25 220:69 221:66 222:43 223:208 224:229 225:237 226:216 227:77 228:25 229:69 230:66 231:43 232:208 233:229 234:237 235:216 236:77 237:25 238:69 239:66 240:43 241:208 242:229 243:237 244:216 245:77 246:25 247:69 248:66 249:43 250:208 251:229 252:237 253:216 254:208 255:100 256:21 257:3 258:5 260:44 261:640 262:216 263:208 264:100 265:21 266:3 267:5 269:44 270:640 271:216 272:208 273:100 274:21 275:3 276:5 278:44 279:640 280:216 281:208 282:100 283:21 284:3 285:5 287:44 288:640 289:428 290:79 291:7 292:15 294:6 296:20 297:345 298:428 299:79 300:7 301:15 303:6 305:20 306:345 307:428 308:79 309:7 310:15 312:6 314:20 315:345 316:428 317:79 318:7 319:15 321:6 323:20 324:345 325:263 326:18 327:34 328:8 329:13 330:4 331:13 332:43 333:212 334:263 335:18 336:34 337:8 338:13 339:4 340:13 341:43 342:212 343:263 344:18 345:34 346:8 347:13 348:4 349:13 350:43 351:212 352:263 353:18 354:34 355:8 356:13 357:4 358:13 359:43 360:212 361:198 362:78 363:16 365:4 366:1 367:32 368:45 369:281 370:198 371:78 372:16 374:4 375:1 376:32 377:45 378:281 379:198 380:78 381:16 383:4 384:1 385:32 386:45 387:281 388:198 389:78 390:16 392:4 393:1 394:32 395:45 396:281 397:272 398:93 399:36 400:30 401:11 402:9 403:3 404:81 405:177 406:272 407:93 408:36 409:30 410:11 411:9 412:3 413:81 414:177 415:272 416:93 417:36 418:30 419:11 420:9 421:3 422:81 423:177 424:272 425:93 426:36 427:30 428:11 429:9 430:3 431:81 432:177 433:261 434:47 435:11 436:27 437:40 438:4 440:69 441:218 442:261 443:47 444:11 445:27 446:40 447:4 449:69 450:218 451:261 452:47 453:11 454:27 455:40 456:4 458:69 459:218 460:261 461:47 462:11 463:27 464:40 465:4 467:69 468:218 469:180 470:125 471:211 472:2 474:10 475:124 476:138 477:486 478:180 479:125 480:211 481:2 483:10 484:124 485:138 486:486 487:180 488:125 489:211 490:2 492:10 493:124 494:138 495:486 496:180 497:125 498:211 499:2 501:10 502:124 503:138 504:486 505:228 506:82 507:57 508:40 509:60 510:29 511:34 512:19 513:140 514:228 515:82 516:57 517:40 518:60 519:29 520:34 521:19 522:140 523:228 524:82 525:57 526:40 527:60 528:29 529:34 530:19 531:140 532:228 533:82 534:57 535:40 536:60 537:29 538:34 539:19 540:140 541:171 542:75 543:57 544:14 545:6 546:3 547:6 548:20 549:182 550:171 551:75 552:57 553:14 554:6 555:3 556:6 557:20 558:182 559:171 560:75 561:57 562:14 563:6 564:3 565:6 566:20 567:182 568:171 569:75 570:57 571:14 572:6 573:3 574:6 575:20 576:182 577:225 578:53 579:54 580:11 581:5 582:5 583:0 584:0 585:262 586:225 587:53 588:54 589:11 590:5 591:5 592:0 593:0 594:262 595:225 596:53 597:54 598:11 599:5 600:5 601:0 602:0 603:262 604:225 605:53 606:54 607:11 608:5 609:5 610:0 611:0 612:262 613:280 614:93 615:5 616:14 617:4 618:4 619:5 620:4 621:162 622:280 623:93 624:5 625:14 626:4 627:4 628:5 629:4 630:162 631:280 632:93 633:5 634:14 635:4 636:4 637:5 638:4 639:162 640:280 641:93 642:5 643:14 644:4 645:4 646:5 647:4 648:162 649:237 650:135 651:11 652:17 653:8 654:12 655:4 656:1 657:278 658:237 659:135 660:11 661:17 662:8 663:12 664:4 665:1 666:278 667:237 668:135 669:11 670:17 671:8 672:12 673:4 674:1 675:278 676:237 677:135 678:11 679:17 680:8 681:12 682:4 683:1 684:278 685:180 686:53 687:68 688:11 689:16 690:9 691:0 692:9 693:458 694:180 695:53 696:68 697:11 698:16 699:9 700:0 701:9 702:458 703:180 704:53 705:68 706:11 707:16 708:9 709:0 710:9 711:458 712:180 713:53 714:68 715:11 716:16 717:9 718:0 719:9 720:458 721:303 722:179 723:71 724:34 725:18 726:8 727:4 728:3 729:436 730:303 731:179 732:71 733:34 734:18 735:8 736:4 737:3 738:436 739:303 740:179 741:71 742:34 743:18 744:8 745:4 746:3 747:436 748:303 749:179 750:71 751:34 752:18 753:8 754:4 755:3 756:436 757:457 758:156 759:212 760:216 761:0 762:12 763:140 764:100 765:153 766:457 767:156 768:212 769:216 770:0 771:12 772:140 773:100 774:153 775:457 776:156 777:212 778:216 779:0 780:12 781:140 782:100 783:153 784:457 785:156 786:212 787:216 788:0 789:12 790:140 791:100 792:153 793:231 794:208 795:4 796:142 797:4 798:25 799:77 800:82 801:492 802:231 803:208 804:4 805:142 806:4 807:25 808:77 809:82 810:492 811:231 812:208 813:4 814:142 815:4 816:25 817:77 818:82 819:492 820:231 821:208 822:4 823:142 824:4 825:25 826:77 827:82 828:492 829:350 830:256 831:233 832:9 833:15 834:47 835:90 836:42 837:395 838:350 839:256 840:233 841:9 842:15 843:47 844:90 845:42 846:395 847:350 848:256 849:233 850:9 851:15 852:47 853:90 854:42 855:395 856:350 857:256 858:233 859:9 860:15 861:47 862:90 863:42 864:395 865:537 866:110 867:244 868:63 869:21 870:16 871:33 872:178 873:413 874:537 875:110 876:244 877:63 878:21 879:16 880:33 881:178 882:413 883:537 884:110 885:244 886:63 887:21 888:16 889:33 890:178 891:413 892:537 893:110 894:244 895:63 896:21 897:16 898:33 899:178 900:413 901:277 902:47 903:69 904:55 905:43 906:29 907:24 908:46 909:443 910:277 911:47 912:69 913:55 914:43 915:29 916:24 917:46 918:443 919:277 920:47 921:69 922:55 923:43 924:29 925:24 926:46 927:443 928:277 929:47 930:69 931:55 932:43 933:29 934:24 935:46 936:443 937:328 938:5 939:12 940:2 941:16 942:2 943:13 944:38 945:357 946:328 947:5 948:12 949:2 950:16 951:2 952:13 953:38 954:357 955:328 956:5 957:12 958:2 959:16 960:2 961:13 962:38 963:357 964:328 965:5 966:12 967:2 968:16 969:2 970:13 971:38 972:357 973:97 974:6 975:55 976:15 977:24 978:15 979:3 980:19 981:91 982:97 983:6 984:55 985:15 986:24 987:15 988:3 989:19 990:91 991:97 992:6 993:55 994:15 995:24 996:15 997:3 998:19 999:91 1000:97 1001:6 1002:55 1003:15 1004:24 1005:15 1006:3 1007:19 1008:91 1009:208 1010:194 1011:89 1012:22 1013:23 1014:62 1015:34 1016:15 1017:258 1018:208 1019:194 1020:89 1021:22 1022:23 1023:62 1024:34 1025:15 1026:258 1027:208 1028:194 1029:89 1030:22 1031:23 1032:62 1033:34 1034:15 1035:258 1036:208 1037:194 1038:89 1039:22 1040:23 1041:62 1042:34 1043:15 1044:258 1045:292 1046:260 1047:77 1048:38 1049:15 1051:58 1052:21 1053:233 1054:292 1055:260 1056:77 1057:38 1058:15 1060:58 1061:21 1062:233 1063:292 1064:260 1065:77 1066:38 1067:15 1069:58 1070:21 1071:233 1072:292 1073:260 1074:77 1075:38 1076:15 1078:58 1079:21 1080:233 1081:170 1082:173 1083:69 1084:112 1085:109 1086:50 1087:85 1088:59 1089:123 1090:170 1091:173 1092:69 1093:112 1094:109 1095:50 1096:85 1097:59 1098:123 1099:170 1100:173 1101:69 1102:112 1103:109 1104:50 1105:85 1106:59 1107:123 1108:170 1109:173 1110:69 1111:112 1112:109 1113:50 1114:85 1115:59 1116:123 1117:162 1118:196 1119:27 1120:45 1121:90 1122:76 1123:48 1124:34 1125:74 1126:162 1127:196 1128:27 1129:45 1130:90 1131:76 1132:48 1133:34 1134:74 1135:162 1136:196 1137:27 1138:45 1139:90 1140:76 1141:48 1142:34 1143:74 1144:162 1145:196 1146:27 1147:45 1148:90 1149:76 1150:48 1151:34 1152:74 1153:183 1154:275 1155:378 1156:35 1157:15 1158:18 1159:61 1160:18 1161:179 1162:183 1163:275 1164:378 1165:35 1166:15 1167:18 1168:61 1169:18 1170:179 1171:183 1172:275 1173:378 1174:35 1175:15 1176:18 1177:61 1178:18 1179:179 1180:183 1181:275 1182:378 1183:35 1184:15 1185:18 1186:61 1187:18 1188:179 1189:253 1190:295 1191:214 1192:8 1193:7 1194:20 1195:25 1196:68 1197:410 1198:253 1199:295 1200:214 1201:8 1202:7 1203:20 1204:25 1205:68 1206:410 1207:253 1208:295 1209:214 1210:8 1211:7 1212:20 1213:25 1214:68 1215:410 1216:253 1217:295 1218:214 1219:8 1220:7 1221:20 1222:25 1223:68 1224:410 1225:323 1226:227 1227:126 1228:51 1229:13 1230:9 1231:3 1232:94 1233:347 1234:323 1235:227 1236:126 1237:51 1238:13 1239:9 1240:3 1241:94 1242:347 1243:323 1244:227 1245:126 1246:51 1247:13 1248:9 1249:3 1250:94 1251:347 1252:323 1253:227 1254:126 1255:51 1256:13 1257:9 1258:3 1259:94 1260:347 1261:370 1262:248 1263:38 1264:49 1265:24 1266:62 1267:34 1268:106 1269:137 1270:370 1271:248 1272:38 1273:49 1274:24 1275:62 1276:34 1277:106 1278:137 1279:370 1280:248 1281:38 1282:49 1283:24 1284:62 1285:34 1286:106 1287:137 1288:370 1289:248 1290:38 1291:49 1292:24 1293:62 1294:34 1295:106 1296:137 1297:113 1298:132 1299:101 1300:33 1301:32 1302:15 1303:40 1304:47 1305:139 1306:113 1307:132 1308:101 1309:33 1310:32 1311:15 1312:40 1313:47 1314:139 1315:113 1316:132 1317:101 1318:33 1319:32 1320:15 1321:40 1322:47 1323:139 1324:113 1325:132 1326:101 1327:33 1328:32 1329:15 1330:40 1331:47 1332:139 1333:273 1334:218 1335:123 1336:84 1337:36 1338:29 1339:13 1340:7 1341:90 1342:273 1343:218 1344:123 1345:84 1346:36 1347:29 1348:13 1349:7 1350:90 1351:273 1352:218 1353:123 1354:84 1355:36 1356:29 1357:13 1358:7 1359:90 1360:273 1361:218 1362:123 1363:84 1364:36 1365:29 1366:13 1367:7 1368:90 1369:250 1370:234 1371:168 1372:38 1373:28 1374:28 1375:12 1376:8 1377:119 1378:250 1379:234 1380:168 1381:38 1382:28 1383:28 1384:12 1385:8 1386:119 1387:250 1388:234 1389:168 1390:38 1391:28 1392:28 1393:12 1394:8 1395:119 1396:250 1397:234 1398:168 1399:38 1400:28 1401:28 1402:12 1403:8 1404:119 1405:149 1406:202 1407:151 1408:24 1409:64 1410:23 1411:10 1412:40 1413:62 1414:149 1415:202 1416:151 1417:24 1418:64 1419:23 1420:10 1421:40 1422:62 1423:149 1424:202 1425:151 1426:24 1427:64 1428:23 1429:10 1430:40 1431:62 1432:149 1433:202 1434:151 1435:24 1436:64 1437:23 1438:10 1439:40 1440:62 1441:320 1442:206 1443:43 1444:66 1445:19 1446:30 1447:8 1448:58 1449:204 1450:320 1451:206 1452:43 1453:66 1454:19 1455:30 1456:8 1457:58 1458:204 1459:320 1460:206 1461:43 1462:66 1463:19 1464:30 1465:8 1466:58 1467:204 1468:320 1469:206 1470:43 1471:66 1472:19 1473:30 1474:8 1475:58 1476:204 1477:116 1478:252 1479:62 1480:44 1481:114 1482:79 1483:50 1484:91 1485:216 1486:116 1487:252 1488:62 1489:44 1490:114 1491:79 1492:50 1493:91 1494:216 1495:116 1496:252 1497:62 1498:44 1499:114 1500:79 1501:50 1502:91 1503:216 1504:116 1505:252 1506:62 1507:44 1508:114 1509:79 1510:50 1511:91 1512:216 1513:340 1514:183 1515:74 1516:99 1517:15 1518:31 1519:97 1520:174 1521:248 1522:340 1523:183 1524:74 1525:99 1526:15 1527:31 1528:97 1529:174 1530:248 1531:340 1532:183 1533:74 1534:99 1535:15 1536:31 1537:97 1538:174 1539:248 1540:340 1541:183 1542:74 1543:99 1544:15 1545:31 1546:97 1547:174 1548:248 1549:294 1550:102 1551:55 1552:155 1553:152 1554:72 1555:15 1556:69 1557:65 1558:294 1559:102 1560:55 1561:155 1562:152 1563:72 1564:15 1565:69 1566:65 1567:294 1568:102 1569:55 1570:155 1571:152 1572:72 1573:15 1574:69 1575:65 1576:294 1577:102 1578:55 1579:155 1580:152 1581:72 1582:15 1583:69 1584:65 1585:266 1586:579 1587:274 1588:83 1589:45 1590:45 1591:43 1592:80 1593:124 1594:266 1595:579 1596:274 1597:83 1598:45 1599:45 1600:43 1601:80 1602:124 1603:266 1604:579 1605:274 1606:83 1607:45 1608:45 1609:43 1610:80 1611:124 1612:266 1613:579 1614:274 1615:83 1616:45 1617:45 1618:43 1619:80 1620:124 1621:149 1622:135 1623:80 1624:80 1625:90 1626:74 1627:85 1628:112 1629:179 1630:149 1631:135 1632:80 1633:80 1634:90 1635:74 1636:85 1637:112 1638:179 1639:149 1640:135 1641:80 1642:80 1643:90 1644:74 1645:85 1646:112 1647:179 1648:149 1649:135 1650:80 1651:80 1652:90 1653:74 1654:85 1655:112 1656:179 1657:236 1658:364 1659:119 1660:82 1661:59 1662:18 1663:59 1664:40 1665:19 1666:236 1667:364 1668:119 1669:82 1670:59 1671:18 1672:59 1673:40 1674:19 1675:236 1676:364 1677:119 1678:82 1679:59 1680:18 1681:59 1682:40 1683:19 1684:236 1685:364 1686:119 1687:82 1688:59 1689:18 1690:59 1691:40 1692:19 1693:421 1694:110 1695:82 1696:55 1697:4 1698:24 1699:14 1700:27 1701:131 1702:421 1703:110 1704:82 1705:55 1706:4 1707:24 1708:14 1709:27 1710:131 1711:421 1712:110 1713:82 1714:55 1715:4 1716:24 1717:14 1718:27 1719:131 1720:421 1721:110 1722:82 1723:55 1724:4 1725:24 1726:14 1727:27 1728:131 1729:72 1730:196 1731:178 1732:168 1733:26 1734:13 1735:184 1736:88 1737:80 1738:72 1739:196 1740:178 1741:168 1742:26 1743:13 1744:184 1745:88 1746:80 1747:72 1748:196 1749:178 1750:168 1751:26 1752:13 1753:184 1754:88 1755:80 1756:72 1757:196 1758:178 1759:168 1760:26 1761:13 1762:184 1763:88 1764:80 
